svm_type c_svc
kernel_type rbf
gamma 0.09
nr_class 29
total_sv 2746
rho 0.532738 -0.076124 -0.0259622 -0.397275 -0.673003 -0.439038 -0.453238 -0.42519 0.146576 -0.213542 -0.885135 -0.358215 -0.49886 -0.108907 -0.47717 -0.673351 -0.648773 -0.47943 0.540499 -0.79066 -0.664719 -0.528183 -0.496821 -0.279483 -0.519253 -0.467007 -0.534783 0.247474 -0.235256 -0.250238 -0.624383 -0.736253 -0.439523 -1.04045 -0.777726 -0.126948 -0.417702 -1.12109 -0.913784 -1.06302 -0.32294 -0.708508 -0.988645 -0.951362 -0.484797 -0.454627 -1.01436 -0.936507 -0.745134 -1.03864 -0.449327 -0.692234 -0.699678 -0.660187 -0.0728627 -0.325026 -0.343336 -0.331963 -0.172872 -0.48185 -0.582039 0.207085 -0.47019 -0.620559 -0.310506 -0.49443 -0.0609815 -0.440599 -0.437279 -0.452968 -0.391519 0.46265 -0.48196 -0.417624 -0.203538 -0.419666 -0.237723 -0.400997 -0.190448 -0.553909 0.149454 -0.383677 -0.498102 -0.336191 -0.298256 -0.4358 0.0846414 -0.179078 -0.465689 -0.253027 -0.456892 -0.126735 -0.312334 -0.323223 -0.48499 -0.363436 0.392484 -0.435934 -0.275736 -0.361684 -0.430149 -0.146841 -0.399948 -0.215791 -0.373361 0.18817 0.15056 0.0467804 0.389997 -0.0399136 0.45561 0.251104 0.0363799 0.232607 0.0619428 0.324355 0.33957 0.13848 0.0108459 0.17814 0.80945 0.177613 0.234761 0.210382 0.231169 0.350478 0.00230472 0.169078 -0.0482913 0.550505 -0.13694 -0.0687244 -0.26796 0.427173 0.130892 -0.164978 0.288235 -0.0310458 0.271527 0.430856 0.0352487 -0.384635 0.0643034 1.70253 -0.0380165 0.171057 0.129795 0.223197 0.223875 -0.205203 -0.0108278 -0.28613 1.32853 -0.0857296 -0.117683 0.43565 0.255027 -0.264887 0.152937 -0.130867 0.322848 0.0597237 -0.0165121 -0.215345 0.0696733 0.815748 0.0377633 0.129638 0.062251 0.159821 0.168402 -0.212935 -0.0158343 -0.27335 0.668166 -0.445346 0.626749 0.315587 -0.238887 0.161617 -0.0833692 0.321764 0.351239 -0.0570027 -0.370229 0.15265 1.15288 -0.0977571 0.231827 0.0508647 0.229702 0.364345 -0.228704 0.243254 -0.309129 0.909144 0.480266 0.392325 -0.0173093 0.302073 0.301392 0.345729 0.451603 0.303363 -0.0921042 0.372495 0.793956 0.199264 0.322154 0.307388 0.505049 0.32318 -0.00403075 0.274019 -0.0853094 0.673768 -0.296038 -0.731425 -0.536037 -0.608846 -0.356861 -0.638544 -0.674935 -0.573306 -0.351305 0.263896 -0.612259 -0.473398 -0.371017 -0.527247 -0.422635 -0.545542 -0.354077 -0.591868 0.270266 -0.349511 -0.106375 -0.436486 -0.115002 -0.102983 -0.177758 -0.411801 -0.0936156 0.820247 -0.243833 -0.149874 -0.229272 -0.171471 -0.059594 -0.369972 -0.22444 -0.446905 0.587699 0.241853 0.115695 0.561206 0.644267 0.359256 -0.127769 0.211472 1.17816 0.239766 0.608077 0.184559 0.297037 0.544347 -0.0882704 0.272646 -0.113983 0.676065 -0.521573 0.200342 0.184809 -0.0352524 -0.332362 0.155339 1.04919 -0.0750555 -0.0859225 -0.00655051 0.304078 0.140315 -0.288489 0.0336935 -0.322847 0.784665 0.365925 0.230675 0.0530589 -0.204409 0.154759 0.958205 0.0453467 0.134145 0.108899 0.355639 0.491384 -0.201243 0.234701 -0.166459 0.918912 -0.276695 -0.396678 -0.552022 -0.21568 0.585868 -0.283159 -0.47845 -0.302747 -0.185188 -0.010472 -0.427679 -0.275238 -0.552279 0.423769 -0.0558982 -0.375858 -0.0879633 1.01018 -0.313044 -0.35591 -0.120209 0.134721 0.0626811 -0.255575 0.0255909 -0.362648 0.532939 -0.290419 0.349809 1.16768 -0.117375 -0.114805 0.23323 0.133759 0.291577 -0.165821 0.0407508 -0.260578 0.782856 0.486881 0.968927 0.259086 0.298797 0.415997 0.443274 0.564787 -0.0179424 0.221209 -0.0741562 0.737073 0.587052 -0.112817 0.155453 0.153152 -0.0226142 0.191365 -0.208858 0.0409726 -0.390199 0.920161 -0.999841 -1.12536 -0.870105 -1.06231 -0.773113 -0.767602 -0.550116 -0.978344 1.15333 0.543384 0.223849 0.952674 0.23427 -0.130765 0.17481 -0.377424 0.708551 0.109361 -0.058247 0.300385 -0.134985 0.197582 -0.314246 0.846531 0.0618504 0.281022 -0.158333 0.0252041 -0.332943 0.792421 0.127267 -0.355239 0.0420196 -0.349455 0.960904 -0.387483 -0.144709 -0.585777 0.573502 0.314773 -0.054402 0.576097 -0.395205 0.448384 0.780056
label 10011 10012 10051 10052 10053 10141 10142 1014657 1014658 1030 1031 1032 10401 10402 141 142 143 151 152 2 22 25 26 29 3 34 35 39 4
probA -4.87833 -4.90288 -4.32848 -4.66904 -5.35119 -4.7078 -5.47411 -4.81934 -4.70521 -4.90109 -4.63841 -4.7985 -4.62563 -5.06788 -4.87273 -4.80764 -4.90642 -4.81733 -5.16693 -4.77919 -4.89044 -5.15462 -4.74794 -4.88994 -4.62252 -4.44564 -4.67587 -4.5878 -4.83975 -4.42654 -4.60843 -5.35115 -4.76427 -5.26439 -4.72039 -4.85537 -4.77335 -4.67491 -4.69602 -4.5578 -4.88313 -4.73124 -4.74169 -4.78065 -4.76807 -5.03801 -4.71317 -4.87928 -5.05676 -4.7535 -4.86302 -4.56973 -4.44522 -4.66632 -4.70627 -4.01312 -4.50092 -5.19004 -4.64932 -5.32969 -4.73612 -4.74204 -4.58263 -4.76481 -4.65958 -4.53763 -5.00366 -4.92197 -4.86628 -4.82334 -4.77934 -4.97608 -4.80194 -4.93448 -5.09907 -4.79346 -4.87759 -4.62353 -4.62531 -4.6452 -4.5157 -4.07847 -4.75053 -4.39486 -4.86588 -4.41436 -4.57232 -4.27442 -4.36561 -4.32157 -4.14763 -4.62895 -4.5817 -4.45192 -4.46128 -4.41809 -4.55969 -4.26172 -4.47581 -4.63669 -4.31706 -4.41686 -4.33063 -4.25821 -4.28832 -3.98189 -5.02861 -4.38386 -5.03788 -4.43672 -4.70061 -4.48516 -4.51268 -4.43042 -4.21699 -4.81012 -4.77193 -4.66114 -4.47718 -4.46969 -4.98155 -4.50922 -4.6798 -4.81072 -4.63434 -4.58875 -4.27038 -4.25422 -4.30889 -4.26579 -5.00014 -5.69302 -5.13512 -5.3664 -5.02033 -5.26933 -5.05574 -4.83984 -5.42417 -5.45494 -5.40865 -5.26752 -5.05785 -5.24226 -5.20854 -5.35331 -5.55466 -5.21811 -5.34928 -5.10595 -5.00873 -5.08751 -4.8174 -5.1933 -4.57873 -4.67506 -4.53142 -4.59617 -4.48742 -4.37548 -4.896 -4.84548 -4.79634 -4.66028 -4.47321 -4.84259 -4.66044 -4.87294 -4.89238 -4.80377 -4.65633 -4.48097 -4.4039 -4.47074 -4.26412 -4.98493 -5.36595 -5.28513 -5.28788 -5.11694 -4.99526 -5.38391 -5.35195 -5.32405 -5.24504 -5.13469 -5.59947 -5.1363 -5.32341 -5.57518 -5.21381 -5.30588 -4.97527 -4.81756 -5.0553 -5.07749 -4.69673 -4.72103 -4.71386 -4.69022 -4.42271 -4.87099 -4.87511 -4.79375 -4.69633 -4.55399 -5.15577 -4.60267 -4.74382 -4.9741 -4.62151 -4.71167 -4.47474 -4.41672 -4.52239 -4.47763 -4.7677 -4.72698 -4.74279 -4.64934 -4.95519 -4.92162 -4.89315 -4.78554 -4.7626 -5.24321 -4.81638 -4.98835 -5.05573 -4.84934 -4.79768 -4.66366 -4.48222 -4.62004 -4.69563 -4.57331 -4.46863 -4.38966 -4.88013 -4.9122 -4.86668 -4.55438 -4.60911 -4.84613 -4.71145 -4.73176 -5.02593 -4.62751 -4.63008 -4.59025 -4.51018 -4.57737 -4.41946 -4.69818 -4.49454 -4.83882 -4.84727 -4.84398 -4.67356 -4.55551 -4.92716 -4.63099 -4.718 -4.97489 -4.65311 -4.67385 -4.62785 -4.41543 -4.67061 -4.425 -4.19994 -4.92877 -4.91282 -4.79977 -4.46119 -4.47636 -4.748 -4.55549 -4.77507 -4.89059 -4.62352 -4.66648 -4.4954 -4.38416 -4.5926 -4.29558 -4.7589 -4.77357 -4.61335 -4.41302 -4.37043 -4.67511 -4.38326 -4.6229 -4.79319 -4.42572 -4.45632 -4.2328 -4.17996 -4.35923 -4.13574 -4.88914 -5.07035 -4.91664 -4.97026 -5.27849 -4.60764 -4.93211 -5.2287 -4.60527 -4.99685 -4.78952 -4.72337 -4.83432 -4.81938 -4.53185 -4.94239 -4.82953 -5.27788 -4.54283 -4.81963 -5.19132 -4.73671 -4.94783 -4.78983 -4.67478 -4.85532 -4.73403 -4.79255 -4.47813 -5.0453 -4.6843 -4.86775 -4.80591 -4.63015 -4.61334 -4.76093 -4.68039 -4.6993 -4.45149 -4.47938 -5.00992 -4.59501 -4.72384 -4.74522 -4.71699 -4.61991 -4.51069 -4.47121 -4.60931 -4.40294 -4.97438 -4.47547 -4.74515 -4.33418 -4.64289 -4.5967 -4.56275 -4.41811 -4.55561 -4.32162 -5.02485 -5.18935 -5.36802 -4.96587 -5.03584 -5.02577 -4.81376 -4.95734 -4.7381 -4.33899 -5.02225 -3.98572 -4.7835 -4.59694 -4.49879 -4.64673 -4.4405 -5.21706 -4.35013 -4.84218 -4.76658 -4.6322 -4.81585 -4.62242 -5.06955 -5.05809 -4.85679 -4.78329 -4.92415 -4.6912 -4.8175 -4.6747 -4.51148 -4.69432 -4.4545 -4.61063 -4.4095 -4.6653 -4.61195 -4.07297 -4.39924 -4.3952 -4.31289 -4.31356 -4.33169
probB -0.0605964 -0.120566 -0.166219 -0.545312 0.339238 -0.350389 0.279624 -0.230859 0.022822 -0.154597 -0.153921 -0.22154 -0.455759 0.0719128 0.0434412 0.147799 -0.259052 -0.208912 0.236752 -0.162514 0.105812 0.0270238 -0.241882 0.0883881 -0.348714 -0.358522 -0.385733 -0.192477 -0.112874 0.008353 -0.589542 0.409626 -0.126547 0.362361 -0.257238 0.118857 -0.0116341 -0.0534604 -0.158165 -0.325845 0.047683 0.00640039 0.197178 -0.214028 -0.121573 0.277651 -0.0576033 0.121969 0.0957015 0.0954865 0.173873 -0.308381 -0.453092 -0.354206 0.0092153 -0.250333 -0.366364 0.409365 -0.114294 0.417591 -0.188666 0.00574047 -0.0262342 -0.0527564 -0.272511 -0.375765 0.152111 0.235179 0.170543 -0.122888 -0.137848 0.309377 -0.00597393 0.116879 0.159544 0.0694463 0.114467 -0.307178 -0.178205 -0.263143 -0.198148 -0.0951069 0.443472 -0.0360797 0.390872 -0.0279764 0.097307 0.0325525 -0.0387842 -0.192128 -0.343803 0.127334 0.140896 0.115375 -0.0875344 -0.0795106 0.383118 -0.0044784 0.137782 0.126471 0.0762781 0.0852889 -0.152847 -0.224161 -0.154906 -0.256841 0.913542 0.194439 0.845833 0.234619 0.533191 0.453972 0.397666 0.302298 0.0521173 0.585769 0.586406 0.515617 0.26856 0.291418 0.816532 0.310353 0.5197 0.621387 0.464996 0.469788 0.0716305 0.092015 0.196699 0.148975 -0.522692 -0.0939963 -0.59303 -0.303243 -0.304825 -0.516374 -0.431407 -0.561549 -0.295026 -0.0831162 -0.127382 -0.596746 -0.512988 0.0811305 -0.470217 -0.19328 -0.242356 -0.280808 -0.225489 -0.768455 -0.667456 -0.830133 -0.300788 0.53756 0.0191651 0.191608 0.0996512 0.184311 0.0803307 -0.23134 0.3474 0.259816 0.26526 -0.0149606 0.0995438 0.529752 0.0530788 0.348553 0.249507 0.225046 0.175427 -0.162601 -0.169228 -0.136114 0.0280828 -0.590479 -0.308869 -0.5128 -0.590728 -0.582398 -0.785416 -0.262627 -0.0307627 -0.113001 -0.550225 -0.490773 -0.00324053 -0.428132 -0.238045 -0.251446 -0.312918 -0.213121 -0.647221 -0.763161 -0.787988 -0.510961 0.23533 0.215468 0.092465 0.0647398 -0.181596 0.323615 0.409592 0.350824 0.0711855 0.214892 0.64434 0.172277 0.298734 0.408122 0.224604 0.191627 -0.138962 -0.0230418 -0.137634 -0.0422848 -0.102236 -0.220311 -0.208927 -0.383768 0.0403382 0.0662671 0.235003 -0.225528 -0.221498 0.323117 -0.123088 0.0804897 0.0435564 -0.061475 0.190434 -0.379006 -0.410796 -0.266637 -0.184908 -0.102613 -0.124691 -0.144784 0.16316 0.279649 0.315255 -0.153349 -0.226235 0.377306 -0.0389896 0.105291 0.286274 0.0776386 0.279498 -0.289245 -0.191123 -0.314533 0.0330795 -0.196392 -0.302204 0.195302 0.264188 0.316566 -0.127032 -0.0729638 0.367957 -0.00268614 0.118317 0.26815 0.117876 0.179989 -0.294331 -0.391873 -0.239947 -0.0456773 0.380092 0.28435 0.385487 0.307684 0.0267437 0.00536042 0.357274 0.0145243 0.249716 0.375738 0.249156 0.180451 -0.194491 -0.235382 -0.1948 0.0105931 0.45713 0.54103 0.592158 0.20195 0.239287 0.498241 0.35709 0.533277 0.543648 0.367621 0.24258 0.0443375 0.0763225 0.104786 0.136417 0.0738202 0.0215258 -0.277836 -0.304992 0.178088 -0.209181 -0.00615522 0.00212106 -0.0583635 -0.069527 -0.485615 -0.472781 -0.444702 -0.299731 0.182713 -0.386543 -0.397492 0.0945161 -0.190025 -0.112891 -0.0830214 0.0485945 -0.0392536 -0.483688 -0.333146 -0.514293 -0.267703 -0.268916 -0.603839 0.00218959 -0.320942 -0.209448 -0.204937 -0.276838 0.165818 -0.448268 -0.50775 -0.345138 -0.409037 0.0411519 0.531109 0.0104729 0.28094 0.327984 0.215725 0.121293 -0.18021 -0.166715 -0.185085 -0.10027 0.406692 0.0091935 0.302854 0.0118124 0.0717889 0.0760086 -0.22213 -0.209073 -0.13969 0.0219316 -0.328959 -0.0651988 -0.18575 -0.238666 -0.148858 -0.714476 -0.803935 -0.642137 0.427648 0.0687581 0.260061 0.136236 -0.0147178 -0.295306 -0.259218 -0.191473 0.0934799 0.0283138 0.0595243 -0.0415917 -0.442139 -0.478005 -0.484344 -0.144398 -0.162081 -0.141475 -0.558134 -0.552916 -0.493136 -0.129494 0.0481723 -0.384007 -0.439095 -0.286083 0.139009 -0.381983 -0.541594 -0.430409 -0.10489 -0.186146 0.0480752 0.0827542 0.164452 0.216594 0.0516364
nr_sv 137 130 67 46 27 217 52 191 46 104 97 82 110 76 118 124 63 68 84 240 90 131 100 111 73 12 54 40 56
SV
0 0 0.1942023583641617 0 0 0 0 0 0 0 0 0 0 0.09589137867129365 0 0 0 0 0 0 0 0 0 0 0 0 0 0 1:0.43388653 2:0.61854792 3:0.59446096 4:0.42122099 5:0.62954873 6:0.34253398 7:0.55588162 8:0.52634335 9:0.59271872 10:0.44070745 11:0.56144774 12:0.44486812 13:0.53071618 14:0.48393741 15:0.66157341 16:0.22470263 17:0.27789581 18:0.42807579 19:0.3959232 20:0.46305931 21:0.61215776 22:0.47083586 23:0.60729897 24:0.70462704 25:0.32949382 26:0.50867456 27:0.48678941 28:0.74284929 29:0.41523513 30:0.75110221 31:0.60994405 32:0.2664482 33:0.55015975 34:0.46220815 35:0.62379324 36:0.40606573 37:0.57406193 38:0.51330334 39:0.53569186 40:0.32561851 41:0.46572077 42:0.31854838 43:0.55614603 44:0.27506009 45:0.4392187 46:0.47182783 47:0.77599895 48:0.31287646 49:0.83207577 50:0.4222503 51:0.64177173 52:0.71671408 53:0.37443647 54:0.60937577 55:0.25133008 56:0.86824113 57:0.49916425 58:0.7540074 59:0.52750796 60:0.69859004 61:0.60274971 62:0.74281168 63:0.58508307 64:0.2027958 65:0.54407471 66:0.30948833 67:0.7800228 68:0.68009108 69:0.32390568 70:0.46964175 71:0.62039769 72:0.76657838 73:0.29300749 74:0.60662735 75:0.26408252 
0 0 0 0 0 0 0 0 2.113201601211449 0.06845222380827932 0 0 0 0.5271411765189887 2.08324022036229 0 0 0 0 0 0 0 0 2.65372400619861 0 0.5519776492289954 0 0 1:0.4400081 2:0.43345919 3:0.50026298 4:0.25400692 5:0.55955553 6:0.23392229 7:0.6382845 8:0.4702228 9:0.49536759 10:0.28900668 11:0.67407632 12:0.32123607 13:0.37271684 14:0.67491466 15:0.56517476 16:0.5947389 17:0.57018298 18:0.38825235 19:0.46985358 20:0.48421165 21:0.65889668 22:0.3103351 23:0.5585171 24:0.60450917 25:0.47864047 26:0.45920891 27:0.53336424 28:0.31043178 29:0.46668413 30:0.2484946 31:0.70325309 32:0.42251942 33:0.78746003 34:0.32764876 35:0.16472812 36:0.43478212 37:0.58926642 38:0.57195503 39:0.49358219 40:0.57993895 41:0.32075131 42:0.41204312 43:0.75349826 44:0.39174527 45:0.83668512 46:0.55013645 47:0.51645941 48:0.66268551 49:0.68129569 50:0.47520709 51:0.65567452 52:0.55596602 53:0.35272372 54:0.71905309 55:0.56567091 56:0.62699717 57:0.68942505 58:0.26723248 59:0.48035559 60:0.51679337 61:0.62004268 62:0.28151339 63:0.58794481 64:0.55452687 65:0.65471572 66:0.33465427 67:0.62617904 68:0.64395189 69:0.42425868 70:0.46195093 71:0.72157323 72:0.5592168 73:0.39127606 74:0.415961 75:0.28930479 
0 0 0 0 0 0 0 0 0 0 0 0 0 0 0 0 0 0 0 1.687232624684398 0 0 0.2850557171868875 0 0 0 0 0 1:0.45891342 2:0.44086257 3:0.64790869 4:0.46165782 5:0.38033703 6:0.65711534 7:0.62472421 8:0.38519585 9:0.42003313 10:0.32955289 11:0.85938025 12:0.21799536 13:0.45770386 14:0.70259029 15:0.56113583 16:0.58519709 17:0.42309749 18:0.52779514 19:0.46042252 20:0.62730461 21:0.43171671 22:0.70940226 23:0.46649456 24:0.68391883 25:0.69745207 26:0.47369757 27:0.59159136 28:0.66607738 29:0.44541082 30:0.61523819 31:0.72575074 32:0.43415275 33:0.55442059 34:0.59467983 35:0.44595614 36:0.57160097 37:0.59512925 38:0.50107026 39:0.33461761 40:0.57968068 41:0.4525854 42:0.54653764 43:0.5522967 44:0.60866648 45:0.60731667 46:0.38615799 47:0.74321014 48:0.47096321 49:0.78988421 50:0.58829445 51:0.80080211 52:0.61939919 53:0.45489588 54:0.7153846 55:0.34845358 56:0.93637615 57:0.64123374 58:0.39228562 59:0.67951208 60:0.67160356 61:0.47794166 62:0.47087324 63:0.72730893 64:0.29224941 65:0.39981371 66:0.52582622 67:0.69216603 68:0.65794027 69:0.42957148 70:0.46434903 71:0.71216786 72:0.69394237 73:0.3399035 74:0.51568091 75:0.25317463 
0 0 0 0 0 0 0 0 0 0 0 0 0 0 0 0 0 0 0 0 0 0 0.2625211026435065 0 0 0 0 0 1:0.27434927 2:0.29690075 3:0.52631712 4:0.26751441 5:0.57028168 6:0.31987464 7:0.71379375 8:0.44246095 9:0.66599679 10:0.39176551 11:0.81537521 12:0.26152453 13:0.56614429 14:0.58231205 15:0.31741327 16:0.54317057 17:0.3544879 18:0.41345248 19:0.47637326 20:0.40974542 21:0.67002583 22:0.51789701 23:0.45024785 24:0.53162986 25:0.66071856 26:0.53489339 27:0.57414258 28:0.54115158 29:0.48528206 30:0.53949773 31:0.66087878 32:0.49804202 33:0.60360295 34:0.4959332 35:0.43179783 36:0.51752013 37:0.52411824 38:0.53657889 39:0.39091143 40:0.64234179 41:0.5136807 42:0.44307858 43:0.58270985 44:0.48535398 45:0.72806126 46:0.50834209 47:0.6624105 48:0.56493849 49:0.72833359 50:0.40978307 51:0.68805939 52:0.50120753 53:0.44358429 54:0.5828734 55:0.37011552 56:0.83174056 57:0.62475348 58:0.46598616 59:0.39821172 60:0.69072133 61:0.58887106 62:0.44121471 63:0.75275427 64:0.39423081 65:0.38365033 66:0.36445695 67:0.69642419 68:0.52203822 69:0.39320552 70:0.52479845 71:0.72833353 72:0.75101537 73:0.27066788 74:0.58863997 75:0.21496008 
0 0 0 0 0.2180957596211781 0 0 0 0 0 0 0 0 0 0 0 0 0 0 0 0 0 0.3703553190438432 0 0 0 0 0 1:0.55994034 2:0.43489882 3:0.51169652 4:0.39756712 5:0.44069123 6:0.53285724 7:0.28754967 8:0.61818439 9:0.6119718 10:0.32957241 11:0.78602725 12:0.37444004 13:0.63569421 14:0.36190766 15:0.45293608 16:0.73052448 17:0.3970241 18:0.5672363 19:0.25128159 20:0.6310842 21:0.33773506 22:0.69375908 23:0.54221761 24:0.67037743 25:0.6192953 26:0.50736505 27:0.59561354 28:0.70427114 29:0.45677677 30:0.50156552 31:0.72486156 32:0.42554078 33:0.61010396 34:0.40450788 35:0.39013067 36:0.57179374 37:0.59183395 38:0.47388968 39:0.53002673 40:0.79929668 41:0.46882886 42:0.54479009 43:0.61350137 44:0.53846991 45:0.65139496 46:0.55471945 47:0.58407962 48:0.61590457 49:0.74963921 50:0.57384509 51:0.83827543 52:0.50319147 53:0.50338185 54:0.7346558 55:0.62295717 56:0.75987381 57:0.6469506 58:0.30860177 59:0.54267138 60:0.52001935 61:0.73559684 62:0.37138057 63:0.83745003 64:0.41279349 65:0.48573315 66:0.39246956 67:0.69581145 68:0.65288574 69:0.513538 70:0.47708216 71:0.81625825 72:0.54526711 73:0.48896003 74:0.43331859 75:0.37714496 
0.5722410991379648 0 0 0 1.862827305813126 0 0.5872916773224356 0 1.228772066927687 0 0 0 0 0 1.707908949123349 0 0.100232927400346 0 0 2.801505349712571 0.4080978670366961 0 0.05087130888162386 0 0 0 0 0 1:0.51147979 2:0.63122338 3:0.35709187 4:0.49552166 5:0.47353649 6:0.34792525 7:0.54676586 8:0.74100167 9:0.42750612 10:0.52973741 11:0.77012157 12:0.56614369 13:0.61790264 14:0.27804181 15:0.72087914 16:0.36748526 17:0.46453798 18:0.63234633 19:0.4175576 20:0.56402642 21:0.53782427 22:0.52519548 23:0.30561689 24:0.41405991 25:0.43641219 26:0.40565705 27:0.56544757 28:0.69075745 29:0.76183265 30:0.62076062 31:0.74912852 32:0.590666 33:0.45827898 34:0.18097903 35:0.48900667 36:0.5749101 37:0.82086492 38:0.48633835 39:0.37565339 40:0.44537196 41:0.41621855 42:0.64910316 43:0.48902264 44:0.60547429 45:0.58691865 46:0.46360263 47:0.66417551 48:0.60388923 49:0.79026693 50:0.48359779 51:0.81323129 52:0.65162718 53:0.36184916 54:0.71764135 55:0.5088318 56:0.72073078 57:0.54287148 58:0.34785873 59:0.65265417 60:0.61626369 61:0.69207454 62:0.41027769 63:0.74292499 64:0.44220933 65:0.53326285 66:0.33120167 67:0.74219519 68:0.66408706 69:0.55732703 70:0.44468206 71:0.75117469 72:0.45260006 73:0.47369522 74:0.49489775 75:0.39384431 
0 0 0 0 0 0 0 0 0.1793316823066237 0.1016413417105282 0 0 0 0 0 0 0.2363256777416045 0 0 0 0 0 0 0 0 0 0 0 1:0.61111057 2:0.74862367 3:0.61140001 4:0.49918559 5:0.45795709 6:0.37571242 7:0.48113874 8:0.56577849 9:0.51392382 10:0.53211761 11:0.82562923 12:0.43175399 13:0.45965031 14:0.69755852 15:0.5777356 16:0.32498804 17:0.30757207 18:0.53131741 19:0.22584948 20:0.55843842 21:0.35114968 22:0.74761844 23:0.449462 24:0.59126097 25:0.41186073 26:0.4891054 27:0.64108533 28:0.61296171 29:0.76177847 30:0.40530825 31:0.82274503 32:0.57877004 33:0.5170837 34:0.11488264 35:0.54891348 36:0.44918373 37:0.65362984 38:0.43213582 39:0.38689479 40:0.57352626 41:0.43234962 42:0.55756271 43:0.56918812 44:0.51058739 45:0.50704026 46:0.3269299 47:0.70262867 48:0.54393899 49:0.77214277 50:0.48176324 51:0.7368111 52:0.75985217 53:0.44220456 54:0.71106803 55:0.43472251 56:0.79024577 57:0.48853394 58:0.26673642 59:0.76712084 60:0.6119954 61:0.69170296 62:0.36089307 63:0.74929708 64:0.28435034 65:0.53630203 66:0.48691258 67:0.6880036 68:0.78989148 69:0.59730327 70:0.50583184 71:0.6737408 72:0.67133713 73:0.29919624 74:0.45173204 75:0.2834236 
0 0 0 0 0 0 0 0 0 0.01482259284798424 0 0 0 0 0 0 0 0 0 0 0 0 0 0 0.7693080319136751 1.149512619699452 0 0 1:0.62579918 2:0.3816976 3:0.44746879 4:0.41656712 5:0.57065368 6:0.64432108 7:0.39720488 8:0.53170645 9:0.41793346 10:0.56131238 11:0.61434227 12:0.23644248 13:0.32059309 14:0.48632696 15:0.66432583 16:0.38930291 17:0.73721147 18:0.38437471 19:0.1992863 20:0.58129829 21:0.46792644 22:0.69040328 23:0.56457329 24:0.51337075 25:0.50936955 26:0.59441841 27:0.60610288 28:0.56351507 29:0.60460585 30:0.22877702 31:0.74750376 32:0.57377177 33:0.74639291 34:0.33631808 35:0.38364759 36:0.5035845 37:0.77277195 38:0.53661156 39:0.64079237 40:0.59957826 41:0.38214961 42:0.67536336 43:0.56401628 44:0.36277616 45:0.49390233 46:0.50465 47:0.44708228 48:0.66636032 49:0.78762335 50:0.48695663 51:0.53303206 52:0.62370068 53:0.50707978 54:0.76792854 55:0.47846851 56:0.6575647 57:0.67624789 58:0.27736115 59:0.66668463 60:0.74561971 61:0.6821987 62:0.45021284 63:0.69848877 64:0.26254088 65:0.66144544 66:0.46328601 67:0.71109343 68:0.70567095 69:0.50797707 70:0.45730388 71:0.6838491 72:0.72198713 73:0.35235855 74:0.5097239 75:0.25636238 
0 0.07075496398008879 0 0.1827864087561145 0.4160412056011282 0.4721193836414969 0 0 0 0.8254817449842412 0 0 0 0.9218093865093333 0 0 0 0 0 0 0 0 0 0.3881970327543351 0 0 0 0.6514252170166541 1:0.57504523 2:0.48554397 3:0.38274857 4:0.26623416 5:0.49002129 6:0.53908002 7:0.45938945 8:0.52645826 9:0.6563462 10:0.41218811 11:0.67304826 12:0.28585187 13:0.14818288 14:0.48014382 15:0.50170934 16:0.22272269 17:0.49978256 18:0.43949747 19:0.32704106 20:0.5355891 21:0.34884772 22:0.58941305 23:0.50692868 24:0.6955564 25:0.68800151 26:0.55028504 27:0.69520825 28:0.91572434 29:0.54367769 30:0.48933741 31:0.71278363 32:0.58660567 33:0.72606337 34:0.41363022 35:0.4642252 36:0.59205347 37:0.65746737 38:0.56498724 39:0.45651689 40:0.47727925 41:0.35261419 42:0.64092231 43:0.5357092 44:0.39075464 45:0.55308133 46:0.56655872 47:0.6263693 48:0.48388946 49:0.73110515 50:0.48910302 51:0.65907109 52:0.61938131 53:0.47761852 54:0.77289224 55:0.52562648 56:0.7644279 57:0.68289697 58:0.33062693 59:0.66568553 60:0.6975984 61:0.56290478 62:0.49668863 63:0.7603178 64:0.33915019 65:0.49496377 66:0.47182497 67:0.69730818 68:0.66542244 69:0.49765173 70:0.43241593 71:0.68587172 72:0.75712651 73:0.29413089 74:0.61215973 75:0.31677508 
0 0 0 0 0 0 0 0 0 1.260985237938515 0 0 0 0 0 1.619703827217677 0.001620359165528721 0 0 0 0.2626678227710765 0.4464991918086911 0.6912284739009813 0.6138186826129792 0 0 0 0.00772804618193908 1:0.65033895 2:0.57463872 3:0.45573089 4:0.25332889 5:0.54429704 6:0.24308573 7:0.79747427 8:0.71625984 9:0.50682741 10:0.42122835 11:0.82374692 12:0.20680593 13:0.59014517 14:0.67803556 15:0.39892229 16:0.52435172 17:0.54208744 18:0.35528967 19:0.42284745 20:0.50515294 21:0.7058298 22:0.78846788 23:0.35478342 24:0.61134398 25:0.38375762 26:0.29574901 27:0.3309578 28:0.4693884 29:0.73487657 30:0.47406369 31:0.6586147 32:0.47607729 33:0.46329141 34:0.23741859 35:0.66624475 36:0.3808015 37:0.78882283 38:0.43756276 39:0.56586605 40:0.77224636 41:0.43224767 42:0.52385467 43:0.5305748 44:0.60563439 45:0.50447369 46:0.43957087 47:0.75208068 48:0.69217432 49:0.69522566 50:0.48137036 51:0.71956116 52:0.72396505 53:0.38697845 54:0.62148237 55:0.32344693 56:0.76813596 57:0.63098437 58:0.45682555 59:0.50898784 60:0.79208547 61:0.69789696 62:0.26227072 63:0.73322135 64:0.36347213 65:0.40300515 66:0.32609692 67:0.70055246 68:0.74596268 69:0.39449582 70:0.47555497 71:0.62974173 72:0.65902239 73:0.23891549 74:0.53706962 75:0.25393975 
0 0 0 0 0.2122681952598889 0 0.4218783465458854 0 0 0 0.07361633412535697 0 0 1.347848906884125 0 0 0 0 0 0 0 0 0.8119651401424068 0 0 0 0 0 1:0.52294964 2:0.41019556 3:0.52056026 4:0.20019801 5:0.59869462 6:0.32585201 7:0.58513755 8:0.44841012 9:0.49403751 10:0.4419556 11:0.5656901 12:0.36017212 13:0.58727425 14:0.50855124 15:0.46687126 16:0.58669686 17:0.81752598 18:0.39312461 19:0.2574316 20:0.59748107 21:0.52781892 22:0.45582762 23:0.63211977 24:0.40078712 25:0.73674363 26:0.52545446 27:0.51491022 28:0.40072924 29:0.41997036 30:0.44637525 31:0.59684592 32:0.45440367 33:0.57444596 34:0.21518026 35:0.57853997 36:0.51995718 37:0.55088437 38:0.49781644 39:0.59093189 40:0.46246877 41:0.42112631 42:0.47091141 43:0.62961173 44:0.52433485 45:0.64975375 46:0.70389122 47:0.91843486 48:0.44053373 49:0.64721787 50:0.46645337 51:0.7920531 52:0.4535799 53:0.47453925 54:0.63034207 55:0.43410653 56:0.76033264 57:0.54050863 58:0.57237464 59:0.58900851 60:0.68909252 61:0.59324783 62:0.53333181 63:0.59899074 64:0.2910445 65:0.66066563 66:0.36422756 67:0.65656155 68:0.65777731 69:0.442779 70:0.44168547 71:0.74337363 72:0.7324152 73:0.46565536 74:0.49018365 75:0.27346063 
0 0 1.040242065411691 0 0 0 0 0 0 0 0 0 0 0 0 0 0 0 0 0 0 0 0 0 0 0 0 0 1:0.20212662 2:0.55118459 3:0.41485822 4:0.21408705 5:0.45895833 6:0.23832379 7:0.66871023 8:0.38418749 9:0.58661765 10:0.31495768 11:0.78788269 12:0.28333676 13:0.67176604 14:0.35951015 15:0.39594686 16:0.65343785 17:0.4310548 18:0.41991791 19:0.41995254 20:0.51998794 21:0.59762317 22:0.77946377 23:0.40181893 24:0.53580624 25:0.66068763 26:0.45886233 27:0.46986017 28:0.71858859 29:0.34352395 30:0.45011255 31:0.57942688 32:0.55304551 33:0.69701546 34:0.46551362 35:0.41735506 36:0.48281816 37:0.39021686 38:0.51377654 39:0.44840628 40:0.66582024 41:0.36043715 42:0.64833975 43:0.61541986 44:0.58651602 45:0.72255856 46:0.55470502 47:0.86189258 48:0.45997551 49:0.75324148 50:0.46999955 51:0.88772589 52:0.42345947 53:0.50537872 54:0.67274773 55:0.52343631 56:0.86908782 57:0.6613996 58:0.37760684 59:0.46188614 60:0.57535118 61:0.57964081 62:0.4170303 63:0.81923401 64:0.49103567 65:0.34699589 66:0.44457117 67:0.69480342 68:0.49099201 69:0.45439202 70:0.43179801 71:0.90000129 72:0.60396945 73:0.43096229 74:0.53444946 75:0.32567367 
0 0 0 0 0 0 0 0 0 0 0 0 0 0 0 0 0 0 0 0 0 0 0 0 0 0 0.4903542760723705 0 1:0.63527441 2:0.45098794 3:0.27256119 4:0.42629656 5:0.52311158 6:0.42390633 7:0.47432163 8:0.473517 9:0.5315541 10:0.32988659 11:0.42999929 12:0.61174095 13:0.51074326 14:0.44373876 15:0.4807401 16:0.56717789 17:0.55162984 18:0.31959102 19:0.49754512 20:0.42769989 21:0.63125527 22:0.50570178 23:0.42193758 24:0.53786445 25:0.53861147 26:0.64939857 27:0.40804234 28:0.46367618 29:0.40521449 30:0.50230086 31:0.69157046 32:0.63767874 33:0.51194537 34:0.46188971 35:0.39009356 36:0.54423267 37:0.4659586 38:0.57238555 39:0.36894774 40:0.44799474 41:0.52980328 42:0.75132465 43:0.38583875 44:0.3881706 45:0.25475803 46:0.71759236 47:0.67361724 48:0.52240825 49:0.51986784 50:0.33732352 51:0.66882682 52:0.67358446 53:0.41115859 54:0.47961599 55:0.38898489 56:0.62301892 57:0.44559485 58:0.54153341 59:0.45668975 60:0.73738438 61:0.46175978 62:0.56656712 63:0.65383488 64:0.41570392 65:0.49297696 66:0.39015114 67:0.80561709 68:0.7089588 69:0.49675196 70:0.43524337 71:0.9019748 72:0.67503583 73:0.52047032 74:0.41034046 75:0.43170807 
0 0 0 0 0 0 0 0 0 1.164293840546937 0 0 0 0 0 0 0 0 0 0 0 0 0 0 0 0 0 0 1:0.45152307 2:0.41941789 3:0.57167619 4:0.36765519 5:0.61142784 6:0.55931234 7:0.43513209 8:0.44950101 9:0.49396092 10:0.42160279 11:0.66079438 12:0.67078525 13:0.32361826 14:0.44133186 15:0.67384881 16:0.51573116 17:0.65830851 18:0.41267568 19:0.77486354 20:0.53253394 21:0.80331552 22:0.15161119 23:0.64051092 24:0.40020448 25:0.63927925 26:0.57024819 27:0.3733508 28:0.47926444 29:0.433979 30:0.34310448 31:0.65766376 32:0.47416568 33:0.36508691 34:0.41932479 35:0.28118148 36:0.32227516 37:0.62466836 38:0.49613613 39:0.31668791 40:0.71493387 41:0.60622382 42:0.58393174 43:0.50019169 44:0.41053131 45:0.62582046 46:0.50058556 47:0.41855514 48:0.73960876 49:0.57865369 50:0.57558018 51:0.6721639 52:0.63480604 53:0.44450858 54:0.69561356 55:0.55921155 56:0.66588014 57:0.45712769 58:0.41112813 59:0.4335286 60:0.60036397 61:0.61827707 62:0.5138216 63:0.55255502 64:0.59029341 65:0.70075411 66:0.5999223 67:0.74591458 68:0.76111525 69:0.5794735 70:0.52249819 71:0.9065944 72:0.56476808 73:0.52108687 74:0.35356924 75:0.407722 
0 0 0 0.182764095037055 0 0 0 0 0 0 0 0 0 0 0 0 0 0 0 0 0 0 0 0 0 0 0 0.2444207162701387 1:0.66582841 2:0.7286061 3:0.67628086 4:0.87795782 5:0.71982956 6:0.48749274 7:0.30308574 8:0.34853378 9:0.43040296 10:0.65450823 11:0.88783962 12:0.71015859 13:0.44643185 14:0.46376166 15:0.54217392 16:0.50277311 17:0.28910896 18:0.46563882 19:0.46834937 20:0.54784513 21:0.55182433 22:0.28379679 23:0.3361477 24:0.23336378 25:0.66641957 26:0.38660514 27:0.42098823 28:0.27498546 29:0.69538891 30:0.6670863 31:0.5006358 32:0.32244527 33:0.18177806 34:0.35426414 35:0.67484456 36:0.50859123 37:0.53911728 38:0.31632283 39:0.31582066 40:0.55863059 41:0.50424147 42:0.74285656 43:0.44950864 44:0.51221067 45:0.64731461 46:0.56623816 47:0.36239159 48:0.56583887 49:0.35064405 50:0.70458853 51:0.71747231 52:0.58952767 53:0.31530806 54:0.46776822 55:0.40522873 56:0.66265982 57:0.59417379 58:0.42916387 59:0.50380671 60:0.60457736 61:0.57532328 62:0.39985356 63:0.82579511 64:0.41066369 65:0.57129544 66:0.5379554 67:0.66676468 68:0.62661976 69:0.517142 70:0.47274032 71:0.84619886 72:0.5144372 73:0.51068687 74:0.41286165 75:0.40750593 
1.01683476203173 0 0 0 0 0 0 0 0 0 0 0 0.2115187562580872 0 0 0 0.2149478586241232 0 0 0 0 0 0 0 0 2.864210679164699 0 0 1:0.53571957 2:0.66481537 3:0.50579602 4:0.80081987 5:0.43072677 6:0.33559707 7:0.43702421 8:0.37445039 9:0.35374743 10:0.4658792 11:0.88878763 12:0.77612728 13:0.63770932 14:0.56228215 15:0.70161068 16:0.4781571 17:0.5120309 18:0.53920829 19:0.72007126 20:0.6839478 21:0.79163545 22:0.3124088 23:0.59604299 24:0.14210124 25:0.47516268 26:0.62412459 27:0.47677937 28:0.44957325 29:0.494634 30:0.17327014 31:0.45724595 32:0.40668958 33:0.39013481 34:0.30925825 35:0.21407372 36:0.58580959 37:0.57968861 38:0.50177109 39:0.45054561 40:0.79413766 41:0.59150809 42:0.71745747 43:0.50262791 44:0.31524786 45:0.65273494 46:0.38711116 47:0.1752644 48:0.56438005 49:0.41179323 50:0.61884481 51:0.61433232 52:0.65022582 53:0.48141739 54:0.528301 55:0.57627285 56:0.67797518 57:0.38577235 58:0.3745127 59:0.18433321 60:0.55002952 61:0.64847934 62:0.42781255 63:0.43017721 64:0.65955019 65:0.73960257 66:0.52891463 67:0.67701256 68:0.70470035 69:0.52714652 70:0.49874783 71:0.8060261 72:0.60217047 73:0.56344283 74:0.40355831 75:0.39530694 
0 0 0 0 0 0 0 0 0 0 0 0 0 0 0 0 0 0 0 0 0 0 1.274282990600757 0 0 0 0 0 1:0.60510767 2:0.43263566 3:0.52436036 4:0.50520223 5:0.77557492 6:0.59539139 7:0.61769569 8:0.58798176 9:0.48195192 10:0.39294544 11:0.50622916 12:0.66444212 13:0.45586598 14:0.28384048 15:0.25602585 16:0.84504759 17:0.49400091 18:0.46106938 19:0.56882983 20:0.52564299 21:0.68110931 22:0.56617403 23:0.5715788 24:0.4683657 25:0.56150585 26:0.62725997 27:0.38097045 28:0.50574464 29:0.38103256 30:0.41316012 31:0.65481216 32:0.60448307 33:0.38414744 34:0.63536662 35:0.34468755 36:0.46572924 37:0.55612475 38:0.52037567 39:0.25766993 40:0.7581867 41:0.50905663 42:0.69237077 43:0.377435 44:0.4864378 45:0.33964694 46:0.63426167 47:0.55784369 48:0.50939697 49:0.5795632 50:0.43294555 51:0.67464757 52:0.6040557 53:0.38971204 54:0.53639692 55:0.51167542 56:0.70973849 57:0.53999132 58:0.4416903 59:0.51793283 60:0.71690589 61:0.41307101 62:0.52597064 63:0.82231599 64:0.49186924 65:0.5171268 66:0.56939542 67:0.71245718 68:0.68553102 69:0.51239592 70:0.46903142 71:0.92391866 72:0.65597463 73:0.4769749 74:0.40711784 75:0.38299006 
0 0 0 0 0 0 0 0 0 0 0 0 0 0 0 0 0 0 0 0 0 0 0 0 0 0 0.6847776300306304 0 1:0.49943843 2:0.48445931 3:0.32425547 4:0.35602295 5:0.53836262 6:0.29563403 7:0.64588094 8:0.6314941 9:0.47529241 10:0.41429371 11:0.59475052 12:0.64904195 13:0.68913943 14:0.78770781 15:0.69555151 16:0.29750231 17:0.26525196 18:0.23789068 19:0.45996633 20:0.66942149 21:0.69143492 22:0.47315571 23:0.64759201 24:0.59362191 25:0.40048161 26:0.59878463 27:0.74562836 28:0.48984143 29:0.19851102 30:0.51108134 31:0.45271438 32:0.45004356 33:0.54542071 34:0.65247244 35:0.54801023 36:0.21424612 37:0.32380044 38:0.54618239 39:0.32327971 40:0.51108932 41:0.63048047 42:0.44674492 43:0.42175958 44:0.30413353 45:0.14056434 46:0.54499125 47:0.56947255 48:0.42075843 49:0.33460122 50:0.46054292 51:0.62522441 52:0.6317023 53:0.46359745 54:0.38507727 55:0.41940129 56:0.77577698 57:0.41197336 58:0.71540612 59:0.15265164 60:0.66704881 61:0.52930498 62:0.58806831 63:0.4532958 64:0.41221544 65:0.36496091 66:0.34842461 67:0.78671223 68:0.53647447 69:0.35351798 70:0.48723114 71:0.85581571 72:0.79895419 73:0.32239613 74:0.5513339 75:0.42156541 
0 0.4395918747843691 0 0 0 0 0 0 0 0 0 0 0 0 0 0 0 0 0 0 0 0 0 0 0 0 0 0 1:0.66133088 2:0.36173975 3:0.53659832 4:0.51560444 5:0.2969304 6:0.50268638 7:0.52640378 8:0.27175531 9:0.49173212 10:0.39616176 11:0.65936881 12:0.46774307 13:0.36428282 14:0.8237837 15:0.25740167 16:0.67596 17:0.45505568 18:0.37033194 19:0.32631245 20:0.65694684 21:0.44864136 22:0.3940118 23:0.59332937 24:0.40608782 25:0.71714163 26:0.70830691 27:0.59630102 28:0.66325319 29:0.27081305 30:0.45778209 31:0.47918138 32:0.65744066 33:0.67839074 34:0.63634306 35:0.34685671 36:0.42342496 37:0.44233316 38:0.55746317 39:0.30844995 40:0.42542845 41:0.39454287 42:0.50453031 43:0.55207747 44:0.45533359 45:0.33379373 46:0.47838938 47:0.70148122 48:0.50701857 49:0.42482838 50:0.47772044 51:0.63693976 52:0.78001386 53:0.46761543 54:0.56790322 55:0.46746299 56:0.70942229 57:0.62151152 58:0.52965194 59:0.49517399 60:0.73214585 61:0.41632116 62:0.47084406 63:0.63393497 64:0.41951567 65:0.38852239 66:0.64047402 67:0.68190044 68:0.5914768 69:0.46142122 70:0.48215887 71:0.85755581 72:0.76756233 73:0.49175686 74:0.4590826 75:0.41071892 
0 0 0 0 0 0 0 0 0 0 0 0 0 0 1.698568010994319 0 0 0 0.4742704789754306 0 0 0 0.1448182959385061 0.5711370676662454 0 0 0 0 1:0.57821083 2:0.57303655 3:0.58192986 4:0.74881029 5:0.56767422 6:0.44906166 7:0.58902037 8:0.52455467 9:0.36451262 10:0.50755769 11:0.20172867 12:0.72814465 13:0.44537747 14:0.69678766 15:0.22254664 16:0.47467241 17:0.31460911 18:0.39945716 19:0.3463901 20:0.29253399 21:0.49269289 22:0.50374764 23:0.39784098 24:0.40070251 25:0.67795581 26:0.63915968 27:0.69135547 28:0.51574224 29:0.42075551 30:0.28719413 31:0.62437487 32:0.48606369 33:0.50472379 34:0.52034485 35:0.24398653 36:0.57190788 37:0.49359348 38:0.5293833 39:0.080257155 40:0.52558774 41:0.47998977 42:0.55697143 43:0.61316216 44:0.41960648 45:0.40647787 46:0.52929246 47:0.55812442 48:0.55612814 49:0.36171517 50:0.41494563 51:0.50498754 52:0.79453248 53:0.39623383 54:0.50300074 55:0.50419104 56:0.60533315 57:0.51523346 58:0.42288679 59:0.47510436 60:0.63471997 61:0.42300394 62:0.37913856 63:0.76817882 64:0.37033832 65:0.47522625 66:0.59027374 67:0.62458003 68:0.56936347 69:0.5493136 70:0.51194686 71:0.85230505 72:0.58885652 73:0.47471616 74:0.3277249 75:0.38265613 
0.371411614271663 0.2763754643662938 0 0 0 0 0.554968083638836 0 0.3408709722317689 0 0 0 0 0 0 0 0 0 0 0 0 0 0 0 0.5901447483885978 0.01580578062477557 0.5146005713376164 0 1:0.43855345 2:0.68275815 3:0.40101561 4:0.87857896 5:0.52113545 6:0.38523448 7:0.34920231 8:0.50595731 9:0.41461277 10:0.23413233 11:0.7840184 12:0.69523537 13:0.33659005 14:0.51708817 15:0.31902584 16:0.51370019 17:0.33747795 18:0.5311619 19:0.46231294 20:0.50972319 21:0.48667336 22:0.27346334 23:0.51023698 24:0.48360673 25:0.63930011 26:0.75116169 27:0.41070795 28:0.44169024 29:0.35452479 30:0.21692154 31:0.50024599 32:0.49762499 33:0.23706542 34:0.36500871 35:0.27348897 36:0.35335186 37:0.32203072 38:0.55027944 39:0.33771834 40:0.63084489 41:0.69223148 42:0.70062244 43:0.50876576 44:0.26731199 45:0.6344918 46:0.60484511 47:0.41236839 48:0.51409662 49:0.46393415 50:0.44494411 51:0.61697507 52:0.65019399 53:0.40006173 54:0.51144242 55:0.58927912 56:0.69436258 57:0.33403561 58:0.41430396 59:0.43476814 60:0.64731091 61:0.567083 62:0.56744486 63:0.55151975 64:0.62797624 65:0.67724174 66:0.52809256 67:0.81690508 68:0.73357797 69:0.59751105 70:0.48129633 71:0.92123216 72:0.5689649 73:0.53473663 74:0.42232189 75:0.43563312 
0 0 0 0 0 0 0 0 0 0 0.3794302793856071 0 0 0 0 0 0 0 0 0 0 0 0 0 0 0 0 0 1:0.31961828 2:0.52008778 3:0.43079782 4:0.48911223 5:0.68777394 6:0.53190595 7:0.78500432 8:0.52533859 9:0.50004274 10:0.3157323 11:0.65226978 12:0.46989474 13:0.53440315 14:0.58143234 15:0.40652034 16:0.49229473 17:0.31583247 18:0.61127722 19:0.61629266 20:0.44296274 21:0.71611869 22:0.7335673 23:0.41759273 24:0.62678701 25:0.6518122 26:0.50049806 27:0.54977089 28:0.57806396 29:0.43237868 30:0.47991836 31:0.58060718 32:0.35387459 33:0.31405178 34:0.6908139 35:0.57360876 36:0.37727904 37:0.45113331 38:0.56174093 39:0.24139379 40:0.62704229 41:0.50905538 42:0.62416589 43:0.41281143 44:0.53830159 45:0.534594 46:0.51009691 47:0.65902466 48:0.34803462 49:0.57412529 50:0.40570763 51:0.82483763 52:0.56765199 53:0.4946326 54:0.52551079 55:0.39885035 56:0.86001891 57:0.51711679 58:0.49692389 59:0.40969121 60:0.6879493 61:0.44151098 62:0.66172808 63:0.74409485 64:0.51870853 65:0.35842922 66:0.55823463 67:0.73006868 68:0.55838144 69:0.46098548 70:0.43698597 71:0.94984382 72:0.63460183 73:0.44787219 74:0.43190822 75:0.3960025 
0 0 1.340206844922583 0 0 0 0 0 0 0 0 0 0 0 0 0 0 0 0 0 0 0 0 0 0 0 0 0 1:0.42599684 2:0.30692169 3:0.55671489 4:0.29539001 5:0.54036498 6:0.40013978 7:0.74012446 8:0.3588174 9:0.57159805 10:0.55712837 11:0.52377295 12:0.55845088 13:0.36278951 14:0.52529913 15:0.50600177 16:0.49130651 17:0.29976648 18:0.43881306 19:0.48671579 20:0.64946306 21:0.66755879 22:0.49052632 23:0.59433454 24:0.62827832 25:0.49021444 26:0.64347893 27:0.62419945 28:0.39140728 29:0.25571039 30:0.40510434 31:0.67823553 32:0.45139685 33:0.39934126 34:0.50940716 35:0.53111506 36:0.10017452 37:0.32941201 38:0.50465578 39:0.31185514 40:0.62111884 41:0.55404013 42:0.41874617 43:0.56330818 44:0.23558848 45:0.29870266 46:0.6357612 47:0.61103344 48:0.57928818 49:0.39847332 50:0.47014815 51:0.63804746 52:0.53669101 53:0.28821698 54:0.48756465 55:0.35543087 56:0.66908175 57:0.53364736 58:0.60072953 59:0.23172608 60:0.68692678 61:0.52862877 62:0.53405666 63:0.66918343 64:0.61373544 65:0.38104439 66:0.4574056 67:0.69311035 68:0.61895549 69:0.39827251 70:0.50148767 71:0.90622532 72:0.76371485 73:0.32898542 74:0.52719814 75:0.38481724 
0 0 0 0.3338119234651091 0 0 0 0 0 0 0 0 0 0 0 0 0 0 0 0 0 0 0 0 0 0 0 0 1:0.49814242 2:0.47111452 3:0.43911967 4:0.2609905 5:0.55668825 6:0.40503103 7:0.54067922 8:0.36112139 9:0.45501247 10:0.4962393 11:0.5463258 12:0.52794164 13:0.33641934 14:0.65385997 15:0.26217383 16:0.45570692 17:0.55090338 18:0.34863231 19:0.5736379 20:0.55041271 21:0.50881958 22:0.46221095 23:0.41435257 24:0.46882144 25:0.84532672 26:0.53239703 27:0.50973058 28:0.74563783 29:0.42102769 30:0.38450319 31:0.61993092 32:0.39025676 33:0.43544906 34:0.60018462 35:0.38045484 36:0.31448895 37:0.48543257 38:0.51610023 39:0.28538278 40:0.53668374 41:0.44648543 42:0.45032957 43:0.5455988 44:0.46009907 45:0.4775399 46:0.46823549 47:0.64707178 48:0.53523546 49:0.45377856 50:0.54426903 51:0.66060555 52:0.62455493 53:0.46110326 54:0.74658245 55:0.3511546 56:0.84518379 57:0.54526913 58:0.59670651 59:0.45813078 60:0.68873912 61:0.55310959 62:0.41999546 63:0.69010162 64:0.61909956 65:0.35746014 66:0.69949728 67:0.6824019 68:0.57285196 69:0.50174773 70:0.43772072 71:0.9316169 72:0.59492511 73:0.47887671 74:0.43584937 75:0.3868618 
0 0 0 0 0 0.7214087826902164 0.2530074115333351 0 0 0 0 0 0 0 0 0 0 0 0 0 0 0 0 0 0 0 0 0.7203544361301712 1:0.76485956 2:0.4695636 3:0.68682915 4:0.32596177 5:0.37411514 6:0.36639872 7:0.61189348 8:0.22866878 9:0.30480462 10:0.402015 11:0.91994977 12:0.56674659 13:0.71864492 14:0.57036632 15:0.98303097 16:0.46760845 17:0.61281061 18:0.26360023 19:0.49998951 20:0.84160852 21:0.84293109 22:0.39657182 23:0.59162271 24:0.41708252 25:0.18183744 26:0.59682328 27:0.57908326 28:0.44220176 29:0.29339817 30:0.39278322 31:0.52889425 32:0.47422922 33:0.36493278 34:0.48286256 35:0.585329 36:0.32301229 37:0.41417298 38:0.40526053 39:0.65893322 40:0.61922657 41:0.39808095 42:0.38045627 43:0.64711243 44:0.37172294 45:0.30087811 46:0.54197747 47:0.61276633 48:0.67720956 49:0.4308497 50:0.57562387 51:0.79392689 52:0.6361469 53:0.40740734 54:0.47099409 55:0.29838705 56:0.51173687 57:0.5992555 58:0.55854332 59:0.24441132 60:0.60113192 61:0.57334971 62:0.33777824 63:0.74799412 64:0.53777915 65:0.49631652 66:0.38792196 67:0.70395541 68:0.62212199 69:0.28579471 70:0.48132148 71:0.79053324 72:0.65037042 73:0.43276554 74:0.47379023 75:0.44548541 
0 0 0 0 0 0 0 0 0 0 0 0 0 0 0 0.918327819807048 0 0 0 0 0 0 0 0 0 0 0 0 1:0.66414589 2:0.28550369 3:0.45307812 4:0.39620045 5:0.64497906 6:0.50357878 7:0.48671931 8:0.54592079 9:0.37090373 10:0.58338153 11:0.48662767 12:0.68598056 13:0.32382926 14:0.51150542 15:0.53522044 16:0.60527611 17:0.78281665 18:0.24715285 19:0.82359469 20:0.59913033 21:0.4363457 22:0.57125884 23:0.58589208 24:0.33814475 25:0.69687676 26:0.47107995 27:0.60768312 28:0.54147369 29:0.48211959 30:0.27277648 31:0.79823697 32:0.46875513 33:0.57994074 34:0.53756386 35:0.24694082 36:0.423994 37:0.59587961 38:0.48888981 39:0.36105421 40:0.58466643 41:0.44802693 42:0.51778305 43:0.57056707 44:0.26585999 45:0.44732934 46:0.51610702 47:0.44764784 48:0.65423334 49:0.5954541 50:0.5292964 51:0.73400891 52:0.5460254 53:0.45639542 54:0.67437696 55:0.45492318 56:0.7107988 57:0.52244657 58:0.4209494 59:0.54535377 60:0.60788059 61:0.50300318 62:0.24105507 63:0.53668511 64:0.44535637 65:0.45437327 66:0.68220371 67:0.6491766 68:0.53038174 69:0.61999846 70:0.5092026 71:0.86787218 72:0.63540429 73:0.56367189 74:0.29889145 75:0.28916523 
0 0 0 0 0 0 0.3191167673094884 0 0 0 0 0 0 0 0 0 0 0 0 0 0 0 0 0 0 0 0 0 1:0.60339159 2:0.28962362 3:0.67492229 4:0.66657847 5:0.7341516 6:0.48159721 7:0.36871144 8:0.48499033 9:0.73442096 10:0.67824376 11:0.38559082 12:0.57405537 13:0.38350734 14:0.4498167 15:0.72712952 16:0.51661855 17:0.5454933 18:0.44602156 19:0.62450027 20:0.43177399 21:0.39518663 22:0.40589282 23:0.52162546 24:0.35863557 25:0.64977664 26:0.62018698 27:0.57433993 28:0.58889198 29:0.31804228 30:0.34337524 31:0.78812855 32:0.3481786 33:0.42420861 34:0.51825172 35:0.40708819 36:0.43613023 37:0.60318899 38:0.44309118 39:0.20514116 40:0.56440485 41:0.57085913 42:0.53055573 43:0.5505749 44:0.25962311 45:0.56415749 46:0.48894107 47:0.45903203 48:0.5373711 49:0.46514782 50:0.63606995 51:0.65417218 52:0.57081181 53:0.48654252 54:0.75302511 55:0.42957932 56:0.776214 57:0.51209432 58:0.56877935 59:0.53251684 60:0.65060771 61:0.54802197 62:0.52143633 63:0.63332957 64:0.44465262 65:0.47549281 66:0.54174399 67:0.73580277 68:0.68964332 69:0.55223864 70:0.5068903 71:0.91266674 72:0.5372054 73:0.52455151 74:0.42103016 75:0.4274998 
0 0 0 0 0 0 0 0 0 0 0 0 0 0 0 0 0 0 0 0.3028723244909938 0 0 0 0 0 0 0 0 1:0.52330655 2:0.59678066 3:0.32760453 4:0.47776482 5:0.31958401 6:0.44409728 7:0.32644552 8:0.34600511 9:0.48086634 10:0.52199876 11:0.50344628 12:0.68226278 13:0.35230646 14:0.52404076 15:0.47442541 16:0.72684509 17:0.55348623 18:0.43443817 19:0.19976668 20:0.50626224 21:0.71719772 22:0.5516364 23:0.39172143 24:0.41744232 25:0.70843631 26:0.63965386 27:0.31936806 28:0.36856323 29:0.38652876 30:0.63192338 31:0.74501789 32:0.46991545 33:0.47619835 34:0.55927718 35:0.34836084 36:0.53612798 37:0.65694779 38:0.51935005 39:0.45417407 40:0.57554048 41:0.53387266 42:0.61236268 43:0.55779839 44:0.3339093 45:0.53429711 46:0.4396213 47:0.60207677 48:0.685965 49:0.51325923 50:0.5807355 51:0.7295168 52:0.64174712 53:0.42001742 54:0.63842475 55:0.41967434 56:0.66652906 57:0.47773629 58:0.52906561 59:0.53093022 60:0.68127769 61:0.42561466 62:0.48279601 63:0.70098394 64:0.54822767 65:0.35473886 66:0.56293732 67:0.65067917 68:0.72142738 69:0.61798257 70:0.47542217 71:0.89076471 72:0.65739608 73:0.50584561 74:0.44407678 75:0.39514628 
0 0 0 0 0 0 0.5091215806009405 0 0 0.03537132920980707 0.6424403521481327 1.460282692858808 1.290283492256844 0 0 1.594246814327013 0 0 0 0 0 0 0.4097978714880562 0.3392198725561039 0 0.08859899286098687 0 0 1:0.33716542 2:0.51578307 3:0.6041981 4:0.49388275 5:0.61557281 6:0.32475898 7:0.24034978 8:0.43611199 9:0.51033407 10:0.34524876 11:0.56824213 12:0.75684929 13:0.50162077 14:0.36364284 15:0.30222452 16:0.50082272 17:0.55872875 18:0.27085152 19:0.65617108 20:0.50379974 21:0.6556409 22:0.25690424 23:0.56358922 24:0.31893954 25:0.73702592 26:0.77695376 27:0.36183637 28:0.56434208 29:0.45159599 30:0.39982525 31:0.44111007 32:0.39030319 33:0.46531281 34:0.39477071 35:0.32160512 36:0.64711189 37:0.53469217 38:0.59983283 39:0.38198614 40:0.63586807 41:0.64439517 42:0.6056571 43:0.51560116 44:0.31714472 45:0.74922347 46:0.35707867 47:0.37041876 48:0.49780887 49:0.54614913 50:0.63728225 51:0.59955931 52:0.58383584 53:0.51430118 54:0.51933414 55:0.53902876 56:0.68999928 57:0.48448879 58:0.42248821 59:0.41427439 60:0.61746049 61:0.54333222 62:0.53107542 63:0.58466613 64:0.48860469 65:0.6745221 66:0.61754775 67:0.68370008 68:0.66541934 69:0.5561552 70:0.52926463 71:0.74890947 72:0.6257959 73:0.52037132 74:0.43015516 75:0.3237426 
0 0 0.1522890603898365 0 0 0 0 0 0 0 0 0 0 0 0 0 0 0 0 0.1290421232703923 0 0 0 0 0 0 0 0 1:0.34240672 2:0.59861612 3:0.53771156 4:0.21323113 5:0.54947424 6:0.54582959 7:0.57268554 8:0.53736228 9:0.62356561 10:0.76124173 11:0.23434912 12:0.80784279 13:0.22206214 14:0.56396747 15:0.51392084 16:0.2121684 17:0.31978467 18:0.32565781 19:0.43471876 20:0.70025766 21:0.46963045 22:0.58265471 23:0.65213406 24:0.79900503 25:0.71910268 26:0.49070016 27:0.60722697 28:0.72456944 29:0.34387386 30:0.62511706 31:0.7141822 32:0.2273057 33:0.59068358 34:0.35984921 35:0.69504809 36:0.39217907 37:0.45203432 38:0.49522731 39:0.33077419 40:0.37545741 41:0.47126132 42:0.42539227 43:0.44101706 44:0.29821742 45:0.50267822 46:0.53249395 47:0.66740233 48:0.27698141 49:0.51514262 50:0.36589569 51:0.59611326 52:0.60084397 53:0.45771155 54:0.60533482 55:0.35346571 56:0.79757482 57:0.40928894 58:0.66648161 59:0.3779124 60:0.77778023 61:0.4406496 62:0.62818104 63:0.63597399 64:0.54699761 65:0.35534242 66:0.4675782 67:0.68088567 68:0.67181015 69:0.58945513 70:0.45804691 71:0.92264408 72:0.68583983 73:0.4436951 74:0.51815188 75:0.38836491 
0 0 0.1769609822790315 0 0 0 0 0 0 0 0 0 0 0 0 0 0 0 0 0 0 0 0 0 0.1805032072877431 0 0 0 1:0.48965871 2:0.44136593 3:0.60949111 4:0.53112316 5:0.61798894 6:0.41558486 7:0.59992826 8:0.56249118 9:0.40003011 10:0.56596684 11:0.39154044 12:0.72508258 13:0.42167538 14:0.46624544 15:0.65491891 16:0.51064086 17:0.42759565 18:0.60601121 19:0.55661261 20:0.75738972 21:0.62943065 22:0.41612235 23:0.59991342 24:0.3909449 25:0.48307025 26:0.67751968 27:0.58845031 28:0.45070055 29:0.27085793 30:0.47796658 31:0.7263115 32:0.37221584 33:0.34166476 34:0.45288259 35:0.43562818 36:0.28708455 37:0.46471629 38:0.46586183 39:0.29720885 40:0.77371228 41:0.64599216 42:0.43196979 43:0.53595924 44:0.38627324 45:0.34719935 46:0.73764896 47:0.40471628 48:0.53768045 49:0.37698126 50:0.52833903 51:0.5574795 52:0.61269563 53:0.32599741 54:0.45658654 55:0.38883898 56:0.65752798 57:0.46707657 58:0.54923522 59:0.24325147 60:0.64947081 61:0.56811607 62:0.56189507 63:0.62041259 64:0.55645835 65:0.56811339 66:0.39910704 67:0.75158608 68:0.68653518 69:0.42151996 70:0.54599911 71:0.87655419 72:0.70045024 73:0.36527175 74:0.43490589 75:0.35145074 
0 0.7511111210517115 0 0 0 0 0 0.103989250741212 4.246886860318263 0.1509006567230261 0 0.2399708331082369 0 0.7689876565971202 0 0 0 0 0 0 1.534470008512911 0 0 1.26817883048633 0 0 0 0 1:0.24902505 2:0.60806191 3:0.35368419 4:0.36004281 5:0.51551789 6:0.55117691 7:0.58527821 8:0.52531105 9:0.42709407 10:0.47694731 11:0.79280728 12:0.57656735 13:0.33640459 14:0.46035731 15:0.54093194 16:0.67745352 17:0.70979899 18:0.36103117 19:0.84422535 20:0.65975749 21:0.63724065 22:0.36844879 23:0.6835798 24:0.42469087 25:0.62592405 26:0.65245622 27:0.23323058 28:0.35050434 29:0.57530862 30:0.20380884 31:0.6523782 32:0.31378418 33:0.33424264 34:0.36298037 35:0.20829241 36:0.45245782 37:0.73326296 38:0.58174479 39:0.32840919 40:0.70892596 41:0.55120397 42:0.67912406 43:0.61339784 44:0.43318775 45:0.71607077 46:0.52154267 47:0.27426246 48:0.65043032 49:0.50551641 50:0.58783311 51:0.66901821 52:0.45089656 53:0.44073215 54:0.57127905 55:0.59180278 56:0.70881253 57:0.47271451 58:0.3455084 59:0.39345315 60:0.55371732 61:0.57748395 62:0.46552718 63:0.47336796 64:0.69993395 65:0.67634207 66:0.68472278 67:0.74955517 68:0.64118022 69:0.60050881 70:0.51611644 71:0.89490855 72:0.53452092 73:0.51629972 74:0.35586283 75:0.30593061 
0 0.2106173248842158 1.264858074785385 0 0 0 0 0 0 0 0 0 0 0 0 0 0 0 0 0 0 0 0 0 0 0 0 0 1:0.34316635 2:0.74227101 3:0.29635841 4:0.37302464 5:0.63427836 6:0.41346231 7:0.79324776 8:0.29244345 9:0.51181859 10:0.35790032 11:0.65548241 12:0.49167719 13:0.33019716 14:0.67353827 15:0.29793975 16:0.40379176 17:0.32933682 18:0.63516718 19:0.28888065 20:0.47665644 21:0.45174775 22:0.65252548 23:0.31059253 24:0.83746564 25:0.78365713 26:0.49791756 27:0.37654376 28:0.54260993 29:0.45663491 30:0.60280061 31:0.538876 32:0.66998136 33:0.43980265 34:0.59384429 35:0.48545972 36:0.27145639 37:0.46138793 38:0.60005474 39:0.21353641 40:0.55371588 41:0.46326149 42:0.60143632 43:0.50312018 44:0.52454048 45:0.5475589 46:0.52290499 47:0.75322998 48:0.37581876 49:0.64790851 50:0.4111807 51:0.73596275 52:0.57632065 53:0.38526168 54:0.46671078 55:0.42158219 56:0.75818199 57:0.61786437 58:0.49444744 59:0.35326207 60:0.70719522 61:0.45894131 62:0.58690029 63:0.79422998 64:0.55334979 65:0.42845103 66:0.53373718 67:0.63264507 68:0.61215889 69:0.45048353 70:0.48605871 71:0.95376551 72:0.68570113 73:0.43141103 74:0.4490273 75:0.35855114 
0 0 0 0 0 0 0 0 0 0 0 0 0 0 0 0 0 0 0 0 0 0 0 0 0 0 0.8376140507462903 0 1:0.53949159 2:0.37320778 3:0.65862119 4:0.26419964 5:0.46792561 6:0.53467566 7:0.54073644 8:0.40148297 9:0.39068913 10:0.27884597 11:0.47691596 12:0.59532589 13:0.44415498 14:0.60956907 15:0.55928534 16:0.45577458 17:0.48907602 18:0.32947603 19:0.55283713 20:0.48120636 21:0.68536401 22:0.55305195 23:0.38963243 24:0.71567744 25:0.5626967 26:0.63206881 27:0.40683469 28:0.47579426 29:0.31014338 30:0.51411533 31:0.69333273 32:0.50267988 33:0.38569307 34:0.41811436 35:0.36986867 36:0.48059747 37:0.49988431 38:0.47496247 39:0.28060681 40:0.48557803 41:0.59248078 42:0.61796737 43:0.56369257 44:0.2441868 45:0.23969841 46:0.63879722 47:0.48489487 48:0.50231403 49:0.52673465 50:0.35665131 51:0.57459569 52:0.7099368 53:0.34414804 54:0.5243066 55:0.34986028 56:0.55517465 57:0.3949776 58:0.56346303 59:0.25587627 60:0.72713786 61:0.4865858 62:0.59814 63:0.64407885 64:0.49568847 65:0.4548946 66:0.38977987 67:0.77809179 68:0.59987903 69:0.45152193 70:0.45561707 71:0.93050349 72:0.64657694 73:0.45150903 74:0.51054138 75:0.4300248 
0 0 0 0 0 0 0 0 0 0.6414964346268501 0 0 0 0 0 0 0 0 0 0 0.6996325479456869 0 0 0 0 0 0 0 1:0.58366013 2:0.51731825 3:0.690458 4:0.32787329 5:0.65518522 6:0.63966697 7:0.62422282 8:0.43804556 9:0.25064763 10:0.32311839 11:0.48813394 12:0.49964684 13:0.27677342 14:0.86539882 15:0.58151448 16:0.62648499 17:0.67879331 18:0.32555652 19:0.67523915 20:0.8545624 21:0.16916648 22:0.40709364 23:0.26161835 24:0.60156572 25:0.72376418 26:0.28479129 27:0.61105537 28:0.45349813 29:0.45112315 30:0.42629138 31:0.43612519 32:0.51300907 33:0.51393437 34:0.22305098 35:0.53324366 36:0.62853259 37:0.61862242 38:0.5432297 39:0.26939535 40:0.46116799 41:0.3311314 42:0.62391651 43:0.52629507 44:0.44138774 45:0.39796302 46:0.42782381 47:0.66195518 48:0.63713598 49:0.47138244 50:0.57317543 51:0.51063222 52:0.36381695 53:0.50959498 54:0.55433583 55:0.48059371 56:0.59972835 57:0.44759011 58:0.32532319 59:0.49246624 60:0.66215748 61:0.52147824 62:0.39957798 63:0.55356377 64:0.41993362 65:0.5497973 66:0.55717576 67:0.58602709 68:0.70230615 69:0.41423041 70:0.477961 71:0.82058847 72:0.59516382 73:0.54599029 74:0.4052316 75:0.41667351 
0 0 0 0 0 0 0 0 0 0 0 0 0 0 0 0 0 0 0 0 0 0 0 0 0 0 0 1.040836869652368 1:0.30785778 2:0.5216403 3:0.58986723 4:0.41761318 5:0.43638638 6:0.4310452 7:0.41698924 8:0.23450895 9:0.59781075 10:0.27406392 11:0.68118876 12:0.67781669 13:0.53595722 14:0.54740471 15:0.52683443 16:0.48508954 17:0.10433228 18:0.51742435 19:0.51403213 20:0.54583007 21:0.83652163 22:0.38718954 23:0.39193508 24:0.58778375 25:0.39142743 26:0.60466707 27:0.51114428 28:0.62969309 29:0.21416675 30:0.57820636 31:0.4785054 32:0.38817507 33:0.44234189 34:0.70200408 35:0.42714477 36:0.74303329 37:0.13178383 38:0.47857913 39:0.44559687 40:0.58773935 41:0.52613187 42:0.52711397 43:0.48556432 44:0.49376947 45:0.52438873 46:0.45922953 47:0.51666564 48:0.46350083 49:0.65396267 50:0.57921433 51:0.69636303 52:0.63750887 53:0.42497858 54:0.57821804 55:0.44613257 56:0.84258497 57:0.66309631 58:0.45135611 59:0.39412189 60:0.55625558 61:0.57766706 62:0.55669391 63:0.69717354 64:0.40553537 65:0.41982123 66:0.35016376 67:0.75861436 68:0.48119301 69:0.28716126 70:0.42870536 71:0.76307839 72:0.6652993 73:0.33166051 74:0.51661164 75:0.39195886 
0 0.8553106682241897 1.535053467351245 0 2.429338070551335 0 1.423043505335174 1.597336393644213 0 0 0.9245029217116653 0.5625814178581356 0.02262963051245035 0 1.060726616710946 2.684037562390132 0.9189201347486678 0 2.326956401896059 1.498767190325216 3.275705754687158 1.058910231807859 1.432724474101855 0.7417693140216757 0 1.285892822007029 0.04535165777650851 2.331910258245975 1:0.54932475 2:0.54323781 3:0.62025362 4:0.44729525 5:0.46926036 6:0.68400085 7:0.23215434 8:0.64677036 9:0.099894546 10:0.20196918 11:0.80450797 12:0.51672477 13:0.57474184 14:0.93293911 15:0.60791397 16:0.79311264 17:0.55647522 18:0.54743963 19:0.61213452 20:0.97687352 21:0.40985224 22:0.55885649 23:0.41051903 24:0.57698351 25:0.81063014 26:0.43764859 27:0.64303511 28:0.54760844 29:0.42818147 30:0.39182636 31:0.51131862 32:0.43459445 33:0.37730268 34:0.20365454 35:0.29354158 36:0.30336556 37:0.908571 38:0.64369529 39:0.27056795 40:0.64037204 41:0.45694265 42:0.48841062 43:0.61329502 44:0.18143114 45:0.50358117 46:0.47840965 47:0.66104227 48:0.69707364 49:0.50103372 50:0.60448962 51:0.58156031 52:0.41070837 53:0.75928074 54:0.56665468 55:0.40763021 56:0.59823996 57:0.38943499 58:0.42126647 59:0.50618374 60:0.59453511 61:0.59149837 62:0.38778111 63:0.41308022 64:0.41824558 65:0.71905941 66:0.54821539 67:0.64781362 68:0.75775856 69:0.36822283 70:0.52394462 71:0.76811552 72:0.62427169 73:0.67718035 74:0.35036853 75:0.42771098 
3.536570723255283 1.088720648838491 4.714269044061296 0.1848337982332072 1.978551294933882 1.110046536796249 1.497212606970702 1.502619307620834 0 0 1.324377724465493 0 0 0.3901669432479285 0 0 1.388685102781428 0 2.231327954681922 1.540689198758634 2.311749511595478 0.1357253250398456 1.379019304829115 0.4505979243082804 1.954517088581331 2.045529979923387 0 1.608474619956899 1:0.47652876 2:0.52615952 3:0.52576619 4:0.3070012 5:0.49151745 6:0.4779478 7:0.50280637 8:0.63202602 9:0.64519066 10:0.67741919 11:0.23515847 12:0.74727881 13:0.41789985 14:0.80184817 15:0.53562307 16:0.25216264 17:0.68011379 18:0.35728511 19:0.64011836 20:0.65497959 21:0.35569862 22:0.54062462 23:0.34748009 24:0.51755977 25:0.7155506 26:0.20771244 27:0.46822697 28:0.59839725 29:0.47670308 30:0.54867733 31:0.91352308 32:0.50689679 33:0.50663251 34:0.55143428 35:0.70481634 36:0.54141843 37:0.66812837 38:0.47796515 39:0.36409223 40:0.4669942 41:0.32511562 42:0.59515184 43:0.50436795 44:0.30549908 45:0.29383746 46:0.56217521 47:0.50197476 48:0.51391131 49:0.39952633 50:0.5827933 51:0.41160348 52:0.45054969 53:0.44279447 54:0.65196294 55:0.35287133 56:0.58898324 57:0.40804192 58:0.48783672 59:0.2122792 60:0.62187475 61:0.58351159 62:0.52531332 63:0.61650109 64:0.50509858 65:0.34037849 66:0.25044844 67:0.50262779 68:0.57713652 69:0.538791 70:0.42387325 71:0.70458162 72:0.6167649 73:0.4304567 74:0.570647 75:0.42702529 
1.294748242137033 0 0 0 0 0 0 0 0 0 0 1.895556934188301 1.652208914424647 0 0 0 0 0 0 1.583359691902349 0 0 0 0 0 0 0 0 1:0.64802086 2:0.60527647 3:0.28231552 4:0.33602491 5:0.46460336 6:0.61118829 7:0.33658999 8:0.4262763 9:0.32083964 10:0.42426676 11:0.67927444 12:0.5126484 13:0.51647455 14:0.82251382 15:0.43314207 16:0.33085716 17:0.6686945 18:0.41962293 19:0.49032438 20:0.90049505 21:0.61015439 22:0.62637591 23:0.36136657 24:0.56978899 25:0.58672893 26:0.09223678 27:0.63842022 28:0.41970986 29:0.429555 30:0.76556617 31:0.59669828 32:0.31727538 33:0.5268988 34:0.27819681 35:0.71110308 36:0.26245615 37:0.54581839 38:0.42513043 39:0.45490056 40:0.26357627 41:0.48000208 42:0.67745131 43:0.54198635 44:0.35367048 45:0.45125419 46:0.51989633 47:0.70044518 48:0.4990688 49:0.42027748 50:0.40039393 51:0.69968271 52:0.70231879 53:0.52465349 54:0.55546349 55:0.26243851 56:0.68369317 57:0.31902841 58:0.65982938 59:0.39425662 60:0.74081832 61:0.53294194 62:0.75282729 63:0.50094718 64:0.60959911 65:0.57271028 66:0.50452071 67:0.73548144 68:0.79145676 69:0.39037523 70:0.47739512 71:0.76152176 72:0.61993963 73:0.63821876 74:0.33568627 75:0.50185889 
0 0 0 0 0 0 0 0 0 0 0 0.3208464516085642 0.06186693950694763 0 0 0 0 0 0 0 0 0 0 0.01499649600194854 0 0 0 0 1:0.5322684 2:0.44784471 3:0.60330302 4:0.63762283 5:0.54670912 6:0.50337976 7:0.30313766 8:0.58935034 9:0.33605078 10:0.42544973 11:0.66346139 12:0.54591739 13:0.38612449 14:0.82851505 15:0.57818168 16:0.69621992 17:0.38684016 18:0.64685214 19:0.38902771 20:0.78336513 21:0.76838166 22:0.26397023 23:0.60126346 24:0.34334671 25:0.62823814 26:0.58827406 27:0.55265164 28:0.075176895 29:0.43576023 30:0.49831304 31:0.60177797 32:0.52736342 33:0.37047294 34:0.3397499 35:0.52374154 36:0.42311877 37:0.684901 38:0.33736834 39:0.30248725 40:0.57266885 41:0.56510276 42:0.52706677 43:0.53044367 44:0.53306144 45:0.52795142 46:0.63338703 47:0.39635599 48:0.69095558 49:0.48374104 50:0.64069182 51:0.64792883 52:0.3825103 53:0.70883125 54:0.51249695 55:0.53490013 56:0.57018411 57:0.48158407 58:0.43519786 59:0.33742222 60:0.77867913 61:0.60047466 62:0.47155365 63:0.7314713 64:0.43409175 65:0.73637271 66:0.59059066 67:0.61052454 68:0.73041427 69:0.45951104 70:0.58124244 71:0.83245242 72:0.56354403 73:0.61143816 74:0.20673564 75:0.37996733 
0.1820868748815166 0 0 0.8352556022062987 0 0.1076003250277567 0.5337160874510364 0 0 0 0.05474764969142758 0 0 0 0 0 1.161864288451469 0 0 0 0 0 0.8503621882320492 0 0 0 0 0 1:0.43255207 2:0.3615571 3:0.58354998 4:0.5476746 5:0.50573337 6:0.73361003 7:0.3865408 8:0.23886539 9:0.46979222 10:0.62930572 11:0.81965041 12:0.51908678 13:0.66120881 14:0.63215691 15:0.49847564 16:0.74072212 17:0.19259338 18:0.42555025 19:0.51486176 20:0.98319411 21:0.5765205 22:0.77915889 23:0.45428681 24:0.47262213 25:0.59650886 26:0.7813341 27:0.60282058 28:0.49739304 29:0.29779148 30:0.56342691 31:0.54469842 32:0.55849493 33:0.44420251 34:0.74507779 35:0.5803988 36:0.53471243 37:0.2310057 38:0.48417661 39:0.27654532 40:0.49564546 41:0.51792526 42:0.76167935 43:0.58285797 44:0.43008313 45:0.50263435 46:0.49940854 47:0.73792565 48:0.35394245 49:0.4549751 50:0.42468348 51:0.90888137 52:0.61075461 53:0.60656542 54:0.51874298 55:0.48373702 56:0.92328852 57:0.50486857 58:0.5262239 59:0.46146175 60:0.58376622 61:0.48117486 62:0.62246346 63:0.56160748 64:0.5309667 65:0.49875349 66:0.58854306 67:0.67913628 68:0.68884248 69:0.41819364 70:0.46691242 71:0.85238934 72:0.75656992 73:0.620727 74:0.34364709 75:0.43559316 
0.04100612186936498 0 0 0 1.121220277337394 0 0 0 0 0 0 0.2602425440160253 0 0 0 0 0 0 0.4374711748364564 0 0 0 0 0 0 0 1.091796397327318 0 1:0.4093577 2:0.68411601 3:0.4675234 4:0.40200484 5:0.62353402 6:0.43348572 7:0.23491167 8:0.32547265 9:0.48170877 10:0.35746363 11:0.79821682 12:0.69907433 13:0.34767693 14:0.56198305 15:0.53209996 16:0.81780422 17:0.013374198 18:0.37497523 19:0.16978939 20:0.56328261 21:0.59157807 22:0.5081594 23:0.51241732 24:0.45253643 25:0.41459247 26:0.73362303 27:0.66640985 28:0.30821207 29:0.13054493 30:0.59944522 31:0.37599978 32:0.71371233 33:0.52395529 34:0.56217176 35:0.40298072 36:0.4826721 37:0.39018178 38:0.52752113 39:0.5044449 40:0.47465512 41:0.50003564 42:0.63369989 43:0.59514314 44:0.48255867 45:0.47038421 46:0.56362075 47:0.82814878 48:0.49781993 49:0.5899483 50:0.48414031 51:0.70528257 52:0.52602184 53:0.58089089 54:0.44475368 55:0.522192 56:0.773431 57:0.37104142 58:0.6513862 59:0.58241397 60:0.65197009 61:0.31743219 62:0.49296305 63:0.59074616 64:0.33736715 65:0.52225715 66:0.50456643 67:0.66253799 68:0.6287694 69:0.57880372 70:0.34366143 71:0.83265811 72:0.62564892 73:0.60541433 74:0.3659285 75:0.49528003 
0 0 0 0 0 0 0 0 0 0 0 0 0 0 0.4890919077881138 0 0.4337237996881739 0 0 0.9317176751612003 0 0 0.2676906194995501 0 0 0 0 0 1:0.42492497 2:0.61395168 3:0.58552653 4:0.42603436 5:0.64007181 6:0.33513948 7:0.55512273 8:0.53195345 9:0.59409738 10:0.43722945 11:0.56273204 12:0.45176831 13:0.53468394 14:0.49385837 15:0.65899366 16:0.22267389 17:0.27043986 18:0.43002805 19:0.39486477 20:0.46906921 21:0.60283566 22:0.45415559 23:0.61363989 24:0.69836366 25:0.32917005 26:0.51309872 27:0.48204312 28:0.7529729 29:0.41364869 30:0.74768257 31:0.61057258 32:0.27147055 33:0.54680991 34:0.46029797 35:0.61686552 36:0.40166581 37:0.57451707 38:0.5164811 39:0.54254621 40:0.32941493 41:0.46723765 42:0.31833762 43:0.54314417 44:0.27328977 45:0.4426592 46:0.46967924 47:0.77099454 48:0.31432435 49:0.83311862 50:0.42522833 51:0.64067984 52:0.7191202 53:0.37586462 54:0.60457975 55:0.25536734 56:0.87141025 57:0.49913177 58:0.75331247 59:0.52993923 60:0.6936605 61:0.60494828 62:0.73878479 63:0.58343172 64:0.2005865 65:0.54211885 66:0.3104912 67:0.78444541 68:0.6816864 69:0.32489792 70:0.47032353 71:0.61988646 72:0.76617336 73:0.2921249 74:0.60709041 75:0.26477045 
0.6369506009085472 0 0 0 0 0 0 0 0 0 0 0 0 3.040055396760911 0 0 0 0 0 0 0 0 0 0 0 0 0 0.784181240805348 1:0.31681839 2:0.45989779 3:0.32854936 4:0.48737773 5:0.58017802 6:0.36158898 7:0.3622717 8:0.19799118 9:0.40335643 10:0.55901021 11:0.53165072 12:0.53971446 13:0.5416311 14:0.71215659 15:0.2826795 16:0.15130702 17:0.43358272 18:0.33638215 19:0.38085297 20:0.62334639 21:0.77364326 22:0.61154544 23:0.19734827 24:0.78301752 25:0.46073708 26:0.45069432 27:0.33343881 28:0.36258832 29:0.50304896 30:0.4599559 31:0.74214625 32:0.42484468 33:0.29525509 34:0.5469588 35:0.74482352 36:0.31521201 37:0.57462901 38:0.5667817 39:0.34272882 40:0.66126293 41:0.42274004 42:0.56025422 43:0.4444437 44:0.41601181 45:0.54714251 46:0.47474837 47:0.61840981 48:0.64835453 49:0.43456721 50:0.40161413 51:0.78707105 52:0.55893582 53:0.62078977 54:0.49969357 55:0.33692771 56:0.65121746 57:0.51429909 58:0.59483194 59:0.19074254 60:0.60318977 61:0.63333845 62:0.49295506 63:0.6817261 64:0.53758806 65:0.40029091 66:0.42966801 67:0.6343469 68:0.66189027 69:0.41395351 70:0.50460482 71:0.81240386 72:0.59648168 73:0.51297361 74:0.37431684 75:0.39368284 
0 0 0 0 0 0 0 0 0 0 0 0 0 0 0 0 0 0 0 0 0 0 0 0 0 0 0.6041164035968324 0 1:0.59006792 2:0.53024715 3:0.68651336 4:0.59315234 5:0.43493935 6:0.58790767 7:0.38574055 8:0.42982656 9:0.31673187 10:0.45587757 11:0.46511415 12:0.70637017 13:0.50684708 14:0.45536458 15:0.72851062 16:0.55109286 17:0.5814712 18:0.31428772 19:0.44960904 20:0.39477065 21:0.83611214 22:0.46808213 23:0.42615882 24:0.38525695 25:0.62178808 26:0.64198053 27:0.37682739 28:0.27473876 29:0.37970656 30:0.63864672 31:0.55776459 32:0.50356132 33:0.61797696 34:0.69531858 35:0.45705652 36:0.85819 37:0.4356831 38:0.49239913 39:0.51359183 40:0.41878295 41:0.36535096 42:0.6131165 43:0.63499868 44:0.41960871 45:0.65954685 46:0.49135211 47:0.55010784 48:0.37369439 49:0.75270033 50:0.59800094 51:0.63747442 52:0.65535897 53:0.57568222 54:0.6416074 55:0.39870253 56:0.89891678 57:0.5843991 58:0.46391657 59:0.76263845 60:0.80868095 61:0.52956837 62:0.53186065 63:0.60810572 64:0.20358583 65:0.60070568 66:0.49081573 67:0.7456587 68:0.76652104 69:0.40573403 70:0.42170766 71:0.63670772 72:0.83447272 73:0.35889623 74:0.49542564 75:0.30629292 
0 0 0 0 0.7305481028040064 0.3280710602884171 0 0 0 0 0 0 0 0 0.9278484156742228 0 0 1.543805129519547 0.7192896082731971 0 0 0.576740318560621 0 0 0 0 0 1.518299402326873 1:0.35178894 2:0.45037934 3:0.36056194 4:0.65957022 5:0.40438446 6:0.74186361 7:0.48644966 8:0.27925661 9:0.13176382 10:0.37567133 11:0.81058621 12:0.64111757 13:0.37089786 14:0.46471918 15:0.81148696 16:0.43266612 17:0.32068244 18:0.56040967 19:0.73253679 20:0.4650313 21:0.68270814 22:0.25540522 23:0.43347538 24:0.58006799 25:0.40182075 26:0.61131477 27:0.43522489 28:0.40248117 29:0.48665968 30:0.30625179 31:0.68823409 32:0.44253191 33:0.40138465 34:0.63126689 35:0.27010795 36:0.51823699 37:0.59278286 38:0.41916573 39:0.35044533 40:0.53529263 41:0.63635576 42:0.75734085 43:0.50344509 44:0.42586929 45:0.45371079 46:0.21490432 47:0.38341394 48:0.6825639 49:0.52710569 50:0.60507691 51:0.64890242 52:0.78452623 53:0.47487104 54:0.67065316 55:0.45066613 56:0.53956813 57:0.43637159 58:0.28776571 59:0.49672538 60:0.60646909 61:0.46171632 62:0.45974526 63:0.66283387 64:0.42872861 65:0.44051656 66:0.55365914 67:0.77325583 68:0.66131341 69:0.47296485 70:0.49475962 71:0.83599252 72:0.49371648 73:0.50319153 74:0.40235233 75:0.52864879 
0 0 0 0 0 0 0 0 0 0 0.2960584489847018 0 0 0 0 0 0 0 0 0 0 0 0 0 0 0 0 0 1:0.46977377 2:0.42922434 3:0.59837782 4:0.43782714 5:0.820759 6:0.54057741 7:0.34926337 8:0.5408076 9:0.59916759 10:0.42734823 11:0.71071738 12:0.78740394 13:0.68580312 14:0.53848267 15:0.43656927 16:0.50143236 17:0.30663219 18:0.57180643 19:0.29278582 20:0.58464396 21:0.56532788 22:0.73474288 23:0.32219151 24:0.51889431 25:0.7060197 26:0.53932232 27:0.53116626 28:0.54294068 29:0.31187591 30:0.53867638 31:0.67097574 32:0.34500903 33:0.46204981 34:0.54761732 35:0.64581829 36:0.6309129 37:0.19711405 38:0.47450295 39:0.31428316 40:0.65430993 41:0.49344087 42:0.68963617 43:0.47227836 44:0.49369177 45:0.62963855 46:0.57825041 47:0.49577892 48:0.45117089 49:0.47418249 50:0.67614418 51:0.78528488 52:0.61852908 53:0.57293618 54:0.68186307 55:0.465532 56:0.80393916 57:0.53907782 58:0.42502886 59:0.36490768 60:0.62627935 61:0.58456337 62:0.53174329 63:0.59157687 64:0.54514498 65:0.35089919 66:0.38137597 67:0.61509269 68:0.60243869 69:0.51238745 70:0.42962283 71:0.85481364 72:0.6043098 73:0.40352434 74:0.44088519 75:0.40502733 
1.773554476639887 0 0.08686466496694337 0 1.119535130936263 0 0 0 0 0.03175749066265709 1.725436116757811 0.3093594218918123 0.9511194836779822 0 0.5038798201553564 0 0 0 1.489404035543317 0 1.798059407036711 0.7981611872761518 2.830532205320383 0 1.725982772920649 0.1465611164535456 0 0 1:0.548437 2:0.52414173 3:0.39787093 4:0.41630933 5:0.45648259 6:0.35061082 7:0.50468892 8:0.43663701 9:0.80799103 10:0.44144917 11:0.72524416 12:0.61005747 13:0.51498568 14:0.65882391 15:0.3441585 16:0.59378844 17:0.32826215 18:0.3703621 19:0.27779692 20:0.50809664 21:0.56955534 22:0.42608774 23:0.47326967 24:0.65129972 25:0.37418836 26:0.45588201 27:0.47409764 28:0.45647436 29:0.29898542 30:0.71096772 31:0.60001469 32:0.58613425 33:0.64965218 34:0.42786276 35:0.58841008 36:0.47022575 37:0.58149892 38:0.3456569 39:0.85867184 40:0.68355757 41:0.41909358 42:0.3742826 43:0.51227248 44:0.71692866 45:0.56154984 46:0.8341437 47:0.80766702 48:0.42565367 49:0.67517626 50:0.39372611 51:0.81972283 52:0.58505648 53:0.4262777 54:0.61974287 55:0.3872284 56:0.67526919 57:0.49756163 58:0.53003794 59:0.34744716 60:0.6623131 61:0.58261067 62:0.63730377 63:0.77095014 64:0.46862152 65:0.37374902 66:0.31840834 67:0.59502089 68:0.61606681 69:0.61007822 70:0.41767338 71:0.72163695 72:0.57168251 73:0.48855484 74:0.45684099 75:0.46443909 
0 0 0 0 0.1750441645843505 0 0 0 0 0.1107430945907045 0 0 0 0.2997186381719449 0 0.5690095824429235 2.146187764468307 0 0 0 0 0.6222784580504335 0 0 0 0 0 0 1:0.47355402 2:0.004513937 3:0.63911629 4:0.41664019 5:0.57859021 6:0.60580778 7:0.26350269 8:0.53253776 9:0.49363375 10:0.51001996 11:0.5185287 12:0.35633081 13:0.38006464 14:0.62125021 15:0.62229061 16:0.51266861 17:0.28694183 18:0.41319677 19:0.42731756 20:0.63218749 21:0.64911157 22:0.4070715 23:0.57046998 24:0.57976329 25:0.51318586 26:0.42158654 27:0.47465694 28:0.31890526 29:0.24843256 30:0.55741382 31:0.69135225 32:0.56701106 33:0.59711665 34:0.65148246 35:0.3951118 36:0.73591721 37:0.60613132 38:0.43964279 39:0.59860724 40:0.70122963 41:0.52017027 42:0.59752733 43:0.61423683 44:0.51834959 45:0.35811704 46:0.44516978 47:0.57744056 48:0.63868594 49:0.72931159 50:0.57622373 51:0.81107211 52:0.73077685 53:0.43632159 54:0.76397586 55:0.5155108 56:0.70211285 57:0.4564558 58:0.41545933 59:0.3878386 60:0.59620655 61:0.58575296 62:0.43807304 63:0.44193199 64:0.36363789 65:0.37807414 66:0.46566325 67:0.67360008 68:0.58773422 69:0.50637257 70:0.42833164 71:0.74424243 72:0.63965625 73:0.45837224 74:0.4298555 75:0.41754648 
0.6026539952965275 0.09462904597767391 0 0.1558675269050361 0 0 0 0 0 0.3482702689075748 0 0.2576091785944081 0 0.9290217677328941 0 0 0.002100261819536883 0.9346827524677247 2.594604074239466 0 0 0.311685916216695 0.8221308041296175 0 0 0 0 0 1:0.39878443 2:0.46379504 3:0.54970807 4:0.3892512 5:0.58679456 6:0.49077618 7:0.45645687 8:0.48823878 9:0.46406794 10:0.61740506 11:0.604137 12:0.6021024 13:0.47648701 14:0.61474109 15:0.62617224 16:0.44826505 17:0.64515722 18:0.47967535 19:0.24491921 20:0.81215507 21:0.84127313 22:0.17890774 23:0.50214225 24:0.64817739 25:0.52241457 26:0.39712813 27:0.62778974 28:0.87645304 29:0.18119913 30:0.54550183 31:0.79350168 32:0.5824523 33:0.69244856 34:0.71586579 35:0.52639496 36:0.67805469 37:0.45501271 38:0.43856734 39:0.59143907 40:0.7410633 41:0.39011705 42:0.48207587 43:0.26170361 44:0.56425387 45:0.43168539 46:0.40277633 47:0.71407884 48:0.57870585 49:0.47070211 50:0.55190927 51:0.73306066 52:0.76971 53:0.39799437 54:0.77126741 55:0.44519815 56:0.80105823 57:0.42790329 58:0.54308337 59:0.57030988 60:0.70835787 61:0.49824324 62:0.54819685 63:0.60115314 64:0.5479821 65:0.22970012 66:0.50596052 67:0.6638369 68:0.68687296 69:0.63070542 70:0.49436069 71:0.80222189 72:0.61366594 73:0.43779579 74:0.48922884 75:0.48965025 
1.804958866157955 0 0 0 0.1268659794772121 1.696599660237827 0 0.1449182506986112 0.2178613845164427 0 0 0 0 1.181045860745326 0 0.5670749537143841 0 0 0 0 0 0 0.7752114751999156 0 0 0 0 0.8903595413823001 1:0.45251468 2:0.53133857 3:0.62349671 4:0.39109096 5:0.81072694 6:0.57253003 7:0.44326493 8:0.60485095 9:0.56147224 10:0.19465771 11:0.75467783 12:0.71154207 13:0.50503486 14:0.33134761 15:0.47557071 16:0.50757718 17:0.31600019 18:0.48261511 19:0.57219648 20:0.52772111 21:0.97649789 22:0.43677056 23:0.57521129 24:0.6190393 25:0.25404757 26:0.44233763 27:0.42295772 28:0.63875198 29:0.32048732 30:0.45846063 31:0.55216646 32:0.52330661 33:0.55099863 34:0.60139608 35:0.64057094 36:0.43161672 37:0.3969751 38:0.39998552 39:0.43319219 40:0.5451737 41:0.57148182 42:0.53284824 43:0.51534092 44:0.66633147 45:0.72933483 46:0.29080459 47:0.77927059 48:0.58793283 49:0.71799839 50:0.61817127 51:0.92527521 52:0.56415927 53:0.41854349 54:0.71554381 55:0.40482569 56:0.76483226 57:0.57518679 58:0.45383787 59:0.57474643 60:0.5405978 61:0.49005449 62:0.54075092 63:0.84558207 64:0.52387166 65:0.30491126 66:0.41935742 67:0.68631357 68:0.62071753 69:0.65126336 70:0.34645614 71:0.7639237 72:0.43368104 73:0.47042906 74:0.49829239 75:0.45755515 
0 0 0 0 0 0 0 0 0 0 0 0.3148882155072564 0 0 0 0 0 0 0 0 0 0 0 0.9139964599499147 0 0 0 0 1:0.48198518 2:0.1608344 3:0.45200995 4:0.35692582 5:0.88231975 6:0.6065619 7:0.42261371 8:0.32108966 9:0.63709086 10:0.49571839 11:0.39774805 12:0.81719345 13:0.48230344 14:0.50639093 15:0.36343601 16:0.58647341 17:0.55479383 18:0.41372439 19:0.45015049 20:0.37101921 21:0.71735126 22:0.43844861 23:0.41502813 24:0.42034593 25:0.44272295 26:0.39603177 27:0.37601689 28:0.55946773 29:0.3461495 30:0.58375198 31:0.62293994 32:0.52979428 33:0.40900537 34:0.46204975 35:0.48108071 36:0.53437197 37:0.56314939 38:0.50576925 39:0.75992924 40:0.54107314 41:0.52835447 42:0.49733987 43:0.43898973 44:0.43690762 45:0.4268136 46:0.72105289 47:0.4923445 48:0.60354906 49:0.62951332 50:0.57703155 51:0.67302531 52:0.637344 53:0.37603131 54:0.67021239 55:0.47932446 56:0.70205832 57:0.49082479 58:0.53623974 59:0.44093293 60:0.71358621 61:0.56677341 62:0.50391346 63:0.69441289 64:0.60098135 65:0.46154174 66:0.41072068 67:0.71958911 68:0.55650586 69:0.56667638 70:0.42963928 71:0.88362098 72:0.5350154 73:0.53080982 74:0.46374205 75:0.45134699 
0 0 0 0 0 0 0 0 0.8134804857093244 0 0 0 0 0 0 0 0 0 0 0 0 0 0 0 0 0 0 0.5996918331625778 1:0.46489373 2:0.50156808 3:0.42507389 4:0.29076543 5:0.61424953 6:0.44280618 7:0.52033305 8:0.42006561 9:0.52225173 10:0.49246615 11:0.69272184 12:0.78183728 13:0.21640883 14:0.49501699 15:0.35016012 16:0.64894468 17:0.56833887 18:0.6188966 19:0.43004593 20:0.54621929 21:0.85165906 22:0.56883776 23:0.55134284 24:0.57451987 25:0.49498889 26:0.65561539 27:0.37071243 28:0.48205024 29:0.37344831 30:0.43743774 31:0.61185378 32:0.59256601 33:0.63330877 34:0.69026363 35:0.72026193 36:0.57198256 37:0.494506 38:0.48963755 39:0.51379526 40:0.6219272 41:0.51971555 42:0.58874893 43:0.44647241 44:0.76432389 45:0.40838283 46:0.73003238 47:0.59299475 48:0.52433205 49:0.51685983 50:0.49157164 51:0.74377131 52:0.70408887 53:0.31537586 54:0.54893178 55:0.43397251 56:0.78840065 57:0.46810621 58:0.54271525 59:0.48281649 60:0.68818724 61:0.44185248 62:0.48522669 63:0.68025374 64:0.48121896 65:0.44887617 66:0.45005727 67:0.66669369 68:0.7007215 69:0.6164313 70:0.45902488 71:0.83051866 72:0.64872998 73:0.43643346 74:0.4169848 75:0.41891336 
0 0 0 0 0 0 0 0 0 0 0 0 0 0 0 0.6565286987077327 0 0 0 0 0 0.9317882289261797 0 0 0 0 0 0 1:0.53698409 2:0.30183908 3:0.54366416 4:0.34809712 5:0.63894743 6:0.48559645 7:0.64605415 8:0.60289317 9:0.45508629 10:0.55647767 11:0.17766495 12:0.65894753 13:0.46867672 14:0.78275216 15:0.66986483 16:0.33702236 17:0.4003818 18:0.39923117 19:0.23903888 20:0.54953182 21:0.64054477 22:0.15116267 23:0.46444407 24:0.58105439 25:0.48811215 26:0.31389761 27:0.42199671 28:0.39948034 29:0.37227899 30:0.62941313 31:0.52531791 32:0.56751221 33:0.48154485 34:0.28199467 35:0.58133048 36:0.42335501 37:0.79257643 38:0.54699206 39:0.50958669 40:0.5086596 41:0.44175309 42:0.54934782 43:0.39170191 44:0.42229348 45:0.55834538 46:0.68616331 47:0.57914776 48:0.3716267 49:0.64455438 50:0.65998578 51:0.64473152 52:0.68730652 53:0.38550156 54:0.49201202 55:0.31314903 56:0.74546844 57:0.35399801 58:0.74517298 59:0.47738019 60:0.90828538 61:0.55739081 62:0.50340146 63:0.52079427 64:0.30460244 65:0.42315981 66:0.36946169 67:0.71068734 68:0.5903163 69:0.46193749 70:0.36409077 71:0.70439053 72:0.73439968 73:0.26774511 74:0.54944599 75:0.30755407 
0 0 0.1929238669238346 0 0 0 0 0 0 0 0 0 0 0 0 0 0.3403181953651102 0 0 0 0 0 0 0 0 0 0 0.02640753225198906 1:0.57015496 2:0.37470391 3:0.50978553 4:0.28536934 5:0.21840881 6:0.49837404 7:0.4620581 8:0.59337878 9:0.29012179 10:0.42934081 11:0.51562625 12:0.79716456 13:0.39288631 14:0.48551205 15:0.46303365 16:0.546336 17:0.2569485 18:0.47040805 19:0.43907541 20:0.41081548 21:0.82453644 22:0.425926 23:0.62449872 24:0.65645921 25:0.3683556 26:0.57027054 27:0.20097589 28:0.82739151 29:0.33492383 30:0.40993103 31:0.61017841 32:0.45543352 33:0.49610528 34:0.49757844 35:0.4245269 36:0.44494453 37:0.50988817 38:0.46913126 39:0.57956016 40:0.62627453 41:0.52479732 42:0.50625783 43:0.58931357 44:0.4152045 45:0.48635295 46:0.3660346 47:0.63022476 48:0.50043744 49:0.66518277 50:0.63005692 51:0.80819464 52:0.73605442 53:0.46475038 54:0.71143079 55:0.59051239 56:0.68726856 57:0.41525403 58:0.49521306 59:0.39325163 60:0.62336212 61:0.44551519 62:0.59095949 63:0.63716215 64:0.53196532 65:0.40011063 66:0.5180037 67:0.68948674 68:0.57849747 69:0.61277318 70:0.37665251 71:0.91216248 72:0.54587185 73:0.43307835 74:0.48623931 75:0.52472413 
0 0.9051919114586534 0 1.327245453578695 0 0 0 0 0 0.548981621552558 1.336493861396049 0 0.002590680647720349 0.7166645997364531 1.809953531108229 0.4209245249444121 0 2.120899500863739 0.3934959445040289 0.4045367266678789 1.20347672718003 1.559177229704942 0 0 0.844876810135279 1.380139602605111 0 1.140272923542859 1:0.55408186 2:0.28717247 3:0.76136374 4:0.2887477 5:0.43985859 6:0.4769586 7:0.64734441 8:0.22969966 9:0.30697942 10:0.19434948 11:0.40696272 12:0.77405065 13:0.57248795 14:0.41575819 15:0.58117557 16:0.34126291 17:0.42824626 18:0.60508233 19:0.24079725 20:0.27065122 21:0.63668758 22:0.43774334 23:0.44599563 24:0.71681267 25:0.59450847 26:0.62453371 27:0.45278496 28:0.48637572 29:0.4058153 30:0.69931787 31:0.63108861 32:0.3606905 33:0.50897449 34:0.62401336 35:0.4487884 36:0.63462794 37:0.52700728 38:0.47344172 39:0.62683606 40:0.5318324 41:0.47140577 42:0.48065889 43:0.55206621 44:0.5989247 45:0.66352183 46:0.4078618 47:0.5217998 48:0.3489114 49:0.60939622 50:0.54035175 51:0.72409821 52:0.73188329 53:0.31482789 54:0.59971589 55:0.30386755 56:0.75940388 57:0.50117844 58:0.60293537 59:0.39122698 60:0.75543439 61:0.54785722 62:0.58346599 63:0.67061836 64:0.37147126 65:0.45666105 66:0.40339923 67:0.68369025 68:0.47712639 69:0.42411464 70:0.35671386 71:0.57538444 72:0.60957628 73:0.16594097 74:0.6508919 75:0.24146187 
2.74752876672684 1.787669069438435 0 0 0 0 0.3523246205146236 0 0 0 0.2474791116171405 0.1467551868271447 1.443709862749265 0 1.400005076448669 1.617677207809311 0 0.4330365253640273 0.2189023908814847 0 0.8200107967319907 1.272739021634258 0 1.394189962181748 0 2.077725439224911 0.2026631479008771 0 1:0.74058843 2:0.53005439 3:0.49658623 4:0.32342693 5:0.58274412 6:0.6246686 7:0.63467491 8:0.6068902 9:0.17451875 10:0.58361357 11:0.43452501 12:0.74490285 13:0.37966424 14:0.52143645 15:0.21916091 16:0.5211724 17:0.85402799 18:0.33930048 19:0.52997941 20:0.99008977 21:0.28996664 22:0.62581497 23:0.33421957 24:0.53260398 25:0.88995004 26:0.3881059 27:0.39756131 28:0.50173175 29:0.5485428 30:0.35046485 31:0.7329722 32:0.54893893 33:0.61517859 34:0.41475403 35:0.60590929 36:0.63732839 37:0.55950379 38:0.68853801 39:0.1835888 40:0.64551651 41:0.42142391 42:0.67848039 43:0.49129519 44:0.32858127 45:0.39459488 46:0.65330297 47:0.34264621 48:0.51203078 49:0.39625087 50:0.46543431 51:0.34984487 52:0.44873264 53:0.50674796 54:0.59076941 55:0.38398641 56:0.52418458 57:0.47072154 58:0.35752663 59:0.50772661 60:0.8590551 61:0.3934249 62:0.41976953 63:0.64444941 64:0.51047015 65:0.46274874 66:0.5484671 67:0.57004905 68:0.59277833 69:0.59531528 70:0.42513153 71:0.78893566 72:0.61213493 73:0.53190303 74:0.45926833 75:0.33436352 
0 0 0 0.268103657537935 0 0 0 0 0 0 0 0 0 0 0 0 0 0 0 0 0 0 0 0 0 0 0 0 1:0.57357121 2:0.40501323 3:0.60900545 4:0.34505737 5:0.45931643 6:0.49608916 7:0.51707602 8:0.59418678 9:0.1973197 10:0.41588199 11:0.52901697 12:0.70684749 13:0.70201004 14:0.58302367 15:0.74178392 16:0.51957232 17:0.34996915 18:0.80869204 19:0.42704672 20:0.83858943 21:0.44886559 22:0.31173494 23:0.43651691 24:0.52464759 25:0.49289915 26:0.60850066 27:0.41185653 28:0.76459557 29:0.30509117 30:0.58505064 31:0.52145076 32:0.42046905 33:0.38705942 34:0.61296755 35:0.3710205 36:0.6767872 37:0.32254183 38:0.51716298 39:0.31040967 40:0.52770454 41:0.6491428 42:0.64141613 43:0.57636887 44:0.36155567 45:0.59361416 46:0.3188962 47:0.57591605 48:0.45965171 49:0.5731259 50:0.59247833 51:0.73263812 52:0.77527803 53:0.51876062 54:0.63306588 55:0.54579204 56:0.86867362 57:0.39959037 58:0.33721638 59:0.54926229 60:0.68538928 61:0.50016016 62:0.44285044 63:0.60358524 64:0.52401817 65:0.43119991 66:0.42954695 67:0.6762712 68:0.52684909 69:0.54185939 70:0.35864964 71:0.91273898 72:0.59114063 73:0.46972549 74:0.48371327 75:0.48644355 
0 0.2302970644219172 0 0 0 0 0.07151214301966738 0 0.805985338403315 0.5726074667383845 0 0 0.2282126198098686 1.894037431025262 2.662249659521122 0.6833480450032653 0 0 0 0 2.436193496130684 0 1.768844266962682 0 1.443112536182497 2.246735774182063 0.4205971403285252 0 1:0.67621839 2:0.44743744 3:0.88759542 4:0.52663755 5:0.51278502 6:0.53369266 7:0.57203865 8:0.70577592 9:0.64986312 10:0.47250667 11:0.32112312 12:0.61557508 13:0.53454322 14:0.70002306 15:0.59882867 16:0.25525314 17:0.47043449 18:0.62658459 19:0.41733786 20:0.53468311 21:0.488709 22:0.76922214 23:0.51042473 24:0.45439976 25:0.69585544 26:0.50894791 27:0.66598403 28:0.60418254 29:0.30248272 30:0.42201141 31:0.7042833 32:0.28687409 33:0.63317227 34:0.24667636 35:0.44944954 36:0.42156541 37:0.57001132 38:0.46370867 39:0.25704911 40:0.41685933 41:0.63782054 42:0.55813444 43:0.50180823 44:0.42717764 45:0.46364146 46:0.4869687 47:0.51436687 48:0.52335125 49:0.61944342 50:0.64026779 51:0.53891534 52:0.67345887 53:0.41281924 54:0.70139837 55:0.46557271 56:0.71171802 57:0.45499343 58:0.50777131 59:0.49690485 60:0.69252193 61:0.6524353 62:0.56738609 63:0.45579255 64:0.34853846 65:0.66620404 66:0.35352549 67:0.68265748 68:0.64385742 69:0.48750472 70:0.49013475 71:0.73214447 72:0.72619528 73:0.34619308 74:0.5648461 75:0.2573162 
0 0.6289664836108776 0 1.025183838350032 0 0 0 0 0 2.041115900237255 0.2877193250633069 0 0.5509473051523912 0.4098139715065688 0 0 0 0 0 0 0.4769894231949582 0.7013083814534703 0.01709512530920695 0.4732286007496686 0 0 0 1.525945126362757 1:0.55854678 2:0.17553507 3:0.20930021 4:0.41479486 5:0.57438517 6:0.42726833 7:0.53745121 8:0.54304147 9:0.28236055 10:0.64121497 11:0.29334298 12:0.74076575 13:0.24944988 14:0.61377496 15:0.49216494 16:0.55717081 17:0.66230148 18:0.26993299 19:0.39860952 20:0.60843247 21:0.57390112 22:0.68479604 23:0.61096692 24:0.26500493 25:0.66566372 26:0.51537514 27:0.5321179 28:0.44756541 29:0.50383538 30:0.51887661 31:0.64672124 32:0.43147498 33:0.64703953 34:0.63451636 35:0.40893656 36:0.62254465 37:0.65034395 38:0.43089703 39:0.55318123 40:0.48531798 41:0.34627855 42:0.56352526 43:0.6838665 44:0.42684227 45:0.37136474 46:0.56424737 47:0.51043481 48:0.61169815 49:0.55231714 50:0.69057673 51:0.5775944 52:0.60436457 53:0.3979257 54:0.74774885 55:0.49549189 56:0.67780566 57:0.55170888 58:0.4644801 59:0.52691728 60:0.61572433 61:0.53286839 62:0.33106741 63:0.61091948 64:0.46674269 65:0.35642686 66:0.60711271 67:0.5124718 68:0.36214313 69:0.67660493 70:0.32551202 71:0.77788603 72:0.47380877 73:0.47826791 74:0.38667899 75:0.3176387 
0 0 0 0 0 0 0 0 0 0 0 0 0 0 0 0 0 0 0 0 0 0 0 0 0 0 0.2145411446118402 0 1:0.32455513 2:0.15874965 3:0.81920767 4:0.23034005 5:0.5295459 6:0.56184036 7:0.37955585 8:0.21382762 9:0.66810971 10:0.57604527 11:0.54669493 12:0.76735133 13:0.55387181 14:0.56890047 15:0.38038719 16:0.67412096 17:0.41574603 18:0.36652893 19:0.57623357 20:0.45391247 21:0.71507496 22:0.23053627 23:0.50912362 24:0.50057119 25:0.37487444 26:0.22858244 27:0.40309116 28:0.59742141 29:0.3417435 30:0.47092417 31:0.7156921 32:0.62334794 33:0.57861471 34:0.47967356 35:0.58591652 36:0.71819669 37:0.62619311 38:0.36465338 39:0.58706683 40:0.47281176 41:0.34639865 42:0.56495905 43:0.55144525 44:0.65591097 45:0.5276767 46:0.60601264 47:0.64057827 48:0.67394847 49:0.63654768 50:0.58448422 51:0.7481935 52:0.68039441 53:0.39657676 54:0.68484843 55:0.53402394 56:0.69521499 57:0.45644453 58:0.52526706 59:0.5411697 60:0.72682476 61:0.62121522 62:0.34488109 63:0.63210481 64:0.36121538 65:0.34009999 66:0.37151513 67:0.69647861 68:0.64646941 69:0.53371191 70:0.42803386 71:0.76823783 72:0.57165611 73:0.47324768 74:0.4073604 75:0.4007915 
0 0 0.9046384743874198 0.3665956992243028 0 0.2542797598272412 0 0 0 0 0 0 0 0 0 0 0 0 0 0 0 0 0 0 0 0 0 0 1:0.74768209 2:0.61210734 3:0.57279676 4:0.64911401 5:0.53382307 6:0.52627879 7:0.32338044 8:0.43224421 9:0.53512681 10:0.39387578 11:0.77083921 12:0.62109125 13:0.54252326 14:0.59788901 15:0.48455879 16:0.65787137 17:0.36050209 18:0.46351284 19:0.48756826 20:0.8140201 21:0.67188889 22:0.18887736 23:0.36486265 24:0.55800945 25:0.5372268 26:0.4412683 27:0.46428412 28:0.56277615 29:0.25691035 30:0.42131791 31:0.54285038 32:0.62944221 33:0.43493497 34:0.69626099 35:0.38362035 36:0.61497152 37:0.30974334 38:0.37821698 39:0.68258393 40:0.92076588 41:0.46832886 42:0.53006214 43:0.59031814 44:0.68713772 45:0.59595007 46:0.41372219 47:0.49327189 48:0.6253078 49:0.48443148 50:0.57167619 51:0.77666557 52:0.74846309 53:0.33168307 54:0.64515913 55:0.53713709 56:0.64707756 57:0.37019542 58:0.27562907 59:0.45776808 60:0.56984758 61:0.49247807 62:0.44582799 63:0.68075144 64:0.52121723 65:0.36901641 66:0.46318391 67:0.69679862 68:0.60011494 69:0.56874675 70:0.35204765 71:0.82197398 72:0.61705434 73:0.39321697 74:0.4557516 75:0.53909659 
0 0 0 0 1.827015004756394 0.4814167033364283 0.8445396274355069 0 0 0 0 1.325984077724393 1.204101532050022 0.2632258057789193 0.4976242861112097 0 0 0 2.252657364884 0 0 0 0 0 0 0 1.134496989683856 0 1:0.67203903 2:0.52009296 3:0.526241 4:0.49398613 5:0.62437195 6:0.65949643 7:0.73201865 8:0.59884161 9:0.53406298 10:0.2750684 11:0.65161741 12:0.54573786 13:0.17882311 14:0.56363517 15:0.395969 16:0.52430809 17:0.58101177 18:0.29627672 19:0.67900103 20:0.72941661 21:0.41227975 22:0.64329553 23:0.27304044 24:0.64789087 25:0.65153724 26:0.41424334 27:0.48370802 28:0.55961007 29:0.47998449 30:0.60279667 31:0.73850727 32:0.62331522 33:0.57033598 34:0.67829967 35:0.37947598 36:0.6210078 37:0.45290437 38:0.39213815 39:0.54470634 40:0.42938241 41:0.47472781 42:0.6018638 43:0.71301079 44:0.39400858 45:0.2762365 46:0.58405775 47:0.62463158 48:0.57069051 49:0.59554464 50:0.47894028 51:0.67005539 52:0.69958079 53:0.42581725 54:0.63973445 55:0.42545357 56:0.50231987 57:0.45876318 58:0.21776876 59:0.46350878 60:0.57994902 61:0.48617825 62:0.49184591 63:0.59465832 64:0.25707862 65:0.43548736 66:0.53861493 67:0.66740644 68:0.57986438 69:0.6948058 70:0.40274251 71:0.72777539 72:0.63335621 73:0.50265026 74:0.45177731 75:0.44772297 
0 0 0 0 0 0 0 0 0 0 0 0 0 0 0 0 0 0.3647662680643032 0 0 0 0.6052386467965488 0 0 0 0 0 0 1:0.58284962 2:0.34622499 3:0.57985097 4:0.4377661 5:0.49296919 6:0.56967658 7:0.55110776 8:0.47119075 9:0.26490951 10:0.51291442 11:0.62037235 12:0.40756187 13:0.57251918 14:0.62854642 15:0.4121367 16:0.46262011 17:0.5213089 18:0.54738152 19:0.20602509 20:0.75521708 21:0.46603826 22:0.58831811 23:0.49212351 24:0.73356169 25:0.52743351 26:0.61255169 27:0.29683068 28:0.56369358 29:0.30507696 30:0.53222764 31:0.5632351 32:0.4150534 33:0.52309245 34:0.45519799 35:0.43474448 36:0.51730949 37:0.55892396 38:0.59254116 39:0.49731418 40:0.68200076 41:0.42853227 42:0.49102163 43:0.63590205 44:0.53956795 45:0.63188964 46:0.47734272 47:0.49433404 48:0.60478461 49:0.45864773 50:0.6512906 51:0.67379361 52:0.68884689 53:0.50232118 54:0.67297345 55:0.39462751 56:0.61635017 57:0.45474291 58:0.41695967 59:0.31172454 60:0.74053985 61:0.58085805 62:0.39855576 63:0.7155776 64:0.48659232 65:0.29465258 66:0.36685821 67:0.46910265 68:0.53048462 69:0.5411554 70:0.37933716 71:0.80730665 72:0.522246 73:0.48133102 74:0.42138749 75:0.43691069 
0 0 0 0 0.2622264661981815 0 0 0 0 0.1297373704379555 0.4650526533661012 0 0 0 0 0 0 0 0 0 0 0 0.7469882956764118 0 0.05726384604288212 0 0 0 1:0.49541467 2:0.17276116 3:0.69910091 4:0.43737727 5:0.69291824 6:0.63890207 7:0.48016915 8:0.53853875 9:0.45139381 10:0.30834484 11:0.39321154 12:0.64835185 13:0.59184867 14:0.4804875 15:0.59247065 16:0.53616548 17:0.60455507 18:0.61025858 19:0.58335477 20:0.63435882 21:0.62805587 22:0.81796181 23:0.41269141 24:0.37990302 25:0.55131495 26:0.52699929 27:0.61131102 28:0.32094955 29:0.50172913 30:0.44587445 31:0.8821941 32:0.46215531 33:0.47089279 34:0.33076885 35:0.34559917 36:0.50720447 37:0.65716064 38:0.52686113 39:0.52629125 40:0.66352516 41:0.52137142 42:0.68317932 43:0.50746965 44:0.50954735 45:0.47824979 46:0.3762646 47:0.50473261 48:0.60337466 49:0.70843309 50:0.45951504 51:0.61536545 52:0.5895564 53:0.45266467 54:0.71508032 55:0.5028953 56:0.75565636 57:0.69046569 58:0.27541322 59:0.70494288 60:0.70745832 61:0.56563157 62:0.44808793 63:0.6319716 64:0.32098058 65:0.56159931 66:0.53215694 67:0.69478142 68:0.75480461 69:0.58556789 70:0.52691758 71:0.73292065 72:0.73781329 73:0.45078215 74:0.4475306 75:0.30808386 
0 0.8038228170802952 0.20836624182493 0 0 1.510907872171343 0 0.07563814217910121 0 1.339565417794166 0 0.1008818817352453 0.04899779562603544 0 0 0 0 0 0 0.4161458106408926 0.2991865752332413 0 0 0.3225747110627317 0 0 0 2.684245822674643 1:0.3650682 2:0.48637736 3:0.42360285 4:0.34668687 5:0.52366936 6:0.54595715 7:0.28375658 8:0.61218131 9:0.54101557 10:0.47402865 11:0.4925507 12:0.54666179 13:0.21273403 14:0.62071121 15:0.56710941 16:0.56203043 17:0.1415496 18:0.46919888 19:0.25161985 20:0.64039463 21:0.56263733 22:0.31394914 23:0.38221854 24:0.6284399 25:0.56871837 26:0.29197162 27:0.53595006 28:0.45607737 29:0.12924968 30:0.62899262 31:0.46994716 32:0.47823098 33:0.60157609 34:0.52027696 35:0.49982661 36:0.57478857 37:0.47653505 38:0.30164966 39:0.46121818 40:0.62422335 41:0.39821279 42:0.47841176 43:0.64246106 44:0.4449828 45:0.52364469 46:0.62891632 47:0.54501337 48:0.71750569 49:0.48423672 50:0.605524 51:0.62521207 52:0.42193383 53:0.41717812 54:0.60122746 55:0.45526558 56:0.50708354 57:0.60379565 58:0.61564469 59:0.17868835 60:0.57344621 61:0.71983761 62:0.4971194 63:0.6377995 64:0.55802608 65:0.34457278 66:0.22367179 67:0.62558365 68:0.47503433 69:0.44121733 70:0.39925554 71:0.79879344 72:0.48387888 73:0.36520067 74:0.57525706 75:0.41707513 
0 0 0 0 0 0 0 0 0 0 0 0 0 0 0 0 0 0 0 0 0 0 0 0 0 0 1.206309699689542 0 1:0.40374422 2:0.30925006 3:0.81465858 4:0.62031645 5:0.5283556 6:0.45351875 7:0.38976303 8:0.71654963 9:0.79518431 10:0.51622576 11:0.65529102 12:0.39839929 13:0.67031634 14:0.41748482 15:0.32218367 16:0.42589676 17:0.38961697 18:0.5540477 19:0.44409156 20:0.59319198 21:0.54841769 22:0.65693021 23:0.46236813 24:0.54942805 25:0.47983617 26:0.34236422 27:0.62211758 28:0.41612971 29:0.46856174 30:0.44883186 31:0.80135041 32:0.40102431 33:0.41283289 34:0.40562132 35:0.63523859 36:0.85309029 37:0.45038053 38:0.4152022 39:0.53180933 40:0.54573804 41:0.40878421 42:0.62101138 43:0.52691543 44:0.53180027 45:0.45946214 46:0.32817 47:0.46845475 48:0.56420588 49:0.57178664 50:0.61861068 51:0.73826081 52:0.71803617 53:0.42860585 54:0.52403855 55:0.3291972 56:0.7776621 57:0.60465097 58:0.50596839 59:0.42069423 60:0.76150149 61:0.59641188 62:0.44799486 63:0.49464795 64:0.29452494 65:0.42921817 66:0.37873206 67:0.68860549 68:0.57532829 69:0.48693863 70:0.31119841 71:0.56318349 72:0.69978797 73:0.15341584 74:0.62977087 75:0.25446689 
0 0.6884544487709898 0.3537060965607871 0 0 0 0 0 0.6088337125790315 0.3965004231389029 0 0 0 1.122373120532388 0 1.031703804791303 0 0 0 2.753293690039683 0 0.6320170139863613 0 0 0 0 0.8042553708685607 0 1:0.31900254 2:0.40117088 3:0.33475563 4:0.4479453 5:0.58960903 6:0.40398192 7:0.51334912 8:0.65511376 9:0.6531623 10:0.48148236 11:0.57121605 12:0.59644324 13:0.39418 14:0.55491632 15:0.28203547 16:0.65130246 17:0.32715553 18:0.59387326 19:0.36368772 20:0.25180385 21:0.84184068 22:0.32809591 23:0.4035508 24:0.64018559 25:0.48837537 26:0.35822988 27:0.51167524 28:0.52964383 29:0.22611684 30:0.40335539 31:0.5739702 32:0.46454152 33:0.49075484 34:0.75166571 35:0.62618011 36:0.70332968 37:0.53662431 38:0.42118645 39:0.4694629 40:0.47252825 41:0.46887377 42:0.44224399 43:0.50883549 44:0.49352592 45:0.58893836 46:0.51755089 47:0.46903244 48:0.48129246 49:0.63792062 50:0.65408623 51:0.66367042 52:0.72242832 53:0.34904402 54:0.53751242 55:0.30818531 56:0.83353549 57:0.43285 58:0.63904035 59:0.52492517 60:0.76413238 61:0.57533574 62:0.54564482 63:0.62165385 64:0.30388173 65:0.33802423 66:0.38443556 67:0.7721355 68:0.50884026 69:0.47302222 70:0.42652786 71:0.5724085 72:0.68231064 73:0.11212528 74:0.65081793 75:0.21254531 
0.6714993367006485 0 0 0 0.5884051106687368 0 0.02651998612241097 0 0 0 0 0.08541817142137603 0 0.2654762162719158 0 0 0 0 0.9239135476788251 0 0 1.581121087669092 0 0 0 0 0 0 1:0.93223989 2:0.40664887 3:0.60061795 4:0.3934103 5:0.75872916 6:0.58142513 7:0.26574811 8:0.48175374 9:0.81925559 10:0.56509864 11:0.46432444 12:0.66711885 13:0.27641898 14:0.69515455 15:0.52529389 16:0.52193421 17:0.28078681 18:0.31977239 19:0.16287419 20:0.44580764 21:0.50680566 22:0.63167143 23:0.72005355 24:0.60960943 25:0.42698029 26:0.40198776 27:0.64205533 28:0.67046779 29:0.20623441 30:0.41905487 31:0.60657775 32:0.532511 33:0.76775414 34:0.37083501 35:0.67424154 36:0.21590772 37:0.37621886 38:0.56006908 39:0.35299101 40:0.38529885 41:0.44804868 42:0.64314586 43:0.49265233 44:0.52323937 45:0.1562386 46:0.78513026 47:0.71740508 48:0.42476723 49:0.55375487 50:0.48632911 51:0.63421583 52:0.69420445 53:0.48822153 54:0.65940738 55:0.31803268 56:0.69877964 57:0.3998768 58:0.4966878 59:0.4880096 60:0.75052482 61:0.48348358 62:0.50698501 63:0.64340222 64:0.39930901 65:0.3955684 66:0.49886355 67:0.6689536 68:0.79028904 69:0.53216559 70:0.51158214 71:0.76959372 72:0.69834852 73:0.45124832 74:0.39048526 75:0.42273641 
0 0 0 0 0 0 0 0 0 0 0 0 0 0 0 0 0 0 1.513378380953799 0 0 0 0 0 0 0 0 1.232530476448237 1:0.75995195 2:0.58210325 3:0.50436735 4:0.62722456 5:0.43790102 6:0.47198945 7:0.40057287 8:0.5456751 9:0.30422735 10:0.35669917 11:0.56052989 12:0.82644767 13:0.69851172 14:0.47609684 15:0.56591964 16:0.46390417 17:0.37424979 18:0.50391906 19:0.19378397 20:0.52643526 21:0.80531269 22:0.22637291 23:0.60306257 24:0.56383675 25:0.30604541 26:0.57975161 27:0.33634087 28:0.43986264 29:0.22222897 30:0.61146182 31:0.59438264 32:0.53727502 33:0.56237966 34:0.6043238 35:0.49725839 36:0.67417371 37:0.52508831 38:0.46627122 39:0.61424351 40:0.701594 41:0.51864266 42:0.58074677 43:0.43426293 44:0.65816981 45:0.47436109 46:0.5466516 47:0.61372656 48:0.57779706 49:0.42562389 50:0.59838939 51:0.74826348 52:0.71235555 53:0.36390576 54:0.59454125 55:0.52700651 56:0.54530448 57:0.41087621 58:0.39168951 59:0.43800086 60:0.67992419 61:0.50872761 62:0.56649148 63:0.83451807 64:0.45922464 65:0.38516507 66:0.3982158 67:0.73326063 68:0.58559769 69:0.63849777 70:0.44364586 71:0.82544225 72:0.47719613 73:0.46016222 74:0.44253436 75:0.51629168 
0 0 0 0 0 0 0 0.05252441817041534 0 0.2992210737318587 1.002253597245653 0 0 0 0 0 0.01004190714988421 0 0 0 0 0 0 0 0 0 0.2967139482349648 0 1:0.77913278 2:0.37660322 3:0.48229527 4:0.3534134 5:0.51464307 6:0.39252242 7:0.48238987 8:0.73635644 9:0.38990328 10:0.51089954 11:0.49611127 12:0.79742521 13:0.64151347 14:0.50322056 15:0.37757048 16:0.40916711 17:0.48546967 18:0.55199832 19:0.22959515 20:0.62180912 21:0.52936202 22:0.64345151 23:0.54773694 24:0.50788254 25:0.61731291 26:0.4898282 27:0.48444346 28:0.42850116 29:0.19791754 30:0.54135108 31:0.49005821 32:0.2786679 33:0.59121978 34:0.60673815 35:0.59125048 36:0.50493509 37:0.59467667 38:0.53995377 39:0.62052119 40:0.66465318 41:0.57609612 42:0.49637786 43:0.51189107 44:0.47427046 45:0.59159487 46:0.65506643 47:0.60037017 48:0.46377394 49:0.77038163 50:0.49079978 51:0.76114905 52:0.70797759 53:0.48311138 54:0.60587835 55:0.50745875 56:0.69099313 57:0.49367878 58:0.48684895 59:0.40628934 60:0.72518772 61:0.67631346 62:0.5512079 63:0.49669904 64:0.52569807 65:0.46183622 66:0.3669121 67:0.66556269 68:0.57615554 69:0.55344236 70:0.36491498 71:0.71797055 72:0.61766481 73:0.4833653 74:0.45120439 75:0.36152747 
0 0 0 0 0 0 1.60517632699208 0.5165106217505731 0 0 0 1.94992766787767 1.036241333911569 0 0 0 0.1455690786605398 2.381399929455823 0 1.516458572076404 6.528075965608719 0 3.71052332535096 0 0 0 0 0 1:0.57779741 2:0.31554854 3:0.41937828 4:0.5025245 5:0.44185418 6:0.5230689 7:0.38798162 8:0.51852357 9:0.66270971 10:0.48215452 11:0.74733382 12:0.70945001 13:0.58771122 14:0.46269009 15:0.45724747 16:0.50092536 17:0.56013978 18:0.36987162 19:0.4216859 20:0.70257604 21:0.74164969 22:0.54010773 23:0.5008319 24:0.39803815 25:0.39631519 26:0.45369479 27:0.65532279 28:0.40227845 29:0.40824637 30:0.49855888 31:0.52138084 32:0.33346725 33:0.58071858 34:0.61425263 35:0.70060933 36:0.6205017 37:0.53671777 38:0.38284498 39:0.66094804 40:0.42109093 41:0.48870558 42:0.56621283 43:0.62116992 44:0.5500412 45:0.48614606 46:0.51707333 47:0.51745105 48:0.52447569 49:0.53903127 50:0.7100994 51:0.73135209 52:0.62565297 53:0.34999096 54:0.70331293 55:0.33359581 56:0.6145885 57:0.55168796 58:0.52395648 59:0.36557153 60:0.60444766 61:0.61464763 62:0.5746904 63:0.66180581 64:0.49656358 65:0.3543731 66:0.34873813 67:0.66168761 68:0.55124438 69:0.51707345 70:0.39275062 71:0.64418054 72:0.40485558 73:0.44723126 74:0.53761595 75:0.43309692 
2.180841313229149 0 0 0 0.4910129749035796 0 1.688509885567597 0.8698474744361411 1.671279402038611 0.07251186564337556 0 0 0 0 1.893303420192947 4.185323380065983 0 0.5951090635950674 0.2739672787010872 0 1.503883724567155 1.175682515347137 0 0.8791753694517128 0 0 0 0 1:0.50114912 2:0.28684396 3:0.53200942 4:0.38937682 5:0.57073504 6:0.59265101 7:0.41684759 8:0.47425461 9:0.56556958 10:0.74648619 11:0.49717119 12:0.57008612 13:0.45600781 14:0.56543177 15:0.4922848 16:0.70961374 17:0.4193061 18:0.4968816 19:0.16641892 20:0.53060091 21:0.72333175 22:0.46912688 23:0.46181092 24:0.6454854 25:0.40564498 26:0.37248152 27:0.3811793 28:0.44958442 29:0.38594964 30:0.53260702 31:0.80897927 32:0.57554775 33:0.4234437 34:0.60694152 35:0.56478792 36:0.62677014 37:0.60378033 38:0.4862389 39:0.64565915 40:0.73996574 41:0.51717645 42:0.50736797 43:0.55743712 44:0.67708719 45:0.5837642 46:0.54739815 47:0.43074673 48:0.57069218 49:0.61229515 50:0.65823007 51:0.77250981 52:0.66863 53:0.40849641 54:0.77273637 55:0.37057602 56:0.72041613 57:0.37878266 58:0.37795547 59:0.48866636 60:0.84645283 61:0.49374571 62:0.47326311 63:0.64182365 64:0.44533166 65:0.28484473 66:0.33323267 67:0.71321905 68:0.64086604 69:0.66642964 70:0.45393252 71:0.64823425 72:0.58696318 73:0.31745726 74:0.54808909 75:0.37002468 
0 0 0 0 0 0 0 0 0 0 0 0 0 0 0 0 0 0 0 0 0 0 0 0 0 0 0 0.2615089602743287 1:0.45775825 2:0.65944588 3:0.32182845 4:0.17759858 5:0.46760243 6:0.36447382 7:0.21985146 8:0.46782747 9:0.40614665 10:0.63169193 11:0.51429874 12:0.5979811 13:0.11773558 14:0.54955781 15:0.37035197 16:0.22555611 17:0.57655323 18:0.33700716 19:0.43423474 20:0.58025587 21:0.7198928 22:0.49589112 23:0.5427916 24:0.67111844 25:0.38570765 26:0.22340161 27:0.4852114 28:0.72303152 29:0.20877813 30:0.49922884 31:0.75919455 32:0.33557111 33:0.51259392 34:0.39258987 35:0.49981862 36:0.52769864 37:0.4808585 38:0.44217861 39:0.61064529 40:0.52171135 41:0.51437938 42:0.49686038 43:0.54629171 44:0.37330449 45:0.52159947 46:0.45978943 47:0.61791754 48:0.57360971 49:0.51818782 50:0.64042795 51:0.66042662 52:0.70249242 53:0.50491887 54:0.73506123 55:0.36728367 56:0.60802156 57:0.52608216 58:0.46067813 59:0.44971403 60:0.66227323 61:0.57572585 62:0.51046252 63:0.65453947 64:0.43335551 65:0.35502148 66:0.33733565 67:0.6549803 68:0.66055119 69:0.6148628 70:0.41679054 71:0.85210401 72:0.50997257 73:0.43033597 74:0.50331455 75:0.44361365 
0.756064569717681 0 0.457133365937557 0 0.7883816026289181 0.3637143154790504 0.3290597513460191 0 1.458159391845152 1.082687351977471 0.5740914291523378 1.977184218662023 2.01129277472082 0.4260977623378137 1.543418827598605 0 0 0 2.922747097762131 0 0 0.4503688550843566 0 0.3351593834102872 0.09606839096873138 0.1070783524015452 0.3952360858757126 0 1:0.58432055 2:0.26485023 3:0.59584737 4:0.16464739 5:0.49467957 6:0.13026634 7:0.6888513 8:0.47751048 9:0.76914114 10:0.68119705 11:0.53018385 12:0.72572464 13:0.62352753 14:0.56559801 15:0.5762794 16:0.19746305 17:0.55051965 18:0.30902106 19:0.57550615 20:0.4432447 21:0.63112187 22:0.36387321 23:0.51529348 24:0.78089166 25:0.64907306 26:0.5741204 27:0.46363372 28:0.57330829 29:0.35714349 30:0.49460885 31:0.64397448 32:0.3382374 33:0.6010353 34:0.30986589 35:0.74389154 36:0.25871578 37:0.44798824 38:0.48093468 39:0.54503256 40:0.41458833 41:0.48301491 42:0.32634875 43:0.54653805 44:0.40504727 45:0.46079341 46:0.66829228 47:0.65283436 48:0.35355848 49:0.56837028 50:0.31601229 51:0.70268911 52:0.57929546 53:0.37851235 54:0.52996951 55:0.28612134 56:0.47232556 57:0.50166303 58:0.50936949 59:0.2186285 60:0.70043087 61:0.5727933 62:0.59818751 63:0.55198199 64:0.42843622 65:0.43926623 66:0.26831037 67:0.61610782 68:0.50581813 69:0.5380134 70:0.39244094 71:0.75531101 72:0.66489953 73:0.31792402 74:0.53212965 75:0.41342545 
