svm_type c_svc
kernel_type rbf
gamma 0.09
nr_class 40
total_sv 1165
rho -0.0650425 -0.226961 -0.149821 -0.173123 -0.233231 -0.0700928 -0.365815 0.0153524 0.0764833 0.0588286 -0.0207235 -0.101889 -0.0711783 -0.0614795 -0.0370292 -0.0849981 -0.297735 -0.176277 -0.0854023 -0.298414 -0.338818 0.0217727 -0.302785 -0.336299 -0.231856 -0.484694 -0.355832 -0.372114 -0.333411 -0.021147 -0.0301999 -0.0372934 -0.142368 -0.00730091 -0.128308 0.0102461 -0.0187318 -0.0667669 -0.153744 0.0450051 -0.011166 0.109341 0.019966 -0.0507054 0.0166467 0.358305 0.0735923 0.174817 0.117058 0.0538536 0.0854188 -0.0152574 0.130526 0.0463989 -0.10861 -0.0171205 0.00569482 -0.098322 -0.0970639 0.218604 -0.146408 -0.122814 -0.0347205 -0.109781 -0.199655 -0.192955 -0.141112 0.138503 0.147235 0.144007 0.156361 0.180733 0.170247 0.164495 0.0405147 0.0765468 0.0449334 -0.0728946 0.110392 -0.112371 -0.0302122 -0.0494645 0.107433 0.241774 0.0901459 0.116507 0.100064 0.0332214 0.00232579 -0.086119 0.0965447 -0.145752 -0.0565877 -0.0336297 -0.12881 -0.168656 0.156147 -0.215404 -0.237129 -0.0938782 -0.2389 -0.187869 -0.272026 -0.144292 0.0798851 0.0061072 0.158129 0.209701 0.0937224 0.118285 0.0331617 0.126389 0.037871 -0.0349643 0.0720552 0.0450688 0.0878087 0.00477952 0.218915 0.3105 0.151541 0.139877 0.0141468 0.0799047 0.11682 0.103374 0.135703 -0.0720486 0.0483304 0.0505783 -0.0452508 -0.116343 0.217495 -0.163557 -0.106946 -0.0326142 -0.174593 -0.138227 -0.162257 -0.168606 0.117478 0.0920434 0.179313 0.25598 0.169673 0.0659147 0.216358 0.117218 0.0362531 0.0841441 -0.192239 -0.0620402 -0.0917424 0.0258497 0.205383 0.147027 0.0153251 0.00517229 -0.000724481 -0.0519479 0.00315012 0.0893636 -0.0858089 0.00727151 -0.00966316 -0.05564 -0.138708 0.104048 -0.182728 -0.195385 -0.0592607 -0.188367 -0.191211 -0.239388 -0.147253 0.0492992 0.0818992 0.165933 0.0938927 0.120061 0.0397453 0.189218 0.0505812 -0.0221482 0.00289302 0.00956189 0.0614474 0.277101 0.17695 0.146793 0.319271 0.0945277 0.0661642 0.0888976 0.0618893 0.0348487 -0.11891 0.041354 0.0972077 0.039456 -0.084485 0.244715 -0.105946 -0.166202 -0.0696606 -0.181665 -0.158033 -0.227993 -0.184521 0.191975 0.115824 0.153618 0.190607 0.163423 0.28092 0.0720049 0.100572 0.0980021 0.148879 -0.0494782 0.19899 0.205652 0.0835466 0.221035 -0.0070439 0.0422015 0.0228721 -0.0361145 0.0663845 -0.0561149 0.0588074 0.0940031 -0.0587497 -0.0922436 0.248903 -0.152776 -0.155083 -0.0548615 -0.149988 -0.129529 -0.211317 -0.14817 0.165453 0.1222 0.113665 0.159504 0.177982 0.204632 0.245819 0.15858 0.108346 0.0863671 0.168239 0.333625 0.128793 0.273215 0.054289 0.0646378 -0.120641 0.1244 0.0570863 -0.0704832 0.050891 0.0554443 -0.0617341 -0.0744972 0.163431 -0.0602918 -0.120165 -0.0762376 -0.150245 -0.218247 -0.211411 -0.124936 0.168151 0.18418 0.212045 0.211707 0.190361 0.163447 0.299259 0.110965 0.0854907 0.132845 -0.0150596 0.00451392 -0.0484124 -0.00335125 -0.0643295 0.0538573 -0.103565 -0.0336439 -0.247119 -0.192089 -0.159811 -0.217974 -0.272034 0.104016 -0.373974 -0.403396 -0.118989 -0.295185 -0.255205 -0.435187 -0.335919 -0.0102619 -0.0123831 0.0454384 0.111265 -0.0161541 -0.0387296 0.114668 -0.0669362 -0.0376079 -0.0942193 -0.0445573 -0.183575 -0.135511 -0.0889902 -0.0224913 -0.273392 -0.161378 -0.310963 -0.187249 -0.232108 -0.234951 -0.359176 -0.104346 -0.422159 -0.348248 -0.270373 -0.337355 -0.351323 -0.409167 -0.438857 -0.108535 -0.106773 -0.152838 -0.096612 -0.0884523 -0.0965004 -0.0282096 -0.105659 -0.186898 -0.191014 -0.0819585 -0.0589232 -0.0777093 -0.0700987 -0.150592 -0.127229 -0.202906 -0.0785817 -0.124884 -0.139647 -0.240002 0.0815245 -0.253202 -0.286394 -0.218632 -0.305355 -0.333188 -0.381662 -0.285122 0.0128956 -0.00653283 0.0492264 0.0526321 -0.0289743 -0.111529 -0.0479089 -0.0525785 -0.0567745 -0.143405 -0.129203 -0.125546 -0.166499 -0.0920576 -0.0561694 -0.224234 -0.104081 -0.122227 -0.186232 -0.204537 -0.0802216 -0.320154 -0.338599 -0.194408 -0.343555 -0.408902 -0.366601 -0.300414 0.047274 0.0903838 0.120472 -0.0212716 0.0527382 -0.0251192 -0.0352542 0.0153177 -0.198063 -0.00858748 -0.101185 -0.119733 -0.154302 -0.0273266 -0.173483 -0.0556409 -0.0490786 -0.126476 -0.177473 0.180718 -0.195484 -0.278557 -0.180444 -0.285469 -0.282621 -0.225094 -0.260467 -0.035103 0.0519306 0.0290518 0.156915 0.0566092 -0.0905273 -0.0734575 0.0599938 -0.0933267 0.0197291 -0.031526 0.0171283 -0.0523965 -0.13057 -0.0127998 -0.0139905 -0.070281 -0.150193 0.146565 -0.192362 -0.223694 -0.111826 -0.289241 -0.231073 -0.273372 -0.219634 0.0976595 0.16241 0.0851216 0.182533 0.0665876 -0.029512 0.0951001 0.0716931 -0.0270268 0.0162161 -0.0396 -0.0890375 -0.209142 -0.0616273 -0.0632766 -0.0814562 -0.203041 0.0279079 -0.246481 -0.209853 -0.136294 -0.248415 -0.264525 -0.237446 -0.251301 0.0662606 0.0270732 0.157544 0.154455 0.0655406 0.165102 -0.0397426 -0.0230583 -0.013642 0.0343786 -0.0961661 -0.119659 0.0125299 -0.0286706 -0.0825468 -0.112071 0.0765689 -0.191569 -0.195677 -0.143144 -0.223072 -0.236903 -0.212673 -0.150534 0.120511 0.147793 0.121754 0.101307 0.149184 0.117886 0.0284878 0.0753461 -0.153636 -0.0599512 -0.174025 0.0465817 -0.0861778 -0.123486 -0.156526 0.118638 -0.236667 -0.239742 -0.138087 -0.286849 -0.216495 -0.262728 -0.189553 0.099863 0.0083538 0.00297324 0.120155 0.0976327 -0.0922969 0.0821855 0.186508 0.076733 0.0564088 0.106229 0.133132 0.0376234 -0.0880927 0.23967 -0.0859921 -0.177177 -0.00951484 -0.0976581 -0.122453 -0.122752 -0.104249 0.249145 0.215091 0.27116 0.300208 0.2227 0.239323 0.277702 0.0998178 0.167727 0.091313 0.0397605 -0.0229787 -0.13358 0.144524 -0.184357 -0.17115 -0.151609 -0.247781 -0.189189 -0.201419 -0.156964 0.0692388 0.185848 0.153422 0.253402 0.157517 0.104136 0.210032 0.145237 0.069841 0.115654 -0.054316 -0.129291 0.0930834 -0.207015 -0.165754 -0.176287 -0.231982 -0.226988 -0.224359 -0.253443 0.106481 0.0602793 0.0823268 0.102233 0.125521 0.053684 0.11582 0.0774887 0.0314594 0.0900076 -0.148533 0.208336 -0.160754 -0.164984 -0.0246317 -0.139804 -0.165443 -0.21515 -0.147155 0.143369 0.230782 0.174803 0.274662 0.215488 0.210879 0.253559 0.0977177 0.0777806 0.183434 0.400554 -0.0902406 0.000279561 -0.013001 -0.0750076 -0.0685032 -0.0776784 -0.0141736 0.263954 0.272622 0.296699 0.236715 0.286166 0.22819 0.261951 0.247939 0.155486 0.248168 -0.395663 -0.34506 -0.1938 -0.384594 -0.353404 -0.380601 -0.283107 -0.0227761 0.01051 0.080406 0.0204363 -0.0148264 -0.00282929 0.0341171 -0.00809548 -0.146831 -0.0373035 0.0243074 0.0811724 -0.0560569 -0.0306852 -0.0299564 0.0220952 0.29455 0.307131 0.3332 0.450311 0.278556 0.230579 0.411436 0.269118 0.168223 0.193838 0.0491417 -0.0296413 0.0210592 -0.02505 -0.0156286 0.208359 0.28092 0.269791 0.335541 0.314615 0.191323 0.406045 0.162646 0.209173 0.227421 -0.0855127 -0.036999 -0.133282 -0.0495035 0.162899 0.07622 0.189575 0.282512 0.131299 0.181427 0.176462 0.121525 0.0782288 0.0843807 -0.0211113 -0.0118035 0.0412393 0.3169 0.299118 0.312899 0.323447 0.286654 0.310515 0.379737 0.307902 0.269076 0.209746 -0.0286712 -0.00962955 0.300081 0.334053 0.342495 0.406428 0.279005 0.343158 0.400083 0.262581 0.232347 0.243672 0.0559933 0.29142 0.325313 0.369352 0.325951 0.384152 0.342957 0.364337 0.285883 0.250921 0.219243 0.305964 0.241289 0.333639 0.285414 0.266058 0.268166 0.270078 0.221796 0.18088 0.219609 -0.0377869 0.048584 -0.0625368 0.0294215 0.0826669 0.0780327 -0.0368158 -0.120311 0.004036 0.093499 0.0172507 0.0552758 0.0323855 0.121257 -0.0173706 -0.0744221 0.0305336 -0.0412146 0.0350136 0.00680131 -0.0617447 -0.0318347 -0.153771 -0.0496173 -0.00168495 -0.0605392 -0.103183 -0.123968 -0.267406 -0.142865 -0.0492042 0.00386378 -0.0568013 -0.106102 -0.0283464 0.252125 0.00267182 -0.0503403 -0.0297291 0.0667074 -0.238833 -0.115579 -0.0235942 0.00504099 0.0591563
label 11111 111110 111111 111112 111113 111114 111115 111116 111117 111118 111119 11112 111120 111121 111122 111123 111124 111125 111126 111127 111128 111129 11113 111130 111131 111132 111133 111134 111135 111136 111137 111138 111139 11114 111140 11115 11116 11117 11118 11119
probA -3.79086 -3.81644 -3.87441 -3.7922 -3.64319 -3.81319 -3.68334 -4.15706 -4.02043 -3.83818 -4.32453 -3.89284 -3.82911 -3.84269 -3.82169 -3.86613 -3.74188 -3.83314 -3.83781 -3.95814 -3.60115 -4.24689 -3.48313 -3.52664 -3.6469 -3.58387 -3.5653 -3.54329 -3.52046 -3.78598 -3.81181 -3.84391 -4.33378 -3.8304 -4.07465 -4.06998 -3.84434 -3.83437 -3.94001 -3.28463 -3.23595 -3.28039 -3.06305 -3.27669 -3.05579 -3.4602 -3.57904 -3.34259 -3.80553 -3.28062 -3.2366 -3.2911 -3.2507 -3.22751 -3.25489 -3.26787 -3.20509 -3.379 -2.91793 -3.77395 -2.96504 -2.95357 -2.95925 -2.93549 -2.98579 -2.9834 -2.98964 -3.27209 -3.26817 -3.29868 -3.76003 -3.29183 -3.59349 -3.51003 -3.22609 -3.22515 -3.26656 -3.2643 -3.28042 -3.23138 -3.32066 -3.18591 -3.51633 -3.52922 -3.34961 -3.84638 -3.33315 -3.3244 -3.32691 -3.38274 -3.31629 -3.35917 -3.35404 -3.34457 -3.45808 -3.01526 -3.87932 -3.02553 -2.97693 -2.99507 -3.09405 -3.06047 -3.08087 -3.07798 -3.30784 -3.3115 -3.31319 -3.82515 -3.38367 -3.55495 -3.64064 -3.37116 -3.31294 -3.42162 -3.25877 -3.03713 -3.24078 -3.06745 -3.50972 -3.52038 -3.23851 -3.81028 -3.3154 -3.24752 -3.28196 -3.28521 -3.24413 -3.2598 -3.35484 -3.29231 -3.37953 -2.92419 -3.77676 -2.90098 -2.92071 -2.98794 -2.99818 -2.96701 -2.95632 -2.92939 -3.25441 -3.33159 -3.29564 -3.78852 -3.26839 -3.55847 -3.51328 -3.25354 -3.23265 -3.24313 -3.22833 -3.34978 -3.16554 -3.57231 -3.5518 -3.30025 -3.78027 -3.30082 -3.3044 -3.32165 -3.28629 -3.32648 -3.3199 -3.35115 -3.2731 -3.43366 -2.93083 -3.81282 -2.94907 -2.93777 -2.97143 -3.04127 -3.03157 -3.08213 -2.99177 -3.30915 -3.28956 -3.33779 -3.83461 -3.30446 -3.56825 -3.56079 -3.2184 -3.3061 -3.28062 -3.22592 -2.98958 -3.5261 -3.51254 -3.08781 -3.65596 -3.10607 -3.24273 -3.16157 -3.11263 -3.18812 -3.1303 -3.29828 -3.17599 -3.2709 -2.78471 -3.64365 -2.75515 -2.77197 -2.77215 -2.88019 -2.86968 -2.91879 -2.89848 -3.16783 -3.18141 -3.18256 -3.71247 -3.15679 -3.59022 -3.42352 -3.16138 -3.13353 -3.1808 -3.1841 -3.56946 -3.5755 -3.35747 -3.83285 -3.31431 -3.358 -3.35518 -3.29012 -3.29187 -3.26936 -3.31836 -3.35159 -3.41203 -3.03897 -3.8827 -2.9665 -3.00577 -3.09007 -3.04286 -3.10864 -3.04502 -3.0127 -3.32469 -3.32924 -3.30106 -3.7865 -3.33906 -3.54342 -3.5622 -3.27644 -3.26852 -3.33357 -3.43827 -3.41934 -3.13303 -3.63972 -3.1777 -3.14024 -3.22964 -3.11918 -3.14616 -3.12671 -3.1564 -3.11907 -3.29938 -2.79258 -3.6575 -2.82748 -2.76729 -2.79472 -2.81593 -2.87888 -2.85004 -2.82494 -3.16778 -3.2062 -3.15186 -3.67389 -3.19017 -3.4496 -3.43042 -3.10829 -3.09942 -3.20022 -3.80947 -3.53783 -4.0312 -3.60121 -3.60347 -3.65807 -3.5678 -3.53014 -3.55269 -3.59358 -3.56773 -3.72831 -3.24535 -4.03944 -3.18842 -3.27864 -3.28848 -3.32643 -3.31203 -3.31655 -3.34623 -3.57605 -3.54001 -3.63215 -4.07028 -3.57993 -3.82575 -3.80592 -3.55735 -3.57908 -3.61938 -3.54395 -4.04633 -3.5204 -3.57719 -3.63169 -3.55854 -3.50048 -3.51117 -3.64806 -3.57389 -3.70591 -3.26717 -3.99496 -3.29917 -3.26334 -3.3449 -3.29188 -3.38325 -3.30672 -3.37991 -3.53564 -3.6401 -3.57071 -4.06369 -3.56109 -3.88644 -3.86915 -3.56268 -3.57548 -3.66501 -3.85992 -3.26942 -3.28913 -3.38836 -3.25065 -3.3614 -3.33541 -3.35418 -3.34597 -3.41606 -3.0129 -3.81831 -3.07337 -2.98114 -3.03392 -3.03423 -3.0832 -3.01363 -3.09743 -3.33047 -3.31694 -3.3422 -3.84194 -3.41923 -3.55515 -3.67875 -3.29145 -3.28156 -3.33519 -3.78089 -3.80543 -3.78919 -3.8205 -3.76262 -3.78449 -3.91571 -3.84214 -3.9431 -3.57886 -4.36593 -3.48922 -3.4752 -3.58221 -3.55937 -3.55662 -3.55102 -3.56659 -3.81323 -3.86236 -3.81217 -4.32098 -3.8308 -4.0487 -4.10011 -3.80379 -3.79857 -3.84565 -3.30495 -3.24704 -3.32503 -3.30513 -3.33104 -3.38314 -3.30555 -3.47064 -2.94141 -3.82987 -2.971 -2.95864 -2.95217 -3.07051 -3.07231 -3.06025 -2.95227 -3.32788 -3.37161 -3.34909 -3.82596 -3.33306 -3.6262 -3.59104 -3.21007 -3.30094 -3.35818 -3.36864 -3.30406 -3.23099 -3.32355 -3.38282 -3.35922 -3.43613 -3.00797 -3.78565 -2.96685 -2.99774 -2.98642 -3.00237 -3.02979 -2.98699 -3.04577 -3.36612 -3.35643 -3.35516 -3.8657 -3.30813 -3.50497 -3.62951 -3.25621 -3.29798 -3.42376 -3.32015 -3.27722 -3.26037 -3.36179 -3.3098 -3.44221 -2.96107 -3.82877 -2.98656 -2.98411 -3.00099 -3.01529 -3.02488 -3.04228 -2.99745 -3.31876 -3.31485 -3.31934 -3.79055 -3.33562 -3.60122 -3.55863 -3.28501 -3.28316 -3.24627 -3.31297 -3.29365 -3.28242 -3.27892 -3.39332 -2.92938 -3.79164 -2.88358 -2.89591 -3.01376 -3.10142 -3.00186 -3.05983 -3.0282 -3.33254 -3.35315 -3.33386 -3.77831 -3.29555 -3.62603 -3.5578 -3.34401 -3.27694 -3.28189 -3.28295 -3.34631 -3.29115 -3.43435 -2.95124 -3.75567 -2.94436 -2.98101 -3.03657 -2.99721 -3.07619 -3.0684 -3.02973 -3.40541 -3.28768 -3.2815 -3.8238 -3.31049 -3.61198 -3.57621 -3.1142 -3.28474 -3.34144 -3.33811 -3.33314 -3.38604 -3.00224 -3.82134 -3.04362 -2.97704 -2.99449 -3.05172 -3.04693 -3.0946 -2.98998 -3.31579 -3.38068 -3.38905 -3.84312 -3.30295 -3.58909 -3.62788 -3.34704 -3.24302 -3.27283 -3.30258 -3.49283 -2.96145 -3.91964 -3.00993 -3.03704 -3.13405 -3.03066 -3.09905 -3.08793 -3.10682 -3.3627 -3.31129 -3.36583 -3.89052 -3.37398 -3.60363 -3.62952 -3.28706 -3.29518 -3.36385 -3.47585 -3.07547 -3.7917 -2.93694 -3.02281 -3.01573 -3.04402 -3.04181 -3.07224 -3.07028 -3.34316 -3.35028 -3.36391 -3.83663 -3.35913 -3.55028 -3.57881 -3.2197 -3.26731 -3.36506 -3.10305 -3.96703 -3.06062 -3.06724 -3.2444 -3.16189 -3.1335 -3.21141 -3.18615 -3.43895 -3.44783 -3.47109 -3.9711 -3.4163 -3.69772 -3.69724 -3.38079 -3.43301 -3.45898 -3.57644 -2.62217 -2.58994 -2.61338 -2.68726 -2.771 -2.7803 -2.69302 -3.03293 -2.95657 -2.99524 -3.4504 -3.02427 -3.25614 -3.26978 -2.94028 -3.06624 -3.01435 -3.44208 -3.53729 -3.47735 -3.59012 -3.563 -3.55455 -3.51741 -3.79888 -3.87844 -3.79707 -4.29122 -3.76251 -4.09001 -4.02543 -3.80909 -3.82848 -3.85489 -2.489 -2.65137 -2.72511 -2.64357 -2.70079 -2.65976 -2.98751 -2.99887 -3.00098 -3.49081 -2.93603 -3.25023 -3.20122 -2.92944 -2.93899 -2.96948 -2.64653 -2.71076 -2.72078 -2.76062 -2.68991 -3.00704 -3.03366 -3.00826 -3.46432 -2.9616 -3.26855 -3.23181 -2.90038 -2.93248 -3.01803 -2.82566 -2.74659 -2.74271 -2.68507 -3.04848 -3.02636 -2.99565 -3.52668 -3.03569 -3.25317 -3.33027 -3.00564 -2.94564 -3.07051 -2.78071 -2.83425 -2.77136 -3.06558 -3.06481 -3.0738 -3.57656 -3.08927 -3.32667 -3.3213 -3.02364 -2.99943 -3.05841 -2.75756 -2.77521 -3.08048 -3.02601 -3.10195 -3.55388 -3.05625 -3.32907 -3.30712 -2.95343 -2.99708 -3.11255 -2.79302 -3.08965 -3.06205 -3.07672 -3.52568 -3.036 -3.34583 -3.31604 -3.0203 -3.048 -3.04209 -3.06829 -3.09645 -3.08512 -3.57833 -3.09392 -3.30868 -3.3236 -2.94507 -3.0058 -3.0464 -3.30683 -3.32511 -3.82703 -3.33382 -3.66811 -3.59574 -3.27438 -3.30986 -3.3381 -3.42348 -3.81842 -3.32082 -3.64896 -3.66209 -3.30187 -3.32263 -3.39579 -3.85386 -3.32032 -3.55918 -3.58669 -3.35526 -3.30664 -3.34282 -3.86376 -4.02876 -4.09088 -3.86221 -3.76376 -3.8259 -3.58595 -3.64089 -3.29395 -3.33584 -3.3047 -3.8845 -3.5133 -3.62313 -3.6961 -3.58055 -3.55892 -3.59631 -3.25378 -3.30451 -3.34309
probB -0.549572 -0.450362 -0.474942 -0.486816 -0.53853 -0.363923 -0.569523 -0.0568857 -0.219178 -0.46004 -0.0323598 -0.476155 -0.472304 -0.433659 -0.38205 -0.396983 -0.541929 -0.548271 -0.529981 -0.350032 -0.635538 -0.0345109 -0.84721 -0.737563 -0.617496 -0.657081 -0.686295 -0.680104 -0.645826 -0.476036 -0.435232 -0.430996 -0.0161716 -0.393586 -0.23069 -0.205517 -0.433623 -0.483022 -0.438133 0.0470774 0.00481397 0.0625831 -0.0651722 0.0322032 -0.122457 0.253052 0.312635 0.00959369 0.482525 0.0373789 0.0458162 0.035356 0.00877726 0.0486019 0.0283398 0.0492978 0.0139255 0.109919 -0.266851 0.48555 -0.191374 -0.215895 -0.196729 -0.124315 -0.218217 -0.163503 -0.165576 0.0406091 0.0262852 0.0240793 0.485043 0.0677764 0.205268 0.248179 0.00633302 0.0286063 0.0841925 -0.0735111 0.0117945 -0.165353 -0.0429991 -0.0987719 0.164725 0.137941 -0.0607358 0.410187 0.0200481 -0.0342964 -0.115528 -0.0791244 -0.0321806 -0.0250265 -0.096889 -0.00927121 0.0775582 -0.302509 0.37819 -0.319549 -0.323011 -0.350616 -0.269613 -0.247827 -0.275705 -0.218129 -0.0349985 -0.0300959 0.0226877 0.349498 -0.083779 0.175303 0.148234 -0.0249863 -0.0434548 -0.116689 0.0304407 -0.116561 0.0684909 -0.0760571 0.229285 0.280002 0.0682539 0.47646 0.124555 -0.00645727 0.0133674 0.0296042 0.0181876 0.0608075 0.0706026 0.0239646 0.163875 -0.212983 0.4741 -0.273993 -0.276209 -0.201098 -0.220339 -0.183008 -0.196111 -0.147406 0.0607442 0.0737715 0.0294568 0.483257 0.0271717 0.203081 0.274143 -0.0117895 0.0145312 0.0828403 -0.0969163 -0.0167411 -0.140674 0.197608 0.177515 0.010347 0.458686 -0.0579503 -0.0336671 -0.0740673 -0.0204735 -0.0629389 -0.00766044 0.0141463 -0.0168166 0.135694 -0.291763 0.362612 -0.352836 -0.332077 -0.29322 -0.207942 -0.269178 -0.239526 -0.207029 -0.0032546 0.000943209 -0.0313163 0.375605 0.0155311 0.241994 0.197321 -0.0337955 -0.0014774 0.08515 0.139624 6.06902e-05 0.364147 0.251493 0.120731 0.471104 0.139296 0.0714582 0.0625531 0.170084 0.145744 0.131918 0.157331 0.138858 0.281666 -0.15607 0.559517 -0.142453 -0.154558 -0.126547 -0.0691176 -0.0973299 -0.0817782 -0.0438805 0.0915935 0.127189 0.152301 0.577168 0.180324 0.140829 0.318871 0.0744777 0.126797 0.120874 -0.161305 0.184553 0.251476 -0.046913 0.406313 -0.0231762 0.00772514 -0.0790971 -0.0527597 -0.000538009 -0.00397138 -0.00569585 -0.0402494 0.102534 -0.285364 0.396392 -0.322341 -0.297561 -0.227469 -0.237503 -0.217844 -0.146185 -0.257122 0.00239239 0.0013356 -0.00790873 0.424152 -0.0212833 0.233325 0.212105 0.0215297 -0.0141849 0.0349393 0.39271 0.307729 0.148135 0.516409 0.182694 0.16239 0.0910998 0.129188 0.104381 0.160882 0.151082 0.137761 0.205104 -0.120111 0.558958 -0.0515453 -0.125838 -0.0654132 -0.0334553 -0.0436455 -0.0648199 -0.0756242 0.173024 0.140974 0.130894 0.550177 0.194209 0.272454 0.298789 0.122272 0.166183 0.217035 -0.0787096 -0.25598 0.192087 -0.248606 -0.245405 -0.250458 -0.159252 -0.213973 -0.306443 -0.261953 -0.281788 -0.0744204 -0.495028 0.155721 -0.597053 -0.524939 -0.476236 -0.50528 -0.457341 -0.434513 -0.494287 -0.219093 -0.239129 -0.200115 0.223592 -0.292983 0.0316684 -0.0236057 -0.244018 -0.19139 -0.192664 -0.192182 0.199608 -0.179693 -0.240724 -0.24588 -0.247838 -0.202584 -0.249026 -0.224196 -0.322456 -0.0828015 -0.570762 0.139723 -0.505487 -0.534911 -0.450276 -0.440163 -0.454712 -0.481923 -0.42419 -0.197407 -0.234865 -0.229907 0.230588 -0.239509 -0.00645298 0.00503783 -0.225049 -0.196259 -0.19297 0.471649 -0.00585969 -0.00806446 -0.0471089 -0.00823794 -0.0295935 0.0467871 0.049706 -0.00863763 -0.000950547 -0.23209 0.445868 -0.180186 -0.286672 -0.301515 -0.226957 -0.218246 -0.28308 -0.262011 0.00433693 0.058738 0.00562101 0.453497 -0.0186085 0.219957 0.135072 0.0244514 -0.00417981 -0.015988 -0.447968 -0.483201 -0.453105 -0.438969 -0.431946 -0.583361 -0.392103 -0.535602 -0.40978 -0.704874 -0.033568 -0.723484 -0.818094 -0.658369 -0.709974 -0.756371 -0.640019 -0.627884 -0.445343 -0.441885 -0.450467 -0.0539732 -0.435102 -0.217378 -0.224942 -0.503401 -0.454842 -0.347626 -0.0267074 -0.00407412 0.0117386 0.00756229 0.0203298 -0.00522933 -0.00353177 0.120275 -0.228482 0.419524 -0.251988 -0.275282 -0.281117 -0.211972 -0.188501 -0.189303 -0.207947 -0.00534786 0.0422384 -0.00299999 0.46735 0.0561906 0.227291 0.245096 -0.000889961 0.00508157 0.0111387 0.103115 -0.00504392 0.0183755 0.0336257 0.0744132 0.0388706 0.137456 -0.276403 0.448403 -0.270485 -0.250445 -0.2312 -0.181512 -0.195762 -0.191865 -0.197108 -0.0264222 0.0429294 0.00937355 0.471631 0.0536369 0.220284 0.219499 0.0156193 0.00838612 0.0353998 0.0400988 -0.0223215 0.00856148 0.0959145 0.00283516 0.108619 -0.264883 0.469329 -0.251231 -0.265771 -0.230203 -0.190002 -0.176267 -0.201468 -0.197674 0.0144375 0.0478916 0.041355 0.418469 0.0591389 0.234333 0.239425 -0.0200638 -0.0241026 0.0232121 0.00846326 -0.0203845 -0.0131629 -0.0103168 0.0350955 -0.270904 0.43818 -0.299691 -0.28174 -0.249979 -0.191729 -0.195796 -0.172886 -0.171689 0.0574806 0.0352596 -0.0124375 0.414442 -0.0148842 0.141907 0.181814 0.0495345 -0.0262696 -0.00785214 0.0227924 0.0634436 -0.0430468 0.100808 -0.240177 0.456267 -0.263864 -0.257406 -0.118602 -0.242664 -0.160495 -0.21293 -0.166047 -0.0176889 0.0113796 0.0175631 0.462919 0.0393322 0.220976 0.239856 0.0151602 0.00906031 0.0654566 -0.0472665 0.0382315 0.0496676 -0.287645 0.546566 -0.209249 -0.276223 -0.286669 -0.233613 -0.250349 -0.223137 -0.253767 0.0142087 -0.0177943 0.0632371 0.516163 0.0593642 0.331532 0.261981 -0.0138882 0.00487031 0.0831669 -0.049485 0.0816113 -0.244687 0.415637 -0.340677 -0.292012 -0.376797 -0.248366 -0.202192 -0.295929 -0.282345 -0.0143927 0.140401 -0.0301135 0.509314 0.00228484 0.264239 0.254929 -0.0225904 0.000763775 0.00857186 0.102809 -0.265614 0.518887 -0.317615 -0.216474 -0.210572 -0.188388 -0.244263 -0.192304 -0.17928 -0.00114016 0.0289048 0.0112066 0.548444 0.0332426 0.31273 0.32181 0.0325825 0.0508623 0.0340362 -0.229 0.42078 -0.463023 -0.364987 -0.314715 -0.310697 -0.300867 -0.30156 -0.322477 -0.0819061 -0.029663 -0.0861181 0.426213 -0.0644331 0.236724 0.111599 -0.123725 -0.088283 -0.0466275 0.730782 -0.066371 -0.0323113 0.017644 0.054148 0.0283081 0.0141456 0.0290141 0.265116 0.321046 0.296343 0.790098 0.332704 0.537935 0.464178 0.291317 0.187284 0.338887 -0.762582 -0.656085 -0.766827 -0.730773 -0.661569 -0.699558 -0.682757 -0.444898 -0.348043 -0.390179 0.0235393 -0.457716 -0.200215 -0.241551 -0.402624 -0.440129 -0.361856 -0.054322 0.0163827 0.0986368 0.0622645 0.0590524 0.0966209 0.315091 0.217207 0.360089 0.732982 0.327035 0.579018 0.566555 0.274363 0.248437 0.34679 0.00526713 0.0769026 0.00686245 0.0485339 0.00424396 0.307714 0.306178 0.303201 0.780933 0.368082 0.571348 0.541257 0.271781 0.249842 0.307956 -0.038249 0.0664571 0.0310788 0.0861043 0.232394 0.288079 0.33209 0.586297 0.28087 0.540627 0.468112 0.206905 0.281395 0.246585 -0.0631208 0.0469342 0.0374496 0.23662 0.288474 0.252505 0.729345 0.24202 0.50892 0.483831 0.205531 0.233858 0.249813 0.0473227 -0.0249916 0.265704 0.253363 0.265341 0.766031 0.266275 0.493257 0.436759 0.197889 0.166897 0.212208 0.0291179 0.228055 0.247425 0.213517 0.694011 0.319866 0.418117 0.4446 0.175253 0.178317 0.224163 0.236281 0.254825 0.239496 0.707587 0.192461 0.493643 0.493427 0.201984 0.185012 0.231654 -0.00173369 -0.0221364 0.433114 0.00602776 0.180067 0.273127 -0.0328515 -0.016745 0.0342378 0.0258402 0.452211 -0.000308551 0.175834 0.238301 -0.0802241 -0.00734676 0.0264357 0.404168 -0.0136974 0.221245 0.203962 0.0367519 -0.0826201 0.0447158 -0.391873 -0.202523 -0.224543 -0.349545 -0.40105 -0.394588 0.279033 0.184607 -0.0784278 -0.0402512 0.0341853 0.079277 -0.0961596 -0.236817 -0.198675 -0.241057 -0.281288 -0.248338 0.0181243 0.0489597 0.102878
nr_sv 82 22 24 21 23 16 25 15 47 46 23 81 24 24 24 24 23 23 28 27 34 10 82 8 9 8 11 11 13 11 23 26 27 82 24 48 48 20 23 25
SV
0 1.326037981162734 0 1.038171476485394 0 1.323834397953662 0.4430847512210724 0.2490793699700384 0 0 0 0 0 0.6222002453788058 0.4890814727954036 0 0 0.2579640892589836 0.3281981826034838 0 0 0 0.3730731846909899 0 0.8585216038125034 0 0 0 0 0 0 0.05090940881876631 0 0 0 1.332687086861425 0.05331756077030642 0 0.4727923757438625 1:0.50954258 2:0.500655 3:0.76405144 4:0.5723505 5:0.31758216 6:0.27677131 7:0.51374727 8:0.38194907 9:0.35060453 10:0.44976264 11:0.51819193 12:0.81182534 13:0.58682537 14:1 15:0.57477754 16:0.53561121 17:0.51612699 18:0.58894485 19:0.52666134 20:0.32456011 21:0.65527624 22:0.76755625 23:0.67452365 24:0.39727604 25:0.57298797 26:0.19781312 27:0.51395273 28:0.5598281 29:0.5305416 30:0.5651862 31:0.43469039 32:0.16428365 33:0.52995086 34:0.66874659 35:0.93620837 36:0.62676346 37:0.49890411 38:0.57179958 39:0.55235505 40:0.45421514 41:0.37095928 42:0.34111756 43:0.6959669 44:0.52145791 45:0.56675947 46:0.31958625 47:0.50071299 48:0.60898858 49:0.39663458 50:0.78158683 51:0.32703948 52:0.39295715 53:0.69438291 54:0.39023468 55:0.43505183 56:0.63717818 57:0.49142578 58:0.42484081 59:0.49390924 60:0.65829939 61:0.42698452 62:0.59335023 63:0.67502934 64:0.52382201 65:0.57725936 66:0.22262157 67:0.52620149 68:0.83732682 69:0.16722564 70:0.64822322 71:0.81749278 
0.3941701216023605 0.04367405542004109 0.9622027718486734 0.9706692416396306 1.706380322906152 0.2339114812554115 0 1.026182983935518 0 0.3825249067137979 0.1347818000379733 0.9603073499296033 0.2293730294066829 0 0 2.488862354726649 0.1952388688205486 0 0 0.5126241106862401 1.156223218833028 0.3220537310185592 0.1730701706877411 0 0 0 0 0 1.358972760778968 0.0561754562723886 0.7887789219016266 1.133434660655036 0.3364789662620432 0 0.6151548700597755 2.229542038246815 0 0.5387045865963658 0.5017018495751213 1:0.71582627 2:0.46895915 3:0.13261512 4:0.5700236 5:0.53097743 6:0.39103881 7:0.72983307 8:0.7362982 9:0.51135635 10:0.19509828 11:0.39677405 12:0.15561949 13:0.68679911 14:0.25146958 15:0.160547 16:0.37779978 17:0.21885417 18:0.43121564 19:0.58217847 20:0.60919839 21:0.39440203 22:0.51558405 23:0.56640816 24:0.52997893 25:0.49812484 26:0.3680509 27:0.56218618 28:0.58731031 29:0.39190292 30:0.13779296 31:0.47376242 32:0.64682543 33:0.30954829 34:0.56434149 35:0.68537736 36:0.33322278 37:0.36658135 38:0.56617993 39:0.47036865 40:0.44489574 41:0.31346151 42:0.50516033 43:0.54995859 44:0.69357318 45:0.55947512 46:0.40543568 47:0.71352398 48:0.46112087 49:0.31092507 50:0.61178035 51:0.51376772 52:0.49835509 53:0.69989491 54:0.53416598 55:0.61109197 56:0.60109824 57:0.39568344 58:0.39976451 59:0.64117724 60:0.62303907 61:0.50089473 62:0.43023401 63:0.76387084 64:0.56135994 65:0.5870111 66:0.22384572 67:0.31273156 68:0.91592807 69:0.19150487 70:0.60970843 71:0.76780134 
0.2291490752945992 0.4644667445521465 1.558119959578896 0.8133421111180323 0.2069254551919725 0 0.148910839988988 0.9782834767876227 0.466901999979505 1.387674558521402 0 0 0.5473395967865841 2.047212597464277 0.5736321838630669 0 0 0 0 0 0.08358066270139497 0 0 0.5933025258593556 0 0.3484117601561028 0 2.04603500098349 0.8649089923681527 0 0 1.116242086472012 0.5973173522685 0.346364466961511 1.283265399948597 0 0 0 0 1:0.51240689 2:0.55406624 3:0.62815601 4:0.60688311 5:0.77221692 6:0.43152162 7:0.90520793 8:0.42080623 9:0.67765975 10:0.32638997 11:0.35672158 12:0.25118655 13:0.52578878 14:0.45703545 15:0.27399045 16:0.50492781 17:0.19466206 18:0.59068018 19:0.52881861 20:0.50256652 21:0.39780393 22:0.5431872 23:0.28769517 24:0.25225335 25:0.43467185 26:0.34769771 27:0.55766016 28:0.5011245 29:0.38268244 30:0.33874211 31:0.46507955 32:0.45575687 33:0.27902135 34:0.44337273 35:0.68373352 36:0.57521862 37:0.42400211 38:0.67837328 39:0.47082543 40:0.33763278 41:0.39236319 42:0.37848982 43:0.54905385 44:0.64081812 45:0.39392161 46:0.42110351 47:0.61659825 48:0.6821593 49:0.29116488 50:0.71632665 51:0.57856381 52:0.48777434 53:0.65571779 54:0.58160204 55:0.55631644 56:0.7817347 57:0.37695807 58:0.28520504 59:0.473773 60:0.57290399 61:0.43848988 62:0.50446063 63:0.83606011 64:0.50598603 65:0.57083738 66:0.22256665 67:0.41277802 68:0.91337335 69:0.19524209 70:0.55884397 71:0.69746155 
0 0 0 0 0 0 0.3453442369886706 0 0.2219982497207575 0 0 0 0.3844468033973759 0 0 0 0 0 0.006277747621154443 1.222495472047646 0.260921182536477 0 0 0 0 0 0 0 0 0.04978946513675692 0.2661813798510064 0 0 0 0 0 0 0 0 1:0.90162194 2:0.3859427 3:0.35274684 4:0.49363109 5:0.72335762 6:0.38053194 7:0.67698252 8:0.5721671 9:0.27431148 10:0.5537129 11:0.41804227 12:0.38358864 13:0.42792127 14:0.11866526 15:0.56483012 16:0.81371731 17:0.56813067 18:0.77848023 19:0.72727042 20:0.25580966 21:0.51381081 22:0.58772796 23:0.48925698 24:0.55805916 25:0.62135237 26:0.47249776 27:0.78381789 28:0.43466327 29:0.47580934 30:0.37875918 31:0.58537489 32:0.4836041 33:0.40513256 34:0.50674462 35:0.40759113 36:0.51002234 37:0.63997847 38:0.49961206 39:0.22816017 40:0.74248797 41:0.58681864 42:0.5202086 43:0.77756876 44:0.40853524 45:0.40489128 46:0.080398068 47:0.66911024 48:0.4147431 49:0.49616483 50:0.57706034 51:0.58975846 52:0.51287329 53:0.62765425 54:0.38184246 55:0.51796299 56:0.56601524 57:0.30605158 58:0.55107909 59:0.47440788 60:0.60970646 61:0.36483178 62:0.40252796 63:0.66716301 64:0.56671935 65:0.87787461 66:0.33388346 67:0.31845126 68:0.91415662 69:0.10784195 70:0.57770288 71:0.91660142 
0 0 0 0 0 0 0 0 0 0 0 0 0 0 0 0 0 0.1596308663991322 0 0 0 0 0 0.04528853284284456 0 0 0 0 0 0 0.02016603085840888 0 0 0 0 0 0 0 0 1:0.91502881 2:0.41174978 3:0.54733557 4:0.61210293 5:0.78703856 6:0.38578662 7:0.6155057 8:0.64010429 9:0.17220299 10:0.46289048 11:0.49472705 12:0.32278779 13:0.53972447 14:0.2970188 15:0.66082525 16:0.81908715 17:0.4198302 18:1 19:0.75181478 20:0.47587627 21:0.49097371 22:0.63952023 23:0.40650773 24:0.5095793 25:0.63551682 26:0.36935297 27:0.66237861 28:0.35987955 29:0.35339597 30:0.45206195 31:0.55775172 32:0.44108245 33:0.46007785 34:0.50204259 35:0.44286972 36:0.53664321 37:0.608643 38:0.59079689 39:0.23893864 40:0.69498259 41:0.5941878 42:0.45891058 43:0.69497365 44:0.55176485 45:0.53741902 46:0.093497232 47:0.60707396 48:0.53345758 49:0.3676149 50:0.63072234 51:0.72190505 52:0.5094341 53:0.61633575 54:0.44496307 55:0.54378504 56:0.5185805 57:0.34167325 58:0.45749772 59:0.44172642 60:0.54052013 61:0.31915742 62:0.5180338 63:0.64762717 64:0.54175407 65:0.85661185 66:0.28716931 67:0.35821927 68:0.89287382 69:0.099670812 70:0.52751833 71:0.92756766 
0 0 0 0 0 0 0 0 0 0 0 0 0 0 0 0 0 0 0 0 0 0 0 0 0 0 0.5867478569704777 0 0 0 0 0 0 0 0 0 0 0 0 1:0.58663476 2:0.47540927 3:0.53929198 4:0.17945486 5:0.29385528 6:0.47353196 7:0.5581094 8:0.59409726 9:0.57297248 10:0.44214094 11:0.43023068 12:0.078516021 13:0.52396733 14:0.51703256 15:0.44146994 16:0.37029287 17:0.04315925 18:0.58815318 19:0.60346729 20:0.76573402 21:0.31539559 22:0.63805503 23:0.2818228 24:0.61828619 25:0.52300543 26:0.59444976 27:0.27997413 28:0.69949859 29:0.61814654 30:0.53148174 31:0.57722366 32:0.64888924 33:0.15611327 34:0.52310097 35:0.5927791 36:0.49744013 37:0.20791462 38:0.6480583 39:0.48435333 40:0.23135774 41:0.64849836 42:0.36446339 43:0.56905574 44:0.45778537 45:0.59697694 46:0.52171552 47:0.84547192 48:0.44436064 49:0.6425482 50:0.58196777 51:0.55052412 52:0.49822241 53:0.62335598 54:0.38960975 55:0.41424817 56:0.52166462 57:0.45898992 58:0.40375593 59:0.49928033 60:0.54174554 61:0.4463383 62:0.47189137 63:0.57560426 64:0.44786951 65:0.74164319 66:0.27575538 67:0.40739256 68:0.88553226 69:0.14214751 70:0.72022569 71:0.79243559 
0 0.6642400398004756 1.458972227743375 0.2312522823607693 0 0 0 0 0 0 0 0 0 0 0 0 0 0 0 0 0 0 0 0 0 0 0.002121471392712844 0 0 0 0 0 0 0 0 0 0.1579429542368261 0.04988807781186905 0 1:0.5892297 2:0.5443148 3:0.46755758 4:0.41874132 5:0.68003082 6:0.52369237 7:0.29378745 8:0.797203 9:0.6876601 10:0.4609029 11:0.63196355 12:0.35667849 13:0.48867899 14:0.47040582 15:0.70767081 16:0.71739143 17:0.41955629 18:0.32964811 19:0.65513349 20:0.54311723 21:0.31355184 22:0.63745379 23:0.21131265 24:0.29066992 25:0.80125612 26:0.22833569 27:0.60590649 28:0.47884825 29:0.62614864 30:0.65769321 31:0.16398202 32:0.66222996 33:0.4423652 34:0.50771976 35:0.62976152 36:0.57757413 37:0.29853478 38:0.57863188 39:0.52770418 40:0.4331263 41:0.64470398 42:0.52156484 43:0.39484492 44:0.43432423 45:0.48625016 46:0.48640236 47:0.73943359 48:0.31552389 49:0.49963874 50:0.52362418 51:0.52085304 52:0.38667619 53:0.62018216 54:0.43960002 55:0.39898819 56:0.51258934 57:0.37180325 58:0.43527955 59:0.6280877 60:0.53116935 61:0.46769392 62:0.63980657 63:0.52680814 64:0.45541376 65:0.75769556 66:0.31488258 67:0.48336974 68:0.83456939 69:0.15379775 70:0.73179859 71:0.80695939 
0 0 0 0 0 0 0 0 0 0 0 0 0.03005359876090302 0 0 0 0 0 0 0 0 0 0 0 0 0 0 0 0 0 0 0 0 0 0 0 0 0 0 1:0.47383514 2:0.76944011 3:0.36821523 4:0.45291835 5:0.57467502 6:0.48498365 7:0.45130768 8:0.79586089 9:0.6557622 10:0.4998607 11:0.27488923 12:0.35191965 13:0.42698666 14:0.22991645 15:0.40631235 16:0.47571367 17:0.64246589 18:0.14043459 19:0.48467815 20:0.50171322 21:0.30012348 22:0.40797654 23:0.22873344 24:0.45165968 25:0.64621127 26:0.30765289 27:0.30066082 28:0.34181926 29:0.68960583 30:0.60017604 31:0.33773828 32:0.39812893 33:0.51745957 34:0.52349067 35:0.69757688 36:0.40683573 37:0.34904596 38:0.43507341 39:0.60165358 40:0.53712553 41:0.65241742 42:0.40848413 43:0.73005038 44:0.60814601 45:0.45645478 46:0.4484323 47:0.64087623 48:0.29764405 49:0.55260825 50:0.36450279 51:0.45548511 52:0.46668759 53:0.70913345 54:0.38964361 55:0.51346517 56:0.66781694 57:0.46741277 58:0.44299421 59:0.59012878 60:0.55771607 61:0.55551612 62:0.4120945 63:0.74010408 64:0.53997737 65:0.8028425 66:0.23537759 67:0.32974061 68:0.88166249 69:0.14500472 70:0.69627595 71:0.83733094 
0.09802386700456384 0 0 0 0 0 0 0 0 0 0.8731119725820538 0.3966159647991689 0 0.02995060382019814 0.2450075077295585 0 0 0 0.2105906326633498 0.2417539244437603 0.05075897506989444 0.0834827385740831 0 0 0 0.3685325210246678 0 0 0 0 0 0 0.2975078684594022 0 0 0 0 0 0 1:0.47863632 2:0.63789505 3:0.62356681 4:0.48594502 5:0.5962773 6:0.11441194 7:0.39427224 8:0.55728948 9:0.69742537 10:0.32692263 11:0.19335699 12:0.36929053 13:0.56625503 14:0.15064108 15:0.51632208 16:0.40356201 17:0.50999194 18:0.057034083 19:0.53200108 20:0.59473985 21:0.24679698 22:0.32220709 23:0.23423129 24:0.59443682 25:0.7590341 26:0.62579846 27:0.41277808 28:0.21169075 29:0.44989413 30:0.47400394 31:0.36550316 32:0.51027268 33:0.47386593 34:0.57586157 35:0.78840715 36:0.23978254 37:0.48909062 38:0.56561518 39:0.60970455 40:0.39520645 41:0.62878466 42:0.44821957 43:0.67912459 44:0.6809305 45:0.38563162 46:0.38055399 47:0.60094023 48:0.41593289 49:0.35907805 50:0.41493565 51:0.39560324 52:0.4249236 53:0.68833178 54:0.44927758 55:0.59195113 56:0.75032932 57:0.34741026 58:0.33880052 59:0.51961321 60:0.60825896 61:0.52838683 62:0.39685526 63:0.78709549 64:0.48943314 65:0.8273164 66:0.19374961 67:0.43885511 68:0.90251994 69:0.21621259 70:0.69909728 71:0.73760802 
0 0 0 0 0 0 0 0 0 0 0 0 0 0.7373232402747081 0 0 0 0 0 0 0 0 0 0 0 0 0 0 0 0 0 0 0.230985722594066 0 0 0 0 0 0 1:0.31333256 2:0.42300564 3:0.40162665 4:0.44262594 5:0.54635137 6:0.21568336 7:0.48668599 8:0.25105497 9:0.44880566 10:0.5115245 11:0.60869426 12:0.41565961 13:0.61274862 14:0.38950041 15:0.68171394 16:0.48107982 17:0.51421624 18:0.35566455 19:0.58536953 20:0.37785989 21:0.58986557 22:0.80773246 23:0.58499068 24:0.63531905 25:0.72036451 26:0.39948514 27:0.422979 28:0.52010024 29:0.39958045 30:0.32326585 31:0.36175275 32:0.67573631 33:0.56643528 34:0.44226646 35:0.42570409 36:0.64816469 37:0.58932889 38:0.45817816 39:0.47201571 40:0.28969878 41:0.48788729 42:0.3811112 43:0.528871 44:0.4423362 45:0.52516884 46:0.25782982 47:0.75081557 48:0.52835727 49:0.71258026 50:0.54559445 51:0.53623539 52:0.42457339 53:0.60903746 54:0.62371582 55:0.58142799 56:0.45169023 57:0.31995198 58:0.50825638 59:0.47649533 60:0.65878236 61:0.52606988 62:0.46307635 63:0.53174096 64:0.46017781 65:0.8344003 66:0.22039108 67:0.50599122 68:0.85827839 69:0.24775155 70:0.80927145 71:0.78958064 
0.8146573367000497 1.159047511750858 0 0 0.398408154388059 0 0 0 0.3854672461640564 1.959359218444586 0 1.476893309509699 0 0.3427477911268403 0 0 0 0.5311204610182645 0 0 0.04172579850104203 0 0 0 0 0 0.3317267293104903 0.6214411037631627 0.1023441646039016 0 0 0.0855835924334449 0 0 0 0.1312433777600993 0 0 1.293586136400539 1:0.67225516 2:0.82916158 3:0.34206498 4:0.42652503 5:0.58591926 6:0.56975442 7:0.2430692 8:0.74502778 9:0.82517076 10:0.37026462 11:0.34943718 12:0.34270605 13:0.53274739 14:0.53843468 15:0.61028826 16:0.5939424 17:0.57550824 18:0.22393435 19:0.46221021 20:0.48758084 21:0.36300644 22:0.72419947 23:0.49682352 24:0.38773826 25:0.52252424 26:0.3691144 27:0.24387433 28:0.40786603 29:0.97228074 30:0.58196318 31:0.32062027 32:0.39551619 33:0.26831761 34:0.35502568 35:0.49159276 36:0.22694804 37:0.47223935 38:0.46500731 39:0.34574312 40:0.65097278 41:0.69179618 42:0.28729528 43:0.47068518 44:0.65920258 45:0.50294745 46:0.48534355 47:0.34913561 48:0.36909866 49:0.49872702 50:0.48882931 51:0.46515784 52:0.46848711 53:0.58813083 54:0.53743362 55:0.49185768 56:0.49310434 57:0.35381463 58:0.3301945 59:0.48544908 60:0.56543398 61:0.46766144 62:0.49445489 63:0.8013711 64:0.5889256 65:0.64953113 66:0.39674059 67:0.36472678 68:0.91786867 69:0.097893201 70:0.64697701 71:0.94498461 
0 0 0 0 0 0 0 0 0.09101603032235925 0 0.3188710938463892 0 0 0 0 0 0.9925489845641295 0 0 0 0 0 0 0.3436539417631171 0 0 0 0 0 0 0 0 1.000529209015142 0 0.08162143570589529 0.05426839554394904 0 0 0 1:0.49338982 2:0.79769546 3:0.37725031 4:0.43732768 5:0.53362095 6:0.54511446 7:0.37375581 8:0.63400787 9:0.82056099 10:0.62561554 11:0.16947803 12:0.41327134 13:0.59095585 14:0.62722468 15:0.68077946 16:0.58281147 17:0.66541928 18:0.12485334 19:0.47195929 20:0.3688634 21:0.60046536 22:0.58508599 23:0.33895364 24:0.37086326 25:0.70113689 26:0.22304811 27:0.43146077 28:0.59735304 29:0.87829739 30:0.49836224 31:0.31952426 32:0.56310874 33:0.40290895 34:0.51042962 35:0.59785593 36:0.25666749 37:0.46194327 38:0.52742046 39:0.52225506 40:0.60727429 41:0.76262921 42:0.36130631 43:0.5412569 44:0.71403164 45:0.45073748 46:0.27706107 47:0.36769992 48:0.3315298 49:0.50085396 50:0.39213035 51:0.5925411 52:0.44331384 53:0.6596337 54:0.55222529 55:0.44665402 56:0.55942947 57:0.27429754 58:0.3657741 59:0.43729144 60:0.52706593 61:0.54406083 62:0.46481502 63:0.75552177 64:0.5968104 65:0.72737974 66:0.36177456 67:0.3874661 68:1 69:0.090697922 70:0.62446129 71:0.90293813 
0 0.4708330511217859 0.420407990187708 0 0 0 0 0 0 0 0 0 0 0.5715916958588196 1.152331895215521 0.5628531403519305 0 0 0 0 0 0 0.4446483508960956 0 0 0 1.298571485585755 0 0 0 0 0 0 0 0.1404012806733387 0 0.5965928957467057 0 0 1:0.32803836 2:0.83206713 3:0.39002973 4:0.36881214 5:0.54961044 6:0.6284095 7:0.65383554 8:0.65337151 9:0.51207078 10:0.32934755 11:0.42296481 12:0.38895658 13:0.48193896 14:0.45613649 15:0.48720932 16:0.43622488 17:0.83542359 18:0.30589813 19:0.60782027 20:0.46886536 21:0.29635414 22:0.42255118 23:0.44687468 24:0.55366439 25:0.63065368 26:0.46127173 27:0.23505209 28:0.34959114 29:0.70093119 30:0.61736089 31:0.69723648 32:0.19156416 33:0.23643781 34:0.570328 35:0.65769446 36:0.23601104 37:0.55133736 38:0.70178193 39:0.32104838 40:0.61691868 41:0.41301 42:0.37247479 43:0.69340122 44:0.68032467 45:0.4903191 46:0.43476912 47:0.64020681 48:0.31530598 49:0.45461857 50:0.46949556 51:0.53297204 52:0.3195526 53:0.67722124 54:0.49757284 55:0.41563249 56:0.54530323 57:0.39351293 58:0.41589433 59:0.44530785 60:0.58700854 61:0.45240065 62:0.49208918 63:0.73354053 64:0.55356383 65:0.64559788 66:0.34467554 67:0.37529692 68:0.95188975 69:0.1306456 70:0.663059 71:0.87501085 
0 0 0 0 0 0 0 0 0 0 0 0 0 0 0 0 1.280835349074951 0 0 0 0 0 0 0 0 0 0 0 0 0 0 0 0 0 0 0 0 0 0 1:0.36959448 2:0.83695984 3:0.42396042 4:0.38036603 5:0.62653142 6:0.50302762 7:0.62443221 8:0.44162843 9:0.40949523 10:0.26461849 11:0.46475819 12:0.38914785 13:0.47099441 14:0.56240541 15:0.44242397 16:0.3650724 17:0.43859053 18:0.29981562 19:0.48958296 20:0.50264543 21:0.30619642 22:0.52352804 23:0.28457358 24:0.53250521 25:0.53983742 26:0.63218671 27:0.25596821 28:0.31734893 29:0.69852954 30:0.69657117 31:0.61471403 32:0.33925244 33:0.25026432 34:0.49775162 35:0.56055713 36:0.33242548 37:0.4518424 38:0.685431 39:0.39245746 40:0.58195972 41:0.51564544 42:0.22669226 43:0.51824844 44:0.55076849 45:0.63757211 46:0.49974939 47:0.517299 48:0.33775604 49:0.39703205 50:0.38083792 51:0.47975925 52:0.32215673 53:0.57825029 54:0.48153514 55:0.50548637 56:0.58992314 57:0.39781368 58:0.35067087 59:0.51239419 60:0.61495167 61:0.44328412 62:0.50342971 63:0.69615704 64:0.5445416 65:0.68491435 66:0.33389887 67:0.36689466 68:0.95304382 69:0.065027326 70:0.65382141 71:0.84302318 
0.2384775560511256 0.686591119409501 1.089251447895645 0.1572515404922242 0 0.8622481265308729 0.7022054037293364 1.110718208126726 0.6054126587843681 0 0.1742829239994007 0 0.0528090739347145 0.301055139791423 0.358657227079332 0.2809755848251949 1.48254374521963 0.518128233287892 0 0 0 0.5683788722498108 0 0 0.836445911683611 0 0.1260813110736523 0.2910879552970079 0 1.146766367163718 0.7244223646012649 0.5130370925761814 1.275559922683049 0.8582480776550632 1.819968758977934 0.4135676593559233 0.3383417819829999 0.4951651678079829 0.9582690741043367 1:0.66013855 2:0.63641739 3:0.34421694 4:0.41361019 5:0.54910785 6:0.17873669 7:0.41771519 8:0.61903977 9:0.31155577 10:0.62291992 11:0.59881121 12:0.66786128 13:0.56403744 14:0.53893834 15:0.40810284 16:0.46684051 17:0.71322912 18:0.61747462 19:0.6403836 20:0.30296075 21:0.51847953 22:0.66184729 23:0.59280682 24:0.17199728 25:0.79625291 26:0.40805137 27:0.19695975 28:0.63130647 29:0.79548836 30:0.84880805 31:0.2499775 32:0.35951871 33:0.45714605 34:0.39123356 35:0.55589312 36:0.64127159 37:0.53992373 38:0.5812512 39:0.36408627 40:0.46920407 41:0.55378383 42:0.12010054 43:0.57715428 44:0.33524072 45:0.69450712 46:0.25975907 47:0.48504001 48:0.42236596 49:0.17119077 50:0.68408394 51:0.2465096 52:0.5080353 53:0.69011819 54:0.20160444 55:0.32457042 56:0.58699316 57:0.46654907 58:0.58910072 59:0.39775944 60:0.62161857 61:0.52063555 62:0.61550528 63:0.73875415 64:0.47252774 65:0.55590141 66:0.27180472 67:0.44173235 68:0.89224118 69:0.18407419 70:0.57702017 71:0.8064974 
0 0 0 0 2.200735725430555 0.4252554369259592 0 0 0 0.216816208699537 0 0 2.597163658449 0 0 0 0 0 0 0.08966905208970916 0 0.8523271475091183 0.01673061069717256 0 0 1.438387348104129 0.1788556726596936 0 0 0.4513952317828961 0 0 0 0 1.093088266934577 2.280013538688173 0.1656104581889613 0 0 1:0.52648485 2:0.51126617 3:0.22326697 4:0.36663678 5:0.5393613 6:0.293161 7:0.61884445 8:0.54331982 9:0.62927532 10:0.55204022 11:0.41210654 12:0.57277024 13:0.51914299 14:0.53120315 15:0.72558153 16:0.53879076 17:0.47193038 18:0.41388601 19:0.61563003 20:0.30718753 21:0.55964446 22:0.60449535 23:0.55754763 24:0.14516219 25:0.57220221 26:0.38827989 27:0.44491282 28:0.74759644 29:0.66399908 30:0.90208852 31:0.44852701 32:0.31762505 33:0.40903991 34:0.60331827 35:0.39953208 36:0.44127429 37:0.51326984 38:0.47903976 39:0.5464642 40:0.47615159 41:0.5691008 42:0.20512459 43:0.67829555 44:0.55974478 45:0.65207362 46:0.2227575 47:0.43807706 48:0.41612643 49:0.35400248 50:0.57164651 51:0.4260453 52:0.42490125 53:0.61562127 54:0.31667817 55:0.33746386 56:0.55579859 57:0.46169308 58:0.52064365 59:0.40820366 60:0.61754209 61:0.48649278 62:0.48181957 63:0.72356385 64:0.4996179 65:0.62661451 66:0.31498846 67:0.36560282 68:0.82384628 69:0.11466744 70:0.62671793 71:0.86579144 
0 0.05756144115997324 0 0 0 0 1.235451676444931 0 0.9182247913003968 0 1.030157645845126 0 0 0.8119385434477815 0 0 0 0 0.9113800296477514 0.2897364811877946 1.015230552860534 0.6885879459607455 0.3589174987583337 0 0 0.1465224348148717 0 0 0 0 0.6443768832522774 0 0.4689871796360452 0 0 0 0 0 0 1:0.64331371 2:0.80040509 3:0.48509279 4:0.59317374 5:0.5550369 6:0.47375926 7:0.95055938 8:0.74413908 9:0.67399186 10:0.70429784 11:0.34091166 12:0.33018646 13:0.38163963 14:0.23587011 15:0.55496651 16:0.68587387 17:0.68313491 18:0.37667182 19:0.66503084 20:0.40328497 21:0.59687555 22:0.60801375 23:0.53278011 24:0.52701408 25:0.73032469 26:0.39887151 27:0.31807092 28:0.24883197 29:0.60762173 30:0.72811848 31:0.22666895 32:0.56341863 33:0.35710686 34:0.63379359 35:0.57184356 36:0.28198767 37:0.39132768 38:0.54332548 39:0.43897367 40:0.43416524 41:0.78716385 42:0.56031412 43:0.62533623 44:0.42439839 45:0.40952709 46:0.40968886 47:0.55757272 48:0.39691299 49:0.68536115 50:0.37591365 51:0.45138526 52:0.52144516 53:0.59478492 54:0.41669282 55:0.47357342 56:0.58194858 57:0.40388346 58:0.47725165 59:0.45805788 60:0.59938312 61:0.53126323 62:0.4170751 63:0.70179123 64:0.55310756 65:0.91073537 66:0.36775905 67:0.43818399 68:0.88722318 69:0.15814964 70:0.67546612 71:0.85915279 
0 0 0 0.09625396937494379 0.9980780006814376 0 0 0 0 0 0 0.1508589677485379 0 0 0 0 0 0 0.7922271666903531 0 0 0 0.8153073860459146 0.3250534392739245 0 0 0 0.2818680164771117 0 0 0 0.006619678339025205 0 0.3382893435806526 0 0 0 0 0 1:0.78797567 2:0.6477868 3:0.41011375 4:0.62678176 5:0.42346132 6:0.44795647 7:0.59170574 8:0.72598177 9:0.56940901 10:0.78859735 11:0.56208879 12:0.36001536 13:0.37912175 14:0.41113898 15:0.63645756 16:0.55310434 17:0.56650633 18:0.16642776 19:0.46362221 20:0.60645247 21:0.47552332 22:0.53332049 23:0.37550104 24:0.62255889 25:0.48426124 26:0.30338931 27:0.24253379 28:0.31768 29:0.63080335 30:0.36058816 31:0.27882823 32:0.50796705 33:0.28365329 34:0.39867011 35:0.52991337 36:0.027462533 37:0.46229312 38:0.52373856 39:0.48816249 40:0.46291667 41:0.59600645 42:0.43926352 43:0.62507665 44:0.31490934 45:0.49629116 46:0.24560677 47:0.53211141 48:0.4794876 49:0.61379969 50:0.427239 51:0.45188612 52:0.36525905 53:0.63889629 54:0.46885228 55:0.62131953 56:0.54874396 57:0.35463822 58:0.41086859 59:0.46685067 60:0.56053376 61:0.55732596 62:0.42380214 63:0.67761862 64:0.46359578 65:0.81840163 66:0.29343608 67:0.51753724 68:0.90038055 69:0.17457314 70:0.71265477 71:0.86563027 
0.7231990772224044 0 0 0.5704893022780407 0.4713685899081302 0 0 0.9974567532357909 0 0.7753366380251127 0.6207386794165858 0 0.1320730920226381 0 0.04697314913657573 0 0 0 0 0.653724130509069 0 0.5542895770347218 0.04334179382908354 0 0 0.1992901932309227 0.3397173666104122 0.4721169381634198 1.505548856694177 1.723536601828265 0 0.1909298653794994 0 0.9425951326730483 0.4531743747349757 0 0 0 0.2251481394434031 1:0.49839547 2:0.50654119 3:0.31394416 4:0.58859628 5:0.37681925 6:0.51145452 7:0.69422966 8:0.3956835 9:0.35411128 10:0.68915272 11:0.49440947 12:0.39569831 13:0.89307916 14:0.86538666 15:0.47620535 16:0.43893215 17:0.56007296 18:0.48338044 19:0.55352062 20:0.29120833 21:0.43469322 22:0.64462024 23:0.24402484 24:0.69467688 25:0.75443619 26:0.47158128 27:0.28448725 28:0.69128931 29:0.54837251 30:0.49003103 31:0.40597731 32:0.48160377 33:0.47348151 34:0.56489086 35:0.69377786 36:0.71756893 37:0.58779877 38:0.74338347 39:0.51056725 40:0.58269823 41:0.34578669 42:0.28759801 43:0.46845198 44:0.69227707 45:0.39516872 46:0.54079026 47:0.68076211 48:0.61072081 49:0.51622099 50:0.41764104 51:0.4336226 52:0.50884581 53:0.51619399 54:0.57987022 55:0.41547754 56:0.45135084 57:0.10612002 58:0.33709243 59:0.36550435 60:0.57636195 61:0.62494469 62:0.36665666 63:0.72512126 64:0.39672279 65:0.70031017 66:0.11467614 67:0.51583439 68:0.61208838 69:0.075305432 70:0.52830476 71:0.69339263 
0 0 0 0 0 0 0.1876316904775419 0 0 0 0 0.2493881032857687 0 0 0 0 0 0 0 0 0 0 0 0 0 0 0 0 0.09415194801860303 0 0 0 0 0 0 0 0 0 0 1:0.46996507 2:0.43666372 3:0.39606786 4:0.47823933 5:0.24020283 6:0.61768335 7:0.65966415 8:0.49192524 9:0.45865586 10:0.79742575 11:0.36607105 12:0.32834932 13:0.6487779 14:0.89953846 15:0.34579349 16:0.48899868 17:0.56272817 18:0.44200063 19:0.36683235 20:0.05908595 21:0.68298471 22:0.63020772 23:0.43612865 24:0.72572154 25:0.79303586 26:0.48285821 27:0.32511616 28:0.4532274 29:0.61256099 30:0.27006501 31:0.6123597 32:0.49796697 33:0.56350142 34:0.54014134 35:0.59903872 36:0.71241611 37:0.61944938 38:0.61476898 39:0.42798504 40:0.5696823 41:0.36522236 42:0.26977783 43:0.57789683 44:0.60162234 45:0.43509421 46:0.36092457 47:0.67956269 48:0.53670973 49:0.47254804 50:0.63892621 51:0.44590837 52:0.45878452 53:0.58693868 54:0.64861333 55:0.54860139 56:0.47631037 57:0.21131626 58:0.33885625 59:0.43902907 60:0.53252488 61:0.47749972 62:0.49343264 63:0.75857353 64:0.46828148 65:0.70076185 66:0.28201053 67:0.41848364 68:0.85919088 69:0.057334889 70:0.6920222 71:0.75254738 
0 0 0 0 0 0 0 0 0 0 0 0 0 0 0 0 0 0 0 0 0 0 0 0.0003527005058530297 0 0 0 0 0 0 0 0 0 0 0 0 0 0 0 1:0.7255218 2:0.42182654 3:0.8374815 4:0.34721276 5:0.44955269 6:0.31589895 7:0.63107073 8:0.63090473 9:0.53656912 10:0.50331765 11:0.50730735 12:0.45470694 13:0.59881318 14:0.73113537 15:0.51474267 16:0.49499702 17:0.50962996 18:0.54698616 19:0.72059798 20:0.5565083 21:0.47858739 22:0.63618159 23:0.56668335 24:0.49929318 25:0.59844387 26:0.35447484 27:0.63880134 28:0.63355327 29:0.65932065 30:0.47040176 31:0.5606184 32:0.48866263 33:0.60068882 34:0.54384613 35:0.53111875 36:0.30425465 37:0.22986801 38:0.54895192 39:0.40067884 40:0.47432318 41:0.56845021 42:0.45653823 43:0.56217343 44:0.41557345 45:0.48817271 46:0.42567873 47:0.49557284 48:0.49868822 49:0.32565063 50:0.62181211 51:0.4516176 52:0.51950884 53:0.58136302 54:0.37972748 55:0.45454893 56:0.47702479 57:0.37903225 58:0.35876927 59:0.53188914 60:0.49714103 61:0.44456726 62:0.52016604 63:0.59987926 64:0.35257357 65:0.73994839 66:0.23150602 67:0.41713354 68:0.8775636 69:0.1355589 70:0.6888237 71:0.85329998 
0 0 0 0 0 1.364514492656301 0 0 1.373466428763854 0.2332502050157052 0 0 0 0 0 0 0 0 0 0 0.01139888664625461 0 0 0 0 0 0 0 0.8367685145815164 0 0 0.3761326517659574 0 0 0 0 0 0 0 1:0.71779007 2:0.4670276 3:0.50444442 4:0.55583519 5:0.72818905 6:0.43872443 7:0.32919648 8:0.59478527 9:0.52403998 10:0.50823534 11:0.43404371 12:0.54784507 13:0.33366194 14:0.58196276 15:0.73391861 16:0.66813135 17:0.30177468 18:0.30671039 19:0.59463125 20:0.52984124 21:0.60090375 22:0.54610389 23:0.57651716 24:0.39013341 25:0.74362987 26:0.69064736 27:0.61261576 28:0.36427027 29:0.46853906 30:0.38750306 31:0.34839198 32:0.59724855 33:0.47157779 34:0.5030632 35:0.57711136 36:0.50252479 37:0.52855086 38:0.34035179 39:0.646487 40:0.43494931 41:0.40642601 42:0.38535032 43:0.51456302 44:0.49649408 45:0.43182567 46:0.37654057 47:0.53152674 48:0.47400337 49:0.40932634 50:0.49549285 51:0.5968011 52:0.47795951 53:0.4701719 54:0.5155282 55:0.67490792 56:0.46036777 57:0.14859156 58:0.39421865 59:0.4149422 60:0.51150703 61:0.52665991 62:0.60740918 63:0.44252849 64:0.45224836 65:0.65718478 66:0.21327491 67:0.52507454 68:0.91006452 69:0.1804743 70:0.65134972 71:0.86115402 
0 0 0 0 0 0 0 0 0 0 0 0 0 0 0 0 1.163424068733899 0 0 0 0 0 0 0 0 0 0 0 0 0 0 0 0 0 0 0 0 0.9514318284637558 0 1:0.13579099 2:0.77369124 3:0.44182631 4:0.58091515 5:0.5917505 6:0.55844575 7:0.6030525 8:0.38242418 9:0.5124656 10:0.41903961 11:0.31539172 12:0.24415426 13:0.43744561 14:0.51791966 15:0.74692219 16:0.64771909 17:0.49893507 18:0.71371931 19:0.45522949 20:0.55632901 21:0.39655572 22:0.57561618 23:0.21311334 24:0.37998542 25:0.36559397 26:0.1785389 27:0.66148496 28:0.66546959 29:0.25179493 30:0.49587455 31:0.45989144 32:0.38982311 33:0.39757669 34:0.54413384 35:0.60074502 36:0.2170842 37:0.30176836 38:0.55373639 39:0.3725749 40:0.54223877 41:0.45957291 42:0.51078284 43:0.53974068 44:0.36708894 45:0.66725242 46:0.38161081 47:0.7278254 48:0.354776 49:0.46874741 50:0.5129813 51:0.60447419 52:0.45098126 53:0.67001027 54:0.53003931 55:0.54175746 56:0.53398699 57:0.4710618 58:0.4747521 59:0.48753512 60:0.60859531 61:0.41658694 62:0.51155925 63:0.4753415 64:0.60343349 65:0.8629995 66:0.21875711 67:0.37505516 68:0.89142609 69:0.17544696 70:0.65509355 71:0.87761438 
0 0 0 0 0 0 0 0 0 0 0 0 0 0 0 1.187519127785898 1.428419592240241 0 0 0 0 0 0 0 0 0 0 0 0 0 0 0 0 0 0 0 0 0 0 1:0.53468907 2:0.45539474 3:0.55608588 4:0.47053561 5:0.49504635 6:0.39844972 7:0.53388184 8:0.58905119 9:0.31621566 10:0.41383982 11:0.44763178 12:0.66591567 13:0.4830128 14:0.49725023 15:0.68546695 16:0.56777537 17:0.42304295 18:0.78828484 19:0.51855046 20:0.46918467 21:0.33136961 22:0.4977183 23:0.41825134 24:0.49153796 25:0.51452732 26:0.30824113 27:0.60893726 28:0.48851305 29:0.52765757 30:0.25746495 31:0.58451056 32:0.53099626 33:0.57945079 34:0.5740158 35:0.53332913 36:0.25839859 37:0.41306195 38:0.57262272 39:0.38648212 40:0.46895269 41:0.43841287 42:0.44205227 43:0.71941084 44:0.35692808 45:0.56963879 46:0.29022402 47:0.54793602 48:0.33392847 49:0.38907656 50:0.6016438 51:0.59223735 52:0.39488894 53:0.6907801 54:0.28951356 55:0.61591935 56:0.52932322 57:0.36709267 58:0.40285325 59:0.53503913 60:0.49938369 61:0.30936676 62:0.55262119 63:0.43174937 64:0.43172845 65:0.8319658 66:0.25266582 67:0.45541853 68:0.87802535 69:0.12765634 70:0.64088553 71:0.8234973 
0 0 0 0 0 0 0.3923347998845085 0 0 0 0 0 0 0 0 0 0 0 0 0 0 0 0 0 0 0 0 0.2025276366881641 0 0 0 0 0 0 0 0 0 0 0 1:0.45301235 2:0.52577972 3:0.3622613 4:0.58649957 5:0.39058977 6:0.78262985 7:0.53098643 8:0.8283962 9:0.61538535 10:0.35643533 11:0.65179205 12:0.57392901 13:0.38482562 14:0.69500887 15:0.41220832 16:0.6161176 17:0.70611155 18:0.65688586 19:0.45204404 20:0.51849598 21:0.27038723 22:0.67938733 23:0.37021953 24:0.42234552 25:0.47421324 26:0.47053406 27:0.60072476 28:0.36898142 29:0.71502912 30:0.64932191 31:0.67320794 32:0.59044713 33:0.24394156 34:0.50538164 35:0.71037471 36:0.35546327 37:0.51674443 38:0.68484032 39:0.3756035 40:0.60424101 41:0.55023783 42:0.31056622 43:0.44567767 44:0.4192844 45:0.61754453 46:0.45015866 47:0.67741424 48:0.3220847 49:0.35270706 50:0.52263266 51:0.52232838 52:0.29447344 53:0.63251138 54:0.38243604 55:0.41338202 56:0.53535068 57:0.46887648 58:0.40284401 59:0.46401319 60:0.54753506 61:0.2879757 62:0.5456689 63:0.56530362 64:0.57159936 65:0.77159154 66:0.34152263 67:0.35384542 68:0.82746047 69:0.11690514 70:0.66707116 71:0.88146037 
0.3768991246102168 0 0.3555636904103407 0.8139207631094985 0 1.195231690138165 0.1775376682255961 0.5538452433912688 1.367506945737833 0.516962198550991 2.103186371691999 0.4560864176188674 0.522333183575733 0.0185007657054824 2.049234523279356 0 0.1593949341050362 0.0726026066823704 0.8082587348768921 1.080436168208336 0 0.9104248695997998 0 1.059301937087502 0 0 0 0.8033093361538888 0.2399902123840942 0 0.6764313227847326 0 0 0.1732500589061615 0 1.317421392552687 0.196917036363847 0 0.4124458926179044 1:0.42555073 2:0.76713198 3:0.46201819 4:0.67252749 5:0.68729705 6:0.72691196 7:0.38798624 8:0.6932888 9:0.55939311 10:0.31779796 11:0.28796768 12:0.59634209 13:0.39706668 14:0.62305778 15:0.32867149 16:0.77354014 17:0.85760766 18:0.62081367 19:0.59750414 20:0.30132714 21:0.2041427 22:0.46005592 23:0.2441972 24:0.49747965 25:0.47869986 26:0.28282464 27:0.47289971 28:0.24633119 29:0.69999909 30:0.63785648 31:0.72068268 32:0.54681665 33:0.33881322 34:0.4885684 35:0.607023 36:0.37334165 37:0.44791073 38:0.59788758 39:0.40494445 40:0.65999335 41:0.48545274 42:0.43209448 43:0.45315385 44:0.53805667 45:0.50439721 46:0.39088938 47:0.47814342 48:0.55284047 49:0.30342212 50:0.45002499 51:0.52441192 52:0.47789651 53:0.66211957 54:0.38270152 55:0.4567664 56:0.60008544 57:0.33504134 58:0.37326849 59:0.53211308 60:0.47551435 61:0.2904107 62:0.64147294 63:0.55319399 64:0.58286726 65:0.7629832 66:0.33610401 67:0.46261382 68:0.80671978 69:0.11828553 70:0.59849924 71:0.91314363 
0 0 0 0 0 0 0 0 0 0 0.2104822503497178 0.3701300423383229 0 0.2699086240753994 0 0 0 0 0.1437835543360652 0.06968031871980064 0 0.08158022778640982 0 0 0.7421281236631168 0 0 0 0 0 0 0 0 0 0 0 0.1917275617335783 0 0 1:0.37037742 2:0.42718694 3:0.529356 4:0.94026035 5:0.62535334 6:0.35385513 7:0.81555134 8:0.44034454 9:0.50679624 10:0.60948956 11:0.37692434 12:0.41035107 13:0.45169139 14:0.65193588 15:0.55598503 16:0.1661582 17:0.55674261 18:0.18986219 19:0.57162464 20:0.42391005 21:0.63277954 22:0.6216473 23:0.66314942 24:0.36531794 25:0.44591075 26:0.1251862 27:0.46046132 28:0.59352356 29:0.54045355 30:0.52437973 31:0.32639545 32:0.45431268 33:0.55885333 34:0.35449135 35:0.58586681 36:0.42850214 37:0.27439553 38:0.42481253 39:0.51661646 40:0.64912081 41:0.59290469 42:0.43335116 43:0.65351796 44:0.67262322 45:0.48589364 46:0.45725688 47:0.43801799 48:0.52028549 49:0.57516885 50:0.56343442 51:0.50305259 52:0.44259843 53:0.60411412 54:0.46058306 55:0.49536067 56:0.3874892 57:0.28458023 58:0.40284336 59:0.50177377 60:0.61697865 61:0.44456604 62:0.52188474 63:0.64707905 64:0.46841037 65:0.81150812 66:0.29494628 67:0.46297449 68:0.90606093 69:0.1379081 70:0.73097444 71:0.87055194 
0.7136219306419865 0 0.7421516032134118 0 0 0 0 0.01667671708325407 0 0 0 0 0.7189814210805866 0 0 0 0 0.3107786307606634 0 0 0.5744759127273188 0 0 0 0 0.5451581469571124 0 0 0.1378427584846943 0 0 0 0 0 0 0.2502706156761099 0.264344375100047 0.0178607200587616 0 1:0.60369533 2:0.56371236 3:0.27718395 4:0.74240673 5:0.85299361 6:0.53572994 7:0.65103519 8:0.48503768 9:0.47613937 10:0.70153356 11:0.54946178 12:0.43338755 13:0.46668816 14:0.66743052 15:0.69522297 16:0.3752588 17:0.37853628 18:0.32128695 19:0.65867811 20:0.34894708 21:0.41438574 22:0.5529142 23:0.64889246 24:0.42211282 25:0.5247528 26:0.11680183 27:0.35953605 28:0.34804153 29:0.70402187 30:0.67572552 31:0.28781995 32:0.53033358 33:0.34573579 34:0.44830921 35:0.47198343 36:0.88219476 37:0.32806373 38:0.51320517 39:0.37856045 40:0.5230065 41:0.61871785 42:0.38821474 43:0.44912139 44:0.58961982 45:0.64660746 46:0.42741832 47:0.54090774 48:0.41991267 49:0.57149118 50:0.4926734 51:0.5290857 52:0.52034432 53:0.58013034 54:0.53866154 55:0.47256452 56:0.435036 57:0.37634465 58:0.38415268 59:0.54038805 60:0.5577215 61:0.50335854 62:0.57573807 63:0.62959367 64:0.54532075 65:0.68081385 66:0.28736359 67:0.4698146 68:0.80803418 69:0.11532973 70:0.61682343 71:0.88979137 
0 0 0 0.7836792279237558 0 0 0.113448351987278 0 0 0 0 0 0 0.4360665382413043 0 1.652676057196093 0 0 0.6797914839179305 0 0 0.6138207892328225 0 0 1.401477800197758 0 1.328283811312409 0 0 0 0 0 0.2013901968567941 0 0 0 0 0.6429850381199814 0 1:0.78760231 2:0.53667682 3:0.70918387 4:0.4648861 5:0.48922423 6:0.28905943 7:0.58810771 8:0.61464953 9:0.56694251 10:0.65115708 11:0.51876533 12:0.36669752 13:0.40644172 14:0.50234646 15:0.51160169 16:0.59757096 17:0.82987237 18:0.3995575 19:0.55268002 20:0.40532535 21:0.54097718 22:0.55166566 23:0.41666546 24:0.31840384 25:0.54082865 26:0.53803581 27:0.73849505 28:0.36978239 29:0.64169496 30:0.51785785 31:0.45401421 32:0.692599 33:0.73418796 34:0.56529135 35:0.49774009 36:0.65188104 37:0.42955503 38:0.44939896 39:0.28889775 40:0.57782519 41:0.49323377 42:0.42327088 43:0.55636084 44:0.44905663 45:0.40269428 46:0.32731089 47:0.82282305 48:0.4999187 49:0.55381989 50:0.62218559 51:0.48218301 52:0.344221 53:0.57064348 54:0.44122109 55:0.52336693 56:0.52648079 57:0.33987227 58:0.43400502 59:0.59585971 60:0.53422093 61:0.421931 62:0.6797601 63:0.36016259 64:0.43659884 65:0.85278147 66:0.27277011 67:0.55023319 68:0.88641495 69:0.20056339 70:0.64682454 71:0.81054348 
0 0 0 1.177744885092274 0 0 0.3663847162621475 0 0 0 0.6870219981291352 0.9944754744459978 0.3048060155843664 0 0 0.5484522502444134 0.7542619379922322 0 0.8342279342462903 0 0 2.168957998596016 0 0 0 0 0 0 0 2.60848001748097 0 0.08455723317194744 1.035697900172366 0 0.1228929664778381 0 0.7222971160111488 0 0 1:0.94693494 2:0.63254702 3:0.44837385 4:0.47724015 5:0.4579792 6:0.39536604 7:0.48754889 8:0.42886037 9:0.67154455 10:0.4692086 11:0.47563428 12:0.47962677 13:0.35197866 14:0.35323524 15:0.54713231 16:0.6516602 17:0.30469814 18:0.37571004 19:0.56119049 20:0.45288479 21:0.46786693 22:0.63125771 23:0.2545979 24:0.22082613 25:0.4143939 26:0.65099269 27:0.59318519 28:0.48576623 29:0.2944898 30:0.60520434 31:0.29566747 32:0.7311753 33:0.55260617 34:0.41054168 35:0.38075647 36:0.51456439 37:0.61571151 38:0.42252877 39:0.45334691 40:0.40484011 41:0.68855852 42:0.28980535 43:0.43157136 44:0.43207484 45:0.51599497 46:0.31975392 47:0.56175894 48:0.53034675 49:0.4136312 50:0.48681962 51:0.42992187 52:0.29854473 53:0.53155708 54:0.40462297 55:0.53753906 56:0.52609128 57:0.3291457 58:0.45058441 59:0.46133938 60:0.57767206 61:0.41686487 62:0.67638063 63:0.34920689 64:0.39031368 65:0.84235716 66:0.27571595 67:0.65390384 68:0.83104712 69:0.20775276 70:0.61911547 71:0.74463463 
0 0 0 0.05955272391748029 0 0 0 0 0 0 0 0 0 0 0 0 0 0 0 0 0 0 0 0 0 0 0 0.312989319335664 0 0 0 0 0 0 0 0 0 2.306324700570923 0 1:0.66838294 2:0.65800524 3:0.66687506 4:0.6146152 5:0.30842999 6:0.44843587 7:0.51018971 8:0.42958629 9:0.63212216 10:0.50406528 11:0.40381688 12:0.39382485 13:0.39819568 14:0.58706671 15:0.57729447 16:0.64643347 17:0.5811125 18:0.29503778 19:0.57985437 20:0.42091617 21:0.34814453 22:0.56108403 23:0.40004504 24:0.49953726 25:0.64354199 26:0.42229772 27:0.42015579 28:0.45843413 29:0.51296109 30:0.68690032 31:0.46804357 32:0.71057677 33:0.59184098 34:0.4832525 35:0.51936173 36:0.46131352 37:0.42426908 38:0.48517212 39:0.39094585 40:0.25501901 41:0.78108424 42:0.3635906 43:0.45314118 44:0.51717055 45:0.53074801 46:0.38797224 47:0.5197295 48:0.46202347 49:0.49481609 50:0.65535182 51:0.41097537 52:0.36347818 53:0.56273967 54:0.47622201 55:0.53413832 56:0.51267838 57:0.39225718 58:0.36308673 59:0.51569778 60:0.47168386 61:0.53882509 62:0.63952297 63:0.57487404 64:0.38567436 65:0.71828991 66:0.22616467 67:0.48566642 68:0.83257234 69:0.14855941 70:0.6703555 71:0.78420192 
0 0 0 0 0 0 0.5640344494401269 0 0 0 0 1.185486186898035 0.9819137295857647 0 0 0 0 0 0 0.3589062604254141 0.8639418495671959 0 0 0 0 0 0 0 0 0 0 0 0 0 0 0 0 0 0 1:0.66602123 2:0.47326636 3:0.79105562 4:0.3581005 5:0.43785742 6:0.52794701 7:0.43277088 8:0.39919254 9:0.45290974 10:0.44802481 11:0.67974269 12:0.76963997 13:0.44628975 14:0.74845362 15:0.46782389 16:0.49838465 17:0.30685905 18:0.83220142 19:0.47616908 20:0.19186437 21:0.7365123 22:0.75239354 23:0.46221003 24:0.061151434 25:0.64400232 26:0.29989982 27:0.44477111 28:0.56519037 29:0.52507973 30:0.52779877 31:0.20774052 32:0.29655054 33:0.46102116 34:0.56464404 35:0.83634776 36:0.67998278 37:0.36812341 38:0.33294067 39:0.47664928 40:0.53217757 41:0.39994785 42:0.3561725 43:0.5481106 44:0.48117974 45:0.62707722 46:0.44563776 47:0.85470235 48:0.45365149 49:0.54204959 50:0.57887709 51:0.59235507 52:0.53946286 53:0.60305429 54:0.3910211 55:0.45033756 56:0.57827014 57:0.41664991 58:0.41241607 59:0.49865213 60:0.44648695 61:0.2749311 62:0.60336828 63:0.60219258 64:0.5049668 65:0.72815984 66:0.3507199 67:0.47486654 68:0.84986526 69:0.10581718 70:0.66250175 71:0.83289582 
0.1582634318471802 0.3577795433206377 0 0 0 0.4737244707244666 0 0 0 1.085624752939391 0 0 0 0 0 0.2369421132816799 0 0 0 0.4218531750767954 0 0.06578871879978003 0 0 0 0 0 0.2745092132792779 0.3852256456705854 0 0 0 0 0 0 0 0 0 0 1:0.46896979 2:0.6336726 3:0.87160289 4:0.3019062 5:0.73106408 6:0.47936171 7:0.34327623 8:0.348252 9:0.36765066 10:0.66103828 11:0.37179303 12:0.62054843 13:0.39819568 14:0.66274047 15:0.64960152 16:0.63065594 17:0.50824535 18:0.48560813 19:0.57585424 20:0.28909436 21:0.36060792 22:0.61704278 23:0.50598097 24:0.061644096 25:0.62326032 26:0.5870139 27:0.55499113 28:0.66725957 29:0.64980608 30:0.72308213 31:0.45806971 32:0.32209429 33:0.58596539 34:0.52779406 35:0.78645122 36:0.73458701 37:0.41328639 38:0.41372642 39:0.58412671 40:0.51368415 41:0.54979289 42:0.27609682 43:0.50225109 44:0.3297388 45:0.53624409 46:0.43900555 47:0.73154783 48:0.61832237 49:0.28598782 50:0.65627372 51:0.41770011 52:0.4877516 53:0.61223447 54:0.3160556 55:0.50856435 56:0.70560312 57:0.38606748 58:0.446392 59:0.4744477 60:0.51795965 61:0.40982196 62:0.67698568 63:0.65076613 64:0.48617309 65:0.60917866 66:0.25955606 67:0.49450794 68:0.79296565 69:0.13499613 70:0.67169261 71:0.85923404 
0.2050426653309975 0.6181022947140647 0 0.06015072959432519 0 0.1015298813662504 0 0 1.831343388999961 0.1599442539028537 0.4091045934592807 0.7436106690100015 0 0.3798639785414076 0 0.3007110100933505 0 0.2029970438469308 0 0 0 2.421650699471077 0 0 0 0 0 0.6365751319529146 0 1.416048858914023 0.4453421438134649 0.4482201754554929 1.890648235036075 0 1.101804921434687 0 0 1.121335932265346 0.7990804027843266 1:0.32868388 2:0.51382154 3:0.10944942 4:0.65639776 5:0.34521514 6:0.51110339 7:0.8227765 8:0.42925072 9:0.17100233 10:0.44855914 11:0.56648618 12:0.47279641 13:0.53649443 14:0.47392654 15:0.94629419 16:0.41881084 17:0.39453104 18:0.46103281 19:0.39577591 20:0.33020696 21:0.23884937 22:0.56441665 23:0.49689335 24:0.44540933 25:0.44351646 26:0.58616239 27:0.26231539 28:0.46975115 29:0.4433699 30:0.29429349 31:0.51539022 32:0.60337663 33:0.42533731 34:0.44425365 35:0.62340474 36:0.59420443 37:0.54817116 38:0.62129658 39:0.47979024 40:0.46373579 41:0.66875684 42:0.29527146 43:0.30101949 44:0.62667 45:0.52080315 46:0.52666152 47:0.79716909 48:0.27483928 49:0.59174556 50:0.29664662 51:0.56821936 52:0.44380915 53:0.40201452 54:0.56960571 55:0.60027099 56:0.36771059 57:0.22636661 58:0.41391361 59:0.35483202 60:0.53567737 61:0.56026524 62:0.51037055 63:0.44001776 64:0.44651109 65:0.82502872 66:0.16331948 67:0.67170841 68:0.72910786 69:0.19949105 70:0.64003187 71:0.66170275 
0 0 0 0.2393416294042244 0.1620238807669782 0.7647873199738821 0 0 0 0 1.263715314301698 0 0 0 0 0 0 0 0.2550060781454555 0 0 0 0 0 0 0 0 0 0.109840323581016 0.205652305059541 0 0 0 0 0 0 0 0 0 1:0.47088686 2:0.30115971 3:0.50782192 4:0.76637387 5:0.3347244 6:0.39539203 7:0.74505717 8:0.5585264 9:0.25994629 10:0.39366826 11:0.42999282 12:0.46898597 13:0.62208921 14:0.70815647 15:0.60152072 16:0.71694219 17:0.40990523 18:0.55182642 19:0.56799614 20:0.2427706 21:0.2733708 22:0.66968697 23:0.45713389 24:0.4303675 25:0.60733354 26:0.49568173 27:0.23839359 28:0.51964217 29:0.34385565 30:0.59353608 31:0.58152628 32:0.60816222 33:0.52814293 34:0.59372908 35:0.59408396 36:0.77175802 37:0.54766852 38:0.55669165 39:0.68467468 40:0.44876686 41:0.66745037 42:0.34940362 43:0.47072259 44:0.45497411 45:0.54531091 46:0.39510086 47:0.63316834 48:0.64910972 49:0.4899947 50:0.63073593 51:0.42592597 52:0.39746416 53:0.63257092 54:0.36488357 55:0.53900367 56:0.45807272 57:0.34073111 58:0.43475667 59:0.44709772 60:0.53889495 61:0.42885199 62:0.61386734 63:0.50422269 64:0.44976255 65:0.72236288 66:0.26010591 67:0.57642949 68:0.76162016 69:0.10886309 70:0.62414688 71:0.74321282 
0 0 0.1824818021137558 0 0 0 0.03127905301186055 0 0 0 0 0 0.1283655377651721 0 0 0 0 0 0 0 0.8815791296687788 0 0 0.1645286524384231 0 0 0 0 0 0 0 0 0 0 0 0 0 0 0 1:0.59775931 2:0.64890397 3:0.44993415 4:0.68199563 5:0.34652555 6:0.20887001 7:0.43723446 8:0.45875517 9:0.56570917 10:0.47781378 11:0.53794622 12:0.54869097 13:0.68402159 14:0.45502409 15:0.54679275 16:0.41341957 17:0.46661994 18:0.60810286 19:0.62891066 20:0.51785898 21:0.65821707 22:0.62921458 23:0.49253795 24:0.30808845 25:0.64352864 26:0.32944882 27:0.42977616 28:0.52434629 29:0.26398107 30:0.48942021 31:0.25639796 32:0.62543291 33:0.57164574 34:0.5077424 35:0.57164508 36:0.65406263 37:0.5418095 38:0.54061919 39:0.50397623 40:0.54140192 41:0.43737686 42:0.41895676 43:0.33636805 44:0.44966534 45:0.35656968 46:0.49587318 47:0.59098679 48:0.4946548 49:0.52915817 50:0.28562334 51:0.48472506 52:0.61808985 53:0.53501749 54:0.4955743 55:0.37949544 56:0.38751957 57:0.23257644 58:0.38172519 59:0.46878842 60:0.45142493 61:0.66408634 62:0.41766864 63:0.55922413 64:0.33041024 65:0.85618907 66:0.14619952 67:0.55902702 68:0.73187459 69:0.18558708 70:0.57266682 71:0.75986928 
0 0 1.028613127153296 0 0 0 0 0 0 0 0 0 0 0 0 0 0 0 0 0 0 0 0 0 0 0.4430778321166297 0 0 0 0 0 0 0 0 0 0 0 0 0 1:0.40738106 2:0.45691219 3:0.62409461 4:0.65761852 5:0.36587 6:0.41045639 7:0.5320096 8:0.27891955 9:0.78692353 10:0.37436119 11:0.40561187 12:0.56667435 13:0.51406085 14:0.60719401 15:0.74565792 16:0.5709855 17:0.40172228 18:0.57983911 19:0.66230255 20:0.62456387 21:0.54876149 22:0.79132098 23:0.53568214 24:0.39904413 25:0.56175971 26:0.3546876 27:0.36423767 28:0.36748534 29:0.18966173 30:0.65660298 31:0.39085621 32:0.53443027 33:0.57924604 34:0.66522938 35:0.52170074 36:0.71678323 37:0.52314454 38:0.41275045 39:0.57223165 40:0.3337737 41:0.48333219 42:0.37160751 43:0.43168506 44:0.40461209 45:0.57839286 46:0.47549039 47:0.56806839 48:0.4595792 49:0.47262073 50:0.62400305 51:0.49553651 52:0.45447844 53:0.62243277 54:0.52699584 55:0.54934764 56:0.46865824 57:0.44213307 58:0.39442047 59:0.47182611 60:0.44851241 61:0.57551044 62:0.59178835 63:0.49036017 64:0.43867466 65:0.83150184 66:0.23023474 67:0.53967386 68:0.86144859 69:0.23634344 70:0.67530805 71:0.82607782 
0 0 0 0 0 0 0 0 0 0 0 0.2716145073226092 0 0 0 0 0 0 0 0 0 0 0 0 0 0 0 0 0 0 0 0 0 0 0 0 0 0 0.04792115221035655 1:0.29554898 2:0.5352962 3:0.54793245 4:0.32868338 5:0.50305247 6:0.35669103 7:0.61686921 8:0.49106789 9:0.77435064 10:0.43484661 11:0.54660082 12:0.57342452 13:0.34479403 14:0.73744285 15:0.45179433 16:0.54178071 17:0.48728028 18:0.44280759 19:0.40417928 20:0.60758591 21:0.1718833 22:0.54127097 23:0.31907189 24:0.39551419 25:0.49527445 26:0.56318069 27:0.49683186 28:0.50746465 29:0.5574221 30:0.57452744 31:0.61848253 32:0.39834106 33:0.23920856 34:0.33578509 35:0.62756455 36:0.5863719 37:0.23276928 38:0.60551709 39:0.39295083 40:0.56194484 41:0.77434838 42:0.37345082 43:0.57324785 44:0.48142537 45:0.65021342 46:0.53167593 47:0.66782391 48:0.42582881 49:0.51015216 50:0.51152724 51:0.39843783 52:0.46300384 53:0.54016739 54:0.51246989 55:0.49514711 56:0.55311304 57:0.30935133 58:0.33711201 59:0.50316608 60:0.47798336 61:0.49375135 62:0.56853825 63:0.62317359 64:0.51985759 65:0.696141 66:0.33375546 67:0.42013335 68:0.92574638 69:0.16076353 70:0.65151668 71:0.81526661 
0 0 0 0 0 0 0 0 0 0 0 0 0 0 0 0 0.1054315325327581 0 0 0 0 0 0 0 0 0 0.1483259708171296 0 0 0 0 0 0 0 0 0 0 0 0 1:0.58521581 2:0.52547556 3:0.76492316 4:0.67875552 5:0.40080273 6:0.24606656 7:0.64609867 8:0.57231551 9:0.59141451 10:0.5160585 11:0.36719245 12:0.420506 13:0.24794027 14:0.4223395 15:0.49985939 16:0.58017921 17:0.42604265 18:0.1379583 19:0.53264529 20:0.4668071 21:0.33457556 22:0.6949712 23:0.38317484 24:0.47438517 25:0.5494405 26:0.29705754 27:0.63536662 28:0.65307593 29:0.29601935 30:0.56728435 31:0.33915046 32:0.60711557 33:0.52467018 34:0.54461282 35:0.55942047 36:0.49869144 37:0.34230769 38:0.65623403 39:0.47247961 40:0.50260216 41:0.59244215 42:0.45243007 43:0.68507326 44:0.50835335 45:0.49946374 46:0.35478389 47:0.57089436 48:0.45335653 49:0.37364393 50:0.60217434 51:0.45142362 52:0.46968874 53:0.62532926 54:0.44378984 55:0.48353824 56:0.500525 57:0.27866927 58:0.37680823 59:0.56804723 60:0.48379359 61:0.50999528 62:0.56942928 63:0.63164479 64:0.4527415 65:0.76721692 66:0.26470402 67:0.48349994 68:0.89838368 69:0.11008355 70:0.6022175 71:0.87138748 
0 0 0 0.1734825529445174 0 1.547823637893503 0 0.8074088383546618 0.3726607222434878 0 0 0 0 0.3345918444129918 0 0 0 2.050089105487739 0 0 0.9400940843889175 0 0.06238360548006069 0.4802948823161609 0 0 1.000498832698552 0 0 0 0 0.1213400955566522 0 0 0 0 0 0 0 1:0.61980301 2:0.57284087 3:0.43143994 4:0.66741103 5:0.81654471 6:0.38259813 7:0.55204976 8:0.62283063 9:0.66744745 10:0.47055626 11:0.45579675 12:0.8221162 13:0.32126376 14:0.37342158 15:0.71016234 16:0.70637631 17:0.75365669 18:0.35091835 19:0.64750701 20:0.47672081 21:0.41326073 22:0.65273726 23:0.76719534 24:0.27781248 25:0.43866807 26:0.31238666 27:0.5313291 28:0.61511719 29:0.31660438 30:0.77852428 31:0.52737951 32:0.40579754 33:0.36459652 34:0.40760511 35:0.47052452 36:0.44710499 37:0.56091291 38:0.34071267 39:0.38676518 40:0.44693944 41:0.6065098 42:0.48674053 43:0.70484686 44:0.46956593 45:0.4462871 46:0.36263758 47:0.43719369 48:0.51956928 49:0.35552669 50:0.4397673 51:0.44712707 52:0.48567039 53:0.55663145 54:0.48032764 55:0.39634925 56:0.53780037 57:0.4865658 58:0.47161478 59:0.41551253 60:0.57655561 61:0.47397494 62:0.51857632 63:0.72605878 64:0.48142171 65:0.70598239 66:0.31176698 67:0.3892588 68:0.93342811 69:0.16977479 70:0.61335325 71:0.90891874 
0 0 0.1840183438345325 0 0 0 0 0 0.1674693397640359 0 0 0 0 0 0 0 0.2219239490479824 0 0.3485590724649283 0.5814050710889259 0 0 0 0 0 0 0 0 0 0 0 0.3355666485765252 0 0.9687152143397689 0 0 0 0.1262145132670508 0 1:0.55324316 2:0.60867834 3:0.33834448 4:0.54218042 5:0.92641002 6:0.43501285 7:0.38568789 8:0.63197905 9:0.85660273 10:0.49314964 11:0.53936416 12:0.61047667 13:0.45785749 14:0.41351074 15:0.69411665 16:0.63394302 17:0.71300966 18:0.58083034 19:0.69135702 20:0.56781721 21:0.41129929 22:0.56422019 23:0.78203261 24:0.36240622 25:0.48465028 26:0.38765535 27:0.58611584 28:0.39751026 29:0.32932597 30:0.7859503 31:0.59962755 32:0.45672718 33:0.36715889 34:0.30599627 35:0.39125684 36:0.56482172 37:0.58959949 38:0.41517541 39:0.37181199 40:0.49162009 41:0.58761817 42:0.45708558 43:0.63045239 44:0.41949362 45:0.57802945 46:0.25105986 47:0.5405966 48:0.37595591 49:0.3704952 50:0.43098199 51:0.47207817 52:0.43430188 53:0.5193252 54:0.47089615 55:0.40512928 56:0.50945956 57:0.38716853 58:0.44630706 59:0.50730085 60:0.53336799 61:0.4589743 62:0.48473865 63:0.69048882 64:0.57712942 65:0.73968995 66:0.33505568 67:0.39365482 68:0.85361385 69:0.17849058 70:0.62755656 71:0.97474456 
0.1825167938944574 0 0 0 0 0.7845150608860727 0 1.955478117864119 0 0.2974901785652644 2.221789985752989 0 0 1.114689844217485 0 0.3300611599128255 0.4209415376711735 0.5125548299089145 0.2595503905075006 0.8633462703910328 0.05582078409001056 0.2814598248292643 0.1515303588470373 0 0.4775966485778769 0 0.4347619333524881 0 0 0 0.654011986961181 0 0 0.1198813476217951 0.2997814649538528 0.7422326462354416 0 0 1.243861871647503 1:0.30059585 2:0.69930702 3:0.53537267 4:0.35464141 5:0.5495736 6:0.56319898 7:0.63283074 8:0.3264015 9:0.7748515 10:0.41402042 11:0.61069733 12:0.57151908 13:0.42225274 14:0.67816728 15:0.58081579 16:0.51280153 17:0.26638559 18:0.43604696 19:0.5718801 20:0.68562907 21:0.45299673 22:0.46350279 23:0.47053674 24:0.25649989 25:0.27046162 26:0.42987439 27:0.62539703 28:0.41096675 29:0.3309575 30:0.65275204 31:0.37094024 32:0.64787382 33:0.29632983 34:0.59979272 35:0.5941081 36:0.55458313 37:0.2023703 38:0.48374733 39:0.30206281 40:0.3125504 41:0.62624097 42:0.55160743 43:0.32720733 44:0.41076031 45:0.60503781 46:0.36027223 47:0.64951575 48:0.47792542 49:0.60952735 50:0.45786121 51:0.54839087 52:0.532794 53:0.55118042 54:0.46900243 55:0.40975916 56:0.44168684 57:0.39791146 58:0.3845329 59:0.57218415 60:0.54483145 61:0.49492034 62:0.6461044 63:0.43103531 64:0.53022957 65:0.76633704 66:0.34865326 67:0.40274656 68:0.77244395 69:0.19116066 70:0.70690322 71:0.79890758 
0 0 0 0 0 0 0.2374958999814567 0.05253063349887935 0.6230345221028574 0 0 0 0 0 0 0 0 0 0 0 0 0 0.6945160943096081 0 0 0 0.04416849812386651 0 0 0 0.9737340299388184 0 0 0 0 0.2550150558777867 0 0.6608541259783518 0 1:0.54113537 2:0.54954666 3:0.54666322 4:0.70310509 5:0.31485239 6:0.48134583 7:0.37650257 8:0.45312095 9:0.52894461 10:0.4016597 11:0.52394289 12:0.36810681 13:0.44470543 14:0.62397617 15:0.59088045 16:0.82754838 17:0.36042988 18:0.48983568 19:0.60036731 20:0.47541061 21:0.39690283 22:0.61438841 23:0.28287941 24:0.39391729 25:0.47172391 26:0.54237342 27:0.51128191 28:0.5523001 29:0.39657426 30:0.39302272 31:0.68011266 32:0.45330268 33:0.51674163 34:0.54003936 35:0.53956378 36:0.2606855 37:0.25476581 38:0.56118631 39:0.41777855 40:0.3541216 41:0.40614307 42:0.3726908 43:0.40011609 44:0.41850287 45:0.56901348 46:0.55945355 47:0.65300399 48:0.37020501 49:0.64949727 50:0.28656524 51:0.57294071 52:0.45421401 53:0.40054467 54:0.60102981 55:0.29439312 56:0.573448 57:0.29280099 58:0.30469874 59:0.43647012 60:0.45145839 61:0.58488256 62:0.48195046 63:0.43125919 64:0.48696417 65:0.81335431 66:0.1248521 67:0.60427654 68:0.77337325 69:0.17716795 70:0.53425825 71:0.75011194 
0 0 0 0 0.6608957874396563 0 0 0 0 0 0 0 0 0 0 0 0 0 0.4766016787186456 0.7141755131770831 0 0 0 0.7090298339556169 0 0 0 0 0 0 0 0 0.1707979524149789 0 0 0 0 0 0 1:0.48595265 2:0.45895502 3:0.66034383 4:0.90839142 5:0.5248071 6:0.29393655 7:0.49576804 8:0.37509713 9:0.49174449 10:0.22391336 11:0.48325741 12:0.41649652 13:0.41036808 14:0.58411276 15:0.69884348 16:0.52214915 17:0.5174852 18:0.24154039 19:0.59390956 20:0.58254731 21:0.56388772 22:0.35415381 23:0.44296551 24:0.7508685 25:0.48675328 26:0.53228801 27:0.50137764 28:0.33858088 29:0.46540219 30:0.56001633 31:0.59725249 32:0.6002667 33:0.50199223 34:0.64612073 35:0.56573129 36:0.22230414 37:0.34695384 38:0.55289745 39:0.61949879 40:0.52964604 41:0.45663637 42:0.44132814 43:0.53309429 44:0.44450909 45:0.5455606 46:0.30669197 47:0.62059259 48:0.42976066 49:0.55965525 50:0.41783956 51:0.5110268 52:0.45650715 53:0.61136842 54:0.45279849 55:0.58007705 56:0.55125016 57:0.31617674 58:0.38910875 59:0.56403744 60:0.4855288 61:0.43144116 62:0.57729828 63:0.47988439 64:0.43762743 65:0.78029042 66:0.19832876 67:0.43392399 68:0.87799132 69:0.15578312 70:0.68577695 71:0.78329521 
0.9394333770400849 0 0.2690371253445013 0 0 0 0 0 0 0 0 0 0 0 0 0.3360325839684252 0 0.05511180502794025 0 0 0 0 0 0 0.6881933812723821 0 0 0 0 0 0.6380462703682677 0 0 0 0 0 0 0 0 1:0.46256793 2:0.38740939 3:0.59779221 4:0.59826136 5:0.25271657 6:0.50019151 7:0.62660325 8:0.42690033 9:0.47121173 10:0.52288449 11:0.52878845 12:0.34776652 13:0.51426905 14:0.57146871 15:0.51072365 16:0.44970691 17:0.12461805 18:0.5201968 19:0.52392513 20:0.31802407 21:0.6119808 22:0.47858524 23:0.62086236 24:0.34294844 25:0.56951249 26:0.53411418 27:0.74484926 28:0.41912434 29:0.50300729 30:0.51435483 31:0.59041727 32:0.58380365 33:0.4398337 34:0.37818447 35:0.43975502 36:0.62370425 37:0.33769539 38:0.37733489 39:0.2556248 40:0.18006609 41:0.52191204 42:0.39917988 43:0.47932309 44:0.55639285 45:0.56613624 46:0.29954678 47:0.72808594 48:0.47163528 49:0.48948699 50:0.55357957 51:0.49855208 52:0.5316776 53:0.48905221 54:0.49967322 55:0.4794364 56:0.41279736 57:0.31517914 58:0.35936728 59:0.50457674 60:0.61893958 61:0.3976939 62:0.64122361 63:0.52512574 64:0.49668175 65:0.70224702 66:0.32293421 67:0.42627558 68:0.87030464 69:0.15514554 70:0.64855641 71:0.81997252 
0 0 0 0 0 0 0 0 0 0 0 0.5302077430269337 0.8954094222674924 0.224838788504394 0 0 0 0.7613585774935656 0.0077235354054509 0.2363121156438131 0.4870469975559121 0 0.5361821213534614 0 0 0.2577262803350746 0 0 0 0.07353418760017463 0 0 0.5594160959029849 0 0 0 0 0.2426117520339156 0 1:0.44130957 2:0.6113863 3:0.70613056 4:0.50706214 5:0.55005783 6:0.65054423 7:0.76422524 8:0.37001744 9:0.4347977 10:0.40056062 11:0.37445053 12:0.360039 13:0.47449389 14:0.42574519 15:0.33754954 16:0.65458125 17:0.23664683 18:0.61104274 19:0.41156301 20:0.42941466 21:0.56637979 22:0.72285599 23:0.54167682 24:0.7091524 25:0.53026313 26:0.54996628 27:0.57335448 28:0.31288114 29:0.58005989 30:0.18657219 31:0.22492002 32:0.68132353 33:0.48871475 34:0.7900244 35:0.54566759 36:0.69792694 37:0.37963718 38:0.53037703 39:0.56886715 40:0.17459856 41:0.44289327 42:0.43260375 43:0.46804181 44:0.37504554 45:0.55900389 46:0.54144871 47:0.84767568 48:0.5104593 49:0.63314235 50:0.62575847 51:0.55080187 52:0.49290419 53:0.520805 54:0.40080911 55:0.6347459 56:0.58553302 57:0.36345088 58:0.35779321 59:0.54642785 60:0.52197611 61:0.37720588 62:0.66124099 63:0.3529548 64:0.47310913 65:0.86692935 66:0.24866822 67:0.54488093 68:0.86195564 69:0.21334511 70:0.65767741 71:0.71979731 
1.823472088329426 0 0 1.1010511268209 0 0 0 0.2102203442485619 0 0 0 0 0 0 0 0 0 0.3599092135552702 0 0.007118302556432544 0 0 0.02062634778186655 0 0 0 0 0 0 0.1400117006057303 0 0 0.6943322738799607 0 0 0 0 0 0 1:0.46548751 2:0.65058672 3:0.48497131 4:0.67503089 5:0.41566986 6:0.59456521 7:0.65434903 8:0.38244656 9:0.46576399 10:0.22538076 11:0.40468821 12:0.62046182 13:0.43820688 14:0.67401528 15:0.526986 16:0.58738929 17:0.38901716 18:0.49916968 19:0.53997684 20:0.59448153 21:0.50126451 22:0.63304347 23:0.46823362 24:0.56345433 25:0.53857076 26:0.19887938 27:0.72327548 28:0.60369605 29:0.37055102 30:0.37411487 31:0.44256574 32:0.72150028 33:0.52968621 34:0.56112051 35:0.52705926 36:0.61260307 37:0.46452478 38:0.41561642 39:0.58276188 40:0.19001864 41:0.5270437 42:0.54390603 43:0.55975491 44:0.45315215 45:0.61382145 46:0.41134566 47:0.72043848 48:0.54051858 49:0.60446554 50:0.69486791 51:0.52491474 52:0.48435694 53:0.58450121 54:0.567765 55:0.55028248 56:0.51565385 57:0.33269721 58:0.43429375 59:0.57687545 60:0.53309065 61:0.43969822 62:0.72505146 63:0.38798314 64:0.37432414 65:0.71441102 66:0.19272965 67:0.5043143 68:0.81768459 69:0.22188193 70:0.66726023 71:0.78013533 
0.1760817434419747 1.297902359510229 0 1.18368159694354 1.405019880968481 0 0 0.3486244309142489 0 1.294761363544298 0 0 0 0.01789808724885261 0 0 0.7310406709969874 1.254014086228026 1.216887280492211 0 0 0 0 0 0.3207026690142326 0.1960782303264026 0 0 0 0 0.1970282908297303 0.66064448365198 1.535432057310931 0 0 0 0.6006815161436274 0.9410081321449328 0 1:0.64230591 2:0.26740441 3:0.77629769 4:0.4434607 5:0.41467121 6:0.29554403 7:0.5677855 8:0.29166937 9:0.69519061 10:0.52266496 11:0.73125416 12:0.4951427 13:0.60893971 14:0.53367513 15:0.63203979 16:0.52664995 17:0.39397189 18:0.86294973 19:0.72757208 20:0.47345191 21:0.74153692 22:0.65909135 23:0.45224923 24:0.52053064 25:0.36226627 26:0.48739058 27:0.60484904 28:0.61741686 29:0.59018075 30:0.46821064 31:0.34704313 32:0.55429292 33:0.42709896 34:0.48370823 35:0.45520732 36:0.61959165 37:0.2769658 38:0.44969663 39:0.29987702 40:0.37544608 41:0.4557254 42:0.2963081 43:0.37269807 44:0.33572367 45:0.65573627 46:0.4030534 47:0.60574573 48:0.46879596 49:0.50996399 50:0.44162998 51:0.50402474 52:0.36871871 53:0.59292519 54:0.61559469 55:0.42544499 56:0.50694156 57:0.53647369 58:0.37296736 59:0.54651427 60:0.58312172 61:0.40728974 62:0.65010488 63:0.41510969 64:0.49188173 65:0.79285038 66:0.23778559 67:0.53204542 68:0.74840349 69:0.16001531 70:0.6677618 71:0.7597326 
0 0 1.039642714021892 0 0 0 1.144271770674864 0.402959400941803 1.163667538528537 0.5048642506363924 1.198457323958435 0 0.3983740682019002 0 1.463415811746541 0.6705356558798594 0.329248728331821 0.3101653350280374 0.02715368527732426 0 0 0.5908748578013867 1.697318183516546 0.1855975691500409 0 0 0 0 0 0 0.1116466550168196 1.546563793354642 0.8186752220935997 1.348448836179655 0.7933968643516699 1.08250739069792 0.09485481126651026 0 1.472510494201618 1:0.82440364 2:0.52522701 3:0.72711414 4:0.45891413 5:0.56214911 6:0.36595619 7:0.57034338 8:0.2063763 9:0.58132076 10:0.57230121 11:0.47325051 12:0.73724848 13:0.56500673 14:0.45444772 15:0.58522439 16:0.41095632 17:0.50145465 18:0.67233199 19:0.61738598 20:0.38994411 21:0.91484576 22:0.62464845 23:0.50311059 24:0.52129793 25:0.45796245 26:0.51328784 27:0.60130715 28:0.69152564 29:0.52449417 30:0.50339395 31:0.43166414 32:0.69860464 33:0.79087073 34:0.62421352 35:0.46470547 36:0.7112112 37:0.45870993 38:0.41132319 39:0.47553581 40:0.44203386 41:0.35941675 42:0.3889125 43:0.5369454 44:0.36466479 45:0.60953993 46:0.32804209 47:0.59791046 48:0.52549803 49:0.45621246 50:0.54395306 51:0.53627408 52:0.43429294 53:0.54763782 54:0.51367819 55:0.53410387 56:0.48635906 57:0.32312089 58:0.35542837 59:0.43030038 60:0.45486775 61:0.40515673 62:0.65985852 63:0.40205976 64:0.44282717 65:0.80728424 66:0.19307871 67:0.60653597 68:0.75783372 69:0.14511362 70:0.57322431 71:0.74984145 
0 0 0 0 0 0 0 0 0 0 0 0 0 0 0 0 0 0.7454282550304281 0 0 0 0 0 0 0 0 0 0.09112396244799971 0 0 0 0 0 0 0 0 0 0 0 1:0.65937769 2:0.52174395 3:0.41086495 4:0.48042831 5:0.17945977 6:0.47542697 7:0.51528519 8:0.68073273 9:0.5724749 10:0.40216351 11:0.34609437 12:0.23244412 13:0.56785625 14:0.45566565 15:0.86236185 16:0.46822694 17:0.43846905 18:0.3540217 19:0.45460236 20:0.46904397 21:0.36587659 22:0.76419359 23:0.3886919 24:0.50178778 25:0.57263881 26:0.32777357 27:0.37417632 28:0.23720938 29:0.66332346 30:0.496564 31:0.31249949 32:0.47884345 33:0.35291159 34:0.5605011 35:0.51205695 36:0.21660674 37:0.52840364 38:0.58877689 39:0.58547014 40:0.37470406 41:0.67569143 42:0.3899141 43:0.44700822 44:0.51573539 45:0.49765363 46:0.38084882 47:0.52755719 48:0.34001058 49:0.57766998 50:0.48903653 51:0.51582456 52:0.5003162 53:0.62437552 54:0.45121062 55:0.5121358 56:0.55366009 57:0.41874427 58:0.45994854 59:0.47847396 60:0.55284047 61:0.49419144 62:0.53131521 63:0.59246832 64:0.44332787 65:0.78349739 66:0.31356969 67:0.400612 68:0.85483009 69:0.14287044 70:0.69429952 71:0.87423992 
0 0 0.0803326972276495 0 0 0 0 0 0 0 0.4458490470793803 0 0 0 0 0 0 0.2355340135420097 0 0 0 0 0 0 0 0 0 0 0 0 0 0 0 0.04474705837611673 0 0 0 0.5067514582472782 0 1:0.67799222 2:0.49811056 3:0.44651911 4:0.82114327 5:0.52711242 6:0.29330716 7:0.52184212 8:0.62618369 9:0.45538214 10:0.55104858 11:0.50029546 12:0.48933637 13:0.55741388 14:0.38751239 15:0.79484296 16:0.4403899 17:0.84557074 18:0.43844882 19:0.55816156 20:0.3177031 21:0.71788108 22:0.56203878 23:0.60261714 24:0.66399801 25:0.57616061 26:0.40002969 27:0.68174696 28:0.4597401 29:0.61796784 30:0.43113002 31:0.54564798 32:0.61224449 33:0.51196837 34:0.48859367 35:0.51834321 36:0.40306684 37:0.42635959 38:0.25780714 39:0.39423555 40:0.42135867 41:0.63161188 42:0.53061706 43:0.62109232 44:0.52126473 45:0.43147188 46:0.35400766 47:0.63472891 48:0.46404499 49:0.55856699 50:0.65032935 51:0.49685493 52:0.51525617 53:0.60925871 54:0.47871608 55:0.589405 56:0.40312439 57:0.33923715 58:0.47599831 59:0.52487373 60:0.51510918 61:0.46468544 62:0.54258674 63:0.55118132 64:0.50752014 65:0.82480347 66:0.22368288 67:0.46520314 68:0.83509433 69:0.10942949 70:0.65432942 71:0.86765784 
0 0 0 0.1144735010337748 0 0.9303775099578431 0 0 0 0 0 0 0 0.1045107672090026 0 0 0 0 0 0.3914269406169237 0 0 0.0790506201664976 0.8444521687224811 0 0.2159849285705819 0 0.1170972649199809 0 0 0 0 0 0.2575501581474449 0.3196463033613133 0 0 0 0 1:0.80834174 2:0.67898363 3:0.35568425 4:0.61134875 5:0.45423368 6:0.3988204 7:0.48526984 8:0.43578583 9:0.51645082 10:0.53470278 11:0.4804264 12:0.50218028 13:0.62242895 14:0.41594276 15:0.90052873 16:0.46318957 17:0.60312611 18:0.46298668 19:0.54697758 20:0.17267089 21:0.59206605 22:0.65423203 23:0.50422859 24:0.47293821 25:0.71256042 26:0.5877865 27:0.78465247 28:0.47011781 29:0.68172669 30:0.50945234 31:0.44898763 32:0.68176651 33:0.51382214 34:0.31396708 35:0.52034432 36:0.3658227 37:0.51147068 38:0.36805215 39:0.46574098 40:0.14009309 41:0.6406424 42:0.39906248 43:0.5241152 44:0.64171487 45:0.45116118 46:0.34619457 47:0.64973754 48:0.53735399 49:0.36383519 50:0.65590864 51:0.48170707 52:0.47725588 53:0.57415557 54:0.50863558 55:0.67896485 56:0.42760158 57:0.35152373 58:0.4514274 59:0.40381628 60:0.52794331 61:0.43437734 62:0.55056924 63:0.57667351 64:0.49097684 65:0.78053206 66:0.2128036 67:0.42054772 68:0.86344177 69:0.13875939 70:0.6110425 71:0.81962538 
0 0 0 0 0 0 0 0 0 0 0 0 0 0 0 0 0 0 0 0 0 0 0 0.6228678520134919 0 0 0 0 0 0 0 0 0 0 0 0 0 0 0 1:0.55009812 2:0.70246488 3:0.43798766 4:0.36729035 5:0.6046316 6:0.31747368 7:0.39099678 8:0.37482086 9:0.50111634 10:0.76472616 11:0.74538708 12:0.71840572 13:0.62783718 14:0.50698841 15:0.62720561 16:0.49459711 17:0.52404326 18:0.40583181 19:0.59926635 20:0.56341171 21:0.66434628 22:0.46448016 23:0.5065065 24:0.62703246 25:0.43065098 26:0.46302205 27:0.50954223 28:0.4678618 29:0.30074826 30:0.50742126 31:0.48722365 32:0.49225485 33:0.56345397 34:0.48614684 35:0.39887235 36:0.50557333 37:0.40512827 38:0.45648646 39:0.31682852 40:0.34381673 41:0.53759825 42:0.46042791 43:0.53154796 44:0.30929527 45:0.50395042 46:0.27637053 47:0.72305447 48:0.432051 49:0.57502598 50:0.53634924 51:0.47115907 52:0.36828905 53:0.57967257 54:0.49686629 55:0.56086862 56:0.47071832 57:0.31066358 58:0.39952213 59:0.46818823 60:0.59585494 61:0.52635133 62:0.54696459 63:0.49142846 64:0.42980617 65:0.83872312 66:0.22352363 67:0.46517736 68:0.82705528 69:0.1796106 70:0.75196058 71:0.91639721 
0 0 0.3823829388135368 0 0 0.502649883949091 0 0 0 0 0 0.5662528155171193 0 0 0 0 0 0 0 0 0 0 0 0 0.6424556605675038 0 0 1.080633520308089 0.4485180405509239 0.0739203716516853 0 0 0 0 0.4059585369122967 0.5130305566894099 1.249694087573384 0 0 1:0.71507478 2:0.39281723 3:0.67030114 4:0.43385825 5:0.5954954 6:0.39954287 7:0.47049567 8:0.42341185 9:0.51397395 10:0.65514624 11:0.70838827 12:0.62472457 13:0.57429498 14:0.60458779 15:0.67117929 16:0.51383871 17:0.39184621 18:0.5900414 19:0.62352055 20:0.5499633 21:0.72458631 22:0.50747895 23:0.64637887 24:0.60850656 25:0.54790986 26:0.39502516 27:0.46344993 28:0.3014271 29:0.37729567 30:0.56612521 31:0.5258258 32:0.61563534 33:0.56134117 34:0.54580605 35:0.52809429 36:0.67747235 37:0.51566702 38:0.4828043 39:0.28701937 40:0.42440245 41:0.40867314 42:0.47418919 43:0.43465793 44:0.29412174 45:0.44060504 46:0.11374366 47:0.568178 48:0.6228261 49:0.41834289 50:0.68139583 51:0.48978677 52:0.45596644 53:0.58981329 54:0.56081772 55:0.60361934 56:0.34826383 57:0.23648934 58:0.40749076 59:0.55184871 60:0.5874989 61:0.48614773 62:0.58619541 63:0.51516646 64:0.41768271 65:0.63954461 66:0.31633732 67:0.40118536 68:0.83285689 69:0.15583566 70:0.7052474 71:0.8646667 
0 1.652740244021595 0 0 0.376800130436175 0 0.1925234521266337 1.42824250788108 0 0 0 0.2021201777414111 0.1170663412897281 1.105072400857524 0 0 0 0 0 0 0 0.5473684531027663 0 0 0 0 0 0 0 1.147943823667714 0 0 0 0.363893474821366 0 0 0.3709507945125335 0 1.312160982222584 1:0.53314412 2:0.41422641 3:0.40928286 4:0.61572152 5:0.39093325 6:0.4451071 7:0.55969852 8:0.48326486 9:0.4365291 10:0.705468 11:0.48359579 12:0.59358132 13:0.51943469 14:0.51111817 15:0.81525165 16:0.34019515 17:0.53262609 18:0.45557731 19:0.59161288 20:0.37083206 21:0.67216504 22:0.46842548 23:0.69367766 24:0.36920154 25:0.77122968 26:0.20986576 27:0.59773517 28:0.41777721 29:0.54485333 30:0.36238199 31:0.41092911 32:0.75212282 33:0.74921221 34:0.35481966 35:0.4472346 36:0.37380505 37:0.4485622 38:0.35524556 39:0.44246078 40:0.37096563 41:0.55865747 42:0.42965248 43:0.52195323 44:0.42669693 45:0.37965062 46:0.3178494 47:0.50041145 48:0.42333257 49:0.59956139 50:0.55746359 51:0.40076685 52:0.44810906 53:0.62338471 54:0.43235973 55:0.56090438 56:0.32278761 57:0.33133957 58:0.49527329 59:0.5024839 60:0.61283809 61:0.53793013 62:0.52414829 63:0.54605001 64:0.44744602 65:0.7515533 66:0.17013949 67:0.51801002 68:0.81231821 69:0.18929505 70:0.73696375 71:0.80420125 
0 0 0 0 0 0 0 0 0 0 0 0 0 0 0 0 0 0 0 0 0 0 0.3964842130149692 0 0 0 0 0 0 0 0 0 0 0 0 0 0 0 0 1:0.37419647 2:0.6003601 3:0.51083225 4:0.22246262 5:0.11440622 6:0.50940478 7:0.69780302 8:0.52560258 9:0.81643486 10:0.34867579 11:0.62681013 12:0.51508784 13:0.39161468 14:0.69278646 15:0.53065145 16:0.44451475 17:0.36035156 18:0.60943419 19:0.66449666 20:0.59648472 21:0.41384116 22:0.57070494 23:0.39986891 24:0.54209167 25:0.36024794 26:0.44759229 27:0.60979104 28:0.52220863 29:0.55778283 30:0.55291557 31:0.48631534 32:0.50130171 33:0.2332847 34:0.72062439 35:0.61741376 36:0.51172906 37:0.30194414 38:0.61634976 39:0.28102678 40:0.41327691 41:0.50038028 42:0.36485147 43:0.43956059 44:0.37640408 45:0.67332065 46:0.43730134 47:0.64156705 48:0.45246741 49:0.68564057 50:0.51753932 51:0.44647041 52:0.37209824 53:0.64174449 54:0.52994561 55:0.45221248 56:0.60947216 57:0.47668219 58:0.42470771 59:0.52700251 60:0.55097938 61:0.40793499 62:0.56437069 63:0.49939445 64:0.4964658 65:0.77509242 66:0.29826596 67:0.41727847 68:0.90243179 69:0.16017401 70:0.70099479 71:0.78883111 
0 0 0 0 0 0 0 0 0 0 0 0 0 0 0 0 0 0 0 0 0 0 0 0 0 0 0 0 0 0.08457041920410491 0 0 0 0 0 0 0 0 0 1:0.4962692 2:0.68508834 3:0.62441486 4:0.52481771 5:0.23032334 6:0.3030321 7:0.45979449 8:0.61555451 9:0.8034063 10:0.53642905 11:0.58950627 12:0.60835791 13:0.36826244 14:0.31804541 15:0.34956366 16:0.59795344 17:0.71363986 18:0.40835583 19:0.64549142 20:0.44117039 21:0.63006431 22:0.4827058 23:0.64573127 24:0.63165551 25:0.55395013 26:0.33823389 27:0.58687925 28:0.57123572 29:0.51160198 30:0.41773644 31:0.60336554 32:0.57095194 33:0.61561233 34:0.60285002 35:0.56333452 36:0.52293169 37:0.42971361 38:0.445382 39:0.3934176 40:0.47652122 41:0.43708581 42:0.41380265 43:0.64848375 44:0.39599559 45:0.35772935 46:0.39039457 47:0.56639171 48:0.50867391 49:0.59060144 50:0.63094264 51:0.44741082 52:0.45109588 53:0.67406607 54:0.48126245 55:0.49019247 56:0.61287588 57:0.3291463 58:0.42108744 59:0.54551351 60:0.48854569 61:0.48733985 62:0.56627011 63:0.5578745 64:0.35910639 65:0.8492887 66:0.22864389 67:0.51500487 68:0.91408509 69:0.18164416 70:0.70358187 71:0.79318875 
0 0 0 0 0 0.06081402399649395 0 0 0 0 0.5308858016804391 0 0 0 0 0.01371537764977352 0 0 0 0 0 0 0 0 0 0.7133842135818514 0 0 0 0 0 0 0 0 0 0 0 0 0 1:0.44958496 2:0.68593717 3:0.3231495 4:0.51753998 5:0.42074081 6:0.41558942 7:0.5362674 8:0.52570832 9:0.26707762 10:0.63757813 11:0.96695989 12:0.34446082 13:0.3906461 14:0.54474491 15:0.54424256 16:0.11714741 17:0.38851359 18:0.45471317 19:0.40257421 20:0.39231357 21:0.44450879 22:0.48048666 23:0.49871913 24:0.6479969 25:0.13722619 26:0.70049834 27:0.31271544 28:0.62826174 29:0.53487313 30:0.52100617 31:0.62673908 32:0.44918448 33:0.2547276 34:0.44532004 35:0.76902813 36:0.48790064 37:0.41657728 38:0.60046029 39:0.45013049 40:0.4575471 41:0.52427173 42:0.31243202 43:0.44629234 44:0.57493448 45:0.61199957 46:0.40043893 47:0.72937489 48:0.24182619 49:0.51362866 50:0.40539709 51:0.49848884 52:0.41743094 53:0.60222244 54:0.35941812 55:0.7297098 56:0.55325782 57:0.35478222 58:0.41205403 59:0.50831425 60:0.56089431 61:0.38151103 62:0.56268209 63:0.57199931 64:0.43310794 65:0.85750669 66:0.3103871 67:0.48000374 68:0.92531306 69:0.14966059 70:0.73415244 71:0.73032463 
0 0 0 0 0 0.111533445490245 0 0 0 0 0 0 0 0 0 0 0 0 0 0 0 0 0 0 0 0 0 0 0 0 0 0 0 0 0 0 0 0 0 1:0.6426726 2:0.49603528 3:0.31380892 4:0.4536702 5:0.41263527 6:0.38953096 7:0.48508999 8:0.75962001 9:0.1370683 10:0.58779639 11:0.67389578 12:0.1906784 13:0.43098941 14:0.40826643 15:0.56241769 16:0.32964996 17:0.52243304 18:0.44007367 19:0.49178305 20:0.2409336 21:0.41061828 22:0.54665089 23:0.36758009 24:0.61071527 25:0.41380662 26:0.57228625 27:0.5203023 28:0.61894614 29:0.73717362 30:0.50541741 31:0.51800227 32:0.6212514 33:0.45126656 34:0.6629402 35:0.57300377 36:0.66926658 37:0.49603251 38:0.6325922 39:0.4049328 40:0.51808578 41:0.52008247 42:0.3493759 43:0.60807645 44:0.56359529 45:0.65836555 46:0.31232384 47:0.77862078 48:0.30728528 49:0.56360424 50:0.52227354 51:0.47922012 52:0.52021337 53:0.66449958 54:0.32871643 55:0.62089616 56:0.43810335 57:0.33757007 58:0.4692412 59:0.48687959 60:0.57996666 61:0.44017416 62:0.48878101 63:0.58288801 64:0.50928181 65:0.78558081 66:0.2553716 67:0.44733083 68:0.84389991 69:0.068310238 70:0.62769324 71:0.78964645 
0.659483849988637 0 0 0 0 0 0.2256656201694298 0 0 0 1.989013830094859 0 0 0 1.675380957722302 0 0 0 0.9896561957433505 0.8238703143881874 0 0.2987740115255489 0 0 0 0.5514510143366901 0.8500221475419025 0 0 0 0 0 0.04218588962914427 0 0 0.6155446319298457 0 0 0 1:0.45684776 2:0.37717175 3:0.4938913 4:0.43788475 5:0.39942911 6:0.51916909 7:0.48525882 8:0.45401719 9:0.52871394 10:0.50502038 11:0.50584072 12:0.4020007 13:0.49483949 14:0.57004869 15:0.64123052 16:0.52633512 17:0.15726782 18:0.84876704 19:0.56205606 20:0.20746231 21:0.68101072 22:0.72859359 23:0.43640772 24:0.48534358 25:0.57896584 26:0.38010412 27:0.33926955 28:0.69889188 29:0.44677433 30:0.44363618 31:0.36380011 32:0.50019068 33:0.507429 34:0.477218 35:0.60181177 36:0.79190236 37:0.38673437 38:0.49494585 39:0.41529259 40:0.30432484 41:0.44241452 42:0.32005268 43:0.23353146 44:0.49147552 45:0.52104408 46:0.55241603 47:0.77953887 48:0.4588348 49:0.52532434 50:0.39747834 51:0.61039853 52:0.50724036 53:0.45577633 54:0.54603535 55:0.4043 56:0.48818335 57:0.25575805 58:0.30122101 59:0.41228646 60:0.47752824 61:0.44293261 62:0.51519334 63:0.40298381 64:0.42915064 65:0.8716709 66:0.16750699 67:0.58318818 68:0.6278953 69:0.15196115 70:0.53830403 71:0.66470641 
0.448002595044309 0.2816914883542294 0 0.2567837260873519 0 0 0 0 2.660175689242561 0.3941155589748932 0 0.1070629167196035 0.7159698111267316 0 0.1206106717801633 0.8366631952054956 0 0 0.2116515817968275 0.4398520393217101 0 1.074437092076967 0 1.498689910631025 0 0 0.3925700958266206 0 0.5581445979555573 0 0.9529754853977044 0 0 0 0 1.106631440704046 1.285325818751796 0 0.04688650687034546 1:0.54513019 2:0.47036758 3:0.58396471 4:0.15458526 5:0.48686489 6:0.46346664 7:0.55786556 8:0.35345542 9:0.50993431 10:0.4739241 11:0.58124113 12:0.69028354 13:0.44143471 14:0.53483808 15:0.65848738 16:0.43777657 17:0.38310272 18:0.67199033 19:0.54746002 20:0.2356057 21:0.44663841 22:0.62521684 23:0.17499889 24:0.5817247 25:0.61013359 26:0.47655898 27:0.65932274 28:0.8335067 29:0.43425989 30:0.5694139 31:0.49313414 32:0.63871515 33:0.58556539 34:0.56904709 35:0.50454354 36:0.78157574 37:0.45718107 38:0.57408553 39:0.46165311 40:0.23126084 41:0.55813694 42:0.31273645 43:0.41297838 44:0.4745394 45:0.48520419 46:0.30418593 47:0.75541526 48:0.6797359 49:0.55014837 50:0.6916889 51:0.45006546 52:0.52985924 53:0.70502472 54:0.47048512 55:0.55815804 56:0.65623552 57:0.35452962 58:0.43931085 59:0.42374429 60:0.57093918 61:0.45064354 62:0.67485547 63:0.47096989 64:0.38072178 65:0.66082966 66:0.27843517 67:0.52821547 68:0.73930389 69:0.22244217 70:0.68599421 71:0.79843849 
0 0 0 0 0 0.6918765364137514 0 0.3552661574125413 0 0 0 0 0.1728115961531326 0 1.06918496696054 0.9472671965254869 0 0.3421201950819126 0 0 0 0.9218397529927501 0 0 0.07665026692861375 0 0.2431919712252414 1.299109135506251 0 0 0 0.5436358892161818 0.403883622397538 1.574695337493551 0.2268342065473197 0 0.04563779816279401 0 0 1:0.45225212 2:0.68660122 3:0.6396628 4:0.41666153 5:0.24133861 6:0.37109092 7:0.38331026 8:0.69435459 9:0.56352848 10:0.62941521 11:0.41637668 12:0.55770195 13:0.517232 14:0.59596115 15:0.46549013 16:0.6439209 17:0.43849164 18:0.50732177 19:0.75752228 20:0.45561895 21:0.74445772 22:0.45970339 23:0.62031776 24:0.43669531 25:0.57277018 26:0.20337662 27:0.60623688 28:0.3316651 29:0.59571654 30:0.45619604 31:0.47822192 32:0.58196557 33:0.6628055 34:0.61797464 35:0.64517558 36:0.4614552 37:0.50136638 38:0.46145082 39:0.46778902 40:0.56677246 41:0.4400838 42:0.43176961 43:0.36550122 44:0.44555759 45:0.44907328 46:0.47779357 47:0.562778 48:0.58327371 49:0.37597033 50:0.49419269 51:0.55626476 52:0.40941247 53:0.42607504 54:0.52595729 55:0.36881897 56:0.36872888 57:0.16464439 58:0.22217079 59:0.45810688 60:0.47345081 61:0.48585108 62:0.58580762 63:0.40706488 64:0.43180591 65:0.81505978 66:0.15802728 67:0.66605735 68:0.75934643 69:0.14043902 70:0.55467731 71:0.7294662 
0 0 0 0 0 0 0 0 0 0 0 0.4186356615391852 0 0 0 0 0 0 0 0 0 0 0 0 0 0 0 0 0 0.05604772958492563 0 0.811380155186829 0.2090209767129086 0 1.038291385597347 0 0 0 0 1:0.63329762 2:0.50526202 3:0.61760932 4:0.52111846 5:0.33560836 6:0.42158055 7:0.38517439 8:0.47236377 9:0.64280939 10:0.42110348 11:0.46010464 12:0.64455146 13:0.18385243 14:0.34644634 15:0.60689229 16:0.6864481 17:0.48382753 18:0.34835783 19:0.53952837 20:0.38061029 21:0.44495347 22:0.58591676 23:0.59318292 24:0.57367504 25:0.53435576 26:0.48007438 27:0.54075623 28:0.21027234 29:0.3075881 30:0.588274 31:0.42705289 32:0.65712959 33:0.5662843 34:0.61922139 35:0.47009587 36:0.55465114 37:0.56976783 38:0.27786013 39:0.51948148 40:0.4586035 41:0.5673871 42:0.37805864 43:0.4759427 44:0.32770288 45:0.43501741 46:0.40826696 47:0.58141679 48:0.46784312 49:0.51341993 50:0.6990546 51:0.45620915 52:0.41510478 53:0.56095111 54:0.47236571 55:0.59491706 56:0.52344465 57:0.29939973 58:0.40123758 59:0.4411431 60:0.57792616 61:0.4515371 62:0.59460956 63:0.38448101 64:0.43271029 65:0.83859569 66:0.25991839 67:0.58881366 68:0.87285584 69:0.21960093 70:0.7436282 71:0.73931789 
0 0 0 0 0 0 0 0 0 0 0 0.2553221928278331 0 0 0 0 0.4327155681729697 0 0 0 0 0 0 0 0 0 0 0 0 0 1.091048186630591 0.6267924235685791 0 0 0.3138463723612986 0 0 0 0 1:0.45189393 2:0.6825344 3:0.64551264 4:0.85870785 5:0.34494576 6:0.31518757 7:0.8674624 8:0.46668193 9:0.55679798 10:0.56531757 11:0.40666622 12:0.43523654 13:0.53294015 14:0.49399024 15:0.49525127 16:0.40958476 17:0.66661865 18:0.41724014 19:0.58594567 20:0.3338809 21:0.56753528 22:0.59420317 23:0.62818575 24:0.4238598 25:0.63857859 26:0.34053615 27:0.41604236 28:0.4820942 29:0.39617196 30:0.52813148 31:0.44935697 32:0.69455016 33:0.62372214 34:0.38585308 35:0.64265215 36:0.60878605 37:0.45402351 38:0.49054089 39:0.42247134 40:0.43094265 41:0.68086547 42:0.55528855 43:0.59323984 44:0.79430836 45:0.35267746 46:0.38907093 47:0.65978551 48:0.31216058 49:0.43400338 50:0.31800294 51:0.473517 52:0.49646601 53:0.48777312 54:0.58194882 55:0.42699915 56:0.33655515 57:0.23640259 58:0.31366971 59:0.44737875 60:0.54727024 61:0.61589313 62:0.448641 63:0.58905971 64:0.51042771 65:0.84789926 66:0.18841679 67:0.5753752 68:0.84125942 69:0.14854831 70:0.57176036 71:0.779046 
