svm_type c_svc
kernel_type rbf
gamma 0.09
nr_class 11
total_sv 685
rho -0.109742 -0.139013 0.262636 -0.222857 0.0140061 0.183475 0.424539 -0.627173 -0.00670228 0.473362 0.214449 0.539922 -0.110714 -0.111452 0.443297 0.574329 -0.31468 0.252175 0.696443 0.324715 -0.344039 -0.351482 -0.0590677 0.315258 -0.706853 -0.0324309 0.568031 -0.552354 -0.467347 -0.0431514 -0.327767 -0.940502 -0.180567 0.279572 0.108179 0.613091 0.431049 -0.582412 0.166524 0.87749 0.390245 0.500856 -0.508696 0.0734477 0.814498 0.144815 -0.74397 -0.104885 0.329507 -0.657414 -0.22693 0.348144 0.321594 1.10972 0.522166
label 2003 2003657 2020 2020657 2051 2051657 2071 2071657 2098 2152 2170
probA -4.35121 -4.29417 -4.35709 -4.71238 -4.71946 -4.19688 -4.37619 -4.38353 -4.13878 -4.21202 -4.4375 -4.26838 -4.85998 -4.83222 -4.3856 -4.3291 -4.43612 -4.22479 -4.15347 -4.5576 -4.92905 -4.86321 -4.52178 -4.54238 -4.57164 -4.42026 -4.24058 -4.78585 -4.83491 -4.47936 -4.37385 -4.49262 -4.30749 -4.22913 -5.30638 -4.84061 -4.83481 -4.88358 -4.72419 -4.63839 -4.80908 -4.84572 -4.95806 -4.70003 -4.60224 -4.30688 -4.44773 -4.20222 -3.93679 -4.50117 -4.27407 -4.09436 -4.32886 -4.35841 -3.94669
probB 0.0182066 0.283919 0.110873 0.525397 0.592207 0.106229 0.17025 0.205727 -0.0493425 -0.0456088 0.129995 0.0333794 0.403496 0.431457 0.040965 0.0572459 0.0856062 -0.131755 -0.246566 -0.0717602 0.276132 0.2208 -0.00869493 -0.051195 -0.0802018 -0.343983 -0.409978 0.336629 0.336653 -0.0178815 -0.0214971 -0.0374767 -0.222335 -0.171913 -0.0124358 -0.388356 -0.422924 -0.275561 -0.611526 -0.590599 -0.41624 -0.389001 -0.360819 -0.623197 -0.554308 0.0580562 0.0848795 -0.146226 -0.371383 0.0839955 -0.23173 -0.280633 -0.270846 -0.200564 -0.0138728
nr_sv 43 42 79 66 99 94 59 67 54 30 52
SV
0 0 0.8347456345468216 0 0 0 0 0 0 0 1:0.41988942 2:0.64564228 3:0.58041102 4:0.38736665 5:0.34541565 6:0.42807624 7:0.39318642 8:0.65707493 9:0.34648591 10:0.27592963 11:0.66593778 12:0.58956867 13:0.56950259 14:0.19525933 15:0.67260939 16:0.39671689 17:0.4201946 18:0.449864 19:0.50221515 20:0.66603208 21:0.3975797 22:0.56595773 23:0.59585702 24:0.47256762 25:0.52719301 26:0.3591871 27:0.412963 28:0.53313655 29:0.44145647 30:0.77634245 31:0.52587903 32:0.22244394 33:0.52119768 34:0.2343521 35:0.32365704 36:0.8135525 37:0.54636997 38:0.31876734 39:0.52903551 40:0.66750437 41:0.56993985 42:0.56980556 43:0.23229472 44:0.52821124 45:0.59293503 46:0.50286394 47:0.67491031 48:0.73185921 49:0.21048339 50:0.1168322 51:0.40437043 52:0.39193335 53:0.22960974 54:0.36104071 55:0.36577585 56:0.22111015 57:0.60166234 58:0.87942541 59:0.60589087 
1.420611430078451 0 0 0 0 0 0.3101696125128851 0 0 0 1:0.36705777 2:0.66532761 3:0.5085153 4:0.46087235 5:0.26845041 6:0.36109763 7:0.40180796 8:0.55774564 9:0.53711212 10:0.29008669 11:0.69637793 12:0.65740222 13:0.59772575 14:0.21299352 15:0.71697766 16:0.39081496 17:0.43399253 18:0.35000515 19:0.48137233 20:0.83728147 21:0.38960806 22:0.55326945 23:0.61213589 24:0.47316378 25:0.5416469 26:0.33445245 27:0.48513228 28:0.49342769 29:0.37608445 30:0.76573598 31:0.52849299 32:0.19930716 33:0.56229126 34:0.28000471 35:0.37138492 36:0.78363389 37:0.51151651 38:0.31669497 39:0.50567174 40:0.67682022 41:0.71350712 42:0.52569497 43:0.24586706 44:0.48611173 45:0.53898197 46:0.48528564 47:0.69855803 48:0.68939334 49:0.22954379 50:0.1048672 51:0.40587774 52:0.43171459 53:0.23006786 54:0.40596011 55:0.36408678 56:0.25841144 57:0.60181755 58:0.92192614 59:0.63605642 
0 0 0 0.4665547618535092 0 0 0 0 0 0 1:0.52138865 2:0.82829535 3:0.59247637 4:0.56034458 5:0.36129823 6:0.69890916 7:0.44576505 8:0.56984866 9:0.56075275 10:0.52785802 11:0.50371766 12:0.35549456 13:0.79571694 14:0.76739168 15:0.46430084 16:0.61973822 17:0.40862128 18:0.59486997 19:0.65765154 20:0.51516438 21:0.87863719 22:0.40083775 23:0.82403582 24:0.73087406 25:0.09510991 26:0.57866263 27:0.36908999 28:0.097579405 29:0.2320767 30:0.50793284 31:0.69346929 32:0.52375996 33:0.45460504 34:0.70463175 35:0.34526783 36:0.45303658 37:0.62772179 38:0.2899597 39:0.56700182 40:0.94135481 41:0.71845627 42:0.59740609 43:0.3177067 44:0.44069231 45:0.85230827 46:0.40174007 47:0.27049586 48:0.53862721 49:0.1334306 50:0.50594252 51:0.37350288 52:0.67228717 53:0.17838597 54:0.60858929 55:0.50390863 56:0.24584696 57:0.53921551 58:0.84763497 59:0.5850603 
0 4.338392151528709 0 2.844492270920262 0 2.207026320007599 0 2.804939896889026 0.6187988024864784 0 1:0.45605937 2:0.99749589 3:0.36731219 4:0.5154506 5:0.40680599 6:0.70720452 7:0.46862271 8:0.42596191 9:0.67794842 10:0.50339824 11:0.17058909 12:0.4504793 13:0.71222323 14:0.45041031 15:0.59591007 16:0.68933803 17:0.43387592 18:0.60758132 19:0.52355313 20:0.54981786 21:0.99586296 22:0.46949005 23:0.43758565 24:0.69610548 25:0.12388091 26:0.37036392 27:0.42345402 28:0.0010245357 29:6.9138831e-16 30:0.76620477 31:0.79849029 32:0.53429341 33:0.46291029 34:0.74520755 35:0.40446287 36:0.38431746 37:0.66197336 38:0.50444329 39:0.74813253 40:0.83353758 41:0.60167855 42:0.59680218 43:0.41459703 44:0.56028092 45:0.83495051 46:0.5553441 47:0.2599493 48:0.55033451 49:0.19102587 50:0.46636334 51:0.27729601 52:0.70331204 53:0.28463355 54:0.64465374 55:0.55479378 56:0.31835258 57:0.61984915 58:0.77268434 59:0.57389563 
1.758872138026974 0.3302834049562608 0 0 0 0 0 0 1.474378520268341 1.247303558816367 1:0.65493071 2:0.55174106 3:0.48160255 4:0.57512152 5:0.38130671 6:0.37375942 7:0.28131765 8:0.54354894 9:0.43019417 10:0.34965652 11:0.4398039 12:0.40013081 13:0.58114225 14:0.49413466 15:0.50678599 16:0.48832849 17:0.65596253 18:0.52185184 19:0.80199146 20:0.49755198 21:0.47625911 22:0.6493929 23:0.40775189 24:0.41070116 25:0.46670032 26:0.5242722 27:0.34727666 28:0.49668184 29:0.42051736 30:0.71273917 31:2.6909493e-16 32:0.44384372 33:0.56150907 34:0.55675989 35:0.47391874 36:0.40339065 37:0.61502916 38:0.74636608 39:0.68410522 40:0.51044077 41:0.33684298 42:0.38842395 43:0.4609707 44:0.45001844 45:0.80622113 46:0.66258121 47:0.49911729 48:0.65270782 49:0.31440949 50:0.18513963 51:0.10038902 52:0.31715307 53:0.075608812 54:0.49467036 55:0.31118187 56:0.34262791 57:0.57186347 58:0.74818504 59:0.52954745 
0 0 0 0 0 0 0 0.6579420075523971 0 1.113079564740831 1:0.43574452 2:0.39808661 3:0.20554408 4:0.43790597 5:0.34240109 6:0.5075745 7:0.088309459 8:0.5818792 9:0.70332551 10:0.32499218 11:0.32669607 12:0.51665157 13:0.51336735 14:0.85919213 15:0.78475827 16:0.48340285 17:0.66669774 18:0.42082766 19:0.58054709 20:0.30965003 21:0.37970066 22:0.39265251 23:0.52860755 24:0.64853072 25:0.42697445 26:0.45546216 27:0.50929016 28:0.45421785 29:0.58782881 30:0.44193748 31:0.24170603 32:0.49209481 33:0.65359974 34:0.8499676 35:0.61275345 36:0.46444181 37:0.55181998 38:0.79934722 39:0.63679117 40:0.52656859 41:0.28679928 42:0.37451157 43:0.69222927 44:0.58955878 45:0.741041 46:0.76596129 47:0.24763292 48:0.61001474 49:0.26510671 50:0.26672363 51:0.16677319 52:0.34702957 53:0.097716533 54:0.54776782 55:0.2788662 56:0.26131898 57:0.63575882 58:0.765912 59:0.57426023 
0 0 1.875346248054534 0.8910085931838875 0 1.458739257933158 0.7932375887380465 0 0.7099489274887939 0 1:0.54496902 2:0.69020391 3:0.31108072 4:0.4273299 5:0.39606556 6:0.30623642 7:0.57998198 8:0.27401561 9:0.68571424 10:0.6188097 11:0.55540913 12:0.023572581 13:0.46323678 14:0.57606518 15:0.1793806 16:0.43736395 17:0.70082372 18:0.43859798 19:0.42249304 20:0.59139162 21:0.40745154 22:0.49022591 23:0.50544018 24:0.62103033 25:0.25047794 26:0.54284364 27:0.66558129 28:0.49199632 29:0.08233504 30:0.89779401 31:0.73841208 32:0.35896209 33:0.593431 34:0.43621996 35:0.34079054 36:0.44588566 37:0.55572379 38:0.0074459696 39:0.32546213 40:0.69814539 41:0.55807823 42:0.63994813 43:0.21270671 44:0.65844876 45:0.76203519 46:0.4002305 47:0.65913844 48:0.89154822 49:0.41491905 50:0.073481165 51:0.52144283 52:0.43186837 53:0.41161993 54:0.46412465 55:0.3736341 56:0.1555099 57:0.46795371 58:0.84303898 59:0.6336571 
3.481051753519135 2.15950411129336 2.893972465053603 2.577664073874599 3.667299825885325 4.068202409314609 2.506759571880093 1.177647424895084 0.8257757266641819 4.652904541825839 1:0.47867826 2:0.3262901 3:0.5048455 4:0.49479273 5:0.46957013 6:0.34485891 7:0.35896876 8:0.45577231 9:0.39235857 10:0.50865507 11:0.39537326 12:0.49076936 13:0.57935268 14:0.47999868 15:0.40703529 16:0.73496103 17:0.62115288 18:0.4546406 19:0.50249016 20:0.20734566 21:0.38554385 22:0.52492982 23:0.76735187 24:0.55305594 25:0.48665857 26:0.38092661 27:0.27024868 28:0.51644683 29:0.93542808 30:0.56407785 31:0.26513255 32:0.31524032 33:0.47720096 34:0.5022437 35:0.3411954 36:0.51778579 37:0.57344735 38:0.31903189 39:0.33087027 40:0.6258387 41:0.53172565 42:0.47999442 43:0.48360264 44:0.34221444 45:0.92239374 46:0.47552893 47:0.49863753 48:0.85707754 49:0.25263661 50:0.28531414 51:0.34401256 52:0.31880796 53:0.13846526 54:0.43983719 55:0.2728878 56:0.32589793 57:0.54027897 58:0.78304797 59:0.54764605 
2.830477412537681 6.024498641481275 4.837498556729948 3.385924658802869 2.81539038483203 3.959350936627868 2.497494313234978 1.412633547993571 3.990714439977994 3.417144543691739 1:0.38368809 2:0.9204343 3:0.63955247 4:0.14300795 5:0.33047262 6:0.77748495 7:0.52392709 8:0.69310617 9:0.2562913 10:0.58845073 11:0.41838858 12:0.55666465 13:0.73765105 14:0.50012308 15:0.67346454 16:0.57709289 17:0.3873277 18:0.61200768 19:0.65437526 20:0.40460035 21:0.86962175 22:0.43160596 23:0.78382534 24:0.45000085 25:0.20179918 26:0.57563001 27:0.78174442 28:0.36978608 29:0.38303193 30:0.51793832 31:0.84343988 32:0.61922306 33:0.39352626 34:0.60478789 35:0.54186475 36:0.66117632 37:0.72067612 38:0.45864338 39:0.57998097 40:0.96751654 41:0.8474021 42:0.63725162 43:0.32757324 44:0.4487808 45:0.7531026 46:0.43431658 47:0.60277945 48:0.52547157 49:0.40069404 50:0.42251661 51:0.85074097 52:0.71077472 53:0.31007823 54:0.43600443 55:0.56801003 56:0.33256379 57:0.67499846 58:0.91972613 59:0.5918197 
0 0 0 0.7240968682417933 0.4196577206161384 2.271817995092841 0 0.7489154895678226 0 1.167450370415839 1:0.19461127 2:0.77401334 3:0.13485171 4:0.43896565 5:0.31311753 6:0.15421949 7:0.65235299 8:0.22881831 9:0.55835903 10:0.65517777 11:0.76816028 12:0.16135541 13:0.54189342 14:0.47640029 15:0.61022156 16:0.38731274 17:0.81829286 18:0.42164817 19:0.59902 20:0.53821045 21:0.35151073 22:0.7316578 23:0.82524961 24:0.65712726 25:0.34385276 26:0.73469138 27:0.28728107 28:0.6922611 29:0.26722974 30:0.61170012 31:0.75287777 32:0.26638103 33:0.53707457 34:0.28335539 35:0.39589414 36:0.40051052 37:0.45157158 38:0.063062988 39:0.41684517 40:0.76175362 41:0.7032702 42:0.73894072 43:0.0065047219 44:0.41023752 45:0.89670384 46:0.34092689 47:0.66734558 48:0.99517131 49:0.33646446 50:0.19226235 51:0.28038162 52:0.49243864 53:0.4062095 54:0.50207007 55:0.32952759 56:0.19956861 57:0.53225994 58:0.84699994 59:0.6546278 
0 3.53058307079511 0 0 0 0.3659188060953846 0 0.9488590545678081 0 0.4026971040764943 1:0.37590289 2:0.66961932 3:0.51208389 4:0.45751658 5:0.27231663 6:0.3708249 7:0.3967053 8:0.56285089 9:0.53512442 10:0.30001158 11:0.68956602 12:0.65831941 13:0.58495408 14:0.20819785 15:0.72670001 16:0.38557351 17:0.4332321 18:0.35156688 19:0.48534569 20:0.84479386 21:0.39269328 22:0.56354982 23:0.61822528 24:0.47401983 25:0.53894013 26:0.33103916 27:0.48045969 28:0.49507895 29:0.38702059 30:0.76386184 31:0.52634048 32:0.20168874 33:0.56926602 34:0.28383341 35:0.3751784 36:0.78299248 37:0.51755935 38:0.31585252 39:0.50953066 40:0.6751045 41:0.71831167 42:0.52418166 43:0.24993181 44:0.48525062 45:0.54161203 46:0.48877597 47:0.70175654 48:0.68960917 49:0.22930205 50:0.10350832 51:0.40301737 52:0.43011668 53:0.23304002 54:0.40757069 55:0.3677187 56:0.26046094 57:0.60303056 58:0.91907853 59:0.63628089 
0 0 0.2654206711435974 0 0 0 0 0 0 0 1:0.18921839 2:0.67382336 3:0.42946896 4:0.58358425 5:0.60197568 6:0.51885295 7:0.44409925 8:0.5252896 9:0.6437456 10:0.63683331 11:0.28565121 12:0.44395727 13:0.53885853 14:0.49538776 15:0.55186659 16:0.84263724 17:0.57522708 18:0.52170563 19:0.71798855 20:0.5852223 21:0.4637942 22:0.59492052 23:0.53696871 24:0.34158665 25:0.30103806 26:0.46464935 27:0.29558417 28:0.56730157 29:0.37542504 30:0.72578704 31:0.32363117 32:0.4282732 33:0.40967795 34:0.57934749 35:0.37807178 36:0.41301355 37:0.60868865 38:0.55508095 39:0.51026738 40:0.61946779 41:0.21279006 42:0.48531985 43:0.36447239 44:0.40592048 45:0.76455069 46:0.4193258 47:0.39096987 48:0.4851656 49:0.18847595 50:0.25920868 51:0.099104784 52:0.3147848 53:0.057344109 54:0.44440722 55:0.3245731 56:0.26199627 57:0.55575144 58:0.88448095 59:0.56100219 
0 0 0 0 0 0 0 0 0.3806518100742302 0 1:0.34240344 2:0.48712954 3:0.46713495 4:0.70452362 5:0.46669185 6:0.42222524 7:0.62192899 8:0.4564445 9:0.26644588 10:0.37676331 11:0.43966877 12:0.27635515 13:0.31771597 14:0.5553987 15:0.63682157 16:0.41857851 17:0.65211684 18:0.29424968 19:0.7966156 20:0.51982743 21:0.42175394 22:0.68798691 23:0.50686115 24:0.45985776 25:0.36701065 26:0.4967325 27:0.38359973 28:0.63621247 29:0.35284719 30:0.79287618 31:0.33413136 32:0.34829035 33:0.43142149 34:0.52544761 35:0.5550254 36:0.49021801 37:0.62953591 38:0.59016883 39:0.70577025 40:0.58551824 41:0.43154567 42:0.41668233 43:0.49131057 44:0.44971272 45:0.9649483 46:0.6357314 47:0.49784219 48:0.68171263 49:0.28096154 50:0.13837507 51:0.14499399 52:0.36571825 53:0.091153711 54:0.49567151 55:0.24370991 56:0.28750306 57:0.62144589 58:0.77000719 59:0.57976747 
1.622232098339628 0 0.5167734661463677 0 2.120338574150757 0 1.871987959790112 0 0 2.327734420319306 1:0.44634661 2:0.9876501 3:0.35929483 4:0.51026732 5:0.41158602 6:0.70610636 7:0.47570392 8:0.43178049 9:0.6665259 10:0.50771338 11:0.15486594 12:0.45991513 13:0.70912606 14:0.45375952 15:0.59749413 16:0.69107282 17:0.42926383 18:0.60338151 19:0.52665716 20:0.55520082 21:1 22:0.46321201 23:0.43635964 24:0.6982637 25:0.12322966 26:0.37654391 27:0.42826107 28:0 29:0.0077404594 30:0.77378708 31:0.79519761 32:0.53349501 33:0.45767266 34:0.74946707 35:0.3999162 36:0.38008711 37:0.66930342 38:0.49553186 39:0.74242306 40:0.83470857 41:0.60385811 42:0.59437847 43:0.41096959 44:0.55920708 45:0.83666605 46:0.55603677 47:0.26618999 48:0.54930884 49:0.19122277 50:0.4653137 51:0.27862871 52:0.70541447 53:0.28640956 54:0.64553154 55:0.55495685 56:0.32199872 57:0.61827326 58:0.77060986 59:0.57216173 
0 0 0 1.602751098544752 2.226726978344779 0.9776959240191825 2.478790408963006 1.478558596943746 0 0 1:0.66489905 2:0.56034285 3:0.47911966 4:0.56631202 5:0.38395205 6:0.36680007 7:0.28152567 8:0.557221 9:0.42747438 10:0.35277933 11:0.44095826 12:0.40434331 13:0.57837844 14:0.4931221 15:0.51304966 16:0.49340579 17:0.65266025 18:0.52653259 19:0.80047083 20:0.49922627 21:0.46977702 22:0.65177429 23:0.41141072 24:0.41026896 25:0.46964663 26:0.53008461 27:0.34769177 28:0.4980337 29:0.41891578 30:0.71367639 31:0.0030358694 32:0.44534212 33:0.56417507 34:0.55744809 35:0.47502613 36:0.40343252 37:0.61499017 38:0.73971665 39:0.68027014 40:0.51233053 41:0.33841965 42:0.38887849 43:0.4622156 44:0.45418292 45:0.80513072 46:0.66495538 47:0.49878401 48:0.65382397 49:0.31367025 50:0.18432844 51:0.10183772 52:0.31603482 53:0.078324437 54:0.49689537 55:0.31209326 56:0.3465094 57:0.57159555 58:0.74571371 59:0.5292899 
0 2.384475837324576 1.442694949166705 1.387276028653064 0 2.481255266720146 0 0 0.3830307897364466 0 1:0.44633043 2:0.40288636 3:0.21043836 4:0.44584399 5:0.34856841 6:0.50714803 7:0.091262504 8:0.59039539 9:0.70520556 10:0.32165343 11:0.33824101 12:0.52130204 13:0.50574487 14:0.85519546 15:0.78127402 16:0.48600343 17:0.66257858 18:0.42735171 19:0.57985312 20:0.30825108 21:0.39028686 22:0.39235279 23:0.52342272 24:0.64375514 25:0.42685571 26:0.44656089 27:0.5017612 28:0.44803312 29:0.59550774 30:0.43978131 31:0.23937583 32:0.48759484 33:0.65615183 34:0.84622741 35:0.61212593 36:0.46395603 37:0.5517996 38:0.79983568 39:0.63864052 40:0.53350568 41:0.29017752 42:0.37514696 43:0.68995088 44:0.591093 45:0.74033946 46:0.76329768 47:0.24719517 48:0.60765034 49:0.26294541 50:0.266574 51:0.16737196 52:0.34493968 53:0.098184511 54:0.54870045 55:0.2782692 56:0.26322296 57:0.63423336 58:0.76478183 59:0.57337272 
1.188397240332083 0.9273075607204664 0.3235337525669395 0.6062184483841332 0.9752151282706422 0.7258689382034003 0.4184782342690469 0 1.376419994318776 0 1:0.55373901 2:0.66427571 3:0.16677973 4:0.56547517 5:0.37606087 6:0.6461693 7:0.410667 8:0.26123282 9:0.32061571 10:0.43493402 11:0.50080186 12:0.41254395 13:0.61065024 14:0.70064145 15:0.64392698 16:0.62920272 17:0.57143718 18:0.12637725 19:0.52235842 20:0.031534523 21:0.34617019 22:0.4870761 23:0.71544331 24:0.71252465 25:0.37007499 26:0.55767137 27:0.24840225 28:0.29299995 29:0.66773421 30:0.74979287 31:0.35744819 32:0.36628553 33:0.55121452 34:0.51266998 35:0.60060167 36:0.34250659 37:0.48902962 38:0.52372998 39:0.34046674 40:0.42411682 41:0.1757054 42:0.42657596 43:0.29429954 44:0.50613898 45:0.80655754 46:0.78129697 47:0.34647012 48:0.69257838 49:0.18015401 50:0.1941053 51:0.23899093 52:0.40691257 53:0.11003891 54:0.50558829 55:0.24883552 56:0.23736045 57:0.54833883 58:0.72648227 59:0.50814813 
0.464825387010196 0 0 0 0.0001110538272606378 0 0 0.9263810038363227 0 0.8640163238113415 1:0.53135139 2:0.68135309 3:0.3146365 4:0.42620933 5:0.3980037 6:0.29484466 7:0.58391267 8:0.26766291 9:0.67646211 10:0.61039919 11:0.54891962 12:0.030902235 13:0.46323711 14:0.56849718 15:0.17608823 16:0.42404687 17:0.68913186 18:0.4427354 19:0.43423304 20:0.59296817 21:0.40964365 22:0.4962922 23:0.51124644 24:0.61591291 25:0.24969999 26:0.54336268 27:0.6614579 28:0.48498499 29:0.095496878 30:0.89623892 31:0.73541147 32:0.3602092 33:0.58948547 34:0.4329491 35:0.3328554 36:0.44387329 37:0.56021774 38:3.3855401e-16 39:0.32553503 40:0.70160997 41:0.55927855 42:0.6405884 43:0.21044558 44:0.65733254 45:0.76436317 46:0.39188808 47:0.65312308 48:0.8909052 49:0.41384017 50:0.074938096 51:0.51387566 52:0.43162152 53:0.41088676 54:0.46633101 55:0.37273914 56:0.15816644 57:0.46883181 58:0.83883518 59:0.63356894 
1.378692208301053 0 1.263921620304815 2.22501728303899 0.5333800372017561 2.490212291586625 1.329981151468487 0 0 0.2468109746198127 1:0.25613093 2:0.35940382 3:0.47255412 4:0.55398738 5:0.32878554 6:0.37404796 7:0.53500307 8:0.4826422 9:0.57696933 10:0.61395848 11:0.47470927 12:0.58980459 13:0.43608087 14:0.39101112 15:0.64259583 16:0.34928131 17:0.40973812 18:0.46751386 19:0.5045678 20:0.50803119 21:0.31915087 22:0.62351042 23:0.63430256 24:0.49548206 25:0.50100106 26:0.33199748 27:0.74553055 28:0.63236082 29:0.58568734 30:0.64914936 31:0.43423465 32:0.24162814 33:0.57015884 34:0.35224098 35:0.41705757 36:0.89135081 37:0.52236402 38:0.20097573 39:0.46559569 40:0.71040225 41:0.6660614 42:0.510297 43:0.36983225 44:0.46100345 45:0.65405387 46:0.26053011 47:0.74351251 48:0.62696886 49:0.12848334 50:0.0957449 51:0.42056796 52:0.3762987 53:0.26164851 54:0.35820293 55:0.31337941 56:0.34421161 57:0.63018715 58:0.86964959 59:0.61627698 
0 0 0.2233969745322432 0 0 0 0 0 0 0 1:0.38476112 2:0.99994773 3:0.65684527 4:0.45885316 5:0.4383918 6:0.64736563 7:0.49199077 8:0.71089566 9:0.96366388 10:0.41494644 11:0.22085123 12:0.45142761 13:0.57950437 14:0.43014169 15:0.48452893 16:0.75583088 17:0.44011542 18:0.44313788 19:0.3407684 20:0.6312654 21:0.90268761 22:0.38108653 23:0.74758673 24:0.56533134 25:0.065348536 26:0.47704127 27:0.33119667 28:0.2155395 29:0.27476332 30:0.62399578 31:0.71457851 32:0.64334196 33:0.49608004 34:0.83142871 35:0.56194431 36:0.3058112 37:0.65215069 38:0.4661772 39:0.6251756 40:0.85610688 41:0.53096652 42:0.54725289 43:0.32014787 44:0.42014873 45:0.89044815 46:0.50958234 47:0.32113072 48:0.52798313 49:0.16753611 50:0.43504921 51:0.31511867 52:0.59294087 53:0.1969167 54:0.63331258 55:0.48422673 56:0.28080025 57:0.5583455 58:0.86094028 59:0.5876869 
1.150162418396008 0 0.1274764395107005 0.5559640174204606 3.498506457631737 0 1.193543897664571 2.894438733029401 1.754294342162025 1.396416164018369 1:0.67640388 2:0.46238473 3:0.51315361 4:0.44860062 5:0.27206504 6:0.42247942 7:0.6260671 8:0.7115829 9:0.60270876 10:0.52966177 11:0.63715911 12:0.43648735 13:0.58595496 14:0.63763869 15:0.49975121 16:0.34642068 17:0.43974146 18:0.6678102 19:0.5195263 20:0.36757502 21:0.58813572 22:0.35254148 23:0.40342256 24:0.62452334 25:0.35495633 26:0.44722462 27:0.42258886 28:0.36508518 29:0.55066568 30:0.39348149 31:0.61603284 32:0.39479285 33:0.50270796 34:0.505292 35:0.56689137 36:0.46966735 37:0.45453972 38:0.63877755 39:0.44696331 40:0.76252717 41:0.45998174 42:0.40972543 43:0.31530091 44:0.40510073 45:0.52795815 46:0.21352653 47:0.24812335 48:0.67372805 49:0.36969918 50:0.34430116 51:0.51618683 52:0.2962192 53:0.037395112 54:0.37402681 55:0.33026445 56:0.34556833 57:0.54664356 58:0.8969993 59:0.48359132 
0 4.704551250225733 0 0 0 0 0 1.929346173916366 0 0 1:0.45859599 2:0.45317313 3:0.62003374 4:0.31458452 5:0.42805755 6:0.45931104 7:0.50620812 8:0.39335924 9:0.49777785 10:0.50268924 11:0.59506875 12:0.53900456 13:0.6186319 14:0.48684961 15:0.45759398 16:0.26852596 17:0.51784885 18:0.50077808 19:0.46214095 20:0.34687805 21:0.62341863 22:0.52624577 23:0.38993686 24:0.61938006 25:0.54626751 26:0.42832088 27:0.4011904 28:0.44870681 29:0.61416328 30:0.58157808 31:0.52047247 32:0.32735172 33:0.53931588 34:0.49858674 35:0.57289559 36:0.56518954 37:0.40456226 38:0.39916602 39:0.38759938 40:0.69252127 41:0.38465694 42:0.38495064 43:0.4533461 44:0.43880808 45:0.48630369 46:0.1763321 47:0.41597614 48:0.73163962 49:0.3340598 50:0.24655928 51:0.51586676 52:0.32514352 53:0.12402169 54:0.36287141 55:0.36623523 56:0.19468096 57:0.54192817 58:0.94926775 59:0.5873071 
0.61657162726215 1.678996869566232 1.558122335813156 0 2.114181264190002 2.353656960840893 2.13519334542371 0 1.124432424592478 1.801482355274822 1:0.46643123 2:0.63763195 3:0.52798855 4:0.41603321 5:0.41230163 6:0.42434376 7:0.51478159 8:0.38010958 9:0.39279819 10:0.4925459 11:0.6930719 12:0.5982492 13:0.61499089 14:0.29051009 15:0.42504144 16:0.21351428 17:0.44904938 18:0.61955649 19:0.56766903 20:0.39425129 21:0.63440621 22:0.60852933 23:0.36553454 24:0.53302461 25:0.48458821 26:0.29898891 27:0.40637726 28:0.47802255 29:0.53027707 30:0.31435779 31:0.63497657 32:0.27297652 33:0.56638092 34:0.3498331 35:0.73513639 36:0.49774379 37:0.45464361 38:0.57964534 39:0.48484385 40:0.63530874 41:0.31332457 42:0.38289779 43:0.36151683 44:0.42453158 45:0.43953481 46:0.12265596 47:0.57027316 48:0.52376306 49:0.19201981 50:0.14729735 51:0.43909472 52:0.54130524 53:0.098188229 54:0.33518025 55:0.42385507 56:0.20820026 57:0.60333443 58:0.93550497 59:0.5887596 
0 0.9072037042007199 2.156243647972647 0 0 0 0.4224978658170765 0 0 0 1:0.75631839 2:0.52853143 3:0.517371 4:0.46396118 5:0.33819956 6:0.39530447 7:0.59580386 8:0.62582874 9:0.57135659 10:0.40461054 11:0.48080391 12:0.46521193 13:0.59034282 14:0.6647917 15:0.51501936 16:0.3737981 17:0.33025935 18:0.59903646 19:0.52173114 20:0.43430951 21:0.61038268 22:0.31387693 23:0.36591545 24:0.61129582 25:0.32179141 26:0.48461875 27:0.41408855 28:0.41044077 29:0.60520893 30:0.42500457 31:0.59819078 32:0.41691187 33:0.52655476 34:0.50205076 35:0.59266323 36:0.46366012 37:0.50432265 38:0.57518232 39:0.44238698 40:0.77987492 41:0.39223984 42:0.3981314 43:0.32054982 44:0.40746006 45:0.52377397 46:0.19941391 47:0.23162371 48:0.61980879 49:0.34037405 50:0.32011688 51:0.47283581 52:0.29533339 53:0.03949406 54:0.39998922 55:0.34326813 56:0.33051851 57:0.54909807 58:0.91613328 59:0.50705463 
0 0 0 0 0 2.86285939375966 0.2576967540244662 0 1.541796465955388 0 1:0.55163532 2:0.55221802 3:0.52218789 4:0.49649578 5:0.65836847 6:0.50805211 7:0.68732697 8:0.52338195 9:0.50547737 10:0.65764809 11:0.61761135 12:0.6071443 13:0.47319317 14:0.54937488 15:0.67462033 16:0.46714199 17:0.54938912 18:0.35919967 19:0.45175773 20:0.49183527 21:0.45405224 22:0.59095758 23:0.51511502 24:0.37200183 25:0.46889859 26:0.33568564 27:0.56634563 28:0.54512739 29:0.56480026 30:0.4525027 31:0.66313779 32:0.28648961 33:0.43067774 34:0.37473533 35:0.59032303 36:0.52695477 37:0.47086424 38:0.5076831 39:0.64610797 40:0.73993742 41:0.45697016 42:0.44906825 43:0.35665727 44:0.43661448 45:0.39398628 46:0.15643199 47:0.64284945 48:0.5105468 49:0.17658269 50:0.15992039 51:0.36404523 52:0.45714653 53:0.09338776 54:0.28816956 55:0.37966174 56:0.28365374 57:0.6522553 58:0.94576842 59:0.62042618 
0 0 0.6678354672686655 0 0 2.025500482392885 1.569898181425904 0.7304903878831546 0 0 1:0.59190893 2:0.3379778 3:0.51774222 4:0.54492754 5:0.61214292 6:0.29864475 7:0.78682387 8:0.60235018 9:0.57815212 10:0.51059151 11:0.40858757 12:0.6760971 13:0.41671097 14:0.57008916 15:0.5509122 16:0.54466927 17:0.5040974 18:0.43811521 19:0.54720175 20:0.42378408 21:0.67932105 22:0.52909684 23:0.49799106 24:0.41348383 25:0.42825928 26:0.50698119 27:0.47553259 28:0.523956 29:0.75391865 30:0.45566273 31:0.55137885 32:0.41503665 33:0.47691202 34:0.53893828 35:0.61412126 36:0.4340623 37:0.466207 38:0.56206208 39:0.46552601 40:0.78860819 41:0.44342172 42:0.43268394 43:0.40316358 44:0.36850744 45:0.58929557 46:0.30263945 47:0.3069796 48:0.56241304 49:0.24231994 50:0.33944482 51:0.32261598 52:0.21278204 53:0.028810877 54:0.38299587 55:0.30884749 56:0.40819097 57:0.59836811 58:0.94198173 59:0.52013528 
0 0 0 3.79940588933672 0.6281654743848127 0 0 3.071949002906742 0 1.306608568157367 1:0.49683079 2:0.5637306 3:0.59451163 4:0.48802844 5:0.65931028 6:0.52511865 7:0.7045595 8:0.57028157 9:0.50524855 10:0.64144707 11:0.64643842 12:0.61366576 13:0.47352624 14:0.5921067 15:0.6667546 16:0.44086111 17:0.55288714 18:0.36654282 19:0.42179486 20:0.50813299 21:0.4511959 22:0.57919592 23:0.52503699 24:0.36728442 25:0.45749146 26:0.3241277 27:0.58576238 28:0.53626275 29:0.53732264 30:0.44936907 31:0.66001183 32:0.2846998 33:0.41557053 34:0.37067676 35:0.57770646 36:0.54754919 37:0.49208301 38:0.54096049 39:0.62202078 40:0.74167472 41:0.45337471 42:0.43430102 43:0.34913972 44:0.42623156 45:0.37919092 46:0.16028264 47:0.64274633 48:0.50930494 49:0.19267955 50:0.16185112 51:0.34573489 52:0.45502421 53:0.089636177 54:0.28945112 55:0.38965011 56:0.2891202 57:0.65662205 58:0.94021988 59:0.61990541 
0 0 0 0 0 0.1212227458610084 1.172912663372963 0 0 0 1:0.58599645 2:0.62030154 3:0.67351276 4:0.36192974 5:0.50786775 6:0.66938555 7:0.48112801 8:0.37844917 9:0.38651308 10:0.46364105 11:0.41729325 12:0.56595963 13:0.84293681 14:0.34373114 15:0.47037199 16:0.35237691 17:0.38489076 18:0.60688907 19:0.45584413 20:0.34062949 21:0.6219911 22:0.43864128 23:0.62485331 24:0.75951976 25:0.45441946 26:0.50457829 27:0.4962219 28:0.48283872 29:0.683981 30:0.49325681 31:0.51316351 32:0.2598325 33:0.7352069 34:0.38447443 35:0.48498559 36:0.70819074 37:0.53305537 38:0.5573898 39:0.55283391 40:0.78248042 41:0.42422211 42:0.51073331 43:0.21573718 44:0.55910307 45:0.44199511 46:0.14393409 47:0.46345836 48:0.49659947 49:0.22546445 50:0.21950413 51:0.29871035 52:0.49740729 53:0.059666276 54:0.4038907 55:0.34997901 56:0.37478608 57:0.6703946 58:1 59:0.57493949 
0.8374414567238488 2.578983583916872 1.754606899938583 0 0 2.287005030864453 0.5857718158876551 0.9059602043037085 0 0.8391252027307485 1:0.57630271 2:0.61565822 3:0.43732235 4:0.5552569 5:0.61356449 6:0.5561446 7:0.67553246 8:0.45820624 9:0.60849684 10:0.57658392 11:0.38580725 12:0.532309 13:0.6799503 14:0.66537559 15:0.41007966 16:0.68927634 17:0.45030686 18:0.34252954 19:0.42641193 20:0.55538714 21:0.4955309 22:0.35253236 23:0.4231208 24:0.6237312 25:0.45507672 26:0.53377932 27:0.49910593 28:0.52443963 29:0.79509616 30:0.54193443 31:0.67895401 32:0.25954154 33:0.7213673 34:0.45811903 35:0.36854136 36:0.71593672 37:0.4983559 38:0.34282604 39:0.85136718 40:0.77463323 41:0.57382298 42:0.45861933 43:0.27970526 44:0.50587088 45:0.46852294 46:0.31049961 47:0.35834327 48:0.42747593 49:0.24868244 50:0.28025863 51:0.077123672 52:0.33880088 53:0.034459967 54:0.43455541 55:0.31395295 56:0.38983104 57:0.68235916 58:0.95114511 59:0.55009013 
0 0 0 0 0 0 0 0 0.1954589481846356 0 1:0.61559516 2:0.5506056 3:0.59455973 4:0.61158836 5:0.69379276 6:0.440983 7:0.71244705 8:0.34850755 9:0.58573055 10:0.58464146 11:0.38739294 12:0.67444593 13:0.60701364 14:0.42987439 15:0.67170739 16:0.66361547 17:0.47409564 18:0.38177374 19:0.40619704 20:0.53706133 21:0.4596501 22:0.55327243 23:0.52570045 24:0.40659466 25:0.46449652 26:0.37504345 27:0.69775128 28:0.53082347 29:0.77208251 30:0.38153601 31:0.5923059 32:0.25676188 33:0.75741041 34:0.45317596 35:0.39471921 36:0.72705787 37:0.59574306 38:0.44254988 39:0.8067379 40:0.80108875 41:0.56600183 42:0.45000711 43:0.22650272 44:0.50949109 45:0.48240969 46:0.32260385 47:0.57497334 48:0.36115092 49:0.15649262 50:0.1462201 51:0.093672261 52:0.39847314 53:0.022581125 54:0.38424423 55:0.33250386 56:0.41917098 57:0.68867493 58:0.93668509 59:0.57345474 
0 0 0 0.1874430186764783 1.844476836688935 0 0 0 0 0.05453750382398798 1:0.55222321 2:0.62406135 3:0.67698258 4:0.60188496 5:0.62370104 6:0.53835052 7:0.85144073 8:0.40325606 9:0.63477129 10:0.68578362 11:0.44890842 12:0.63010561 13:0.59270525 14:0.46680167 15:0.49587798 16:0.60112756 17:0.49482843 18:0.48944885 19:0.48878253 20:0.56011528 21:0.43518892 22:0.53046298 23:0.44903633 24:0.46755311 25:0.36940017 26:0.46758434 27:0.73480481 28:0.54882628 29:0.66115642 30:0.43750256 31:0.66765189 32:0.31040809 33:0.78677475 34:0.43762973 35:0.42584488 36:0.77920938 37:0.61323953 38:0.42355803 39:0.79852653 40:0.76195985 41:0.63443351 42:0.52538115 43:0.27225173 44:0.51341945 45:0.47226804 46:0.30983657 47:0.56899786 48:0.36992961 49:0.19675483 50:0.18790568 51:0.09892834 52:0.3387045 53:0.035822216 54:0.36554244 55:0.34652829 56:0.43564889 57:0.71532476 58:0.90844876 59:0.54907054 
0 0 0 0 0 0 0 0 0.361322994594603 0 1:0.358156 2:0.51556057 3:0.7440843 4:0.44689474 5:0.46535686 6:0.5545938 7:0.5294596 8:0.36128214 9:0.49296018 10:0.61604166 11:0.45572221 12:0.5644173 13:0.50021243 14:0.22143359 15:0.59028113 16:0.32907349 17:0.45290017 18:0.50688469 19:0.25705031 20:0.44935411 21:0.46407256 22:0.64993048 23:0.31565243 24:0.70368916 25:0.42389131 26:0.36043033 27:0.26813847 28:0.52940404 29:0.4632211 30:0.65859902 31:0.57976407 32:0.27290893 33:0.58104545 34:0.35736835 35:0.5244503 36:0.82504117 37:0.52389669 38:0.59101939 39:0.53683215 40:0.62317491 41:0.20594232 42:0.44349879 43:0.38644367 44:0.52420658 45:0.60870641 46:0.2949048 47:0.45876905 48:0.67051399 49:0.29672617 50:0.10307655 51:0.21962199 52:0.39756092 53:0.11110922 54:0.4630428 55:0.29492283 56:0.16815484 57:0.53034455 58:0.87039697 59:0.56617361 
0 0 0.5020405881297157 0 0 0 0 0 0 0 1:0.28928259 2:0.52583563 3:0.56608969 4:0.3914409 5:0.32375422 6:0.37402651 7:0.47650748 8:0.29980943 9:0.59944588 10:0.57249993 11:0.34220815 12:0.49394974 13:0.49738535 14:0.51895374 15:0.59922379 16:0.28225935 17:0.6024707 18:0.59013337 19:0.51166254 20:0.41938055 21:0.68974322 22:0.67191547 23:0.4552089 24:0.58833873 25:0.39149293 26:0.37680387 27:0.24469797 28:0.52188122 29:0.37598991 30:0.45749283 31:0.69298518 32:0.34916356 33:0.49593142 34:0.47567332 35:0.60905403 36:0.49165908 37:0.5685339 38:0.60820758 39:0.32999116 40:0.71378648 41:0.28704295 42:0.37100002 43:0.46394679 44:0.34749234 45:0.73759478 46:0.22201936 47:0.47713879 48:0.80312157 49:0.38658416 50:0.12012759 51:0.53784138 52:0.34201366 53:0.20452613 54:0.47760761 55:0.3920095 56:0.06249918 57:0.40299195 58:0.83838904 59:0.62409115 
0.4678176170042914 0 0.07453040840510079 0 0 0 0.2177845439861489 0 0 0 1:0.54077733 2:0.59709555 3:0.39872485 4:0.39697316 5:0.4108032 6:0.57184851 7:0.477548 8:0.56313473 9:0.49624172 10:0.46032697 11:0.4921951 12:0.55745465 13:0.75488174 14:0.67417377 15:0.58230704 16:0.30284077 17:0.49328053 18:0.47091639 19:0.67758006 20:0.37819883 21:0.66161072 22:0.39342827 23:0.49417949 24:0.68488312 25:0.36696839 26:0.51632708 27:0.45540792 28:0.50664711 29:0.70375007 30:0.43869072 31:0.54002082 32:0.41995895 33:0.49520478 34:0.54292935 35:0.63596576 36:0.47054467 37:0.51786691 38:0.85774958 39:0.48423454 40:0.62779701 41:0.45066714 42:0.40157488 43:0.4033885 44:0.36430717 45:0.41379163 46:0.10040724 47:0.50825936 48:0.6005519 49:0.32233754 50:0.15352099 51:0.48289332 52:0.49872911 53:0.069903642 54:0.36408737 55:0.40898839 56:0.15557045 57:0.48271132 58:0.96089786 59:0.57317543 
0 0 0.3220055311449631 1.127774121733984 0 0 0 0 0 0 1:0.43530688 2:0.54668349 3:0.54824942 4:0.43574736 5:0.33664471 6:0.55935711 7:0.56180787 8:0.51964587 9:0.38335434 10:0.52658761 11:0.54428893 12:0.50268114 13:0.46533906 14:0.52535981 15:0.44125497 16:0.33194447 17:0.53106159 18:0.46614271 19:0.48678458 20:0.43247318 21:0.52111953 22:0.51525617 23:0.5222823 24:0.48741341 25:0.4595958 26:0.40050894 27:0.23815233 28:0.44382435 29:0.41383699 30:0.59507596 31:0.65647298 32:0.21473788 33:0.51740992 34:0.41284132 35:0.60484171 36:0.62229699 37:0.4945834 38:0.45480174 39:0.37752712 40:0.6383422 41:0.25614405 42:0.35918194 43:0.43062231 44:0.41342983 45:0.56056017 46:0.17426805 47:0.6103633 48:0.7195363 49:0.28923079 50:0.13486856 51:0.48843226 52:0.41064382 53:0.14315698 54:0.32197732 55:0.37936968 56:0.18646145 57:0.56002367 58:0.88135672 59:0.64109433 
0 0 0 0.4378903947302326 0 0 0 0 0 0 1:0.33131167 2:0.4460052 3:0.51645219 4:0.44923192 5:0.36323965 6:0.45537537 7:0.76792443 8:0.51070893 9:0.57916892 10:0.53386164 11:0.37359467 12:0.56613702 13:0.48313642 14:0.300796 15:0.508093 16:0.45223972 17:0.56435043 18:0.63787067 19:0.38869762 20:0.37722534 21:0.63252103 22:0.6469146 23:0.28097108 24:0.57496881 25:0.38830265 26:0.39677376 27:0.15525508 28:0.49775347 29:0.39616385 30:0.55607963 31:0.53706437 32:0.34524512 33:0.39164734 34:0.48739254 35:0.59548819 36:0.54808396 37:0.60988688 38:0.66935062 39:0.41696471 40:0.6176455 41:0.13042168 42:0.32189894 43:0.49030936 44:0.35369277 45:0.75542694 46:0.32309511 47:0.38551107 48:0.79509109 49:0.32168907 50:0.21563318 51:0.43327761 52:0.28616965 53:0.069666818 54:0.45287508 55:0.306914 56:0.1902705 57:0.52172375 58:0.80229056 59:0.55009598 
0 0 0 0 0 0 0 0 0.2728359478951813 0 1:0.56095898 2:0.5070833 3:0.75371617 4:0.3976118 5:0.53670472 6:0.64473444 7:0.663688 8:0.36912817 9:0.4101786 10:0.63277519 11:0.55844766 12:0.55624741 13:0.65147948 14:0.25016969 15:0.57693666 16:0.3430011 17:0.44485828 18:0.55793351 19:0.43977109 20:0.53100657 21:0.42984599 22:0.64969766 23:0.40810335 24:0.69955558 25:0.53198576 26:0.45657569 27:0.41345173 28:0.47898272 29:0.73873425 30:0.53600949 31:0.51400834 32:0.30227238 33:0.583184 34:0.32043621 35:0.42071366 36:0.67000675 37:0.52706248 38:0.29301441 39:0.55235034 40:0.77010763 41:0.52320266 42:0.42642361 43:0.31914979 44:0.46179608 45:0.72869784 46:0.17280428 47:0.45149481 48:0.83942431 49:0.44385317 50:0.19402255 51:0.39505598 52:0.33292082 53:0.18872385 54:0.46122596 55:0.23560396 56:0.20345207 57:0.51881731 58:0.89222366 59:0.56933355 
1.965035925725306 3.30797007573827 2.788554364901581 0.5419576911466258 0.7502251915558042 0 2.015409155966192 0 1.056689503644913 0 1:0.45812371 2:0.63161534 3:0.39671519 4:0.31371576 5:0.27521151 6:0.37695304 7:0.69141406 8:0.30911002 9:0.46659088 10:0.74713492 11:0.55791515 12:0.26732779 13:0.61473292 14:0.68872005 15:0.45229554 16:0.3850804 17:0.6324777 18:0.52829438 19:0.45705608 20:0.65856874 21:0.61788887 22:0.44218421 23:0.63539952 24:0.65577 25:0.24570341 26:0.41174752 27:0.39410785 28:0.29454786 29:0.15632041 30:0.50937796 31:0.76919019 32:0.39442691 33:0.40316343 34:0.51474816 35:0.41524473 36:0.41374564 37:0.52522409 38:0.4855445 39:0.48077762 40:0.79840046 41:0.75828314 42:0.58434105 43:0.24243057 44:0.42366576 45:0.62659085 46:0.24772459 47:0.62418628 48:0.81771153 49:0.36405957 50:0.15730412 51:0.71822053 52:0.49655998 53:0.37224957 54:0.43025324 55:0.44559866 56:0.11000996 57:0.37094572 58:0.90181571 59:0.62844115 
0 0 0 0 0 0 0 0 0.803076029133642 0 1:0.59038407 2:0.58119732 3:0.74515408 4:0.32407096 5:0.51435024 6:0.55916184 7:0.47388211 8:0.37843597 9:0.45168418 10:0.50187916 11:0.54520273 12:0.59938669 13:0.73061037 14:0.3749879 15:0.49370947 16:0.31378481 17:0.45947888 18:0.52413678 19:0.45320681 20:0.40455967 21:0.51680064 22:0.59835142 23:0.43917376 24:0.6966421 25:0.47955248 26:0.43355083 27:0.39332151 28:0.42540568 29:0.5847379 30:0.48863849 31:0.58643329 32:0.2567974 33:0.68666148 34:0.31425697 35:0.56428695 36:0.63295889 37:0.51593858 38:0.47904354 39:0.5281142 40:0.72964311 41:0.39531347 42:0.45942467 43:0.25721303 44:0.50508237 45:0.55893373 46:0.12658471 47:0.44768733 48:0.59741712 49:0.25762105 50:0.22465283 51:0.35916069 52:0.43650472 53:0.043764431 54:0.36338118 55:0.30900764 56:0.32916591 57:0.69956893 58:0.96395814 59:0.5607866 
0 0 0 0.285166772355785 0.0543728154689233 0 0 0 0 0 1:0.56594062 2:0.50374138 3:0.4136574 4:0.46859273 5:0.33197212 6:0.38718146 7:0.69044542 8:0.49298143 9:0.70437002 10:0.3721908 11:0.55816519 12:0.42180514 13:0.55665058 14:0.60230923 15:0.4584834 16:0.46152949 17:0.60471714 18:0.34175032 19:0.65042722 20:0.42093328 21:0.6343562 22:0.49757645 23:0.71431029 24:0.60982233 25:0.2940892 26:0.50397992 27:0.47589201 28:0.50977743 29:0.45529503 30:0.46051452 31:0.71139914 32:0.52398723 33:0.52965432 34:0.3929652 35:0.50810999 36:0.23774731 37:0.62068361 38:0.43585986 39:0.57132679 40:0.95412505 41:0.739748 42:0.48196122 43:0.2391386 44:0.32873043 45:0.83165938 46:0.32540822 47:0.58255368 48:0.86126071 49:0.3832812 50:0.14713335 51:0.55999088 52:0.49999124 53:0.26951149 54:0.50118488 55:0.35776424 56:0.098260492 57:0.38344935 58:0.85423797 59:0.62360013 
0 1.970208754004205 0.434578070008226 0.01206769667004911 0 0 0 0 0 0 1:0.18997473 2:0.55067503 3:0.43150115 4:0.58641964 5:0.48158455 6:0.48422939 7:0.56686246 8:0.57734632 9:0.61112231 10:0.68064046 11:0.31121114 12:0.58668095 13:0.54473907 14:0.65089929 15:0.60211307 16:0.42724779 17:0.63366175 18:0.33562547 19:0.54391062 20:0.50876927 21:0.57686108 22:0.46753499 23:0.44037998 24:0.61708355 25:0.38254395 26:0.50559592 27:0.5169661 28:0.65833211 29:0.7562089 30:0.35566917 31:0.56326354 32:0.45039585 33:0.49623933 34:0.67335206 35:0.60407346 36:0.5789482 37:0.61647457 38:0.77477902 39:0.59561694 40:0.68082601 41:0.50922841 42:0.43676189 43:0.5490523 44:0.37277418 45:0.44822311 46:0.23760331 47:0.34153429 48:0.54011053 49:0.20016785 50:0.26583451 51:0.3343676 52:0.3828401 53:0.014920238 54:0.39472863 55:0.40662158 56:0.20895918 57:0.546507 58:0.92869651 59:0.63489819 
0 0 0 0 0 0 0 0 0.2948414218889434 0 1:0.44571352 2:0.49850684 3:0.67101091 4:0.60269046 5:0.74553472 6:0.69085705 7:0.71303642 8:0.43422034 9:0.51267982 10:0.73906499 11:0.5015161 12:0.64271575 13:0.47644871 14:0.42782524 15:0.63757849 16:0.41473478 17:0.45331606 18:0.35920057 19:0.38059264 20:0.63963234 21:0.31623715 22:0.60076231 23:0.37093905 24:0.45457956 25:0.46948019 26:0.38094473 27:0.492975 28:0.48055303 29:0.61524999 30:0.52842343 31:0.51383567 32:0.32144475 33:0.54989558 34:0.37542903 35:0.38798538 36:0.78604716 37:0.52122879 38:0.31822309 39:0.70481843 40:0.78402799 41:0.57462877 42:0.5118733 43:0.33720511 44:0.46996856 45:0.5685693 46:0.28261572 47:0.55736011 48:0.65026033 49:0.26670769 50:0.1391364 51:0.23336731 52:0.28443375 53:0.12973385 54:0.3472262 55:0.28316998 56:0.32120717 57:0.60777086 58:0.89946467 59:0.56059223 
2.67335125694843 0 0 0 0 0 0 0 0 1.981953606865076 1:0.35761327 2:0.69071805 3:0.74820155 4:0.4661437 5:0.60563219 6:0.67141086 7:0.86122108 8:0.45582762 9:0.66322333 10:0.53173059 11:0.45583671 12:0.6503002 13:0.51647085 14:0.25598982 15:0.61110252 16:0.47488776 17:0.54986805 18:0.31599924 19:0.46229267 20:0.51083934 21:0.41683862 22:0.50956559 23:0.48744625 24:0.42502242 25:0.42063811 26:0.38848224 27:0.5235945 28:0.39859626 29:0.82282454 30:0.48543882 31:0.56511736 32:0.33988479 33:0.72629672 34:0.42539522 35:0.587551 36:0.60468119 37:0.54903638 38:0.49411976 39:0.7081964 40:0.71235269 41:0.61142874 42:0.36812845 43:0.34327936 44:0.33124456 45:0.61590832 46:0.39987209 47:0.76553053 48:0.6384421 49:0.30789441 50:0.12937452 51:0.17011192 52:0.31726611 53:0.079367079 54:0.40824163 55:0.32579243 56:0.30453488 57:0.59679502 58:0.89629823 59:0.59478933 
-0 0 0 0.3114287156110414 0 0 0 0 0 0 1:0.30123207 2:0.51484406 3:0.65567791 4:0.63445485 5:0.33710179 6:0.21901438 7:0.66198546 8:0.44679609 9:0.5463239 10:0.52371585 11:0.4025276 12:0.46882313 13:0.55544996 14:0.24268438 15:0.5950318 16:0.77273405 17:0.53282022 18:0.55855924 19:0.47773033 20:0.49836525 21:0.43882683 22:0.59772354 23:0.43755773 24:0.70361066 25:0.29029021 26:0.49671924 27:0.66566151 28:0.43436867 29:0.30925566 30:0.67900252 31:0.19651963 32:0.27189845 33:0.65209031 34:0.43644166 35:0.35533682 36:0.76617372 37:0.71305186 38:0.45159322 39:0.66033149 40:0.89555895 41:0.53301698 42:0.61439592 43:0.46980372 44:0.47968221 45:0.72874135 46:0.65169132 47:0.24296996 48:0.29299796 49:0.41792786 50:0.41344705 51:0.28146195 52:0.63066447 53:0.38788354 54:0.23307975 55:0.37342897 56:0.62697887 57:0.14826693 58:0.83596426 59:0.40230286 
-0.06195812368831438 0 0 0 0.6308122668379806 0.4758831230179819 2.853083831560405 0 0.5394641873515815 0.1266401533821201 1:5.7688201e-16 2:0.61523485 3:0.44056731 4:0.62551081 5:0.65884227 6:0.085091345 7:0.79535311 8:0.47051597 9:0.49040779 10:0.64847678 11:0.60442156 12:0.47673112 13:0.98794925 14:0.29307503 15:0.48106635 16:0.86712855 17:0.30471101 18:0.4288356 19:0.33318406 20:0.21782018 21:0.31719282 22:0.19519867 23:0.58459234 24:0.81087995 25:0.27306873 26:0.70108443 27:0.67848849 28:0.73336899 29:0.42191243 30:0.58767861 31:0.13691738 32:0.29106963 33:0.4269489 34:0.26371294 35:0.48185155 36:0.72893864 37:0.2407354 38:0.40881443 39:0.51803488 40:0.91177827 41:0.69098985 42:0.60942441 43:0.3920956 44:0.25071967 45:0.86163229 46:0.44220495 47:0.29287082 48:0.094526455 49:0.34164536 50:0.35624257 51:0.15776074 52:0.51146424 53:0.44917887 54:0.41480485 55:0.37098551 56:0.57916009 57:0.18502127 58:0.81729233 59:0.32884985 
-1.052944274717177 0 1.346931959938826 0 0 0.6255037500708434 0 0 1.229207596575948 1.410875415274177 1:0.081086509 2:0.62473571 3:0.64574862 4:0.46284133 5:0.20119199 6:0.18855038 7:0.60734433 8:0.49252203 9:0.63515902 10:0.37486288 11:0.27365595 12:0.37300882 13:0.51076132 14:0.31670889 15:0.44337168 16:0.68434227 17:0.5482235 18:0.61061656 19:0.62041205 20:0.49863383 21:0.44959313 22:0.64962554 23:0.5496316 24:0.64146054 25:0.37593797 26:0.47696713 27:0.47275716 28:0.39267412 29:0.24022134 30:0.68903637 31:0.29266644 32:0.2267801 33:0.5134477 34:0.33473659 35:0.54602182 36:0.52846152 37:0.61999905 38:0.49250993 39:0.64893341 40:0.74174356 41:0.47944427 42:0.52606428 43:0.49490419 44:0.42430669 45:0.76459748 46:0.69866651 47:0.35710788 48:0.32672808 49:0.34849879 50:0.35421556 51:0.32983521 52:0.64063019 53:0.43230882 54:0.25441501 55:0.40666413 56:0.59278256 57:0.19382562 58:0.8719207 59:0.38474557 
-0.5350501775995365 0 0.8683340928344333 0 0.3621529136671019 2.366781854539003 0 0 0 0 1:0.17449412 2:0.65295988 3:0.43494901 4:0.40280604 5:0.43815744 6:0.52194196 7:0.69843113 8:0.37855604 9:0.38953361 10:0.29948607 11:0.35309869 12:0.52683228 13:0.72959387 14:0.78612095 15:0.33712518 16:0.3492561 17:0.44157219 18:0.2641882 19:0.30423295 20:0.19243726 21:0.50819552 22:0.076625846 23:0.79568589 24:0.71940106 25:0.080791116 26:0.45452163 27:0.44397858 28:0.41506052 29:0.82677305 30:0.98588109 31:0.37993681 32:0.32894248 33:0.4432064 34:0.27697989 35:0.35802501 36:0.65555817 37:0.51061708 38:0.39143342 39:0.47430208 40:0.65796655 41:0.8757149 42:0.54976773 43:0.32560328 44:0.29730818 45:0.59611213 46:0.42727587 47:0.69811153 48:0.41825277 49:0.39580241 50:0.37263379 51:0.61934513 52:0.32823384 53:0.59753966 54:0.34958941 55:0.62078279 56:0.43526581 57:0.12565733 58:0.83408344 59:0.41959009 
-2.635582805462153 5.444318061601473 7.96907286220547 4.407188295125174 4.963140721918829 2.312789943743284 5.063788715168352 1.29414745885514 1.725329288542273 1.447729570298267 1:0.45931447 2:0.603782 3:0.70138472 4:0.37483791 5:0.54563731 6:0.65248227 7:0.57310963 8:0.41460395 9:0.5426113 10:0.2579734 11:0.56239885 12:0.50147671 13:0.77486444 14:0.89912295 15:0.17877486 16:0.49122614 17:0.37776884 18:0.42494833 19:0.47804487 20:0.22492583 21:0.26038092 22:0.17680292 23:0.84935451 24:0.69152135 25:0.27737051 26:0.27791798 27:0.57763803 28:0.17974934 29:0.69895929 30:1 31:0.40065292 32:0.29326072 33:0.6775685 34:0.39095178 35:0.48736849 36:0.73262906 37:0.44732386 38:0.36969468 39:0.3901861 40:0.56425381 41:0.61005884 42:0.47380331 43:0.39376596 44:0.4057298 45:0.54706883 46:0.62374163 47:0.61042428 48:0.383701 49:0.34362459 50:0.35479915 51:0.65418935 52:0.34770414 53:0.51670492 54:0.4244501 55:0.55351049 56:0.46493146 57:0.18117708 58:0.72150093 59:0.42048547 
-0.9213217910484202 0 0 0.1480895686465278 0 1.78779485123752 0 0 0 0.3884499208772655 1:0.25035155 2:0.56078237 3:0.54920566 4:0.43289953 5:0.38519037 6:0.45852682 7:0.35564229 8:0.33928812 9:0.60285836 10:0.46926233 11:0.42203343 12:0.51058358 13:0.79759306 14:0.31201774 15:0.48854187 16:0.32818931 17:0.40755036 18:0.46292931 19:0.63675898 20:0.56118369 21:0.4263984 22:0.42813432 23:0.4614619 24:0.82025009 25:0.63962775 26:0.39383259 27:0.32305825 28:0.29869047 29:0.51103598 30:0.60924625 31:0.086995862 32:0.20956841 33:0.75046515 34:0.52123344 35:0.39962196 36:0.408535 37:0.58477402 38:0.57079148 39:0.6168493 40:0.58581942 41:0.22865918 42:0.37459445 43:0.64403129 44:0.3319456 45:0.71331209 46:0.65911025 47:0.6673587 48:0.57401776 49:0.29019186 50:0.20798956 51:0.27525911 52:0.68316752 53:0.55139822 54:0.14709575 55:0.43121499 56:0.46231049 57:0.1852365 58:0.76599675 59:0.4859387 
-0 0.6933684306041047 0 0 0.2510971751805266 0 1.92332508593164 0 0.07228586173971319 0 1:0.48608857 2:0.45686644 3:0.32831243 4:0.20329624 5:0.2808885 6:0.49820817 7:0.42611966 8:0.41964301 9:0.56679332 10:0.40205121 11:0.37454185 12:0.45507801 13:0.90842009 14:0.10118987 15:0.50180763 16:0.16375992 17:0.51801431 18:0.47544476 19:0.80317652 20:0.60535163 21:0.54367518 22:0.47559854 23:0.52614367 24:0.67211425 25:0.56781673 26:0.58228296 27:0.38893375 28:0.12653905 29:0.60748953 30:0.77800643 31:0.42518377 32:0.27323005 33:0.70817626 34:0.39695394 35:0.33218047 36:0.33276144 37:0.50984317 38:0.7400552 39:0.57462186 40:0.37016836 41:0.48068476 42:0.36804786 43:0.74784291 44:0.45797035 45:0.71049786 46:0.80034155 47:0.65820849 48:0.70876867 49:0.4941822 50:0.26941183 51:0.4608627 52:0.60977238 53:0.61982805 54:0.19558334 55:0.40609145 56:0.55465716 57:0.12867072 58:0.74909139 59:0.41830635 
-1.634576524779856 0.8413055722696777 1.309756847316601 1.610868561980954 1.105450539844248 0.7497818720678399 0.6239954315831376 1.64448845483976 0.8461124145025825 0 1:0.27915102 2:0.68060189 3:0.54248607 4:0.60868835 5:0.5803569 6:0.30183181 7:0.46720839 8:0.5245896 9:0.12575907 10:0.66793895 11:0.53805041 12:0.3917349 13:0.84085292 14:0.24148472 15:0.80551547 16:0.35870543 17:0.40478408 18:0.48588845 19:0.95177931 20:0.27500504 21:0.5295406 22:0.64216322 23:0.62945127 24:0.76511437 25:0.60085958 26:0.69103962 27:0.47429475 28:0.23465285 29:0.4463411 30:0.67287242 31:0.23267658 32:0.39501446 33:0.58300847 34:0.50232071 35:0.32773998 36:0.46011946 37:0.54690212 38:0.70665729 39:0.80513495 40:0.81134605 41:0.7030949 42:0.39871058 43:0.78028345 44:0.36879098 45:0.82364595 46:0.69926292 47:0.56910723 48:0.55289048 49:0.46254912 50:0.24062578 51:0.37235561 52:0.58060157 53:0.50308126 54:0.13094068 55:0.42583603 56:0.5975312 57:0.2308263 58:0.71709335 59:0.49734256 
-0 0.091310185601243 0 0 0 0 0 0 0 0.3201536181589861 1:0.19672011 2:0.5354529 3:0.59677577 4:0.45998555 5:0.65696627 6:0.15431803 7:0.75949723 8:0.52076948 9:0.85695571 10:0.57875544 11:0.66121799 12:0.60553467 13:0.70041513 14:0.51031208 15:0.21101479 16:0.88920486 17:0.2889989 18:0.55691618 19:0.44800234 20:0.36200002 21:0.5617184 22:0.16791865 23:0.64843047 24:0.92865312 25:0.29220369 26:0.43909705 27:0.59422964 28:0.33564955 29:0.21252 30:0.80087543 31:0.35037151 32:0.3252818 33:0.42084482 34:0.39504439 35:0.41562778 36:0.7883203 37:0.27688691 38:0.46386233 39:0.56469941 40:0.87701011 41:0.61077005 42:0.66844934 43:0.50469673 44:0.31338212 45:0.6824851 46:0.66131198 47:0.27477318 48:0.18786481 49:0.33199158 50:0.45518917 51:0.063692652 52:0.53689587 53:0.43068874 54:0.39449605 55:0.39456186 56:0.51891989 57:0.19695951 58:0.85936826 59:0.34649533 
-0.8216742908016901 1.461212142130598 0 0.7114738497411233 2.848642124520741 0 3.431438311020029 1.320208746480886 0.1565574203340767 0.6611245566376481 1:0.15466514 2:0.52739453 3:0.59617567 4:0.47052532 5:0.36993644 6:0.42148954 7:0.47862077 8:0.51436025 9:0.60326397 10:0.69296294 11:0.49730149 12:0.44172707 13:0.53101832 14:0.11152494 15:0.52709001 16:0.6604557 17:0.54538184 18:0.28557345 19:0.45273343 20:0.51265645 21:0.71335196 22:0.72229499 23:0.4454473 24:0.69605464 25:0.31509089 26:0.40193814 27:0.37168723 28:0.50699341 29:0.25851151 30:0.83912742 31:0.48629117 32:0.32067439 33:0.55063814 34:0.49456227 35:0.22385235 36:0.55443084 37:0.60686123 38:0.62620485 39:0.69712764 40:0.72035575 41:0.51924008 42:0.74175942 43:0.29412892 44:0.27979013 45:0.618352 46:0.56428349 47:0.26218408 48:0.30657583 49:0.39033636 50:0.46089652 51:0.18238805 52:0.69941193 53:0.41572011 54:0.3198334 55:0.3071126 56:0.56169015 57:0.14235868 58:0.8543008 59:0.37759778 
-1.445328222946654 0.1388911086114194 2.354474927233972 0 1.665040806834191 0 0.4789874351032558 2.742215000037675 0 3.146949706456414 1:0.10176872 2:0.50519335 3:0.67188424 4:0.35177606 5:0.28255028 6:0.40899152 7:0.56340748 8:0.64165503 9:0.66117275 10:0.45689186 11:0.57394964 12:0.50059122 13:0.65017927 14:0.70405316 15:0.45482868 16:0.34655908 17:0.42103317 18:0.52984929 19:0.58738685 20:0.2911391 21:0.30853632 22:0.27112141 23:0.96707815 24:0.64075172 25:0.0944352 26:0.32081565 27:0.51652372 28:0.34604663 29:0.61371475 30:0.93030167 31:0.51989549 32:0.33096963 33:0.56093574 34:0.28994137 35:0.39682308 36:0.63925999 37:0.46362621 38:0.28744137 39:0.53747082 40:0.63138539 41:0.83553749 42:0.48343047 43:0.45794141 44:0.25559345 45:0.61933345 46:0.46081716 47:0.76676321 48:0.43949497 49:0.37217647 50:0.35941666 51:0.59031129 52:0.38704857 53:0.56060618 54:0.37539944 55:0.61618161 56:0.46970928 57:0.18634686 58:0.82107902 59:0.38286719 
-2.061941994610389 2.155352776576315 1.631877886078668 3.177656757724608 1.467949154344911 1.095773609863715 0 1.100247247246915 0 1.875241029212287 1:0.18897164 2:0.57574606 3:0.47651169 4:0.71503711 5:0.49938473 6:0.53390658 7:0.46941167 8:0.42402437 9:0.73546618 10:0.66785318 11:0.50155848 12:0.48713493 13:0.55086219 14:0.057536971 15:0.58525866 16:0.76268947 17:0.2626304 18:0.45850244 19:0.63796806 20:0.13897027 21:0.65621942 22:0.51860577 23:0.49119386 24:0.54655707 25:0.44248384 26:0.47890919 27:0.45942733 28:0.42672321 29:0.66215765 30:0.74308538 31:0.25880212 32:0.40395433 33:0.48782223 34:0.47181007 35:0.17540175 36:0.29173058 37:0.58507395 38:0.36812562 39:0.97544056 40:0.66403902 41:0.52218026 42:0.43022513 43:0.54664701 44:0.25757858 45:0.88522655 46:0.55711794 47:0.44576702 48:0.55345386 49:0.41524333 50:0.29452461 51:0.26013401 52:0.58545941 53:0.54497564 54:0.23298615 55:0.37936059 56:0.43387839 57:0.12713912 58:0.7649579 59:0.44795406 
-1.204357669180703 2.266749359663561 1.07319256134121 2.596588111917117 0.8928185410799315 0.8650763416501828 0.4586093832927763 4.702659284383835 3.198203091187617 0.7400217839965951 1:0.65772474 2:0.6041801 3:0.45104966 4:0.45314983 5:0.3757897 6:0.51157004 7:0.48428506 8:0.39990222 9:0.47256985 10:0.45951912 11:0.68597633 12:0.47016406 13:0.53021353 14:0.58578765 15:0.45618421 16:0.29008955 17:0.57707435 18:0.43611228 19:0.32016528 20:0.34699926 21:0.45902261 22:0.36984175 23:0.59758139 24:0.66919458 25:0.40229824 26:0.46114898 27:0.50374502 28:0.48132706 29:0.55083865 30:0.7670061 31:0.44428331 32:0.345002 33:0.6234957 34:0.49471703 35:0.55671936 36:0.45851341 37:0.54723078 38:0.57504946 39:0.64816684 40:0.7475121 41:0.490141 42:0.39355677 43:0.38226303 44:0.34932807 45:0.39710978 46:0.26116374 47:0.47722813 48:0.35017869 49:0.37214994 50:0.45230463 51:0.43756369 52:0.84009874 53:0.4680728 54:0.080371536 55:0.49762201 56:0.48964027 57:0.19053797 58:0.91230416 59:0.50346327 
-0 0 0.313734531893667 0 0 0 0 0 0 0 1:0.32098329 2:0.53854668 3:0.42470908 4:0.44526616 5:0.48277059 6:0.49274531 7:0.42454559 8:0.47918835 9:0.43499863 10:0.56278336 11:0.45677146 12:0.35549575 13:0.50010622 14:0.3995589 15:0.48786336 16:0.36492622 17:0.65486896 18:0.46956491 19:0.43885294 20:0.31534368 21:0.4973838 22:0.44179812 23:0.53207827 24:0.61392254 25:0.43796438 26:0.58337885 27:0.74322522 28:0.46810302 29:0.50183535 30:0.74933457 31:0.30674949 32:0.34291708 33:0.67309815 34:0.50143027 35:0.27819243 36:0.41358322 37:0.51225102 38:0.75446969 39:0.61935246 40:0.76715624 41:0.46984515 42:0.50340426 43:0.41319939 44:0.42636183 45:0.40838289 46:0.38466209 47:0.33043519 48:0.49957365 49:0.5023877 50:0.49198902 51:0.45829087 52:0.72309333 53:0.49660003 54:0.13600117 55:0.41470858 56:0.47577387 57:0.061462484 58:0.93118638 59:0.42067537 
-0 0 1.544638057398457 0 0 0.2633798936673769 0 0.7467651962632617 0 0.1948790616515955 1:0.3746818 2:0.59063488 3:0.6008454 4:0.60585719 5:0.41869947 6:0.4715164 7:0.36784518 8:0.41626927 9:0.40428874 10:0.53461075 11:0.55617541 12:0.31247753 13:0.40833509 14:0.50035626 15:0.51127601 16:0.34034553 17:0.75428259 18:0.47284496 19:0.41988927 20:0.27550149 21:0.5225566 22:0.54928464 23:0.53155571 24:0.50682658 25:0.51113081 26:0.52649957 27:0.41708353 28:0.54259753 29:0.42359766 30:0.60485518 31:0.35521778 32:0.28829083 33:0.66956234 34:0.51915741 35:0.44800052 36:0.37759769 37:0.53437096 38:0.8039394 39:0.67472446 40:0.72531652 41:0.45158148 42:0.39940006 43:0.32533714 44:0.30704331 45:0.50229716 46:0.48511422 47:0.34080842 48:0.31970671 49:0.39552227 50:0.43755913 51:0.24307954 52:0.70293248 53:0.47598383 54:0.15383145 55:0.43997097 56:0.53250414 57:0.093986794 58:0.91214889 59:0.395385 
-0 4.069435456572728 0 0 0 0 0 0 0 0 1:0.58891612 2:0.64633507 3:0.47494215 4:0.38525882 5:0.36731723 6:0.5656535 7:0.45374081 8:0.46425083 9:0.52574056 10:0.52473807 11:0.74977452 12:0.42405924 13:0.54787523 14:0.49337181 15:0.53486109 16:0.21217796 17:0.63969809 18:0.46290785 19:0.3433142 20:0.46435094 21:0.48350123 22:0.45547011 23:0.65865737 24:0.66491044 25:0.39789486 26:0.42108586 27:0.47003144 28:0.43770573 29:0.48783785 30:0.75694126 31:0.47393006 32:0.35137102 33:0.61046547 34:0.43095154 35:0.483161 36:0.4838798 37:0.53856373 38:0.61825705 39:0.64269054 40:0.77613771 41:0.50077856 42:0.43855923 43:0.36530477 44:0.34607512 45:0.38488594 46:0.31984943 47:0.49651664 48:0.37764826 49:0.3864415 50:0.45800364 51:0.45412382 52:0.84640986 53:0.47182909 54:0.093336284 55:0.4882929 56:0.48647097 57:0.17965811 58:0.92270792 59:0.48756826 
-0.9058326180745849 0.8541391228068305 0.4652425684617468 1.553087710749951 0 2.979072794152062 1.730698706404545 0 0.09564992936277698 2.525862262649836 1:0.54938877 2:0.52492934 3:0.34308761 4:0.49593037 5:0.42650712 6:0.55016911 7:0.60230076 8:0.666996 9:0.6248768 10:0.51471192 11:0.68449777 12:0.45623696 13:0.67477733 14:0.33742902 15:0.61584437 16:0.56900245 17:0.58233333 18:0.3661992 19:0.52089095 20:0.44040847 21:0.63143802 22:0.73325902 23:0.52547753 24:0.55505615 25:0.37755334 26:0.25837311 27:0.47870982 28:0.50499707 29:0.71823615 30:0.51679355 31:0.67861062 32:0.32997042 33:0.61555266 34:0.42283383 35:0.5119592 36:0.34522536 37:0.52699977 38:0.46625793 39:0.5951075 40:0.67435998 41:0.43497923 42:0.48888877 43:0.43624315 44:0.28615054 45:0.44639412 46:0.32407928 47:0.65817577 48:0.37542865 49:0.34687892 50:0.40242115 51:0.41073638 52:0.85866225 53:0.47567877 54:0.068626925 55:0.44742388 56:0.4948259 57:0.176034 58:0.94773209 59:0.47669017 
-0 0 0.3108582389519045 0.259448728344548 0 1.695813001302565 0.8579447263519965 0 0 0 1:0.48907077 2:0.51758975 3:0.47957277 4:0.55759704 5:0.4136121 6:0.40959308 7:0.60022599 8:0.66562974 9:0.58978826 10:0.53285193 11:0.39787161 12:0.42294914 13:0.55964977 14:0.40119126 15:0.58849788 16:0.76323724 17:0.55035883 18:0.54135746 19:0.68575335 20:0.40671751 21:0.71623605 22:0.6863268 23:0.38165003 24:0.5351904 25:0.33950472 26:0.39765695 27:0.48746386 28:0.64091355 29:0.58357835 30:0.50706422 31:0.67960542 32:0.31964776 33:0.54165155 34:0.50876385 35:0.45278525 36:0.44897535 37:0.56327116 38:0.53208387 39:0.40098956 40:0.76649547 41:0.40227905 42:0.59127033 43:0.37393197 44:0.34845707 45:0.55107731 46:0.47926489 47:0.37466258 48:0.42597094 49:0.46355352 50:0.51669836 51:0.4249272 52:0.69568241 53:0.4005228 54:0.075713888 55:0.32469434 56:0.63335645 57:0.11782719 58:0.91061765 59:0.38086784 
-0 0 0 0 0.4647933960235939 1.014574743322208 1.136513428955178 0 0 0 1:0.4331947 2:0.61481893 3:0.32573405 4:0.48122489 5:0.38156494 6:0.48206857 7:0.43327296 8:0.32990861 9:0.38725674 10:0.58819252 11:0.61723524 12:0.25916559 13:0.59610087 14:0.60260701 15:0.59403008 16:0.37432513 17:0.68722415 18:0.48152813 19:0.52272898 20:0.44808483 21:0.58861083 22:0.384563 23:0.69693196 24:0.62567365 25:0.3085953 26:0.82076305 27:0.48086485 28:0.41513854 29:0.58277196 30:0.68172371 31:0.2573418 32:0.30530423 33:0.62665844 34:0.54541689 35:0.28685942 36:0.52829117 37:0.52653342 38:0.59859186 39:0.62040877 40:0.72613275 41:0.49210244 42:0.46584842 43:0.34901485 44:0.30452362 45:0.4234311 46:0.26430073 47:0.36127117 48:0.50242865 49:0.5450061 50:0.39667952 51:0.46230835 52:0.66712511 53:0.56823015 54:0.1379257 55:0.34712419 56:0.46868214 57:0.06454853 58:0.93858498 59:0.42313918 
-0 0 0 0 0 0 1.462188012864239 0 0 0 1:0.38752118 2:0.63511729 3:0.35494545 4:0.5430733 5:0.40500298 6:0.47033635 7:0.44790998 8:0.36124861 9:0.39105853 10:0.56537175 11:0.59758002 12:0.26016003 13:0.59388578 14:0.53916633 15:0.56588179 16:0.38011938 17:0.67217189 18:0.48626614 19:0.52368313 20:0.43220523 21:0.57075858 22:0.37164295 23:0.65817732 24:0.66318059 25:0.33391404 26:0.80042714 27:0.48946467 28:0.43353289 29:0.56190622 30:0.66604036 31:0.23358858 32:0.31291816 33:0.6784727 34:0.53885895 35:0.29303491 36:0.54846615 37:0.48303011 38:0.66333824 39:0.58750463 40:0.72650027 41:0.48663247 42:0.46484426 43:0.35794091 44:0.31438935 45:0.40158546 46:0.27988786 47:0.36831379 48:0.5043689 49:0.55338007 50:0.38766748 51:0.46429005 52:0.66748506 53:0.55021316 54:0.14128424 55:0.37023124 56:0.48964617 57:0.077737749 58:0.93671888 59:0.43101439 
-1.889600658636579 1.342746052087498 3.639483489144774 1.059015857935985 0.9220434020256563 0 1.803164494836873 0 0.9445379757296486 3.521305472485291 1:0.475169 2:0.67241019 3:0.5212518 4:0.36881483 5:0.57883275 6:0.62642223 7:0.49931645 8:0.46016604 9:0.57827187 10:0.50003493 11:0.71815246 12:0.34466407 13:0.74814135 14:0.3700735 15:0.4649325 16:0.73289675 17:0.53491628 18:0.47514123 19:0.78262782 20:0.68139857 21:0.59361637 22:0.54758745 23:0.38729066 24:0.57761008 25:0.33588701 26:0.7052505 27:0.43357235 28:0.41172588 29:0.78998899 30:0.46627581 31:0.53751963 32:0.3019551 33:0.64562851 34:0.61410099 35:0.27875382 36:0.59891266 37:0.58913928 38:0.45260918 39:0.27252936 40:0.63352853 41:0.48515892 42:0.55831307 43:0.47963482 44:0.36859977 45:0.54968107 46:0.27503943 47:0.43733895 48:0.73074239 49:0.67419642 50:0.37626117 51:0.41820043 52:0.67516363 53:0.60569668 54:0.13171804 55:0.29789203 56:0.41537738 57:0.034348711 58:0.88092667 59:0.45459351 
-0 0 0 0.5368460813489248 1.529199069033513 0 0 0 1.74950049331817 0.2105088822274603 1:0.49850518 2:0.6480096 3:0.62084675 4:0.51927984 5:0.40299132 6:0.3905021 7:0.54623306 8:0.5557937 9:0.52660513 10:0.52475625 11:0.39315757 12:0.50217015 13:0.50371772 14:0.47824684 15:0.65638161 16:0.5571205 17:0.60816461 18:0.53983933 19:0.47465956 20:0.47403634 21:0.39601117 22:0.48112074 23:0.23888461 24:0.29021227 25:0.253986 26:0.25423476 27:0.55888742 28:0.65544492 29:0.52912623 30:0.33235109 31:0.78185344 32:0.38419911 33:0.37917727 34:0.37333718 35:0.6351043 36:0.56184614 37:0.5703004 38:0.64075869 39:0.45852202 40:0.73987526 41:0.4249526 42:0.51515472 43:0.34120697 44:0.23600267 45:0.70102185 46:0.57224941 47:0.57348078 48:0.51878154 49:0.4289428 50:0.45235986 51:0.43913814 52:0.59556442 53:0.48410219 54:0.034867238 55:0.34188464 56:0.70939696 57:0.1193805 58:0.85244054 59:0.35299662 
-0 0 0 1.248967298317319 0.02040582065375293 0 0 0.5360127042877884 0 0 1:0.77264267 2:0.57553077 3:0.47997701 4:0.46492308 5:0.44343448 6:0.47629032 7:0.57480037 8:0.43636483 9:0.56923223 10:0.43288812 11:0.58367813 12:0.57023537 13:0.44484907 14:0.62165624 15:0.66742039 16:0.49179161 17:0.44656348 18:0.41048571 19:0.46070477 20:0.43323523 21:0.48467988 22:0.42453364 23:0.23218377 24:0.39039618 25:0.21249786 26:0.40606949 27:0.5250349 28:0.61305988 29:0.59551138 30:0.36655569 31:0.72426331 32:0.3773976 33:0.40911311 34:0.41578993 35:0.60409749 36:0.50919455 37:0.50262761 38:0.65615463 39:0.42822623 40:0.72726732 41:0.45491275 42:0.45421979 43:0.35191762 44:0.23823233 45:0.64991051 46:0.47914201 47:0.43370032 48:0.52410561 49:0.47228116 50:0.51586366 51:0.39174661 52:0.5994786 53:0.45081422 54:0.025102921 55:0.32232085 56:0.67761397 57:0.083132148 58:0.86626756 59:0.41785988 
-0 2.623773421185065 5.851821905068116 0 0.5193751723204151 0 1.295385350777102 0 0 0 1:0.62205869 2:0.63961858 3:0.48354694 4:0.58049065 5:0.49009028 6:0.58439267 7:0.47286683 8:0.43589365 9:0.48194483 10:0.37514976 11:0.30669892 12:0.46784762 13:0.51040375 14:0.41596237 15:0.67154586 16:0.53105974 17:0.41751418 18:0.50405759 19:0.47365332 20:0.55071777 21:0.48555121 22:0.59319746 23:0.37457025 24:0.5704906 25:0.24127746 26:0.28041062 27:0.40965468 28:0.58984137 29:0.54534376 30:0.37852016 31:0.84865612 32:0.35399047 33:0.4946616 34:0.46346405 35:0.70687586 36:0.55565137 37:0.51850057 38:0.5748691 39:0.54201496 40:0.76622015 41:0.38398278 42:0.45207325 43:0.37591398 44:0.28673625 45:0.54133844 46:0.44886687 47:0.57017255 48:0.48260891 49:0.36270359 50:0.44992521 51:0.47957852 52:0.63372451 53:0.47043815 54:0.068247914 55:0.38850558 56:0.63290989 57:0.07894133 58:0.89735621 59:0.39951244 
-0 0 0 0 0 0.423929608063406 1.189344699926161 0.7250105707787254 0 2.785362199525599 1:0.6290679 2:0.67906243 3:0.66726524 4:0.57326889 5:0.56695187 6:0.45573556 7:0.45564932 8:0.43347788 9:0.51234478 10:0.37703726 11:0.32582214 12:0.56242478 13:0.53005731 14:0.4808999 15:0.74665773 16:0.58681077 17:0.47368741 18:0.44037402 19:0.53919965 20:0.48104456 21:0.5076158 22:0.65575606 23:0.40563208 24:0.51970053 25:0.25570258 26:0.1852279 27:0.4454408 28:0.62695515 29:0.5847556 30:0.25811175 31:0.88291043 32:0.36966175 33:0.44617271 34:0.44392934 35:0.69272244 36:0.52457309 37:0.51510727 38:0.5413332 39:0.48370966 40:0.72434813 41:0.38493791 42:0.42648005 43:0.35467979 44:0.22834066 45:0.5682537 46:0.51037705 47:0.56867462 48:0.45878494 49:0.36258534 50:0.4541592 51:0.41205901 52:0.63823932 53:0.46260485 54:0.065377153 55:0.35938585 56:0.66133523 57:0.11892764 58:0.8960644 59:0.40333784 
-0.291068655831722 0 0 0 0 0 0 0 0 0 1:0.52805918 2:0.62167192 3:0.60971254 4:0.46717718 5:0.41298559 6:0.37765455 7:0.59931713 8:0.49190158 9:0.49739322 10:0.60913134 11:0.3352856 12:0.52457249 13:0.51577389 14:0.42555112 15:0.63932645 16:0.47225821 17:0.61164957 18:0.48182741 19:0.53581268 20:0.44080371 21:0.62998307 22:0.5691781 23:0.53007072 24:0.37264946 25:0.32875308 26:0.1969189 27:0.41576996 28:0.56492823 29:0.53831744 30:0.30726075 31:0.92159724 32:0.3098368 33:0.42280039 34:0.4736425 35:0.7095499 36:0.60937983 37:0.47736061 38:0.5502615 39:0.44713601 40:0.66603881 41:0.54761523 42:0.43913588 43:0.34682405 44:0.20512292 45:0.69584763 46:0.58155954 47:0.51524663 48:0.5094015 49:0.3622753 50:0.42386055 51:0.41871715 52:0.61947495 53:0.4224872 54:0.025656281 55:0.34996945 56:0.66948605 57:0.11458971 58:0.8854816 59:0.4042334 
-0 0 0 0 0 0.8728254530306419 0 0.3432083791868991 0 0 1:0.69641024 2:0.51276839 3:0.46696869 4:0.47127861 5:0.38170305 6:0.47870079 7:0.64694583 8:0.48934764 9:0.47389409 10:0.39285645 11:0.39746296 12:0.54106003 13:0.50369143 14:0.48222888 15:0.67763484 16:0.41650042 17:0.58825397 18:0.46963641 19:0.4783459 20:0.61257923 21:0.47644991 22:0.72846299 23:0.39280123 24:0.36835849 25:0.29302782 26:0.31530923 27:0.35218859 28:0.54925311 29:0.64373338 30:0.36453864 31:0.89411783 32:0.34038228 33:0.50022054 34:0.45263511 35:0.63772243 36:0.51988262 37:0.44627857 38:0.45209247 39:0.44908196 40:0.70898736 41:0.40940365 42:0.45836207 43:0.34968174 44:0.22429974 45:0.66882783 46:0.54239684 47:0.58018333 48:0.57461786 49:0.36176139 50:0.45441508 51:0.33289248 52:0.62494093 53:0.51225084 54:0.032637924 55:0.31612745 56:0.71988159 57:0.12221637 58:0.89496899 59:0.39995763 
-3.605279043439351 0 0 2.970936603860912 1.133002182568142 0 0 0 0.1141777132986886 0 1:0.53985733 2:0.63730127 3:0.60729206 4:0.52969778 5:0.38979426 6:0.40310287 7:0.67762631 8:0.44100684 9:0.41697681 10:0.55228406 11:0.28403807 12:0.46484196 13:0.4379499 14:0.48279488 15:0.62069982 16:0.45080283 17:0.61003423 18:0.489627 19:0.46432161 20:0.48860005 21:0.68354863 22:0.62523842 23:0.51166487 24:0.43020636 25:0.2731511 26:0.17392482 27:0.47255278 28:0.62516028 29:0.6170764 30:0.3378396 31:0.90242183 32:0.26589248 33:0.49273467 34:0.47777721 35:0.64003092 36:0.70366544 37:0.55579937 38:0.57191551 39:0.4405947 40:0.72325367 41:0.59199852 42:0.5149278 43:0.29102507 44:0.21976379 45:0.74445492 46:0.65032226 47:0.52557194 48:0.46899253 49:0.34357136 50:0.43731505 51:0.33777374 52:0.62670815 53:0.39737228 54:0.05301439 55:0.34904185 56:0.75246811 57:0.16995659 58:0.87231463 59:0.39476356 
-0 0 0 0 0 0.2895282338485484 0 0 0 0 1:0.68875289 2:0.54750389 3:0.51883852 4:0.472866 5:0.40987951 6:0.38059184 7:0.62114918 8:0.50868827 9:0.42579553 10:0.40417245 11:0.32026851 12:0.5434193 13:0.49402559 14:0.48623905 15:0.75457519 16:0.47823319 17:0.62201399 18:0.4854672 19:0.50139093 20:0.57633209 21:0.52807748 22:0.74503535 23:0.36454841 24:0.38300678 25:0.31027338 26:0.26991874 27:0.41783106 28:0.62540567 29:0.65374279 30:0.3411878 31:0.90576226 32:0.3349089 33:0.50070888 34:0.44819877 35:0.6446752 36:0.53950709 37:0.44394198 38:0.41375116 39:0.48652244 40:0.69278735 41:0.42236671 42:0.45020461 43:0.37099361 44:0.21535701 45:0.70997399 46:0.58225977 47:0.56070924 48:0.56347805 49:0.3730267 50:0.46655196 51:0.32999864 52:0.6350044 53:0.53528804 54:0.035446558 55:0.30993882 56:0.730528 57:0.11453795 58:0.88913828 59:0.37474394 
-0 0 0 0.03955233979672639 1.842436462152238 0 2.806015088042952 0 0 0 1:0.56535965 2:0.54669708 3:0.40359548 4:0.57872361 5:0.4752827 6:0.59358573 7:0.46417069 8:0.6497547 9:0.39982373 10:0.43913931 11:0.52239907 12:0.51250988 13:0.55097753 14:0.30251017 15:0.69944 16:0.59575123 17:0.55741811 18:0.46773446 19:0.40298393 20:0.63044733 21:0.48489538 22:0.63321525 23:0.26965559 24:0.32932296 25:0.24174945 26:0.3368482 27:0.44431174 28:0.62267029 29:0.54020047 30:0.38069773 31:0.8285684 32:0.30925214 33:0.389265 34:0.43666738 35:0.50724626 36:0.67879128 37:0.53909218 38:0.5104174 39:0.55822456 40:0.748761 41:0.49082154 42:0.57316864 43:0.28972775 44:0.24444154 45:0.59444875 46:0.52003545 47:0.62743086 48:0.5818153 49:0.41701326 50:0.40882871 51:0.43790343 52:0.59722435 53:0.4976429 54:0.058239639 55:0.36276174 56:0.69223565 57:0.065940529 58:0.87339532 59:0.35527244 
-0 0 0 0 0 0 0 0.004274261924998324 0 0 1:0.67073792 2:0.52880764 3:0.5537715 4:0.46090427 5:0.44438866 6:0.39660516 7:0.61496121 8:0.46017733 9:0.45453307 10:0.37373176 11:0.32326445 12:0.58801699 13:0.56166309 14:0.43181428 15:0.69910538 16:0.52547687 17:0.61924255 18:0.47434628 19:0.45237935 20:0.62951541 21:0.49404904 22:0.76719064 23:0.36198875 24:0.40866432 25:0.31510878 26:0.32549217 27:0.42970303 28:0.62312162 29:0.69807488 30:0.34504777 31:0.88533151 32:0.34567139 33:0.50968909 34:0.44817466 35:0.65485084 36:0.56718308 37:0.455336 38:0.38807288 39:0.44530213 40:0.72272658 41:0.45248613 42:0.4642536 43:0.37930492 44:0.23391002 45:0.70872009 46:0.56630236 47:0.54247111 48:0.59679568 49:0.38714865 50:0.49781489 51:0.33910406 52:0.6068781 53:0.53069288 54:0.042818546 55:0.29826659 56:0.73253256 57:0.11676342 58:0.89243954 59:0.37663081 
-0 1.133012515744237 1.879896137221486 0 1.41196861307637 1.032762415108055 0 0 0 0 1:0.64320493 2:0.55099523 3:0.54506326 4:0.44119629 5:0.53222787 6:0.53359938 7:0.55676788 8:0.59820044 9:0.48058742 10:0.41939631 11:0.35980859 12:0.50276911 13:0.39652583 14:0.51408511 15:0.71656656 16:0.42938954 17:0.43268979 18:0.51335514 19:0.49992201 20:0.52543348 21:0.52613854 22:0.65160435 23:0.33960208 24:0.50272006 25:0.30441308 26:0.28587306 27:0.46193203 28:0.56912267 29:0.6885134 30:0.24998176 31:0.86639225 32:0.34126386 33:0.45203754 34:0.45172793 35:0.6783483 36:0.61678344 37:0.47476423 38:0.50539249 39:0.52856594 40:0.80049402 41:0.43860674 42:0.45139384 43:0.35284123 44:0.27947608 45:0.75866169 46:0.6754505 47:0.44147208 48:0.53794569 49:0.40769121 50:0.52141744 51:0.36645046 52:0.58378929 53:0.45352235 54:0.098925523 55:0.29101968 56:0.74938685 57:0.12066065 58:0.87630451 59:0.36480752 
-0 0 0 0 0 0 1.05946888441998 0 0 0 1:0.88617682 2:0.47697154 3:0.41402265 4:0.49613056 5:0.37712139 6:0.48010966 7:0.40280449 8:0.42849407 9:0.50465113 10:0.46479368 11:0.57712466 12:0.52224553 13:0.44257471 14:0.71115488 15:0.70360231 16:0.45765638 17:0.39865893 18:0.41719884 19:0.46699846 20:0.59661585 21:0.49026763 22:0.44423556 23:0.35661611 24:0.50132287 25:0.31309417 26:0.34869638 27:0.48171854 28:0.56135535 29:0.59721082 30:0.31292686 31:0.78673732 32:0.35467571 33:0.471136 34:0.44261959 35:0.45106927 36:0.61934793 37:0.44869137 38:0.50923675 39:0.50083512 40:0.70974934 41:0.50355405 42:0.42337355 43:0.32714343 44:0.24035023 45:0.54045022 46:0.47512349 47:0.5614534 48:0.46999222 49:0.39766899 50:0.45883593 51:0.35684994 52:0.65306848 53:0.45336729 54:0 55:0.36064214 56:0.72287405 57:0.10810382 58:0.88833141 59:0.43116134 
-1.577892579713129 0 0 0 0 1.476528691912929 0 3.61679742079136 1.582434642055178 0 1:0.79127997 2:0.59450877 3:0.58635879 4:0.37967494 5:0.46305186 6:0.39456266 7:0.36433271 8:0.4436323 9:0.55223131 10:0.28567982 11:0.65868115 12:0.49612674 13:0.5781219 14:0.51460171 15:0.52740425 16:0.58146298 17:0.4958635 18:0.45756865 19:0.55484498 20:0.67671394 21:0.36878499 22:0.5306865 23:0.29000032 24:0.44970524 25:0.27752498 26:0.37020051 27:0.40289629 28:0.27253267 29:0.57931077 30:0.45146877 31:0.83142704 32:0.3770743 33:0.56558615 34:0.44587332 35:0.51485932 36:0.54907918 37:0.54258263 38:0.43033862 39:0.56470692 40:0.7473979 41:0.49684936 42:0.4725568 43:0.2737816 44:0.35425836 45:0.5587365 46:0.54664171 47:0.59329081 48:0.51665324 49:0.42840183 50:0.43651253 51:0.40036833 52:0.60773051 53:0.45646757 54:0.057081968 55:0.40331769 56:0.70552248 57:0.18223822 58:0.88997757 59:0.43199098 
-0.709219831673212 1.667515019983153 1.627466853422356 0.7337904954430464 0.8014013226307791 0.4726989053275392 0 0.03400706734393938 0 1.740448719442898 1:0.31531408 2:0.95836973 3:0.35580754 4:0.25531441 5:0.59819609 6:0.47142833 7:0.69644392 8:0.095680438 9:0.48865989 10:0.44891438 11:0.56520647 12:0.67976898 13:1 14:0.33575496 15:0.68416792 16:0.26468056 17:0.62102836 18:0.35168305 19:0.58723563 20:0.49128631 21:0.294613 22:0.13994926 23:0.71783376 24:0.33785537 25:0.29667321 26:0.65185267 27:0.55759364 28:0.49995303 29:0.70948327 30:0.7419979 31:0.50315779 32:0.33539158 33:0.4627592 34:0.09231995 35:0.65544719 36:0.64849651 37:0.30857024 38:0.24944679 39:0.27466753 40:0.46188623 41:1 42:0.19027872 43:0.39971858 44:0.14581783 45:1 46:0.65083081 47:0.49511045 48:0.5547266 49:0.50236094 50:0.51030844 51:0.55016285 52:0.2235813 53:0.68542987 54:0.32055202 55:0.42178908 56:0.50557876 57:0.15772286 58:0.73866147 59:0.33303928 
-0 0 1.338632197054064 0 0 0 0 0 0 0 1:0.30919281 2:0.66667044 3:0.60626304 4:0.52829099 5:0.38806957 6:0.52242148 7:0.55752158 8:0.48557016 9:0.4812102 10:0.77953994 11:0.64472693 12:0.30569014 13:0.42212126 14:0.37619907 15:0.59673846 16:0.49239716 17:0.5796774 18:0.60039747 19:0.57524812 20:0.46360251 21:0.34170634 22:0.49607262 23:0.48597398 24:0.47936139 25:0.45908266 26:0.52180308 27:0.62875724 28:0.4705947 29:0.286403 30:0.69680542 31:0.23684542 32:0.36106536 33:0.78750008 34:0.56048638 35:0.22620203 36:0.66785526 37:0.65421087 38:0.80464691 39:0.67494285 40:0.76536417 41:0.33720899 42:0.54907852 43:0.39483225 44:0.43068895 45:0.52827579 46:0.5006417 47:0.34251586 48:0.37009788 49:0.5071103 50:0.33056235 51:0.22463641 52:0.73577797 53:0.57386243 54:0.18287396 55:0.3372727 56:0.41798756 57:0.02492656 58:0.84513181 59:0.44256926 
-0 0 0 0 0 0 0 0.968587111964771 0 0 1:0.3467859 2:0.52578753 3:0.50086093 4:0.4956958 5:0.39380103 6:0.38045788 7:0.48432702 8:0.486332 9:0.2951394 10:0.42028224 11:0.44019079 12:0.34728017 13:0.61188424 14:0.58185929 15:0.54826397 16:0.26620573 17:0.54990798 18:0.42859155 19:0.57673091 20:0.4106161 21:0.52364445 22:0.35057309 23:0.53481841 24:0.57197058 25:0.38254163 26:0.67220044 27:0.42362615 28:0.31450066 29:0.57929045 30:0.62926096 31:0.34911707 32:0.27433401 33:0.62612104 34:0.63213152 35:0.44798869 36:0.41104305 37:0.53036815 38:0.59676886 39:0.57413691 40:0.74108672 41:0.52338755 42:0.41662923 43:0.37449577 44:0.40016133 45:0.60454106 46:0.46886578 47:0.26922816 48:0.51533145 49:0.4079718 50:0.53798902 51:0.43685615 52:0.63180119 53:0.44689572 54:0.044893045 55:0.39619732 56:0.61089772 57:0.16885708 58:0.92675328 59:0.41787788 
-0.5019107080017673 0 0 0 0 0 0 0 0 0 1:0.41448411 2:0.6214956 3:0.622751 4:0.46613845 5:0.39293131 6:0.53772724 7:0.53239799 8:0.51230729 9:0.29282281 10:0.59462374 11:0.51096505 12:0.26250347 13:0.5870074 14:0.64260691 15:0.60943204 16:0.34724331 17:0.52195489 18:0.45039442 19:0.45785946 20:0.43511769 21:0.5757097 22:0.36783662 23:0.67361355 24:0.62430495 25:0.41749665 26:0.66496664 27:0.30839473 28:0.42761612 29:0.51224488 30:0.71319073 31:0.35562953 32:0.2419868 33:0.69354147 34:0.64533275 35:0.32200146 36:0.53959399 37:0.53503466 38:0.65240699 39:0.66003817 40:0.74753469 41:0.38874784 42:0.35853541 43:0.31360206 44:0.3132191 45:0.44565451 46:0.40968207 47:0.36096504 48:0.44860294 49:0.39566353 50:0.3823002 51:0.30537599 52:0.69614428 53:0.47007081 54:0.15660909 55:0.36141822 56:0.50602239 57:0.098055854 58:0.96269375 59:0.42056194 
-0 0 0 0 0 0 1.007057053405575 0 0 0.0715059435459573 1:0.24569719 2:0.60274249 3:0.5671221 4:0.40077084 5:0.55011004 6:0.51734596 7:0.6755597 8:0.36526397 9:0.73196566 10:0.52939701 11:0.45690885 12:0.61946189 13:0.48498356 14:0.62570751 15:0.28564242 16:0.30277205 17:0.19056304 18:0.52890438 19:0.31250584 20:0.13348569 21:0.35819054 22:0.21801572 23:0.67430586 24:0.80989295 25:0.29388362 26:0.36762252 27:0.57094699 28:0.46158513 29:0.40426174 30:0.87953782 31:0.43922186 32:0.46859729 33:0.37649694 34:0.3618826 35:0.58870459 36:0.69653666 37:0.33192503 38:0.43284523 39:0.40994546 40:0.60559428 41:0.76522279 42:0.42648032 43:0.41428438 44:0.32177883 45:0.68525553 46:0.56991959 47:0.52866614 48:0.23873447 49:0.18350121 50:0.46040601 51:0.39873812 52:0.58444655 53:0.48067793 54:0.30269811 55:0.47277799 56:0.49582192 57:0.18119299 58:0.88995975 59:0.40048987 
-0 0.6006096174662887 1.49566880178748 0 0.8902140769641451 0 0 0.7823634280665427 1.081053901436314 0 1:0.42105424 2:0.54938084 3:0.29282215 4:0.60651457 5:0.54652536 6:0.53227204 7:0.34555086 8:0.63262051 9:0.37332484 10:0.41356206 11:0.57544363 12:0.46930858 13:0.65292376 14:0.36295772 15:0.51813477 16:0.48857614 17:0.54142004 18:0.36999309 19:0.59141207 20:0.62922609 21:0.509525 22:0.51166707 23:0.36885542 24:0.57819062 25:0.37692276 26:0.46501392 27:0.37680602 28:0.47642133 29:0.61356276 30:0.52002037 31:0.64625263 32:0.33498424 33:0.6093359 34:0.5335471 35:0.25264263 36:0.34210476 37:0.5661093 38:0.5142737 39:0.56671488 40:0.56469619 41:0.53645337 42:0.43775788 43:0.4262546 44:0.34140271 45:0.60845053 46:0.50903481 47:0.44773388 48:0.58393788 49:0.4690775 50:0.46177936 51:0.55199665 52:0.67800373 53:0.46379668 54:0.049959708 55:0.40209609 56:0.5719322 57:0.11543508 58:0.89689267 59:0.34171426 
-0 1.763152854913 0 0 0 0 0 0 1.004196869528262 0 1:0.22876428 2:0.56723922 3:0.47754383 4:0.4771778 5:0.48620465 6:0.59255487 7:0.72761983 8:0.71465456 9:0.61229467 10:0.56982476 11:0.41293013 12:0.35146317 13:0.45037922 14:0.27440605 15:0.54380161 16:0.79632223 17:0.50154668 18:0.45819327 19:0.58242089 20:0.51134932 21:0.66898346 22:0.50304866 23:0.47889695 24:0.6038956 25:0.30012798 26:0.33868399 27:0.32728815 28:0.58804131 29:0.53349537 30:0.69205397 31:0.68142855 32:0.33239362 33:0.50394893 34:0.54188508 35:0.33232376 36:0.58286941 37:0.64153594 38:0.54794812 39:0.47652134 40:0.7567476 41:0.3487719 42:0.60605943 43:0.43897098 44:0.29657787 45:0.62243837 46:0.5009886 47:0.40071663 48:0.49568075 49:0.46500099 50:0.48709098 51:0.43458176 52:0.75574261 53:0.43169931 54:0.10377691 55:0.30369198 56:0.49957427 57:0.10505347 58:0.898148 59:0.43162307 
-0 0 0 0 0 0.1209419946807953 0 0 0 0.1116845625960536 1:0.46591276 2:0.55642742 3:0.37979519 4:0.45784521 5:0.39908931 6:0.48511776 7:0.59315002 8:0.52630419 9:0.58919823 10:0.37849617 11:0.5872125 12:0.32437918 13:0.43502185 14:0.47577971 15:0.4822312 16:0.77254546 17:0.49815223 18:0.49274236 19:0.88292414 20:0.53572363 21:0.58831048 22:0.54473299 23:0.42801917 24:0.40988934 25:0.38189885 26:0.49295881 27:0.31516144 28:0.45313314 29:0.62365568 30:0.48821551 31:0.50805545 32:0.28941303 33:0.61233211 34:0.47300857 35:0.36765119 36:0.49013984 37:0.60474014 38:0.4170934 39:0.41852641 40:0.64034772 41:0.44841197 42:0.4652198 43:0.51677257 44:0.31098366 45:0.81061006 46:0.46793509 47:0.32737097 48:0.64803332 49:0.53317267 50:0.40716594 51:0.2586939 52:0.64084762 53:0.62463152 54:0.11639596 55:0.2898322 56:0.43902975 57:0.051091928 58:0.83270657 59:0.42823327 
-0.7694635548869199 -0 1.723618435495685 1.197314338638098 0 0.08404866473469776 0 0.3814340449049334 0 0 1:0.40220481 2:0.58369255 3:0.29978645 4:0.56672752 5:0.53683937 6:0.42594334 7:0.51899844 8:0.57167518 9:0.64714265 10:0.42138991 11:0.56809419 12:0.60385048 13:0.61876452 14:0.75846773 15:0.60599554 16:0.32542023 17:0.60699338 18:0.62839329 19:0.43301347 20:0.45213318 21:0.68385828 22:0.61994487 23:0.40757939 24:0.48256537 25:0.301072 26:0.4157728 27:0.70756018 28:0.52309382 29:0.4837608 30:0.53520346 31:0.51472741 32:0.298724 33:0.61678505 34:0.51865751 35:0.60303861 36:0.52770704 37:0.55626386 38:0.53456753 39:0.49891007 40:0.63116115 41:0.19916601 42:0.5188567 43:0.30308408 44:0.33547613 45:0.47824368 46:0.045521408 47:0.52467966 48:0.43194366 49:0.088085428 50:0.7578758 51:0.73882854 52:0.95564431 53:0.41538841 54:0.4690519 55:0.72833192 56:0.13971467 57:0.43976215 58:0.82206613 59:0.58528334 
-0 -0 2.628929556038817 0 0.6499521687992751 0 0 0 1.305976674885087 0.2068215964714468 1:0.34744498 2:0.77011484 3:0.64034647 4:0.57046831 5:0.36106178 6:0.4556331 7:0.57879061 8:0.33666113 9:0.21774396 10:0.65258992 11:0.47618937 12:0.33567661 13:0.57179457 14:0.47009641 15:0.67124355 16:0.60535663 17:0.7711693 18:0.52110201 19:0.41006058 20:0.48197901 21:0.44919899 22:0.64799666 23:0.265926 24:0.6173889 25:0.26753023 26:0.49709123 27:0.3792423 28:0.31017181 29:0.73734891 30:0.50301158 31:0.55506933 32:0.19376954 33:0.67722607 34:0.55190164 35:0.54708123 36:0.45122939 37:0.7368167 38:0.54655951 39:0.32533112 40:0.59738153 41:0.51747817 42:0.26873714 43:0.28152072 44:0.15372881 45:0.42098674 46:0.78934926 47:0.15705612 48:0.42154133 49:0.63622981 50:0.41000462 51:0.73527002 52:0.41906545 53:0.3471629 54:0.59871721 55:0.48514894 56:0.14775632 57:0.44988966 58:0.7794891 59:0.35302147 
-0 -0.002315126916148057 0 0 0 0 0 0 0 0 1:0.60611022 2:0.36729026 3:0.26598242 4:0.5563283 5:0.55299491 6:0.54157495 7:0.69906908 8:0.57343912 9:0.25491771 10:0.49105698 11:0.48306039 12:0.5644992 13:0.58208764 14:0.23119588 15:0.33245525 16:0.80216664 17:0.48583165 18:0.43621302 19:0.62300819 20:0.29715705 21:0.38724551 22:0.70396119 23:0.60956067 24:0.49612239 25:0.32324699 26:0.45462751 27:0.60523725 28:0.67354035 29:0.68942857 30:0.63207638 31:0.49439126 32:0.40784225 33:0.58719003 34:0.47349906 35:0.63640398 36:0.49106282 37:0.46490869 38:0.46756542 39:0.66358435 40:0.63774425 41:0.51496202 42:0.35696784 43:0.58500659 44:0.2501277 45:0.59990954 46:0.073778316 47:0.56325221 48:0.66345316 49:0.17790207 50:0.69409907 51:0.83942223 52:0.92676032 53:0.49731541 54:0.49762225 55:0.67675745 56:0.17295732 57:0.42433205 58:0.71692002 59:0.61722732 
-0 -1.312381482815235 0 0 2.524503227820011 0 0 0 0 0 1:0.60611022 2:0.36729026 3:0.26598242 4:0.5563283 5:0.55299491 6:0.54157495 7:0.69906908 8:0.57343912 9:0.25491771 10:0.49105698 11:0.48306039 12:0.5644992 13:0.58208764 14:0.23119588 15:0.33245525 16:0.80216664 17:0.48583165 18:0.43621302 19:0.62300819 20:0.29715705 21:0.38724551 22:0.70396119 23:0.60956067 24:0.49612239 25:0.32324699 26:0.45462751 27:0.60523725 28:0.67354035 29:0.68942857 30:0.63207638 31:0.49439126 32:0.40784225 33:0.58719003 34:0.47349906 35:0.63640398 36:0.49106282 37:0.46490869 38:0.46756542 39:0.66358435 40:0.63774425 41:0.51496202 42:0.35696784 43:0.58500659 44:0.2501277 45:0.59990954 46:0.073778316 47:0.56325221 48:0.66345316 49:0.17790207 50:0.69409907 51:0.83942223 52:0.92676032 53:0.49731541 54:0.49762225 55:0.67675745 56:0.17295732 57:0.42433205 58:0.71692002 59:0.61722732 
-0 -0 0.505157365372964 0 0 0 0 0 0 0 1:0.45753348 2:0.58927077 3:0.56155419 4:0.48512375 5:0.64025009 6:0.38695493 7:0.47436693 8:0.53518289 9:0.49292713 10:0.64180082 11:0.6341213 12:0.60120368 13:0.60177469 14:0.25052699 15:0.30195266 16:0.42892066 17:0.39944181 18:0.36788371 19:0.76320803 20:0.32389364 21:0.30587846 22:0.33365148 23:0.55797172 24:0.62435514 25:0.40784609 26:0.45178059 27:0.59038723 28:0.43978852 29:0.50766671 30:0.65319514 31:0.73308307 32:0.266341 33:0.61215568 34:0.44444516 35:0.41543815 36:0.40389097 37:0.61201632 38:0.31901115 39:0.56272846 40:0.71561491 41:0.45211598 42:0.119829 43:0.30921713 44:0.16102703 45:0.45984742 46:0.5670706 47:0.54530436 48:0.39968619 49:0.45865199 50:0.2939724 51:0.8240031 52:0.67856807 53:0.46578857 54:0.60103649 55:0.53021079 56:0.030586289 57:0.46992067 58:0.91702235 59:0.51550019 
-3.135824683493422 -0 3.991336401352451 0 1.601683300876356 3.108590654566647 0 2.108031293775391 0 2.478399328008549 1:0.57813823 2:0.56797308 3:0.29321736 4:0.56358963 5:0.40015268 6:0.60728985 7:0.22783422 8:0.26630127 9:0.61435813 10:0.46161136 11:0.29543516 12:0.36956275 13:0.77596408 14:0.72607154 15:0.84717077 16:0.67775285 17:0.53102696 18:0.56965667 19:0.63185263 20:0.51522255 21:0.5851171 22:0.51189792 23:0.53186578 24:0.46006811 25:0.29431441 26:0.40630409 27:0.70457029 28:0.69553107 29:0.66421014 30:0.50960487 31:0.44756553 32:0.30112368 33:0.40579507 34:0.73534936 35:0.6134848 36:0.44601527 37:0.68669355 38:0.42935112 39:0.44693798 40:0.6477102 41:0.55522996 42:0.30024707 43:0.22948441 44:0.22887513 45:0.34272927 46:0.78690833 47:0.14279892 48:0.51894546 49:0.56715727 50:0.44668323 51:0.71704954 52:0.3709543 53:0.37304616 54:0.62770003 55:0.47208175 56:0.22400717 57:0.42656845 58:0.88968354 59:0.35774907 
-0 -0 0 1.498195175655693 0 0 0 0.346558276720181 0 0 1:0.53344142 2:0.45373851 3:0.53329837 4:0.33621019 5:0.36285406 6:0.54161257 7:0.52203822 8:0.20192198 9:0.47759277 10:0.51332432 11:0.31788892 12:0.48232684 13:0.6180746 14:0.53725541 15:0.82599634 16:0.7384764 17:0.66819119 18:0.43237248 19:0.69901741 20:0.665209 21:0.55975652 22:0.40970942 23:0.5159837 24:0.64525777 25:0.27999207 26:0.50885648 27:0.60336018 28:0.61197132 29:0.60644132 30:0.66002238 31:0.53668129 32:0.29605016 33:0.43765861 34:0.68644947 35:0.5119586 36:0.51145345 37:0.63827443 38:0.40624431 39:0.45602259 40:0.74480015 41:0.49827257 42:0.21274729 43:0.16203196 44:0.15492781 45:0.44732058 46:0.86036116 47:0.1861677 48:0.54683852 49:0.61111617 50:0.48549435 51:0.76959062 52:0.39462763 53:0.33000466 54:0.64133847 55:0.4561896 56:0.22538434 57:0.42401016 58:0.82367402 59:0.42427674 
-0 -1.982714582194206e-07 0 0 0 0 0 0 0 0 1:0.31249651 2:0.63217521 3:0.35440439 4:0.673388 5:0.49726924 6:0.24268793 7:0.58284324 8:0.60950357 9:0.58479232 10:0.56674188 11:0.4845829 12:0.58590204 13:0.65865785 14:0.66603798 15:0.14782524 16:0.50208771 17:0.25874159 18:0.51368552 19:0.47620434 20:0.31575954 21:0.31074786 22:0.49958077 23:0.45221719 24:0.66556168 25:0.31768233 26:0.51820773 27:0.4952023 28:0.53457361 29:0.60772371 30:0.67091388 31:0.67193085 32:0.37392563 33:0.5442338 34:0.48744121 35:0.65811938 36:0.41111159 37:0.67950553 38:0.4058181 39:0.61239594 40:0.81814802 41:0.42203829 42:0.17707393 43:0.34087917 44:0.076544732 45:0.34656703 46:0.5487259 47:0.54665899 48:0.38925612 49:0.47257361 50:0.28120834 51:0.89841986 52:0.74191684 53:0.48058373 54:0.57222462 55:0.52294475 56:0.05920437 57:0.48309523 58:0.93815714 59:0.52039587 
-0 -1.472814011218174 0 0 0 0 0 0 0 0 1:0.31249651 2:0.63217521 3:0.35440439 4:0.673388 5:0.49726924 6:0.24268793 7:0.58284324 8:0.60950357 9:0.58479232 10:0.56674188 11:0.4845829 12:0.58590204 13:0.65865785 14:0.66603798 15:0.14782524 16:0.50208771 17:0.25874159 18:0.51368552 19:0.47620434 20:0.31575954 21:0.31074786 22:0.49958077 23:0.45221719 24:0.66556168 25:0.31768233 26:0.51820773 27:0.4952023 28:0.53457361 29:0.60772371 30:0.67091388 31:0.67193085 32:0.37392563 33:0.5442338 34:0.48744121 35:0.65811938 36:0.41111159 37:0.67950553 38:0.4058181 39:0.61239594 40:0.81814802 41:0.42203829 42:0.17707393 43:0.34087917 44:0.076544732 45:0.34656703 46:0.5487259 47:0.54665899 48:0.38925612 49:0.47257361 50:0.28120834 51:0.89841986 52:0.74191684 53:0.48058373 54:0.57222462 55:0.52294475 56:0.05920437 57:0.48309523 58:0.93815714 59:0.52039587 
-0 -0 0 0 1.433794800441534 0 0 0 1.283717054073771 0 1:0.61422741 2:0.524243 3:0.67501491 4:0.35419807 5:0.55531138 6:0.52052128 7:0.46401873 8:0.55953437 9:0.57528269 10:0.62153679 11:0.72979516 12:0.51894838 13:0.70039469 14:0.26819268 15:0.46718228 16:0.32320458 17:0.3960388 18:0.49337849 19:0.73677099 20:0.49210095 21:0.4899343 22:0.28987789 23:0.49055952 24:0.53748965 25:0.43095809 26:0.42143828 27:0.49707797 28:0.34064358 29:0.41468003 30:0.79152274 31:0.5816775 32:0.26736036 33:0.49083352 34:0.58863562 35:0.24798536 36:0.62895662 37:0.71004134 38:0.33684212 39:0.45086899 40:0.73879176 41:0.51759493 42:0.19699685 43:0.19581772 44:0.18965176 45:0.47454801 46:0.72534913 47:0.48461065 48:0.43430725 49:0.47770843 50:0.3411763 51:0.67915601 52:0.54536003 53:0.37656415 54:0.58411849 55:0.48025483 56:0.169696 57:0.48770192 58:0.90629041 59:0.4549565 
-0 -0 0 0 0 0 2.60372260454207 0 0.3880252274255974 0 1:0.78741795 2:0.54864144 3:0.83182096 4:0.34834722 5:0.55438876 6:0.48545444 7:0.45982623 8:0.60399568 9:0.67449486 10:0.57196909 11:0.62034386 12:0.57182735 13:0.63957888 14:0.16584942 15:0.41348678 16:0.40664095 17:0.34119639 18:0.4402487 19:0.73627758 20:0.55899 21:0.39043471 22:0.37087008 23:0.44606456 24:0.49767655 25:0.37923998 26:0.42952701 27:0.63385469 28:0.45901176 29:0.52736038 30:0.66814214 31:0.52603632 32:0.3177827 33:0.47375572 34:0.49077439 35:0.29202667 36:0.7300896 37:0.64516014 38:0.25836846 39:0.48036668 40:0.76043499 41:0.60070384 42:0.25717959 43:0.20221047 44:0.2344403 45:0.46642852 46:0.82924694 47:0.49156997 48:0.50436777 49:0.56088781 50:0.37901935 51:0.72664154 52:0.50107521 53:0.37825191 54:0.59309274 55:0.47566074 56:0.25209072 57:0.47368553 58:0.93465817 59:0.48163521 
-0 -0 0 2.045051909877273 0 0 0 0 0 0 1:0.54307336 2:0.50126249 3:0.34363806 4:0.46702522 5:0.4530479 6:0.57981718 7:0.25194818 8:0.51626056 9:0.79307622 10:0.43868452 11:0.6328795 12:0.38011956 13:0.55887735 14:0.57342303 15:0.74027032 16:0.36130127 17:0.50360972 18:0.45795521 19:0.588925 20:0.48718339 21:0.67018324 22:0.5781849 23:0.66780287 24:0.42694271 25:0.46231586 26:0.35322043 27:0.58091652 28:0.57183987 29:0.56419885 30:0.60521191 31:0.57130581 32:0.26501146 33:0.47011378 34:0.67826784 35:0.45461014 36:0.59513187 37:0.69111371 38:0.33121344 39:0.57795703 40:0.65918809 41:0.61337948 42:0.2877495 43:0.21877003 44:0.19961451 45:0.35483664 46:0.85039693 47:0.40597004 48:0.48477891 49:0.49289355 50:0.37113494 51:0.74799627 52:0.49860159 53:0.30479464 54:0.54087383 55:0.51056653 56:0.17840594 57:0.52492988 58:0.91001588 59:0.45855808 
-0 -0 0 0 0.7398320769871999 0 0 0 0 0 1:0.40154463 2:0.57247144 3:0.55836755 4:0.31319973 5:0.56803918 6:0.28032258 7:0.72074986 8:0.53271753 9:0.45495099 10:0.39447704 11:0.39753017 12:0.44743165 13:0.42076954 14:0.35955101 15:0.65806168 16:0.66130376 17:0.49779898 18:0.33030772 19:0.76076698 20:0.48087001 21:0.46173504 22:0.4733867 23:0.52381599 24:0.48190731 25:0.45570898 26:0.49082747 27:0.68637913 28:0.70811719 29:0.54609406 30:0.60495049 31:0.8240819 32:0.2517108 33:0.50905693 34:0.39887393 35:0.38537827 36:0.47698525 37:0.76858401 38:0.38627094 39:0.64788753 40:0.62631881 41:0.46890455 42:0.1643437 43:0.24566852 44:0.079489529 45:0.60168296 46:0.78755456 47:0.50646061 48:0.4511573 49:0.48432094 50:0.21444942 51:0.72442865 52:0.67473531 53:0.42085806 54:0.64781195 55:0.51211882 56:0.043242995 57:0.53189057 58:0.82035851 59:0.53857261 
-0 -0.03166733096355252 0 0.7119864949325985 1.083349995978063 0 0 0 0 0 1:0.72233677 2:0.63244873 3:0.43012768 4:0.68476397 5:0.45644957 6:0.46331644 7:0.47295457 8:0.49914283 9:0.56049597 10:0.6395238 11:0.60837126 12:0.43894109 13:0.65882784 14:0.46233383 15:0.42336282 16:0.71526706 17:0.30328444 18:0.64937133 19:0.5598259 20:0.56159967 21:0.36015016 22:0.44427794 23:0.51129758 24:0.46632236 25:0.41455758 26:0.52574307 27:0.26041815 28:0.53087914 29:0.50575 30:0.57447213 31:0.41558406 32:0.21180768 33:0.51868904 34:0.50366175 35:0.4652231 36:0.64087474 37:0.56555969 38:0.59338319 39:0.57516575 40:0.50272524 41:0.12807651 42:0.5586434 43:0.25099304 44:0.33705622 45:0.78471464 46:0.36758715 47:0.40929145 48:0.56903046 49:0.023251763 50:0.73561043 51:0.40174013 52:0.78684169 53:0.38752154 54:0.67556769 55:0.58971566 56:0.16803589 57:0.36231655 58:0.68853927 59:0.51581049 
-0 -0.8490250291518234 3.309424731501047 0 0 0 0 0 0 0 1:0.60283065 2:0.43319732 3:0.37566254 4:0.43371266 5:0.61252528 6:0.39725694 7:0.56195122 8:0.56330794 9:0.69422597 10:0.68318635 11:0.53685343 12:0.48914111 13:0.63167101 14:0.43615282 15:0.42118931 16:0.63945049 17:0.41247413 18:0.58226216 19:0.66031134 20:0.38931915 21:0.40562034 22:0.49073949 23:0.48529232 24:0.44916931 25:0.43006489 26:0.42710072 27:0.45710209 28:0.42569855 29:0.61792344 30:0.51164609 31:0.28731707 32:0.23844776 33:0.53682756 34:0.60437447 35:0.45554769 36:0.75990725 37:0.5828138 38:0.41471055 39:0.67833143 40:0.72060376 41:0.48205203 42:0.48560813 43:0.28907961 44:0.38059467 45:0.61024463 46:0.27138996 47:0.56877285 48:0.65068346 49:0.089767329 50:0.75563103 51:0.57417989 52:0.79883945 53:0.39013451 54:0.51214677 55:0.62755877 56:0.25146613 57:0.41884461 58:0.80950993 59:0.53278363 
-0.1973806038949214 -0 2.113801070094646 0 0 0 0 0 0 0 1:0.6538589 2:0.68671882 3:0.56436586 4:0.34974459 5:0.06627015 6:0.89020514 7:0.52420813 8:0.40844503 9:4.109761e-16 10:0.55595666 11:0.34240329 12:0.6865412 13:0.25478849 14:0.16596062 15:0.26888904 16:0.6305846 17:0.39458874 18:0.11271624 19:0.56995499 20:0.54739094 21:0.74210817 22:0.015642053 23:0.52506423 24:0.65861756 25:0.57140023 26:0.31227744 27:0.084908165 28:0.56536722 29:0.7471959 30:0.42066824 31:0.6372174 32:0.11049294 33:0.70248306 34:0.31333363 35:0.52149594 36:0.7388131 37:0.55805743 38:0.56640822 39:0.81690663 40:0.97626662 41:0.26410249 42:0.42837641 43:0.27266222 44:0.31677267 45:0.63843626 46:0.54866272 47:0.18675846 48:0.50136292 49:0.43996641 50:0.70664322 51:0.36078852 52:0.5238176 53:0.33360869 54:0.58716446 55:0.41730547 56:0.23473606 57:0.42014587 58:0.70462567 59:0.42100677 
-4.365599609069844 -0 2.533070737215201 0 1.925888946493337 0 0 1.956400762919579 0 0 1:0.68487448 2:0.64751476 3:0.53497773 4:0.29816625 5:0.26706034 6:0.79746473 7:0.56319445 8:0.42875633 9:0.14974806 10:0.4192425 11:0.46985465 12:0.61044842 13:0.46055764 14:0.38478422 15:0.35485625 16:0.46159571 17:0.46184078 18:0.19533235 19:0.50597644 20:0.5317663 21:0.65575868 22:0.025057323 23:0.63751179 24:0.82988834 25:0.52188635 26:0.34818226 27:0.24662803 28:0.33260575 29:0.53463578 30:0.53601229 31:0.67475235 32:0.20470621 33:0.75538093 34:0.25306949 35:0.50905687 36:0.66119564 37:0.45701948 38:0.54886734 39:0.8407293 40:0.8156895 41:0.36102962 42:0.38981488 43:0.2699399 44:0.36735362 45:0.47106981 46:0.49534497 47:0.40832087 48:0.54846287 49:0.3588399 50:0.62726212 51:0.51655388 52:0.64014208 53:0.34499064 54:0.45647901 55:0.53279108 56:0.17399526 57:0.43295357 58:0.77349234 59:0.44289911 
-0 -0 0 0.3014634094475049 0 0 0 0 0.8180477606633427 0.08308492780074722 1:0.20829286 2:0.77226746 3:0.82741612 4:0.5784809 5:0.65414923 6:0.48438814 7:0.55299014 8:0.36373451 9:0.2770578 10:0.59325415 11:0.471571 12:0.29840162 13:0.19240914 14:0.54627478 15:0.48580557 16:0.47105515 17:0.24932973 18:0.35779762 19:0.34836325 20:0.67283791 21:0.41650304 22:0.52214044 23:0.66686761 24:0.56562823 25:0.5317629 26:0.3511602 27:0.57151008 28:0.65779591 29:0.56162435 30:0.44533196 31:0.88875848 32:0.34469151 33:0.54855031 34:0.27855447 35:0.70504695 36:0.25180885 37:0.48256546 38:0.56514406 39:0.79591084 40:0.66700971 41:0.70295471 42:0.62208343 43:0.70645589 44:0.20385638 45:0.63218021 46:0.51379615 47:0.44824955 48:0.36558625 49:0.39978993 50:0.30152914 51:0.5994525 52:0.81166887 53:0.4912222 54:0.59213132 55:0.57430226 56:0.044582076 57:0.55567694 58:0.89923042 59:0.60539103 
-0 -0 0 0 0.1820006289380396 0 0 0.6434875393796856 0.4754195038073977 0 1:0.35916719 2:0.60871798 3:0.59675968 4:0.41722777 5:0.43134233 6:0.36781171 7:0.44822693 8:0.43758938 9:0.58799028 10:0.63733524 11:0.39862087 12:0.56123477 13:0.40329307 14:0.30651888 15:0.66783607 16:0.24844083 17:0.46440262 18:0.3958773 19:0.59318721 20:0.58958972 21:0.56168067 22:0.53098375 23:0.32438153 24:0.29005715 25:0.33569926 26:0.55622125 27:0.4353835 28:0.41439852 29:0.57673091 30:0.64669108 31:0.39329472 32:0.23559774 33:0.46459302 34:0.4856618 35:0.44416249 36:0.65714556 37:0.5151614 38:0.64123589 39:0.53224498 40:0.69268966 41:0.26817429 42:0.54956698 43:0.37344506 44:0.41526604 45:0.63447922 46:0.34720093 47:0.61888111 48:0.59513044 49:0.093972422 50:0.74657154 51:0.58606327 52:0.82706547 53:0.42410776 54:0.48844799 55:0.62079549 56:0.22715388 57:0.50593579 58:0.74330419 59:0.54335374 
-7.057496198865393 -3.060094594872296 2.312103130987607 2.444001147618822 0 1.289558040080884 2.919101023061296 0.1354012840893864 1.330619950851636 0 1:0.17336935 2:0.674236 3:0.48823422 4:0.40550029 5:0.40255269 6:0.39560342 7:0.4542788 8:0.37824786 9:0.60672909 10:0.6131447 11:0.35092735 12:0.359386 13:0.59055293 14:0.57264787 15:0.59589148 16:0.35731071 17:0.6125114 18:0.61475503 19:0.5093295 20:0.36638322 21:0.68235934 22:0.35663378 23:0.25513703 24:0.52832258 25:0.24950916 26:0.49409798 27:0.54532611 28:0.21146281 29:0.62272942 30:0.53635514 31:0.51560992 32:0.29609758 33:0.45914432 34:0.65986705 35:0.53218842 36:0.64425099 37:0.51540291 38:0.40956292 39:0.70291317 40:0.74546665 41:0.57302964 42:0.49591014 43:0.27922937 44:0.37556657 45:0.63577461 46:0.22541788 47:0.6379925 48:0.62839437 49:0.10952258 50:0.79511505 51:0.58700025 52:0.85038221 53:0.41611084 54:0.44703841 55:0.67510986 56:0.24658728 57:0.4219082 58:0.74850154 59:0.53061235 
-0 -0 0.2275794471306261 1.158165120212663 0 0 0 2.002278929262694 0 0 1:0.29761159 2:0.44002876 3:0.41647622 4:0.65019435 5:0.46219215 6:0.50307733 7:0.4593468 8:0.40595737 9:0.55945611 10:0.72980672 11:0.44292819 12:0.46820831 13:0.62909335 14:0.64569771 15:0.63556111 16:0.46981841 17:0.3115539 18:0.65542459 19:0.38642007 20:0.55194461 21:0.67250794 22:0.32371488 23:0.30926937 24:0.49308431 25:0.3086102 26:0.56026089 27:0.3881222 28:0.38121569 29:0.5301249 30:0.37118283 31:0.60159427 32:0.22918457 33:0.43386602 34:0.67139071 35:0.34985879 36:0.70558256 37:0.52986723 38:0.59882545 39:0.6342895 40:0.68816471 41:0.28007513 42:0.47362691 43:0.18598016 44:0.32829282 45:0.73990893 46:0.30485311 47:0.39108095 48:0.56108469 49:0.040510193 50:0.82808244 51:0.29975709 52:0.8097598 53:0.37696001 54:0.63208151 55:0.65009183 56:0.22792366 57:0.34961459 58:0.6942637 59:0.50413722 
-0 -0 0 0 0 0 0 0 0 0.4798898279408901 1:0.37448174 2:0.59601253 3:0.54919183 4:0.62285763 5:0.44679153 6:0.42371678 7:0.40946013 8:0.3307609 9:0.51201349 10:0.59819072 11:0.61494166 12:0.6237396 13:0.76332271 14:0.62334287 15:0.52367902 16:0.57107621 17:0.50766283 18:0.60075891 19:0.46392536 20:0.63048929 21:0.50527889 22:0.56987458 23:0.5137381 24:0.61504203 25:0.50405174 26:0.48863676 27:0.19927721 28:0.3619628 29:0.62039942 30:0.36829779 31:0.4851149 32:0.27155375 33:0.56633896 34:0.56852472 35:0.56211108 36:0.66559666 37:0.54260707 38:0.56503814 39:0.33885479 40:0.4922778 41:0.21430027 42:0.53282803 43:0.20446543 44:0.26764813 45:0.74779207 46:0.50342125 47:0.35683903 48:0.57003915 49:0.0026015372 50:0.92990029 51:0.51801378 52:0.73186016 53:0.35214862 54:0.57474244 55:0.59937119 56:0.26740339 57:0.42760491 58:0.80475789 59:0.49584115 
-0 -0.8985754342537368 1.592270816946194 0.005065118239277277 0 0.1113456304011239 0 0 0 0.889691272631044 1:0.30127344 2:0.54453701 3:0.51795846 4:0.60370106 5:0.50769973 6:0.43058181 7:0.55964059 8:0.80052787 9:0.638026 10:0.4503693 11:0.66125405 12:0.49108759 13:0.53500634 14:0.54348022 15:0.74379379 16:0.31212732 17:0.63728362 18:0.46106008 19:0.31848511 20:0.45833343 21:0.68004811 22:0.73687947 23:0.44527858 24:0.33199814 25:0.27973229 26:0.44484046 27:0.62709177 28:0.44312674 29:0.6218974 30:0.51170951 31:0.46219173 32:0.29071468 33:0.6202206 34:0.51085192 35:0.55709493 36:0.63716942 37:0.55928791 38:0.40693668 39:0.52320462 40:0.62340534 41:0.45540756 42:0.58417708 43:0.29655102 44:0.19074745 45:0.50164866 46:0.095467798 47:0.78058374 48:0.54956144 49:0.12787488 50:0.64713544 51:0.75973195 52:0.90479726 53:0.53927398 54:0.47230208 55:0.73933172 56:0.085528918 57:0.39833903 58:0.85775506 59:0.60592639 
-0 -0.4885454529642446 0 0 0 1.47199743536374 0 1.548998848489594 1.206817151863139 0 1:0.39674073 2:0.58161163 3:0.3003749 4:0.56758291 5:0.54667777 6:0.42320499 7:0.51791388 8:0.57720923 9:0.6390608 10:0.41366079 11:0.56164026 12:0.59962273 13:0.62290263 14:0.75368941 15:0.61111158 16:0.32064432 17:0.60995579 18:0.63348651 19:0.43010372 20:0.44803575 21:0.68161148 22:0.6214112 23:0.40800878 24:0.47796908 25:0.30183181 26:0.41012582 27:0.70399708 28:0.52547657 29:0.48099241 30:0.54122216 31:0.50724798 32:0.29917046 33:0.61198539 34:0.51376957 35:0.60309619 36:0.5238874 37:0.56043053 38:0.52976698 39:0.50465024 40:0.63216186 41:0.20064178 42:0.52232647 43:0.30068216 44:0.32983094 45:0.48082808 46:0.044618227 47:0.52234632 48:0.4281944 49:0.092632659 50:0.75472695 51:0.73973417 52:0.95487523 53:0.41506395 54:0.47200203 55:0.73061496 56:0.13777874 57:0.44071203 58:0.82483065 59:0.58336866 
-0 -0 0 0.356575942993942 0 0 0 0 0 0 1:0.48870671 2:0.7575354 3:0.56913882 4:0.43322402 5:0.60062456 6:0.3161141 7:0.5274592 8:0.52045596 9:0.5968523 10:0.59679949 11:0.63610077 12:0.56043839 13:0.51988387 14:0.55050141 15:0.58697736 16:0.32406539 17:0.46362424 18:0.60469836 19:0.46223652 20:0.6317476 21:0.51069838 22:0.36074609 23:0.40517497 24:0.35929868 25:0.3955124 26:0.4190107 27:0.4269239 28:0.48776871 29:0.69350398 30:0.55162013 31:0.436344 32:0.22013596 33:0.4962737 34:0.47607446 35:0.61499166 36:0.78888154 37:0.64529419 38:0.4951131 39:0.42913425 40:0.59231001 41:0.3877306 42:0.59516543 43:0.27712587 44:0.30696788 45:0.63634253 46:0.37206608 47:0.55824536 48:0.5741688 49:0.027205767 50:0.78580642 51:0.67055047 52:0.81043786 53:0.40626809 54:0.44833684 55:0.58148861 56:0.23150566 57:0.45353925 58:0.79020953 59:0.57211 
