svm_type c_svc
kernel_type rbf
gamma 0.09
nr_class 44
total_sv 3367
rho 0.0847339 0.500785 0.228452 -0.204381 -0.00594233 0.154045 -0.147691 -0.221168 -0.0431703 -0.534605 -0.377127 -0.372662 -0.375046 -0.491099 -0.169737 -0.228632 -0.104223 -0.480575 -0.24784 -0.162952 -0.608469 -0.493657 0.0176715 0.0384422 -0.0568467 0.152408 -0.37677 -0.323498 -0.200517 -0.22103 -0.075519 -0.380835 0.0473214 -0.333307 -0.110825 0.210389 -0.370673 -0.282143 -0.309092 -0.25082 -0.0685496 0.0334057 -0.0372494 0.602905 0.47769 -0.328765 -0.049109 0.178971 -0.095932 0.123666 -0.000354207 -0.480316 -0.407917 -0.366629 -0.31702 -0.494999 -0.153118 -0.035552 -0.151652 -0.38861 -0.329055 -0.209857 -0.662476 -0.483282 0.178037 0.135302 -0.0235585 0.126393 -0.335643 -0.309835 -0.0601235 -0.272163 -0.00529847 -0.0593666 0.0288461 -0.297522 -0.19613 0.116507 -0.271932 -0.212616 -0.391981 -0.246623 -0.316508 0.0363427 -0.160645 -0.221382 -0.814915 -0.677263 -0.256547 -0.497557 -0.478267 -0.421793 -0.965588 -1.03214 -0.813771 -0.744622 -0.821052 -0.321054 -0.786405 -0.48087 -0.798801 -0.740369 -0.762108 -1.05041 -0.975127 -0.319161 -0.172954 -0.526481 -0.125856 -0.974164 -0.708163 -0.379712 -0.459504 -0.80874 -0.680215 -0.561672 -0.743521 -0.325585 -0.606662 -1.0346 -0.81653 -1.06513 -0.984272 -0.621425 -0.62163 -0.937904 -0.542361 -0.325302 -0.267792 -0.595395 -0.230683 -0.295255 -0.779696 -0.690628 -0.621248 -0.689863 -0.839863 -0.521342 -0.379163 -0.408283 -0.654853 -0.537841 -0.528422 -0.789408 -0.75054 -0.270828 -0.0844724 -0.543929 -0.068939 -0.634018 -0.548089 -0.455233 -0.485146 -0.363931 -0.561871 -0.378991 -0.669733 -0.411456 -0.202636 -0.79988 -0.636716 -0.784744 -0.575007 -0.498454 -0.703494 -0.486888 0.285521 0.434459 0.189984 0.271498 0.24306 -0.146236 -0.0627237 -0.00209934 -0.0733108 -0.0707155 0.180382 0.209493 0.129448 -0.140141 -0.125122 0.0260263 -0.184121 -0.156052 0.406821 0.318488 0.256506 0.240375 -0.0980523 0.0183459 0.0916051 -0.0265824 0.439458 0.259927 0.25525 -0.0369727 0.12333 0.568415 -0.0900022 0.196517 0.0260194 -0.00734809 -0.00237957 0.408717 0.173885 0.141521 -0.0976988 0.0908805 0.0703948 -0.446415 -0.353004 -0.332748 -0.450356 -0.505618 -0.162663 -0.147405 -0.129893 -0.515107 -0.401042 -0.315133 -0.573145 -0.567518 0.0730106 0.122146 0.0897175 0.177902 -0.257816 -0.149996 -0.102761 -0.218915 -0.0884214 -0.261378 0.00477159 -0.479994 -0.0412152 0.290125 -0.417916 -0.325405 -0.121075 -0.453133 -0.277101 0.067072 -0.0857109 -0.266389 0.00468481 -0.230026 -0.718338 -0.574083 -0.578536 -0.501517 -0.876811 -0.359755 -0.518495 -0.462619 -0.488759 -0.699225 -0.450802 -0.4972 -0.828164 -0.117923 -0.0937968 0.0635471 0.194611 -0.523381 -0.444559 -0.225559 -0.381102 0.0396001 -0.150636 -0.249956 -0.497373 -0.214823 -0.028444 -0.715335 -0.243268 -0.500356 -0.913942 -0.606793 0.0152419 -0.413345 0.596223 0.0325683 -0.488026 -0.324971 -0.248785 -0.295682 -0.363171 0.00882709 0.0204823 -0.28281 -0.332619 -0.290033 -0.157036 -0.480873 -0.23191 0.16218 0.120107 -0.0812648 0.126088 -0.288474 -0.146368 -0.0701243 -0.191574 0.0535026 -0.146016 0.0784474 -0.252032 -0.281355 0.392427 -0.187883 0.0647545 0.0109091 -0.156229 -0.173674 0.0979351 -0.00464077 -0.0672827 -0.614879 -0.346593 -0.444381 -0.473453 -0.487766 -0.309641 -0.281701 -0.359291 -0.410295 -0.391784 -0.313201 -0.582871 -0.648603 0.020201 0.0889287 -0.222893 0.00659712 -0.413084 -0.340265 -0.249252 -0.353674 0.0740227 -0.158889 -0.0603041 -0.608603 -0.337755 0.0597576 -0.434695 -0.379423 -0.373066 -0.464654 -0.499497 -0.044449 -0.1174 -0.472737 -0.341491 -0.21771 -0.395708 -0.276067 -0.165313 -0.0595447 -0.142236 -0.322108 -0.238405 -0.0653831 -0.38699 -0.365652 0.0883532 0.156882 0.0222095 0.155076 -0.172791 -0.326733 -0.13891 -0.183008 0.117405 0.00636563 -0.168544 -0.252045 0.131797 0.153393 -0.325283 -0.0928144 -0.127381 -0.17238 -0.202419 0.0146604 -0.0131174 0.0881152 0.174372 0.121966 0.0648293 0.234851 0.365337 0.315965 0.035236 0.0897204 0.204741 -0.0237871 0.00695602 0.472601 0.550112 0.511635 0.507438 0.129664 0.148844 0.247066 0.136107 0.596637 0.544141 0.530279 0.0996146 0.258596 0.734395 0.123504 0.403332 0.579336 0.336072 0.223385 0.483822 0.456233 0.228007 0.0707785 -0.0702247 0.186436 0.280971 0.138929 -0.101708 -0.0724442 0.113657 -0.231207 -0.0995111 0.512268 0.476706 0.299023 0.368972 0.00147451 0.0220323 0.312399 0.0642783 0.300979 0.310313 0.448343 0.0508726 0.160173 0.675194 -0.0364437 0.294278 0.178572 0.0641279 0.1069 0.390154 0.280865 -0.00649711 -0.131846 0.145211 0.188121 0.0583119 -0.14391 -0.0545313 0.108278 -0.160216 -0.182793 0.34495 0.428381 0.264078 0.444047 0.00564405 0.120788 0.191467 0.095315 0.351196 0.207386 0.318095 -0.056669 -0.0835542 0.61943 -0.166325 0.228008 0.205035 0.0257243 0.0990805 0.379826 0.310487 -0.173769 0.221872 0.215766 0.181545 -0.0941033 -0.0349641 0.0298782 -0.210839 -0.17642 0.284308 0.422432 0.293918 0.456488 -0.0208596 0.131367 0.141433 0.111936 0.341433 0.0855571 0.383511 -0.110341 0.0609094 0.806794 -0.212272 0.268493 0.260422 0.0380833 0.0582406 0.372352 0.250509 0.18687 0.311518 0.249347 -0.072035 -0.0057134 0.17018 -0.114426 -0.134713 0.445011 0.492784 0.414303 0.548626 0.0523825 0.119868 0.133153 0.147357 0.33293 0.162338 0.378099 -0.0154248 0.14605 0.853301 0.0727392 0.38554 0.25988 0.201577 0.160465 0.551232 0.371788 0.00326506 0.106696 -0.100056 -0.141412 -0.0150953 -0.281173 -0.283947 0.314655 0.291469 0.211481 0.316448 -0.129265 -0.0185266 0.0225197 0.0337325 0.195268 0.0363689 0.126451 -0.283795 0.203961 0.506531 -0.217363 0.0662631 -0.133253 -0.0483186 -0.05059 0.207902 -0.00241934 -0.102666 -0.220432 -0.212426 -0.0803544 -0.298566 -0.158348 0.222686 0.241789 0.0997125 0.208778 -0.143691 -0.0363049 0.00080202 -0.0779836 0.11158 0.00573969 0.221379 -0.210797 -0.0214217 0.236606 -0.370326 -0.0512497 -0.0301929 -0.00421844 -0.0172696 0.320326 0.191087 -0.15164 -0.247023 -0.0591013 -0.258714 -0.293764 0.130758 0.0674896 0.0633499 0.222486 -0.22637 -0.0464679 -0.0392524 -0.104558 0.176387 0.0964658 0.25151 -0.259453 -0.0375932 0.401847 -0.202626 0.0241699 0.043336 0.0746378 -0.113959 0.260691 0.000602715 0.116105 0.123014 -0.0442648 -0.0276031 0.377177 0.419087 0.461575 0.402231 0.129915 0.235747 0.246233 0.12626 0.437134 0.308313 0.38014 0.108054 0.154939 0.684088 0.0515547 0.412657 0.186878 0.323745 0.193528 0.412552 0.250826 0.148723 -0.058893 -0.0690577 0.372633 0.390739 0.289577 0.394416 0.00742823 0.055338 0.140399 0.0854867 0.315605 0.188956 0.31498 -0.0734471 0.141869 0.731155 -0.022509 0.219106 0.21907 0.122392 0.160845 0.530191 0.265384 -0.298657 -0.303473 0.29851 0.234944 0.291608 0.328576 -0.114035 -0.0822505 0.0336573 -0.0360982 0.340509 0.184218 0.261994 -0.0983489 -0.0464408 0.494096 -0.244808 0.180647 0.0407719 0.0218644 0.0494624 0.216124 0.291193 0.0360663 0.534371 0.505741 0.508075 0.486049 0.287342 0.20343 0.229455 0.15618 0.435723 0.398217 0.560242 0.118652 0.258396 0.744846 0.0379269 0.386333 0.41647 0.367494 0.247233 0.608585 0.325407 0.407662 0.406972 0.47191 0.500643 0.105633 0.217849 0.230141 0.186653 0.396415 0.383981 0.425129 0.106061 0.243692 0.836095 0.0494434 0.372389 0.337744 0.328088 0.248185 0.714935 0.458043 0.188996 -0.0381535 0.0593656 -0.32073 -0.30811 -0.300635 -0.267745 -0.0897786 -0.0143028 -0.147794 -0.351554 -0.0903168 0.105704 -0.350567 -0.283184 -0.259697 -0.446583 -0.272315 -0.0784283 -0.209643 -0.0848029 0.0157093 -0.427335 -0.368366 -0.237418 -0.305355 0.0616935 -0.0739037 -0.099879 -0.386761 -0.216236 0.0111878 -0.362343 -0.294084 -0.337232 -0.386902 -0.30712 -0.100935 -0.218139 0.522061 -0.296751 -0.253559 -0.24217 -0.323239 0.00663559 -0.129553 -0.0522859 -0.15622 -0.0183179 0.31611 -0.406579 -0.0476158 -0.172123 -0.191688 -0.261517 -0.0350647 -0.134349 -0.314686 -0.393328 -0.233739 -0.347597 -0.0581824 -0.132602 -0.172412 -0.365522 -0.210207 0.0519391 -0.430026 -0.174824 -0.432203 -0.307477 -0.280835 -0.177632 -0.160669 -0.0358476 0.101161 0.141684 0.186894 0.264037 0.375934 -0.0422595 0.128994 0.571404 -0.0326102 0.270243 0.381591 0.0193043 0.165082 0.323277 0.304746 0.089884 0.089591 0.410402 0.0807261 0.382138 -0.0342183 0.177311 0.675268 -0.176704 0.398968 0.23143 0.184394 0.0254612 0.37849 0.209253 -0.0652687 0.189452 0.0235179 0.218539 -0.145325 0.0311219 0.441714 -0.268095 0.172604 -0.0511807 -0.116597 -0.133965 0.122034 0.0961217 0.164326 0.110827 0.216745 -0.0639719 0.098804 0.437225 -0.0900952 0.0687414 0.0929792 -0.00572997 -0.0124969 0.243944 0.147583 -0.172546 -0.0973204 -0.24018 -0.15232 0.0483118 -0.402662 -0.267769 -0.374648 -0.221191 -0.445993 0.179316 -0.173237 0.209611 -0.396159 -0.178598 0.428753 -0.202361 -0.152984 -0.125653 -0.0644267 -0.110783 0.165283 0.373309 -0.439867 -0.0530184 0.202367 -0.38854 -0.228971 -0.242776 -0.263406 -0.484743 0.0694823 -0.243301 0.0347755 0.543368 0.0134335 0.20036 0.24161 0.233867 0.0637505 0.460511 0.295453 0.370807 -0.239529 0.154923 -0.0174115 -0.0297252 -0.0390191 0.187736 0.0475479 -0.678147 -0.510907 -0.636354 -0.703495 -0.429195 -0.15628 -0.412007 0.25879 0.262656 0.238953 0.164913 0.439012 0.417094 -0.0899213 -0.197204 -0.119926 0.245356 0.400037 -0.100415 0.0109898 0.546536 0.159024 -0.0801965 0.379838 0.206667 0.251632 0.184998 0.0979098
label 2001 2001657 2004 2004657 2005 20101 20102 2010657 2010658 2011 2011657 20121 20122 2012657 2012658 2021 2021657 20221 20222 20223 2022657 2022658 2022659 20231 20232 2023657 2023658 2024 2024657 2025 2025657 2031 2031657 20411 20412 20413 2041657 2041658 2051 2051657 2060 2060657 2061 2061657
probA -4.7964 -5.35437 -4.82021 -4.83651 -4.45181 -4.41541 -4.48627 -4.44629 -4.49578 -4.89947 -4.56497 -4.41724 -4.56972 -4.40451 -4.6733 -4.51925 -4.37502 -4.37524 -4.60182 -4.19964 -4.48275 -4.55152 -4.71849 -4.80475 -4.73182 -4.82483 -4.64945 -4.56435 -4.65448 -4.58717 -4.95213 -4.91317 -4.93998 -4.5665 -4.39415 -4.87338 -4.52983 -5.0166 -5.03161 -4.72088 -4.26116 -4.63018 -4.65644 -5.21577 -4.83393 -4.82193 -4.53848 -4.47524 -4.54465 -4.49979 -4.58954 -4.83057 -4.62048 -4.49174 -4.61594 -4.51497 -4.54979 -4.63205 -4.24609 -4.58009 -4.54378 -4.46413 -4.31907 -4.56141 -4.73762 -4.79577 -4.73334 -4.88886 -4.62147 -4.62454 -4.55749 -4.73057 -4.97108 -4.94692 -4.85454 -4.54269 -4.34246 -4.91695 -4.53617 -5.04554 -4.92448 -4.75808 -4.40557 -4.63035 -4.64357 -4.86364 -5.35796 -4.83267 -4.93194 -4.99998 -4.87114 -4.90662 -5.42185 -4.96495 -4.86085 -5.09104 -4.94103 -4.97281 -5.02582 -4.72691 -5.13163 -4.9217 -4.86714 -4.89622 -5.19178 -5.06305 -5.21615 -5.23915 -5.36939 -4.91499 -5.01776 -5.19666 -5.26545 -5.36296 -5.36005 -5.2565 -4.76688 -4.71066 -5.32786 -4.79937 -5.51179 -5.44686 -5.18821 -4.84361 -4.90438 -5.09191 -4.77865 -4.48017 -4.31667 -4.45182 -4.42097 -4.40329 -4.80928 -4.59611 -4.5508 -4.50227 -4.37816 -4.49495 -4.3682 -4.38545 -4.46733 -4.61691 -4.14547 -4.4815 -4.45551 -4.74399 -4.82968 -4.4263 -4.62174 -4.55233 -4.48874 -4.6921 -4.58386 -4.87845 -4.82627 -4.82607 -4.42521 -4.31902 -4.9329 -4.30921 -4.99501 -4.90506 -4.76025 -4.34163 -4.54193 -4.51364 -4.50116 -4.45027 -4.59566 -4.56358 -4.4989 -4.76486 -4.53938 -4.34371 -4.50914 -4.45291 -4.41189 -4.55629 -4.332 -4.52531 -4.39752 -4.34107 -4.34708 -4.46096 -4.56443 -4.63567 -4.6447 -4.64137 -4.50848 -4.59336 -4.61021 -4.56593 -4.88195 -4.84617 -4.90744 -4.44129 -4.25004 -4.94458 -4.39546 -4.93377 -4.83176 -4.73643 -4.44421 -4.58731 -4.65605 -3.96819 -4.18918 -4.05848 -3.97882 -4.61493 -4.17267 -4.06295 -4.22207 -3.98117 -4.22971 -4.15686 -4.07615 -4.1726 -4.20524 -3.89283 -4.16753 -4.23779 -4.35658 -4.34055 -4.3449 -4.48688 -4.22594 -4.27413 -4.32639 -4.13294 -4.60777 -4.40848 -4.47568 -4.13065 -3.96341 -4.5106 -4.06583 -4.60588 -4.66504 -4.3978 -4.08789 -4.38357 -4.30733 -4.15001 -4.16902 -4.10477 -4.45855 -4.11508 -3.91867 -4.18213 -3.91415 -4.29767 -4.16892 -3.87645 -4.2329 -4.13691 -3.9483 -4.14245 -4.11495 -4.24827 -4.42804 -4.22042 -4.42351 -4.18784 -4.15602 -4.38557 -4.34701 -4.6684 -4.45763 -4.50653 -4.10707 -3.86478 -4.39377 -4.11147 -4.64964 -4.56784 -4.3368 -4.02869 -4.08563 -4.25925 -3.98704 -4.25568 -4.56351 -4.26247 -4.06307 -4.36163 -4.19445 -4.30158 -4.20805 -3.95186 -4.25274 -4.28381 -4.15754 -4.19254 -4.31866 -4.46755 -4.51972 -4.3611 -4.48477 -4.27409 -4.34794 -4.33791 -4.45129 -4.55519 -4.64615 -4.55282 -4.04594 -4.02448 -4.57072 -4.19753 -4.83224 -4.70242 -4.51025 -4.038 -4.23997 -4.42367 -4.16787 -4.48408 -4.29288 -4.10961 -4.1776 -4.00397 -4.21479 -4.29428 -4.04822 -4.19132 -4.21471 -4.1159 -4.22158 -4.19339 -4.32331 -4.46406 -4.38759 -4.49028 -4.18226 -4.18699 -4.33275 -4.31916 -4.57144 -4.63327 -4.31385 -4.06038 -3.88726 -4.42925 -4.16204 -4.58399 -4.59886 -4.54868 -3.93412 -4.19592 -4.32642 -4.50998 -4.25558 -4.10518 -4.24984 -3.97126 -4.26599 -4.15231 -4.03773 -4.20551 -4.1787 -3.97484 -4.19049 -4.24149 -4.26947 -4.39816 -4.21581 -4.30706 -4.25144 -4.2993 -4.35815 -4.35394 -4.53601 -4.55547 -4.4475 -4.09832 -3.92827 -4.48354 -4.08321 -4.59967 -4.67183 -4.49325 -4.09579 -4.22231 -4.37429 -4.44933 -4.33496 -4.60721 -4.36219 -4.57156 -4.43565 -4.22633 -4.49555 -4.50886 -4.31597 -4.54071 -4.46622 -4.65688 -4.6373 -4.50743 -4.64793 -4.43547 -4.60701 -4.68022 -4.58089 -4.88316 -4.80581 -4.86416 -4.41338 -4.23454 -5.00988 -4.51012 -4.88694 -4.8639 -4.82178 -4.39934 -4.63862 -4.61561 -3.74655 -4.23775 -4.12586 -4.30041 -4.28568 -4.02652 -4.31145 -4.2124 -4.07636 -4.35468 -4.31813 -4.35125 -4.41518 -4.42272 -4.47789 -4.09742 -4.37437 -4.33495 -4.4102 -4.68185 -4.68969 -4.48964 -4.09555 -4.03105 -4.65591 -4.05707 -4.83584 -4.56565 -4.55744 -4.19699 -4.35389 -4.48301 -4.11281 -3.92586 -4.1772 -4.14094 -3.98502 -4.11539 -3.92146 -3.94708 -4.11416 -4.16757 -4.09676 -4.29029 -4.1919 -4.30238 -4.00989 -4.08534 -4.26744 -4.13702 -4.61031 -4.48311 -4.36368 -3.8079 -3.78445 -4.45092 -3.96436 -4.54119 -4.454 -4.40585 -3.93053 -4.19585 -4.30292 -3.84331 -4.34204 -4.28257 -4.14417 -4.24914 -4.30013 -4.04798 -4.28673 -4.2925 -4.42841 -4.47567 -4.26513 -4.37306 -4.32953 -4.15777 -4.3493 -4.37255 -4.72579 -4.58739 -4.63656 -4.08032 -3.96115 -4.61715 -4.1344 -4.60858 -4.6688 -4.57122 -4.13305 -4.3935 -4.46656 -4.02961 -4.203 -3.99923 -4.08905 -4.21905 -4.0022 -4.12427 -4.09895 -4.26858 -4.24316 -4.12662 -4.25903 -4.09521 -4.16597 -4.23968 -4.16001 -4.58299 -4.42482 -4.48754 -3.8843 -3.85325 -4.44624 -3.9198 -4.45583 -4.48628 -4.39498 -3.95797 -4.26109 -4.2912 -4.25582 -4.00454 -4.1895 -4.1967 -4.03505 -4.26991 -4.27826 -4.35127 -4.42389 -4.4016 -4.41954 -4.11486 -4.32535 -4.33031 -4.33602 -4.55263 -4.70645 -4.51472 -4.15384 -4.01049 -4.70985 -4.21426 -4.77779 -4.70843 -4.52617 -4.15636 -4.15102 -4.44589 -4.14145 -4.30856 -4.25033 -3.97401 -4.24083 -4.17079 -4.37415 -4.46478 -4.25254 -4.41425 -4.39117 -4.24788 -4.43633 -4.31901 -4.69098 -4.45211 -4.64575 -4.15306 -4.10329 -4.57246 -4.07495 -4.70051 -4.7248 -4.52227 -4.23434 -4.26039 -4.36109 -4.05557 -3.90087 -3.85152 -4.01032 -4.08002 -4.13658 -4.21692 -4.22105 -4.25579 -3.99064 -4.13216 -4.11118 -4.21139 -4.4218 -4.53485 -4.29814 -4.003 -3.83306 -4.49554 -4.09533 -4.54363 -4.4331 -4.25569 -3.79289 -4.00942 -4.18192 -4.28009 -4.02123 -4.24597 -4.24559 -4.48237 -4.48348 -4.26382 -4.39375 -4.29019 -4.27354 -4.40284 -4.32795 -4.58655 -4.64981 -4.62956 -4.18149 -3.98413 -4.67523 -4.21303 -4.68876 -4.7911 -4.54414 -4.08505 -4.33659 -4.33808 -4.06971 -4.2791 -4.36443 -4.34632 -4.35649 -4.33456 -4.39997 -4.26008 -4.28388 -4.40288 -4.33139 -4.62043 -4.62503 -4.43675 -4.14113 -4.0341 -4.60029 -4.21635 -4.70066 -4.62952 -4.46353 -4.14561 -4.32095 -4.4266 -4.03278 -3.98862 -4.25197 -4.27569 -4.11032 -4.23765 -4.14935 -4.02703 -4.21107 -4.19112 -4.54608 -4.4481 -4.37482 -4.07492 -3.85072 -4.43446 -4.1083 -4.47733 -4.52381 -4.15496 -3.87517 -4.04192 -4.09344 -4.21982 -4.42195 -4.40471 -4.37879 -4.38456 -4.21118 -4.14655 -4.41667 -4.38362 -4.57141 -4.48836 -4.66843 -4.16592 -3.91007 -4.66152 -4.28938 -4.81454 -4.69716 -4.479 -4.09366 -4.19897 -4.36054 -4.42415 -4.44673 -4.36782 -4.43664 -4.32692 -4.24811 -4.43209 -4.37977 -4.72156 -4.65004 -4.65616 -4.26864 -4.02634 -4.59091 -4.15231 -4.70422 -4.6693 -4.53428 -4.03689 -4.29845 -4.40066 -4.0822 -4.59004 -4.57232 -4.44618 -4.39595 -4.44198 -4.49522 -4.71953 -4.77383 -4.7104 -4.23168 -4.22409 -4.77804 -4.31322 -4.91142 -4.86447 -4.57877 -4.31172 -4.38098 -4.45622 -4.54012 -4.63657 -4.41381 -4.53858 -4.55242 -4.476 -4.83806 -4.83225 -4.80124 -4.33878 -4.16073 -4.88006 -4.38166 -4.92003 -4.84109 -4.72959 -4.33633 -4.55642 -4.63272 -4.25261 -4.42504 -4.38051 -4.51238 -4.34545 -4.72668 -4.67703 -4.76665 -4.23274 -4.11055 -4.81504 -4.08627 -4.84109 -4.84116 -4.72255 -4.11683 -4.48568 -4.40557 -4.48974 -4.45552 -4.48707 -4.49932 -4.82863 -4.82362 -4.82886 -4.33879 -4.20345 -4.84664 -4.32896 -4.84213 -4.84767 -4.84515 -4.24215 -4.56505 -4.57937 -4.26983 -4.42886 -4.35448 -4.69527 -4.70623 -4.51402 -4.1141 -4.13505 -4.65612 -4.15146 -4.74147 -4.59203 -4.52077 -4.03488 -4.18734 -4.44799 -4.29471 -4.36133 -4.69596 -4.64831 -4.63547 -4.19581 -4.0745 -4.53301 -4.19949 -4.56007 -4.71655 -4.44638 -4.17183 -4.25591 -4.32058 -4.38594 -4.75872 -4.78643 -4.65701 -4.24347 -4.1548 -4.80141 -4.34439 -4.83889 -4.76032 -4.65668 -4.22796 -4.54745 -4.54858 -4.72021 -4.78054 -4.64017 -4.30486 -4.08363 -4.91234 -4.20552 -4.84509 -4.79091 -4.7047 -4.21248 -4.42821 -4.57087 -5.00672 -5.00024 -4.58514 -4.30687 -5.00738 -4.49693 -5.19453 -5.05271 -4.91542 -4.53985 -4.69547 -4.84144 -4.94545 -4.52037 -4.41642 -5.03348 -4.59188 -5.09656 -5.12815 -4.89144 -4.5322 -4.55207 -4.61329 -4.46863 -4.25451 -4.47457 -4.50864 -4.99779 -4.97708 -4.95505 -4.20699 -4.57002 -4.66248 -3.82277 -4.54513 -4.07155 -4.59006 -4.67879 -4.433 -3.98937 -4.16743 -4.34172 -4.21675 -3.9997 -4.40868 -4.41518 -4.22235 -3.85824 -4.06682 -4.15187 -4.45634 -5.0248 -5.02701 -4.84365 -4.48395 -4.62359 -4.66932 -4.70519 -4.64275 -4.51182 -4.07947 -4.31847 -4.34139 -5.21009 -5.00064 -4.58977 -4.81331 -4.70719 -4.98375 -4.51523 -4.7079 -4.90487 -4.37623 -4.55314 -4.35977 -4.10282 -4.38709 -3.56021
probB 0.102822 0.694588 -0.0248643 -0.241043 -0.194153 -0.286122 -0.253714 -0.463709 -0.247752 -0.168197 -0.338296 -0.323578 -0.224717 -0.50001 -0.383558 -0.306524 -0.550997 -0.310858 -0.4176 -0.451114 -0.347165 -0.360376 -0.181478 -0.249827 -0.224299 -0.27085 -0.343879 -0.362654 -0.214821 -0.2009 0.023381 -0.0633515 -0.0107415 -0.488383 -0.574974 0.0624958 -0.443305 0.131349 0.154044 0.00134578 -0.35264 -0.0825127 -0.156813 0.464622 0.0116228 -0.169001 -0.253077 -0.325262 -0.237711 -0.351488 -0.393958 -0.146752 -0.334492 -0.455447 -0.281347 -0.395381 -0.369809 -0.364791 -0.477281 -0.35135 -0.355029 -0.471916 -0.453401 -0.337437 -0.227049 -0.259646 -0.216775 -0.305678 -0.366126 -0.404388 -0.148054 -0.277811 0.049766 -0.00850496 0.0825543 -0.506115 -0.630186 0.127508 -0.536376 0.145053 0.0619338 0.00344383 -0.455346 -0.201381 -0.183063 -1.02526 -0.86965 -0.730322 -0.483407 -0.793131 -0.709852 -0.589957 -0.817988 -0.80824 -0.898898 -0.780157 -0.972077 -0.714662 -0.749865 -0.678443 -0.969119 -0.788222 -0.971801 -0.982933 -0.827212 -0.756748 -0.693527 -0.818454 -0.900228 -0.811547 -0.811598 -0.809839 -0.8781 -0.420617 -0.598033 -0.394516 -1.05614 -1.19962 -0.401904 -1.05726 -0.466563 -0.651508 -0.571792 -0.935808 -0.558436 -0.583036 -0.159824 -0.202704 -0.337832 -0.274053 -0.294073 -0.275377 -0.0859793 -0.220314 -0.243914 -0.256567 -0.390555 -0.252706 -0.21085 -0.474999 -0.261052 -0.304728 -0.320783 -0.320473 -0.241078 -0.216941 -0.210681 -0.158981 -0.154314 -0.284936 -0.242094 -0.236618 -0.219559 0.0593973 -0.0435527 0.0192915 -0.526701 -0.484553 0.200593 -0.382598 0.125478 0.142091 0.0305676 -0.412214 -0.161957 -0.240941 -0.156511 -0.113072 -0.0951811 -0.205381 -0.12917 0.0375165 -0.131243 -0.25583 -0.120046 -0.25902 -0.112611 -0.162773 -0.253498 -0.233998 -0.124324 -0.354531 -0.220893 -0.0905077 -0.019398 0.0262586 -0.0565132 -0.154251 -0.205525 -0.117606 -0.0579481 -0.142495 0.243674 0.0991312 0.220432 -0.317526 -0.49674 0.282683 -0.194696 0.288762 0.230724 0.18619 -0.322118 0.0213795 0.0557896 -0.146751 0.138381 0.0096325 0.244792 0.15743 0.0195072 -0.221391 -0.159725 -0.114743 -0.0240243 -0.0596441 -0.157704 -0.0726188 -0.0496659 -0.307588 -0.0975526 -0.00502448 0.0810151 0.157055 0.0813932 0.0385409 0.0735142 0.0167445 0.00393947 -0.0133074 0.412442 0.259684 0.304221 -0.165765 -0.296712 0.357519 -0.164122 0.431662 0.406949 0.339963 -0.0819983 0.0880632 0.243578 0.126448 -0.0191748 0.24399 0.246462 0.103199 -0.0433326 0.0283793 -0.0877833 0.0583192 0.155623 -0.0690007 -0.0601857 0.0913072 -0.0410808 -0.0522709 0.00477918 0.24978 0.182712 0.165997 0.118798 -0.00898898 0.0295655 0.14108 0.0793703 0.456456 0.284445 0.33466 -0.154021 -0.253547 0.401549 -0.114675 0.43842 0.41172 0.037401 -0.0393709 0.18366 0.092285 -0.291972 -0.0325149 0.105948 -0.0309828 -0.178579 0.0199239 -0.13946 -0.0701186 -0.0028308 -0.226318 -0.112105 -0.0925009 -0.161671 -0.142153 -0.0642543 0.0412687 0.0803735 -0.048033 0.0314344 -0.0183081 -0.111182 0.147572 -0.0741578 0.270321 0.355792 0.295056 -0.344578 -0.383691 0.350236 -0.172742 0.397757 0.343064 0.263808 -0.104309 0.138509 0.18529 0.157272 0.183916 0.0397431 -0.037116 0.0810872 -0.0151733 0.00670864 0.0605411 -0.0785646 -0.019953 -0.0355506 -0.167789 -0.0151019 -0.104963 0.11009 0.144228 0.113022 0.082223 -0.0962164 -0.0107711 0.222163 0.101442 0.289479 0.473445 0.520201 -0.0403839 -0.165658 0.544659 -0.108511 0.456937 0.444935 0.2466 2.2977e-05 0.356497 0.231099 0.135087 0.0658587 -0.0543943 0.0737202 -0.0977728 -0.0897921 0.034714 -0.150003 0.0128435 -0.0131755 -0.0655592 -0.0170722 -0.012669 0.129665 0.0228804 0.0153508 0.0410142 0.0241647 -0.0760442 0.0396598 0.00537457 0.265385 0.166748 0.117957 -0.0442102 -0.173311 0.17813 -0.111997 0.228011 0.238966 0.318496 -0.112575 0.164063 0.214998 -0.15369 -0.328415 -0.113748 -0.238176 -0.136934 -0.0786156 -0.327717 -0.308814 -0.264979 -0.407231 -0.22875 -0.191632 -0.0735674 -0.0886429 -0.0860439 -0.123683 -0.128677 -0.208502 -0.100889 -0.17741 0.21594 0.177333 0.176203 -0.344102 -0.390347 0.404588 -0.275021 0.338925 0.254875 0.0863855 -0.32951 -0.000300989 0.00351742 -0.0210622 -0.00259505 0.0337682 0.0145895 -0.0306138 -0.0769887 -0.0850143 0.0193096 -0.261371 -0.142928 -0.0560849 0.0843556 0.123185 0.0945276 0.00908956 0.0191296 -0.0278815 0.0625915 0.00277955 0.404149 0.279629 0.246416 -0.184589 -0.3139 0.457011 -0.228445 0.231428 0.239518 0.287536 -0.103772 0.104408 0.168414 -0.119874 -0.0111669 0.121894 0.133911 -0.00861493 0.0439433 0.0371605 -0.118616 0.051082 0.092481 0.153683 0.23243 0.177357 0.0324165 0.148806 0.167368 0.143824 0.26704 0.291756 0.44621 0.463133 -0.0504083 -0.140927 0.558104 -0.109098 0.506877 0.506621 0.164178 -0.000556488 0.262488 0.236622 -0.129182 -0.0310367 0.0773461 -0.223898 -0.0513444 -0.0581905 -0.277086 -0.146272 0.0202814 0.114976 0.0694653 0.0148757 0.0908371 -0.0294685 0.0954819 -0.0721982 0.0365388 0.353389 0.309176 0.335777 -0.174235 -0.282083 0.612645 -0.135881 0.296708 0.4401 0.344135 -0.173579 0.155099 0.145484 0.203714 0.101465 -0.00103566 0.174067 0.0798017 -0.00474326 0.0697245 0.12635 0.291275 0.263882 0.0908793 0.204992 0.104314 0.2325 0.243687 0.146006 0.489696 0.456225 0.400885 -0.080822 -0.109152 0.603951 0.0701649 0.575075 0.468825 0.553207 -7.83996e-05 0.195717 0.36682 0.00723835 -0.197368 -0.0794893 -0.0279406 -0.161932 -0.0879964 -0.000294726 0.0719329 0.122608 0.0370317 -0.0136932 -0.107248 0.0187554 0.0120601 -0.0336343 0.361025 0.366161 0.20997 -0.112492 -0.154489 0.379173 -0.178912 0.473255 0.391848 0.254113 -0.163661 -0.0401147 0.255558 -0.20194 -0.0611304 -0.0459202 -0.241908 -0.0620412 -0.0517131 0.0765309 0.0635396 -0.00861169 0.0654195 0.0162901 -0.106746 0.0230008 0.0187521 0.389482 0.276812 0.339163 -0.203171 -0.248025 0.373692 -0.151097 0.377716 0.413838 0.216163 -0.136885 0.126901 0.19321 0.14457 0.0769365 0.0177831 0.0997271 0.15 0.104311 0.305841 0.301308 0.198975 0.173803 0.230394 0.317907 0.2201 0.519382 0.52622 0.456967 -0.0390009 -0.0760956 0.687659 0.0163029 0.590598 0.686486 0.370977 0.115606 0.214285 0.28455 0.0766264 -0.0121627 -0.0251183 0.0770875 0.255467 0.197937 0.128956 0.165449 0.0326921 0.102614 0.137342 0.0898873 0.447329 0.353296 0.431384 -0.0221153 -0.235305 0.610888 -0.0642007 0.559832 0.569825 0.280701 -0.113099 0.198144 0.329581 -0.119033 0.0104499 0.0392747 0.148565 0.185479 0.0932182 0.0716893 0.0790221 -0.0564844 0.132646 0.0911047 0.440322 0.425781 0.280902 -0.126305 -0.287242 0.485621 -0.0386011 0.526082 0.36352 0.449104 -0.118764 0.1475 0.26023 0.115161 0.182294 0.264311 0.286899 0.0256637 0.21319 0.166911 0.131282 0.27912 0.214079 0.566335 0.478719 0.572045 0.0148875 -0.0485742 0.632773 0.0428742 0.669619 0.619882 0.417098 0.0353257 0.32837 0.197083 0.0867871 0.272234 0.125991 0.20686 0.169333 0.177514 -7.82636e-05 0.158452 0.0490972 0.489546 0.440785 0.449689 -0.068304 -0.0860717 0.617843 0.045483 0.602815 0.55623 0.364584 -0.0858289 0.251976 0.279982 0.116888 0.101605 0.112335 0.170366 -0.04566 -0.000191899 0.129791 0.00307343 0.377072 0.386933 0.258739 -0.0671063 -0.277626 0.412189 -0.167934 0.431932 0.465155 0.369208 -0.0500341 0.147288 0.21895 0.217055 -0.026662 -0.0288534 -0.163414 -0.113865 0.0206194 -0.12226 0.167223 0.198599 0.246449 -0.223535 -0.376341 0.255068 -0.205634 0.285176 0.302714 0.228919 -0.338521 0.0139404 0.115799 -0.0450324 -0.0399433 -0.113489 -0.114479 -0.111044 -0.107802 0.232884 0.283349 0.240973 -0.203624 -0.332423 0.314593 -0.194961 0.292957 0.331412 0.24327 -0.377018 -0.0335105 0.134392 -0.0906423 -0.0967561 -0.16805 -0.0385163 -0.0488829 0.22747 0.225853 0.227561 -0.240219 -0.282355 0.421084 -0.170409 0.375768 0.328473 0.238179 -0.229896 0.0824507 0.0449229 -0.0833492 0.0350789 -0.0240952 -0.053104 0.350957 0.217333 0.287408 -0.175375 -0.404062 0.389519 -0.191007 0.394619 0.281533 0.223863 -0.233836 0.096678 0.0834752 0.00315558 0.0126738 0.0544399 0.371604 0.313783 0.356606 -0.0357551 -0.255949 0.532292 -0.0104577 0.454505 0.458321 0.327671 -0.120158 0.0287905 0.177805 0.0243599 0.0130615 0.37254 0.391108 0.308189 -0.0307547 -0.278429 0.522845 -0.0256277 0.369297 0.442683 0.325394 -0.134826 0.158015 0.192878 0.00224871 0.332567 0.270417 0.200844 -0.169065 -0.382095 0.582221 -0.19871 0.354709 0.400264 0.234908 -0.215521 0.0569219 0.105245 0.35991 0.390456 0.347265 -0.131644 -0.230316 0.508207 -0.103664 0.45717 0.428014 0.269387 -0.163757 0.0638068 0.204534 -0.0617592 0.00393938 -0.486054 -0.761421 -0.0223645 -0.586058 0.0967068 0.0852262 -0.0612079 -0.536784 -0.216405 -0.258681 0.0732263 -0.516977 -0.604846 0.443963 -0.417332 0.176791 0.0421205 -0.0819554 -0.489683 -0.149134 -0.0704598 -0.453448 -0.657458 0.583853 -0.388023 0.0130613 0.100452 -0.011008 -0.460035 -0.107707 -0.122976 -0.202532 0.462209 -0.02415 0.555452 0.556102 0.443287 -0.0620862 0.281191 0.400532 0.632006 0.182426 0.65901 0.606136 0.589377 0.0840819 0.411142 0.426159 -0.680738 -0.0518852 -0.133381 -0.280865 -0.60979 -0.235901 -0.272626 0.574317 0.474752 0.426774 -0.0554851 0.356251 0.267155 -0.0015561 -0.0682073 -0.6148 -0.236303 -0.149581 -0.141326 -0.581334 -0.174033 -0.16307 -0.436757 0.0023982 -0.060432 0.226634 0.321334 -0.510787
nr_sv 122 128 359 119 64 60 72 68 60 45 56 63 54 58 44 67 74 36 42 26 33 37 30 91 21 86 16 40 35 33 23 105 91 140 22 30 165 32 171 174 138 53 88 96
SV
0 0 0 1.219044643569946 0 0 0 0 0 0 0 0 0 0 0 0 0 0 0 0 0 0 0 0.2338690607254992 0 0 0 0 0 0 0 0 0.2707775256887819 0.1151278602076567 0 0 0 0.8632331891309445 0 0 0 0 0 1:0.63983035 2:0.58906293 3:0.30816746 4:0.46586716 5:0.39779139 6:0.89538592 7:0.34753716 8:0.21730326 9:0.44400546 10:0.2410598 11:0.92069221 12:0.53445238 13:0.57809329 14:0.47002324 15:0.46068645 16:0.15237646 17:0.60097325 18:0.68117344 19:0.402417 20:0.50204551 21:0.36911526 22:0.49519432 23:0.66599196 24:0.40333304 25:0.56976533 26:0.60444117 27:0.53483182 28:0.52298838 29:0.58108664 30:0.86114621 31:0.59836721 32:0.74218023 33:0.41220289 34:0.64105558 35:0.52089697 36:0.70344257 37:0.40676907 38:0.48014113 39:0.14756025 40:0.4548437 41:0.50001246 42:0.37023354 43:0.46515805 44:0.51051688 45:0.63746095 46:0.58301997 47:0.63769615 48:0.44588342 49:0.61149055 50:0.71051413 51:0.55515569 52:0.51290089 53:0.6286304 54:0.28474209 55:0.60926849 56:0.54259461 57:0.22562209 58:0.64738435 59:0.52159297 60:0.45136195 61:0.74331594 62:0.69171059 63:0.20631482 64:0.53971916 65:0.68479556 66:0.31178054 67:0.36564818 68:0.25659493 69:0.55640346 70:0.67547882 71:0.62412453 
0 0 0 0 0 0 0 0 0 0 0 0 0 0 0 0 0 1.407509738459777 0 0 0 0 0 0 0.3352998447387653 0.04670192447513823 1.179733870850497 0 0 0 0 0 0 0 0 0 0 0 0 0 0 0 0 1:0.50987387 2:0.35206383 3:0.37947473 4:0.33074829 5:0.60424179 6:0.5048964 7:0.43634826 8:0.48702827 9:0.2611714 10:0.47072515 11:0.62734586 12:0.56139213 13:0.6334303 14:0.40040711 15:0.41232589 16:0.42160791 17:0.5908013 18:0.7034657 19:0.70253587 20:0.52362925 21:0.55653775 22:0.35966879 23:0.59439051 24:0.42156214 25:0.25408548 26:0.47973448 27:0.71570259 28:0.35719886 29:0.41146368 30:0.42786136 31:0.42308256 32:0.60911632 33:0.67141777 34:0.40712065 35:0.47346798 36:0.57156444 37:0.38431978 38:0.3677651 39:0.18068698 40:0.50620699 41:0.42813155 42:0.51772481 43:0.43167791 44:0.30747673 45:0.65129316 46:0.62858427 47:0.61677933 48:0.55776656 49:0.61729336 50:0.57757115 51:0.48674846 52:0.54689157 53:0.48723963 54:0.36373439 55:0.48168811 56:0.6276691 57:0.28658944 58:0.51911157 59:0.46687827 60:0.68095517 61:0.47847182 62:0.47297943 63:0.1477313 64:0.48602426 65:0.675942 66:0.34742153 67:0.4327327 68:0.33247182 69:0.54270756 70:0.79012847 71:0.56938547 
3.194763573420418 3.303998582098123 0 1.868399110350449 3.792594433665871 0.4119941595784741 0.08041671263901878 0.08830979583815565 0 0.05618750046403054 0 0 0 0 0 0 0.2128104032756516 0 0 0 0.7930886192934715 0 0.6107234876769633 0.68682502945111 0 0 0 0 0 0 0 3.878732728758442 0 0.5384525088155719 0 3.860172032728309 0 0.6980715322685177 0 1.386012615989247 0.0890066621707941 0 0 1:0.48374903 2:0.24063659 3:0.24923448 4:0.34031588 5:0.42073169 6:0.54702485 7:0.42381698 8:0.43020254 9:0.30250332 10:0.53390801 11:0.50761503 12:0.73619801 13:0.82303071 14:0.39455092 15:0.52149224 16:0.52331579 17:0.71238625 18:0.66029859 19:0.72423005 20:0.4661147 21:0.45004579 22:0.47380245 23:0.45995027 24:0.4241693 25:0.37139958 26:0.54929703 27:0.6941002 28:0.29869235 29:0.43217969 30:0.408333 31:0.5167802 32:0.29382494 33:0.58506614 34:0.606906 35:0.48640758 36:0.50464749 37:0.4435266 38:0.42405078 39:0.30439481 40:0.66941357 41:0.56031311 42:0.40065834 43:0.49385744 44:0.59384906 45:0.58261162 46:0.63947964 47:0.5408116 48:0.60410607 49:0.47566733 50:0.47929761 51:0.47418973 52:0.71563965 53:0.4927339 54:0.43364063 55:0.40823844 56:0.41344658 57:0.32549313 58:0.3565549 59:0.56700945 60:0.63575304 61:0.4693034 62:0.5454703 63:0.23902458 64:0.48983318 65:0.62230659 66:0.29910466 67:0.42996874 68:0.3352755 69:0.51685286 70:0.77225268 71:0.52681607 
0 0 0 0 0 0 0.9250905021095194 0 0 0 0 0 0 0 0 0 0 0 0 0 0 0 0 0 0 0 0 0 0.09567396007825361 0 0 0 0 0 0 0 0 0 0 0 0 0 0 1:0.44106054 2:0.26033631 3:0.30992922 4:0.35223928 5:0.50379449 6:0.64520836 7:0.44240403 8:0.52784777 9:0.41927996 10:0.4096047 11:0.38807228 12:0.43436214 13:0.67336392 14:0.59842068 15:0.54041529 16:0.21650514 17:0.76121211 18:0.71437895 19:0.69780642 20:0.5190475 21:0.48885682 22:0.58582968 23:0.43571118 24:0.35833505 25:0.24988985 26:0.39272097 27:0.79723275 28:0.17111494 29:0.62025821 30:0.49321732 31:0.42386848 32:0.4985421 33:0.5694328 34:0.6169588 35:0.52316529 36:0.44321686 37:0.5100854 38:0.495428 39:0.30042925 40:0.399793 41:0.45890471 42:0.47394326 43:0.41395497 44:0.6191656 45:0.6670748 46:0.53669405 47:0.51699919 48:0.64054215 49:0.73765695 50:0.38438526 51:0.47049728 52:0.76902747 53:0.53853375 54:0.40929079 55:0.51212662 56:0.53733945 57:0.3170329 58:0.60392022 59:0.66047424 60:0.66607285 61:0.53007543 62:0.56927508 63:0.31738114 64:0.46226233 65:0.58869129 66:0.38393122 67:0.38788983 68:0.38193625 69:0.49116778 70:0.76533318 71:0.63713056 
0 0 0 0 0.9047506617470649 2.200510887703784 0 0 0 0 0 0.2185599624486369 0 0 1.360951162456901 0 0 0.952732706668697 0 0 0 0 0 0.6911110799807989 0 0 0 0 0 0 0 0.3728333872662934 0.1539364497076282 0 0.06459221587925321 1.359856114793061 0 0.4258122250379086 0 0 0 0 0.5527664132387337 1:0.73252928 2:0.47977647 3:0.60624135 4:0.39691895 5:0.52290565 6:0.58287072 7:0.62507963 8:0.47221613 9:0.26210442 10:0.51826549 11:0.88162512 12:0.5728482 13:0.56994873 14:0.671314 15:0.63592172 16:0.46325362 17:0.40770164 18:0.69573218 19:0.4390845 20:0.57187557 21:0.55333805 22:0.7893492 23:0.51309466 24:0.50134903 25:0.54437345 26:0.47367451 27:0.54538578 28:0.28670824 29:0.47985694 30:0.82227814 31:0.67737466 32:0.7063967 33:0.64338994 34:0.54445606 35:0.48924667 36:0.7501719 37:0.48657954 38:0.49889201 39:0.39890403 40:0.40327206 41:0.31330219 42:0.52475417 43:0.57958323 44:0.45078585 45:0.66017252 46:0.59909225 47:0.62336105 48:0.52556843 49:0.76960075 50:0.67659086 51:0.47502112 52:0.67937827 53:0.60915601 54:0.46372366 55:0.68551219 56:0.4265132 57:0.3724902 58:0.66903853 59:0.61457658 60:0.42222822 61:0.75818616 62:0.75600606 63:0.43431085 64:0.38595271 65:0.51235276 66:0.47716182 67:0.40871707 68:0.35763231 69:0.34356487 70:0.72936046 71:0.70083416 
0 0 0 0 0 0 0 0 0 0 0 0 0 0 0 0 0 0 0 0 0 0 0 0 0 0 0 1.178278520292292 0 2.199240222157511 0 0 0 0 0 0 0 0 0 0 0 0 0 1:0.54108715 2:0.29666921 3:0.29403725 4:0.38348615 5:0.44590688 6:0.6419608 7:0.5326196 8:0.74320036 9:0.49405542 10:0.5568431 11:0.7512548 12:0.45756173 13:0.66438043 14:0.41422617 15:0.58773506 16:0.27407286 17:0.73246253 18:0.55760622 19:0.49922016 20:0.42094812 21:0.59460807 22:0.65046871 23:0.49994168 24:0.29169869 25:0.39861917 26:0.46482065 27:0.80088878 28:0.34725013 29:0.54108179 30:0.39843941 31:0.51070493 32:0.44058287 33:0.59012741 34:0.57758123 35:0.50291944 36:0.42672911 37:0.49543887 38:0.46624798 39:0.2704792 40:0.48235446 41:0.56934243 42:0.35435456 43:0.47467059 44:0.52645212 45:0.46870354 46:0.59958988 47:0.71228755 48:0.6394453 49:0.54714334 50:0.47824064 51:0.58964628 52:0.76735097 53:0.69137961 54:0.36941174 55:0.67342418 56:0.49203482 57:0.21569957 58:0.50862134 59:0.61928445 60:0.59446353 61:0.54230326 62:0.72743738 63:0.29535094 64:0.48282802 65:0.61658144 66:0.38795498 67:0.397459 68:0.33822018 69:0.49743587 70:0.74570942 71:0.66298318 
0 0 0 0.6950102155364073 0 0 0 0 0 0 0 0 2.025712526633249 0 0 1.946555484314751 0.6918422358366744 0 0 0 1.693797960406578 0 0 0.3989882844357392 0 0 0 0 0 0 0 0 0 0 0 0 0.1896777301891259 0 0 0 0 0 0 1:0.54670447 2:0.63282877 3:0.55033249 4:0.53067279 5:0.49169978 6:0.31860116 7:0.65885299 8:0.27823487 9:0.37763476 10:0.41156462 11:0.36309057 12:0.058863979 13:0.65051883 14:0.47412637 15:0.54023701 16:0.57758343 17:0.30834803 18:0.44989574 19:0.56742358 20:0.42248088 21:0.63884819 22:0.36970499 23:0.43898943 24:0.42644817 25:0.74511498 26:0.90522146 27:0.48957735 28:0.58714193 29:0.36217135 30:0.64864349 31:0.59038073 32:0.87850028 33:0.51807886 34:0.44303522 35:0.46933818 36:0.59772408 37:0.27352127 38:0.25946257 39:0.36671636 40:0.56722397 41:0.45412961 42:0.3222788 43:0.51202512 44:0.40529031 45:0.37923828 46:0.57729119 47:0.77137524 48:0.32991302 49:0.75563449 50:0.61738491 51:0.53237009 52:0.53975844 53:0.53756243 54:0.4799647 55:0.60281229 56:0.59507245 57:0.34112331 58:0.47309661 59:0.74141335 60:0.44421002 61:0.71410072 62:0.72712219 63:0.45165765 64:0.55221874 65:0.82784551 66:0.45304793 67:0.36338326 68:0.46348098 69:0.39333445 70:0.82756788 71:0.58701718 
0 0.980959533051404 0 0.5863762172551278 0 0 0 0 0 0 0 0 0 0 0 0 0 0 0 0 0 0 0 0 0 0 0 0 0 0 0 0 0 0 0 0 0 0 0 0 0 0 0 1:0.45269504 2:0.47071314 3:0.39424902 4:0.22985424 5:0.38881207 6:0.66649336 7:0.47785223 8:0.55237329 9:0.50309688 10:0.52653253 11:0.64269823 12:0.62928456 13:0.85938233 14:0.448017 15:0.48488912 16:0.39803618 17:0.70563465 18:0.59273469 19:0.447137 20:0.58211434 21:0.40145877 22:0.65666771 23:0.59390491 24:0.36309561 25:0.46938404 26:0.39388365 27:0.82240176 28:0.4050411 29:0.59476197 30:0.57763565 31:0.53483599 32:0.33686846 33:0.49680746 34:0.60548019 35:0.64642453 36:0.55026871 37:0.3037481 38:0.48573449 39:0.21190958 40:0.51117468 41:0.41319457 42:0.40240443 43:0.4500266 44:0.52416444 45:0.5582993 46:0.66483468 47:0.66159672 48:0.55904335 49:0.63602459 50:0.56242335 51:0.52626747 52:0.69958431 53:0.49229825 54:0.31434938 55:0.49622631 56:0.45201981 57:0.40809825 58:0.50264621 59:0.65244293 60:0.55530941 61:0.68470967 62:0.61607689 63:0.31204396 64:0.50221479 65:0.61124343 66:0.30673236 67:0.41024676 68:0.29811838 69:0.47358045 70:0.71571869 71:0.59950781 
0 0 0 0 0 0 0 0 0 0 0 0 0 0 1.670850362212766 0 0 0 0 2.114251707249477 1.595833880082058 0.6422496629729402 0 0 0 0 0 0.2202791972208492 0.211101323567295 0 0 0 0.5889076649172496 0 2.028047130112915 0 0 0 0 0 0 0 0 1:0.40717825 2:0.37383828 3:0.43016109 4:0.22628644 5:0.52952224 6:0.5642646 7:0.75833756 8:0.45966372 9:0.44043425 10:0.53539991 11:0.56548601 12:0.44221383 13:0.53497893 14:0.49477342 15:0.4783906 16:0.23266481 17:0.61432606 18:0.67783087 19:0.47902641 20:0.30121288 21:0.48564139 22:0.47615337 23:0.4500075 24:0.43000984 25:0.33577809 26:0.35739893 27:0.90580136 28:0.38787436 29:0.55928242 30:0.67725384 31:0.49811763 32:0.47606453 33:0.49283051 34:0.62983567 35:0.52339941 36:0.55605227 37:0.53656161 38:0.51809305 39:0.2360118 40:0.42898664 41:0.55292195 42:0.47994775 43:0.33642551 44:0.50862241 45:0.54328936 46:0.63824427 47:0.6616807 48:0.57279229 49:0.7730099 50:0.61459243 51:0.47529182 52:0.61167872 53:0.53524107 54:0.49784261 55:0.4461861 56:0.45270693 57:0.51526111 58:0.60976064 59:0.67979795 60:0.62074769 61:0.54047078 62:0.67615855 63:0.29878321 64:0.46517175 65:0.52073222 66:0.3353264 67:0.25746509 68:0.35343254 69:0.53378445 70:0.72971487 71:0.63904196 
0 0 0 0 0 0 0 0 0 0 0 0 0 0 0 0.2745937946368285 0 0 0 0 0 0 0 0 0 0 0 0 0 0 0 0 0 0 0 0 0 0 0 0 0.8301862641537699 0 0 1:0.51527333 2:0.36928084 3:0.42325902 4:0.55727637 5:0.3220551 6:0.69674122 7:0.65284222 8:0.47127765 9:0.23234634 10:0.66345382 11:0.5855363 12:0.60842448 13:0.68981153 14:0.61339098 15:0.4879787 16:0.36965275 17:0.70328498 18:0.78554577 19:0.65332586 20:0.29609081 21:0.45256755 22:0.51269692 23:0.53336054 24:0.31949523 25:0.3662577 26:0.69581884 27:0.64659101 28:0.35363695 29:0.51931906 30:0.51993513 31:0.33789453 32:0.47831091 33:0.62641782 34:0.36131087 35:0.58168894 36:0.55029655 37:0.51230222 38:0.33989027 39:0.31912863 40:0.29884991 41:0.41584599 42:0.31122854 43:0.53539664 44:0.43443599 45:0.66619056 46:0.66231304 47:0.66578877 48:0.44178748 49:0.69962245 50:0.40640926 51:0.43754587 52:0.5185743 53:0.48651087 54:0.37125194 55:0.53212678 56:0.3935118 57:0.26564428 58:0.62799138 59:0.59333766 60:0.59264022 61:0.66754341 62:0.67324305 63:0.33874005 64:0.50203562 65:0.48314327 66:0.38093084 67:0.32022622 68:0.42880917 69:0.43686318 70:0.69470489 71:0.60760576 
0 0 0 0 0 0 0 0 0 0 0 0 0 0 0 0 0 1.222682274197213 0 0 0 0 0 0 0 0 0 0 0 0 0 0 0 0 0 0 0 0 0 0 0 0 0 1:0.45138738 2:0.38938683 3:0.54804373 4:0.36771271 5:0.30600089 6:0.65704805 7:0.57332712 8:0.36036798 9:0.24221626 10:0.45726222 11:0.66591728 12:0.64237916 13:0.67200297 14:0.47429559 15:0.57193387 16:0.43813047 17:0.47691289 18:0.75392962 19:0.66736561 20:0.53919023 21:0.39109698 22:0.52415091 23:0.46539739 24:0.3877964 25:0.45322201 26:0.52298921 27:0.62162149 28:0.4016031 29:0.59106123 30:0.60227942 31:0.60314333 32:0.43323207 33:0.62070256 34:0.56660503 35:0.58706647 36:0.6867801 37:0.54121852 38:0.39552268 39:0.19138113 40:0.33760434 41:0.3723056 42:0.47817919 43:0.41101429 44:0.37372425 45:0.65101027 46:0.6380195 47:0.70433116 48:0.5000397 49:0.71261227 50:0.55345571 51:0.36380401 52:0.57542562 53:0.53319895 54:0.37757722 55:0.53340489 56:0.43075141 57:0.47247413 58:0.60891855 59:0.71302432 60:0.60925418 61:0.62479824 62:0.61659056 63:0.32217512 64:0.42195261 65:0.50472564 66:0.29516467 67:0.27427903 68:0.32102734 69:0.49805534 70:0.69231135 71:0.67008066 
0 0 0 0 0 0 0 1.37221365873037 0 0 0 0 0 0 0 0 0 0 1.100280460612565 0 0 0 0 0 0 0.2515835718835358 0 0 0.1042425250538555 0 0 0 0 0 0 0 0 0 0 0 0 0 0 1:0.28166899 2:0.23574024 3:0.43092966 4:0.39919588 5:0.54828948 6:0.56354058 7:0.45119885 8:0.72095448 9:0.33268973 10:0.64743847 11:0.71226043 12:0.44509345 13:0.74484974 14:0.40965566 15:0.60199881 16:0.47813296 17:0.50515884 18:0.66241491 19:0.67745548 20:0.56639695 21:0.34251326 22:0.44785541 23:0.53846526 24:0.44865254 25:0.31838667 26:0.46507004 27:0.7384637 28:0.3422032 29:0.52894813 30:0.51980627 31:0.52561939 32:0.46154982 33:0.61747807 34:0.61880702 35:0.57385385 36:0.55670863 37:0.51418072 38:0.49912825 39:0.33380595 40:0.52076072 41:0.5011574 42:0.26583689 43:0.50603169 44:0.55128282 45:0.58587509 46:0.50141245 47:0.59856552 48:0.66037089 49:0.60398078 50:0.43863732 51:0.45032898 52:0.75464594 53:0.54985297 54:0.3928234 55:0.59282196 56:0.3916539 57:0.34204304 58:0.56252319 59:0.61495811 60:0.57788396 61:0.5929684 62:0.59120584 63:0.37225455 64:0.45768824 65:0.53599709 66:0.29598236 67:0.36076835 68:0.37165424 69:0.48972917 70:0.77764374 71:0.65251762 
0 0 0 0 0 0 1.134017779662978 0 0 0 0 0 0 0 0.3304387774025219 0 0 0 0 0 0 0 0 0 0 0 0 0 0 0 0 0 0 0 0 0 0 0 0 0 0 0 0 1:0.41149458 2:0.45132685 3:0.49836022 4:0.57325697 5:0.67386991 6:0.49318346 7:0.6691919 8:0.2823188 9:0.4144837 10:0.46715227 11:0.34153885 12:0.39181715 13:0.446174 14:0.70019245 15:0.49476275 16:0.57984322 17:0.46304357 18:0.38123375 19:0.44127584 20:0.47692692 21:0.57711667 22:0.52274287 23:0.42992336 24:0.45025003 25:0.52313137 26:0.53677344 27:0.64805609 28:0.49248466 29:0.54270762 30:0.92657918 31:0.31497869 32:0.7117368 33:0.5260306 34:0.65879977 35:0.48184931 36:0.59635347 37:0.24586667 38:0.39858022 39:0.10967857 40:0.48112601 41:0.54505831 42:0.51785201 43:0.46865052 44:0.47012299 45:0.559663 46:0.74842709 47:0.59845918 48:0.55564791 49:0.72637498 50:0.67206436 51:0.44804475 52:0.47033441 53:0.55521244 54:0.41299129 55:0.57529634 56:0.51531124 57:0.39313647 58:0.50162756 59:0.7350257 60:0.55475056 61:0.59156156 62:0.69084698 63:0.41883191 64:0.47043651 65:0.62334645 66:0.30861357 67:0.29289082 68:0.36158118 69:0.60359627 70:0.82810891 71:0.62633348 
0 0 0 0 0 0 0 0 0 0 0 0 0 0 1.344636593507363 0 0 0 0 0 0 0 0 0 0 0 0 0 0 0 0 0 0 0 0 0 0 0 0 0 0 0 0 1:0.33708331 2:0.60695386 3:0.39876482 4:0.72781253 5:0.46644369 6:0.28581366 7:0.50775611 8:0.59120941 9:0.66678971 10:0.34847131 11:0.48457682 12:0.53465301 13:0.47360155 14:0.63147908 15:0.68560922 16:0.56067806 17:0.48219466 18:0.3524608 19:0.44195342 20:0.28032121 21:0.41713428 22:0.65200078 23:0.48218048 24:0.34159997 25:0.67744821 26:0.47623745 27:0.68045771 28:0.60588884 29:0.55348575 30:0.71625179 31:0.13660268 32:0.85590506 33:0.68446559 34:0.85654688 35:0.55549836 36:0.6159988 37:0.4375141 38:0.38629726 39:0.22738507 40:0.51933515 41:0.42180318 42:0.29179421 43:0.56832075 44:0.4166441 45:0.55345023 46:0.68206418 47:0.55067134 48:0.60826027 49:0.91824448 50:0.62197447 51:0.43985942 52:0.67189717 53:0.52307802 54:0.38923728 55:0.54891515 56:0.37791193 57:0.39346546 58:0.57923722 59:0.83264738 60:0.57572091 61:0.51517105 62:0.65951145 63:0.3214896 64:0.38039672 65:0.67266876 66:0.2675482 67:0.38121283 68:0.3362591 69:0.49943456 70:0.75500631 71:0.56222039 
0 0 0 0 0 0 0 0 0 0 0 1.197232733801737 0 0 0 0 0 0 0 0 0 0 0 0 0 0 0 1.535305752497168 0 0 0 0 0 0 0 0 0 0 0 0 0 0 0 1:0.51659548 2:0.67037678 3:0.4476043 4:0.34142968 5:0.52471846 6:0.57456738 7:0.48309627 8:0.43953046 9:0.47679782 10:0.46001661 11:0.50618094 12:0.64198756 13:0.55112934 14:0.40971437 15:0.39815915 16:0.47091556 17:0.54132581 18:0.39954942 19:0.7196964 20:0.39104772 21:0.33908394 22:0.70571095 23:0.37627232 24:0.43624189 25:0.51952279 26:0.37298876 27:0.7110396 28:0.43431845 29:0.55798167 30:0.82135868 31:0.53794551 32:0.61713791 33:0.78075945 34:0.65274262 35:0.65127605 36:0.52769452 37:0.38290659 38:0.30048397 39:0.17856823 40:0.35974592 41:0.47811338 42:0.20873317 43:0.49345157 44:0.36636651 45:0.62197471 46:0.65669096 47:0.4584237 48:0.762779 49:0.87775606 50:0.56220061 51:0.41335964 52:0.64708287 53:0.48708141 54:0.36756277 55:0.54973233 56:0.38951898 57:0.58041459 58:0.59999037 59:0.72199053 60:0.52266413 61:0.51539826 62:0.66897243 63:0.39810359 64:0.4023172 65:0.67142266 66:0.24780679 67:0.42640257 68:0.35531124 69:0.48987427 70:0.74199581 71:0.57266718 
0 0 0 0 0 0 0 0.1544529745943678 0 0 0 0 0 0 0 0 0 0.3468332243917013 0 0 0 0 0 0 0 0 0 0 0 0 0 0 0 0 0 0 0 0 0 0 0.255908344215353 0 0 1:0.378474 2:0.21358918 3:0.3705267 4:0.41224742 5:0.45329639 6:0.61220068 7:0.59378111 8:0.60386282 9:0.52510291 10:0.37851217 11:0.54233187 12:0.66299045 13:0.69692814 14:0.55742723 15:0.40121201 16:0.26826608 17:0.69655365 18:0.80480582 19:0.62409043 20:0.45194972 21:0.26222855 22:0.50603437 23:0.69461179 24:0.38725346 25:0.38988194 26:0.48669535 27:0.43919313 28:0.2692107 29:0.54160976 30:0.55434817 31:0.50507784 32:0.41038507 33:0.73206705 34:0.60299927 35:0.66118413 36:0.57548326 37:0.57400024 38:0.38810095 39:0.31705931 40:0.3934404 41:0.46144947 42:0.43702608 43:0.42460588 44:0.52101958 45:0.64996099 46:0.44759634 47:0.59344512 48:0.70772707 49:0.68198383 50:0.44927552 51:0.37843361 52:0.60584414 53:0.54139721 54:0.46829936 55:0.45398855 56:0.42972451 57:0.26496306 58:0.58428723 59:0.65258855 60:0.6693033 61:0.64801657 62:0.61312342 63:0.42922094 64:0.3931385 65:0.53939229 66:0.38878757 67:0.43877092 68:0.32949114 69:0.53631306 70:0.77127379 71:0.63649046 
0 0 0 0 0 0.8957242422958874 0 0 0 0 0.1613919251083746 0 0 0.05815928467739524 0 1.554978254294326 1.39895478187228 0 0 0 0 0 0 0 0 0 0 0 0 0 0 0 0 0 1.003818013834573 0 0 0 0 0 0 1.394048247778313 3.124260433672116 1:0.41819021 2:0.59310007 3:0.36421964 4:0.47521517 5:0.6342805 6:0.40493411 7:0.62996262 8:0.47466746 9:0.69241375 10:0.55721092 11:0.47618049 12:0.72452849 13:0.36424798 14:0.71579611 15:0.63726228 16:0.52470756 17:0.63131726 18:0.18745768 19:0.57852435 20:0.32966852 21:0.49049017 22:0.6829229 23:0.47198936 24:0.51007867 25:0.72396243 26:0.44490317 27:0.58720589 28:0.57683295 29:0.60681444 30:0.87492895 31:0.37825388 32:0.60649514 33:0.64018029 34:0.73011875 35:0.69609499 36:0.71266359 37:0.28790727 38:0.44011828 39:0.17753977 40:0.45377564 41:0.51073694 42:0.2665073 43:0.56599838 44:0.36071643 45:0.65822726 46:0.69695985 47:0.50376117 48:0.60685974 49:0.70402664 50:0.52446151 51:0.42456555 52:0.5692398 53:0.46410233 54:0.38358933 55:0.53283387 56:0.46167231 57:0.44896224 58:0.4690176 59:0.86102408 60:0.56632042 61:0.47781712 62:0.63664722 63:0.39691138 64:0.43419567 65:0.61070776 66:0.25010347 67:0.34097442 68:0.26068425 69:0.62157542 70:0.75480866 71:0.64253694 
0 0 0 0 0 0 0 0 0 0 0 0 0 0 0 0 0 0 0 0 0 0 0 0 0 0 0 0.4586262053352351 0 0 0 0 0 0 0 0 0 0 0 0 0 0 0 1:0.44868407 2:0.59485877 3:0.38970762 4:0.34722784 5:0.43598992 6:0.4618431 7:0.46010819 8:0.33351943 9:0.56384557 10:0.4628953 11:0.4634518 12:0.48048708 13:0.46278265 14:0.23795274 15:0.38395312 16:0.56519514 17:0.28375846 18:0.38281196 19:0.61569709 20:0.47527462 21:0.47565356 22:0.58210421 23:0.49412555 24:0.50485569 25:0.43353584 26:0.62645602 27:0.59429789 28:0.35254845 29:0.4048841 30:0.62377721 31:0.45408881 32:0.70711195 33:0.51947105 34:0.5822165 35:0.6841383 36:0.53685009 37:0.35742664 38:0.28534234 39:0.16727668 40:0.50935632 41:0.35575318 42:0.3249056 43:0.53725946 44:0.430834 45:0.4212741 46:0.63334084 47:0.74123591 48:0.50594878 49:0.74957031 50:0.63067687 51:0.44271743 52:0.61973137 53:0.6209693 54:0.23434605 55:0.54226524 56:0.42322716 57:0.43013355 58:0.46345392 59:0.77120709 60:0.51690197 61:0.60255802 62:0.62357348 63:0.41460171 64:0.46036044 65:0.63484448 66:0.26065543 67:0.37428406 68:0.42815068 69:0.47185999 70:0.87239468 71:0.60098857 
0 0 0 0 0 0 0 0 0 0 0 0 0 0 0 0 0 0 0.3000200464882318 0 1.106140751324444 0 0 0 0 0 0 0 0 0 0 0 0 0 0 0 0 0 0 0 0 0 0 1:0.29160348 2:0.40671623 3:0.52172655 4:0.42143169 5:0.51161087 6:0.40341204 7:0.56016797 8:0.3006258 9:0.55239719 10:0.56587011 11:0.62785959 12:0.52516162 13:0.36098394 14:0.49736071 15:0.56812811 16:0.49901161 17:0.32803988 18:0.60876328 19:0.48380372 20:0.43326244 21:0.60427749 22:0.68849838 23:0.5991863 24:0.61951435 25:0.50347477 26:0.34088624 27:0.71875113 28:0.35186726 29:0.4648433 30:0.89509684 31:0.30864641 32:0.88319695 33:0.81951326 34:0.65362036 35:0.63522333 36:0.74673891 37:0.42631683 38:0.30150491 39:0.40634859 40:0.42340648 41:0.38769001 42:0.30569848 43:0.36435077 44:0.43249628 45:0.56599849 46:0.6694898 47:0.44773898 48:0.6045506 49:0.76810884 50:0.55674815 51:0.37991592 52:0.54163587 53:0.61174077 54:0.49635622 55:0.494239 56:0.25599867 57:0.26168293 58:0.71562219 59:0.85454524 60:0.47031996 61:0.55681896 62:0.73301393 63:0.4640263 64:0.41741842 65:0.57827741 66:0.26314223 67:0.27960148 68:0.31712416 69:0.5433327 70:0.75657123 71:0.6587491 
0 0 0 0 0 0 0 0 0 0 0 0 0 0 0 0.1777614875201767 0.09503027160449701 0 0 0 0 0 0 0.7939366448592388 0 0 0 0 0 0 0 0 0 0 0 0 1.090251414171838 0 0 0 0 0 0 1:0.44662359 2:0.35939798 3:0.58244634 4:0.60788202 5:0.66967499 6:0.57890487 7:0.50452089 8:0.36704379 9:0.57763821 10:0.50874484 11:0.57522714 12:0.46077058 13:0.49598616 14:0.55518913 15:0.4291788 16:0.71293098 17:0.42121232 18:0.52963835 19:0.71858382 20:0.46067631 21:0.39734527 22:0.77967739 23:0.39743131 24:0.36623695 25:0.71238679 26:0.65318739 27:0.58106798 28:0.54563564 29:0.39789307 30:0.77038085 31:0.3376835 32:0.7374438 33:0.63128239 34:0.73043537 35:0.69535834 36:0.55814475 37:0.25595915 38:0.29666579 39:0.19418697 40:0.42191473 41:0.42964977 42:0.26425359 43:0.55622876 44:0.38877285 45:0.64008766 46:0.7275697 47:0.54359746 48:0.56198102 49:0.77186143 50:0.5513621 51:0.43779874 52:0.50703329 53:0.55691266 54:0.33889994 55:0.65917784 56:0.50152361 57:0.38278079 58:0.52146554 59:0.69633412 60:0.55202669 61:0.52029938 62:0.6116699 63:0.389052 64:0.44542518 65:0.58368737 66:0.2381402 67:0.33432019 68:0.33941486 69:0.5683558 70:0.81758803 71:0.61138111 
0 0 0 0 0 0 0 0 1.697702890083868 0 0 0 0 0 0 0 0 0 0 0 0 0 0 0 0 0.6442085257877187 0 0 0 0 0 0 0 0 0 0 0 0 0 0 0 0 0 1:0.28310528 2:0.43422097 3:0.44926801 4:0.51835376 5:0.58844864 6:0.44316182 7:0.56617296 8:0.53256524 9:0.69400316 10:0.58852071 11:0.49573532 12:0.55358005 13:0.37618101 14:0.63676465 15:0.4180522 16:0.53116298 17:0.58790171 18:0.29569244 19:0.60377032 20:0.32599437 21:0.38730532 22:0.7600317 23:0.39698496 24:0.36293155 25:0.64301801 26:0.42794243 27:0.69880867 28:0.48162451 29:0.50834101 30:0.6893819 31:0.31680095 32:0.66492665 33:0.70644605 34:0.68931824 35:0.74862117 36:0.43478203 37:0.32991031 38:0.40056452 39:0.13145529 40:0.46172664 41:0.54428172 42:0.26482329 43:0.51213199 44:0.32978535 45:0.58645457 46:0.68661016 47:0.57829583 48:0.5899989 49:0.78357172 50:0.56792623 51:0.4136368 52:0.67949134 53:0.54772377 54:0.34989321 55:0.44661859 56:0.3522929 57:0.44801024 58:0.55417269 59:0.79297906 60:0.67334723 61:0.47441024 62:0.62739074 63:0.29772174 64:0.44829166 65:0.7264635 66:0.24423403 67:0.37559891 68:0.31599399 69:0.49897701 70:0.7496205 71:0.59205794 
0 0 0 0 0 0 0 0 0 0 0 0 0 0 0 0 0 0 0 0 0 0 0 0 0 0 1.076584689300396 0 0 0 0 0 0 0 0 0 0 0 0 0 0 0 0 1:0.43034396 2:0.46740407 3:0.34351504 4:0.42198214 5:0.46925378 6:0.33408189 7:0.38903892 8:0.33704424 9:0.66261059 10:0.36541733 11:0.55596071 12:0.48431778 13:0.51010996 14:0.59066838 15:0.33885512 16:0.55631667 17:0.43212944 18:0.47526741 19:0.67061055 20:0.47485322 21:0.45804459 22:0.50419682 23:0.56998783 24:0.50399673 25:0.40316227 26:0.44637683 27:0.61302382 28:0.69132632 29:0.5481258 30:0.61289591 31:0.3645018 32:0.62742275 33:0.5704208 34:0.65228212 35:0.62016028 36:0.69445604 37:0.40015766 38:0.1058942 39:0.40518472 40:0.3775807 41:0.45101106 42:0.37543172 43:0.48357782 44:0.38775101 45:0.48885635 46:0.82620788 47:0.62622964 48:0.48789808 49:0.73423564 50:0.43990225 51:0.3405543 52:0.54832369 53:0.41749832 54:0.47097471 55:0.68666762 56:0.41351902 57:0.44992843 58:0.54003382 59:0.74364007 60:0.58601445 61:0.48056361 62:0.70020139 63:0.33366045 64:0.43531764 65:0.69619465 66:0.2072822 67:0.2924552 68:0.4258711 69:0.50970876 70:0.80339634 71:0.58965439 
0 0 0 0 0 0 0 0 0 0 0 0 0 0 0 0 0 0 0 0 0 1.254777084915296 0 0 0 0 0 0 0 0 0 0 0 0 0 0 0 0 0 0 0 0 0 1:0.61082423 2:0.64606196 3:0.47304603 4:0.70080149 5:0.33545628 6:0.32140577 7:0.70734859 8:0.41587782 9:0.68029511 10:0.67017639 11:0.72089577 12:0.55762714 13:0.39330584 14:0.67002255 15:0.60215473 16:0.47063693 17:0.39714324 18:0.49968839 19:0.41740638 20:0.41071835 21:0.42902312 22:0.62498492 23:0.44538075 24:0.57758749 25:0.3785221 26:0.13479458 27:0.38945216 28:0.50986373 29:0.45009565 30:0.7429623 31:0.59661478 32:0.77684802 33:0.65908974 34:0.69533145 35:0.60286063 36:0.74096495 37:0.66073811 38:0.40494925 39:0.36815265 40:0.1421476 41:0.38194868 42:0.38342947 43:0.50723064 44:0.42515963 45:0.66388488 46:0.61705673 47:0.7760852 48:0.57475448 49:0.84769303 50:0.57356846 51:0.45516253 52:0.47668812 53:0.65852612 54:0.42046916 55:0.60201901 56:0.48887667 57:0.50632262 58:0.67553073 59:0.66938549 60:0.52777165 61:0.55205011 62:0.64456755 63:0.29215676 64:0.46510077 65:0.69783288 66:0.43631649 67:0.3064343 68:0.41421789 69:0.42417935 70:0.85032141 71:0.71307272 
0.8741088792187728 0.1335383004563182 1.200755428266254 0 0 0.6977881228324671 1.354463617382489 1.934003886338964 0.7914849415776364 1.367141034011293 1.899557347863022 1.124049893210707 0.5563035720909008 0.462065923693272 0 2.08554744490805 2.167320865241801 0 0 0.8259620598211896 0 0.6507518483394678 0.03451445522410362 0.1553806348759563 0 0 0.5417633324456783 2.321496876179147 1.095181110403052 0 0 0.2204144135870323 5.031546812862805 1.072598051307068 2.818308636648323 1.725068831015461 0.6732543123179646 1.335420346689785 1.264008864601547 3.905117818174329 2.2913412984115 0 1.88061638793273 1:0.3907502 2:0.54608357 3:0.40272149 4:0.44584018 5:0.42609531 6:0.55707747 7:0.56706154 8:0.49430454 9:0.26379013 10:0.37813395 11:0.74174172 12:0.50545478 13:0.64930362 14:0.48488873 15:0.47150332 16:0.55130243 17:0.51934367 18:0.81807721 19:0.7371428 20:0.47305569 21:0.71149057 22:0.67595917 23:0.41258675 24:0.46663103 25:0.31779724 26:0.67858773 27:0.61960691 28:0.32106313 29:0.43694821 30:0.28507084 31:0.36757603 32:0.40494484 33:0.59279501 34:0.41855329 35:0.59265721 36:0.54524428 37:0.57396191 38:0.4209719 39:0.48606214 40:0.42675799 41:0.37346354 42:0.46954927 43:0.46967402 44:0.43783927 45:0.6824832 46:0.55543482 47:0.71896076 48:0.47336629 49:0.75970489 50:0.44707817 51:0.45251799 52:0.5915001 53:0.51061231 54:0.38431028 55:0.62448961 56:0.4912788 57:0.44318813 58:0.57324046 59:0.57181484 60:0.56936765 61:0.5833413 62:0.73626864 63:0.33134091 64:0.41314268 65:0.38983652 66:0.38163787 67:0.32377973 68:0.34875333 69:0.48076707 70:0.65560609 71:0.69594264 
0 0.2815616985358793 1.783676152727425 0 0.5869579235213392 0 0.6358416972597977 0 0 0 0 0 0 0 0 0 0 0 0 0.4295017148955664 0 0 0.5202781053023997 0 0 0 0.812594594964219 0 0 0 0 0 0 0 0.2590478808298054 0.4779133474071998 0 0 0 0 0 0 0.3658412381688627 1:0.60699326 2:0.45923665 3:0.25892913 4:0.19890404 5:0.50895536 6:0.54665864 7:0.45123094 8:0.6637888 9:0.61537904 10:0.51665837 11:0.41570419 12:0.50970238 13:0.67633498 14:0.27230102 15:0.72755748 16:0.33106276 17:0.71649414 18:0.56815785 19:0.61494678 20:0.54680252 21:0.57435173 22:0.41188952 23:0.56633359 24:0.41635895 25:0.23497865 26:0.2458999 27:0.63460922 28:0.37761247 29:0.48343047 30:0.37596896 31:0.5397535 32:0.2535499 33:0.54017204 34:0.62410444 35:0.6181072 36:0.33507296 37:0.472489 38:0.57589549 39:0.44114557 40:0.4809826 41:0.64793211 42:0.51119375 43:0.40537179 44:0.52967709 45:0.54598546 46:0.66466558 47:0.68148172 48:0.59618223 49:0.65679455 50:0.48173791 51:0.47895935 52:0.79577482 53:0.58322674 54:0.33504939 55:0.40232429 56:0.55293006 57:0.5244956 58:0.46725094 59:0.58129531 60:0.68916136 61:0.4147433 62:0.55565089 63:0.16119015 64:0.57100797 65:0.61732358 66:0.32440498 67:0.47551972 68:0.3069405 69:0.48700586 70:0.75929618 71:0.57945156 
0 0 0 0 0 0 0 1.164341481919482 0 0 0 0 0 0 0 0 0 0 0.2023102535268642 0 0 0 0 0 0 0.2509818575417562 0 0.9537405190716195 0 0 0 0 0 0 0 0 0 0.0338547553137108 0 1.610187947283134 0 2.536122309748596 0.8302756095591307 1:0.7303102 2:0.34750432 3:0.515625 4:0.29636374 5:0.55854797 6:0.46510041 7:0.25773785 8:0.58644629 9:0.74790806 10:0.43435401 11:0.43700337 12:0.47631654 13:0.54282194 14:0.58561337 15:0.45484629 16:0.48774219 17:0.63082808 18:0.50992203 19:0.72171652 20:0.40108225 21:0.28037676 22:0.47448274 23:0.35253483 24:0.56277615 25:0.56444192 26:0.51368892 27:0.81838292 28:0.61990374 29:0.48030788 30:0.63222498 31:0.32329094 32:0.51758879 33:0.51302683 34:0.63781208 35:0.57157153 36:0.4330796 37:0.36776429 38:0.34391457 39:0.28235337 40:0.37989953 41:0.51545519 42:0.12025926 43:0.37022087 44:0.54220104 45:0.4213154 46:0.76951426 47:0.53849256 48:0.59301341 49:0.72490519 50:0.48253596 51:0.3886154 52:0.64580959 53:0.4970848 54:0.4119674 55:0.63199109 56:0.34423882 57:0.48560521 58:0.52265602 59:0.63245612 60:0.62241596 61:0.53139317 62:0.61408103 63:0.35858661 64:0.47530738 65:0.62241584 66:0.24250269 67:0.33479226 68:0.37410644 69:0.56206727 70:0.82727557 71:0.55479443 
0 0 0 0 0 0 0.5840188108476886 0 0 0 0 0 0 0 0 0 0 0 0 0 0 0 0 0 0 0 0 0 0 0 0 0 0 0 0 0 0 0 0 0 0 0 0 1:0.53286564 2:0.80294496 3:0.27388248 4:0.36299366 5:0.53274387 6:0.31325921 7:0.41967383 8:0.50044614 9:0.57004261 10:0.26099026 11:0.50485599 12:0.20940425 13:0.37572473 14:0.51403946 15:0.68625718 16:0.31624296 17:0.38077173 18:0.56602126 19:0.77307421 20:0.29762071 21:0.66123652 22:0.51972908 23:0.42503673 24:0.68818659 25:0.29434055 26:0.37038276 27:0.53565878 28:0.67543644 29:0.59335566 30:0.55568075 31:0.32887644 32:0.70628458 33:0.46959639 34:0.46066797 35:0.56503469 36:0.42991692 37:0.41225567 38:0.44426155 39:0.5418275 40:0.39701521 41:0.51867253 42:0.26832047 43:0.38298988 44:0.51356179 45:0.69979733 46:0.80415499 47:0.69701338 48:0.50116426 49:0.87549114 50:0.49731341 51:0.41564676 52:0.49595591 53:0.50917202 54:0.44761077 55:0.63892144 56:0.37552971 57:0.35285866 58:0.84211403 59:0.63185471 60:0.55662471 61:0.45697981 62:0.86002791 63:0.42578495 64:0.46332741 65:0.74697441 66:0.37862846 67:0.47065869 68:0.51440191 69:0.4106698 70:0.89121407 71:0.61263794 
1.177840089040951 0.5302082280963414 1.540803064123823 1.138728999227584 1.744519744019051 2.246910657723316 0.2382380426898205 2.990797802167848 1.474459252707551 0 0 0 0.1579665518652286 0 0.005694595319223956 0 0 2.553966030886056 0 0 0 0.7146017394073617 0 1.247672909756681 0.9488872787890061 0.04686229682460834 0 0 1.969717753665435 0 0 1.712952888079548 0 0 0 1.975122692228598 0 1.589059063451559 0.1497941427227364 0 0.8610159227667323 0 0 1:0.55327779 2:0.46248543 3:0.47586605 4:0.60549086 5:0.53434187 6:0.42671648 7:0.38169786 8:0.20643678 9:0.53452677 10:0.64272302 11:0.81132013 12:0.42610842 13:0.52473342 14:0.32814351 15:0.74142259 16:0.49249798 17:0.49176309 18:0.82984012 19:0.40055197 20:0.34467319 21:0.69006896 22:0.71948254 23:0.78215188 24:0.34545204 25:0.4996109 26:0.26098979 27:0.43561623 28:0.36618829 29:0.51912236 30:0.91062242 31:0.54441994 32:0.74062485 33:0.70534062 34:0.63190508 35:0.72925311 36:0.87032634 37:0.48340917 38:0.41467556 39:0.43148154 40:0.37351617 41:0.3495217 42:0.48173699 43:0.47364363 44:0.41690004 45:0.47760516 46:0.57965302 47:0.41630781 48:0.84417957 49:0.5991649 50:0.60859394 51:0.34602538 52:0.56151676 53:0.56732154 54:0.52907193 55:0.4065921 56:0.12846947 57:0.33468097 58:0.68974376 59:0.81557167 60:0.45214868 61:0.44215029 62:0.72435385 63:0.51187783 64:0.32972619 65:0.52263868 66:0.36114487 67:0.18299094 68:0.27153823 69:0.56785798 70:0.75374931 71:0.65000033 
0.9013165668476636 0.05192194469582382 0 0 0 0.1766154753215934 2.259694313811001 0 0 0 3.122762291913009 0 0 0.5360373316928462 0 1.70296949617367 0 0 0.9811035981546486 0 0 0 0 0 3.219475917764037 0.5998927347487613 1.729537752155455 0 0 0 0 0 2.112967206837626 0.1813370030035368 0 0.1343805674853302 2.601395438067329 2.727620751967744 3.963238784032525 0 0 0 0 1:0.44285566 2:0.32746565 3:0.39072907 4:0.15024808 5:0.36711952 6:0.64269531 7:0.4643333 8:0.60067242 9:0.45960066 10:0.46051207 11:0.68300688 12:0.70473647 13:0.85821211 14:0.41246969 15:0.55823326 16:0.41349623 17:0.69332069 18:0.80418581 19:0.67849761 20:0.38576469 21:0.47478846 22:0.59047121 23:0.59048212 24:0.39526945 25:0.33711901 26:0.3365784 27:0.63364124 28:0.34083819 29:0.56953031 30:0.65319169 31:0.51512957 32:0.43096784 33:0.63039804 34:0.60950416 35:0.71992159 36:0.67788345 37:0.4846009 38:0.40802523 39:0.34460163 40:0.41457722 41:0.44150504 42:0.3871384 43:0.61693197 44:0.47232538 45:0.74484408 46:0.64008337 47:0.48256597 48:0.61802393 49:0.53892374 50:0.40045795 51:0.44407058 52:0.61468732 53:0.47281814 54:0.33915648 55:0.53104705 56:0.40423745 57:0.447831 58:0.59787774 59:0.60367441 60:0.55429941 61:0.68308079 62:0.58992332 63:0.29719999 64:0.43480217 65:0.53552455 66:0.33985403 67:0.31829354 68:0.37921411 69:0.4614189 70:0.64683771 71:0.68917215 
0 0 0 0 0 3.592164658696471 1.643152659014622 0.8650015227277846 0.8300972323081045 0.9949191033778314 0 0 0 0 0 0 1.288503368699056 0 0 1.003825685000813 0 0 0 0 0.3917921943720556 0.3099543023755993 0 0 0 0.1047234151855141 0 0 0.2948021167170181 0 0 0 0 0 0 0 2.253498193810828 0 0 1:0.46915108 2:0.45339248 3:0.40541884 4:0.47792 5:0.28557181 6:0.58182728 7:0.58656001 8:0.58752126 9:0.43073738 10:0.54532301 11:0.66173869 12:0.54250884 13:0.64901441 14:0.40516117 15:0.54367548 16:0.44826797 17:0.64665025 18:0.59840602 19:0.62778413 20:0.45899001 21:0.48086029 22:0.50335574 23:0.55947673 24:0.3328211 25:0.38348451 26:0.53423941 27:0.60774964 28:0.36468098 29:0.42762294 30:0.53461593 31:0.33636406 32:0.43621206 33:0.68075067 34:0.56914282 35:0.56608599 36:0.4798553 37:0.43442106 38:0.46222195 39:0.27300602 40:0.55110675 41:0.45151123 42:0.39159715 43:0.53715068 44:0.62036443 45:0.48703638 46:0.60142332 47:0.60603797 48:0.62760329 49:0.5854311 50:0.38972911 51:0.42741743 52:0.71991843 53:0.52174246 54:0.32653975 55:0.48810497 56:0.44297037 57:0.21228258 58:0.36573276 59:0.67998832 60:0.68233603 61:0.53232747 62:0.56351483 63:0.34697437 64:0.48479027 65:0.61368686 66:0.29707757 67:0.41403392 68:0.35152453 69:0.51418447 70:0.72526473 71:0.56485152 
2.019166892729777 2.902162562286028 3.870001024674407 0.01687443145124248 1.789868040105497 0 0 0.3597078227873978 2.497063542139486 0 0 0 0 0 0 0 0.7768868253678921 0.05383918552412664 0.8388639435299681 0.1828614626964048 0 3.918602474831213 1.385540992810053 0 0 0 0 0 0 0 2.114174899020796 0 0.1715177117511681 0 0 2.207518883898815 0 0 0 0 3.939169780841535 5.141194196438026 1.792885606122814 1:0.4896625 2:0.50160325 3:0.30762243 4:0.25589955 5:0.48268941 6:0.58493996 7:0.42776904 8:0.37587115 9:0.36010781 10:0.42399749 11:0.57685786 12:0.35450742 13:0.61138386 14:0.36775053 15:0.52981406 16:0.31972501 17:0.44351587 18:0.7028873 19:0.50418144 20:0.42102152 21:0.63231504 22:0.54899204 23:0.59621245 24:0.31660813 25:0.31337658 26:0.6776579 27:0.7131803 28:0.46894246 29:0.61950868 30:0.5746538 31:0.46243525 32:0.56568116 33:0.66767991 34:0.45887977 35:0.43206275 36:0.63610631 37:0.45239297 38:0.48521563 39:0.18799514 40:0.44813132 41:0.40320429 42:0.46613923 43:0.41684735 44:0.51314026 45:0.46635655 46:0.55606133 47:0.57542288 48:0.54414606 49:0.62013 50:0.53023595 51:0.58122468 52:0.45292673 53:0.58700353 54:0.38125283 55:0.53924298 56:0.49309668 57:0.32386383 58:0.59185302 59:0.63608015 60:0.51372391 61:0.64137143 62:0.682953 63:0.29588357 64:0.50884533 65:0.51149225 66:0.33530647 67:0.32361788 68:0.36353013 69:0.52664673 70:0.77310747 71:0.62995809 
0 0 0 0 0 0 0 0 0.3279348663126776 0 0 0 0 0 1.136820185909906 0 0 0 0 0 0 0 0 1.881797973044995 0 0 0 0 0 0 0 0 0.2535322493723511 0 0 0 0 0 0 0 0 0 0 1:0.29212317 2:0.44315362 3:0.46747807 4:0.46264976 5:0.47645089 6:0.4927592 7:0.52664268 8:0.59822428 9:0.51408345 10:0.36865616 11:0.61035258 12:0.48221579 13:0.6571694 14:0.32224527 15:0.39650434 16:0.40950254 17:0.58046776 18:0.42719445 19:0.73989648 20:0.3604621 21:0.24693316 22:0.55085516 23:0.44801801 24:0.41633046 25:0.59168476 26:0.35533234 27:0.58911717 28:0.46198511 29:0.71577579 30:0.62684321 31:0.42487118 32:0.66879231 33:0.58546275 34:0.71973735 35:0.54753882 36:0.26930249 37:0.32056537 38:0.5637176 39:0.36466137 40:0.47516933 41:0.50668597 42:0.2885074 43:0.44083694 44:0.45804295 45:0.46760827 46:0.62288892 47:0.655011 48:0.62926966 49:0.82313675 50:0.60018265 51:0.47488886 52:0.69663906 53:0.57637417 54:0.28776437 55:0.57697743 56:0.39025339 57:0.35455769 58:0.5821138 59:0.68872684 60:0.64678055 61:0.60372823 62:0.69505483 63:0.39230272 64:0.4254804 65:0.74685234 66:0.24812174 67:0.47129491 68:0.32368731 69:0.52184367 70:0.70876777 71:0.540429 
0 0.3615843218446133 0 0 0 0 0 0.8384213268971887 0 0.05831129890445694 0 1.090242735975619 1.628116241204999 3.599745343076712 0 0 0 0 0 0 0 0 0 0 0.202979610401141 1.426328562607175 0 0 0 1.489300253538052 1.575790604564415 0 0.03335789964277733 0.06947878292317226 0.6529776859870134 0.985064311231605 0.1354105822834323 0 0 0.003719027699434337 0 1.156476628598525 0 1:0.4741962 2:0.21898934 3:0.56164974 4:0.32568151 5:0.41171584 6:0.57714731 7:0.3442111 8:0.43358049 9:0.24849074 10:0.51519942 11:0.53965801 12:0.75533849 13:0.73901737 14:0.57484072 15:0.77083451 16:0.4281196 17:0.49474987 18:0.68992639 19:0.71807075 20:0.37013537 21:0.31773022 22:0.61749178 23:0.46217009 24:0.57320261 25:0.32653958 26:0.55891103 27:0.6824252 28:0.36618546 29:0.65625787 30:0.68277621 31:0.61445367 32:0.41191691 33:0.68731201 34:0.58084977 35:0.64952302 36:0.64919287 37:0.39580861 38:0.55336827 39:0.098704018 40:0.46983626 41:0.48438022 42:0.30508137 43:0.61703426 44:0.51043093 45:0.7243982 46:0.56547618 47:0.54908323 48:0.55644512 49:0.57952106 50:0.54565406 51:0.39963713 52:0.58516431 53:0.37936509 54:0.37581226 55:0.63877356 56:0.39221367 57:0.32973751 58:0.44529754 59:0.64980292 60:0.53972638 61:0.63188583 62:0.54042035 63:0.31468973 64:0.42509195 65:0.47976583 66:0.34319738 67:0.42656836 68:0.36616483 69:0.47759789 70:0.66333181 71:0.63731766 
0 0 0 0 0 0 0 0 0 0 0 0 0 0 0 0 0 0 0 0 0 0 0 0 0 0 0.9424962384219064 0 0 0 0 0 0 0.9364227224428491 0 0 0 1.908963793484463 0 0 0 0 0 1:0.44886941 2:0.65082479 3:0.43466121 4:0.53451622 5:0.52126557 6:0.50206697 7:0.50815928 8:0.34501684 9:0.48676857 10:0.48500362 11:0.60731596 12:0.64029926 13:0.46879306 14:0.43653247 15:0.59034908 16:0.61160135 17:0.45372465 18:0.37709165 19:0.75927013 20:0.34705621 21:0.51058412 22:0.6564101 23:0.40319079 24:0.58481276 25:0.51573622 26:0.48056677 27:0.64604175 28:0.65779281 29:0.58190995 30:0.62725723 31:0.40577281 32:0.77425665 33:0.80551034 34:0.49148744 35:0.64556181 36:0.5455367 37:0.12816463 38:0.36770776 39:0.24760436 40:0.49366507 41:0.53590614 42:0.37430999 43:0.53398412 44:0.42713034 45:0.67274821 46:0.75850618 47:0.62281281 48:0.54566455 49:0.78542554 50:0.54654181 51:0.35170943 52:0.34018463 53:0.44858414 54:0.62925571 55:0.5951907 56:0.33404201 57:0.38987708 58:0.64001191 59:0.7905224 60:0.62991709 61:0.51862758 62:0.74176949 63:0.36720741 64:0.47113648 65:0.78189337 66:0.2949869 67:0.44088215 68:0.45984823 69:0.50301516 70:0.7800681 71:0.61826861 
0 0 0 0 0 0 0 0 0 0 0 0 0 0 0 0 0 0 0 0 0 1.893032385881906 0 0 0 1.06097141403992 0 0 0 0 0 0.6363266229622536 0 0 0 0 0 0 0 0 0 0 0 1:0.53104478 2:0.50640756 3:0.41643041 4:0.78559256 5:0.50859803 6:0.55168039 7:0.4903267 8:0.50512612 9:0.78492236 10:0.59211189 11:0.31536108 12:0.60004205 13:0.48862877 14:0.41612914 15:0.44980928 16:0.64720613 17:0.50097173 18:0.53122807 19:0.6445533 20:0.43975827 21:0.3934015 22:0.67392701 23:0.45252526 24:0.45933512 25:0.59573716 26:0.57689178 27:0.64399904 28:0.517766 29:0.48771015 30:0.76313871 31:0.28210461 32:0.89007664 33:0.78428739 34:0.67182392 35:0.73378491 36:0.61374098 37:0.40131256 38:0.24284361 39:0.32967764 40:0.39026457 41:0.31379804 42:0.25773859 43:0.46223053 44:0.36756384 45:0.57070524 46:0.60259736 47:0.45864773 48:0.6359998 49:0.86663318 50:0.4169983 51:0.38291571 52:0.63254589 53:0.54049158 54:0.28223443 55:0.59164375 56:0.36834806 57:0.41870654 58:0.57821107 59:0.77194381 60:0.52323902 61:0.45632693 62:0.52475458 63:0.3368828 64:0.43139401 65:0.55181026 66:0.32224414 67:0.36072627 68:0.4237406 69:0.48627999 70:0.8837356 71:0.62660402 
0 0 0 0 0 2.677854309472318 0 0 0.6372858919401637 0 0 0 0.8249162270394491 0 0 0 0 0 0 0 0 0 0 0 0 0.9005583082546883 0 0.1564643960411088 0 0 0 0 0 0.4242298184673375 0 0 0.9044947478270753 0 0.2127102232948229 0 0 0 0 1:0.18306854 2:0.28595784 3:0.34716982 4:0.33865806 5:0.39597699 6:0.67602158 7:0.51891786 8:0.49911195 9:0.47407672 10:0.39805013 11:0.50089282 12:0.66963291 13:0.66728419 14:0.37799585 15:0.50554442 16:0.35708135 17:0.65336102 18:0.55116528 19:0.62682003 20:0.63209867 21:0.36967853 22:0.36553332 23:0.54740804 24:0.40379757 25:0.50308102 26:0.5353958 27:0.65044975 28:0.30564731 29:0.54732311 30:0.68156654 31:0.52309716 32:0.28746235 33:0.57993412 34:0.58441186 35:0.51301831 36:0.52436286 37:0.36389336 38:0.49029979 39:0.27614743 40:0.50255716 41:0.53578609 42:0.32859865 43:0.51089096 44:0.37553948 45:0.65963525 46:0.50391954 47:0.57390165 48:0.67556882 49:0.54605514 50:0.50364286 51:0.36512011 52:0.72972339 53:0.51903319 54:0.2738094 55:0.60027403 56:0.41113174 57:0.43155518 58:0.41879219 59:0.67526084 60:0.54358131 61:0.57135695 62:0.60808277 63:0.30474347 64:0.46175209 65:0.57156265 66:0.28165874 67:0.5555687 68:0.32276037 69:0.47681025 70:0.69553512 71:0.6573413 
0 0 0 0 0 0 0.8541774893867728 0 0 0 0 0 0 0 0 0 0.1531090187750749 0 0 0 0 0 0 0 0 0 0 0 0 0 0 0 0 0 0 0 0 0 0 0 0 0 0 1:0.3326129 2:0.45777687 3:0.38575432 4:0.53754169 5:0.53748673 6:0.48230314 7:0.46127614 8:0.6431514 9:0.58223444 10:0.59308153 11:0.37308034 12:0.48164746 13:0.48917979 14:0.50367308 15:0.48120824 16:0.48958081 17:0.49795485 18:0.31916505 19:0.62397397 20:0.51203811 21:0.34493512 22:0.54055184 23:0.48583916 24:0.45826584 25:0.58131272 26:0.58769524 27:0.67784363 28:0.39041355 29:0.53038764 30:0.68109608 31:0.30825737 32:0.6982699 33:0.62614256 34:0.66315037 35:0.53150362 36:0.429295 37:0.28629008 38:0.30885613 39:0.26468253 40:0.4968619 41:0.58589125 42:0.20853038 43:0.51235384 44:0.44349456 45:0.66595632 46:0.6950981 47:0.51905018 48:0.75461227 49:0.77320367 50:0.48433849 51:0.3991957 52:0.67949367 53:0.53580493 54:0.27194771 55:0.53978032 56:0.34051538 57:0.4851774 58:0.46645939 59:0.72891337 60:0.60745001 61:0.55391723 62:0.66672754 63:0.40214291 64:0.43510726 65:0.67372566 66:0.25373879 67:0.41688439 68:0.41800994 69:0.54317057 70:0.80457783 71:0.59780002 
0.5971176791046168 2.57258619762461 1.963843890794616 0.4145151023640467 0.7433025803917925 2.338009514229524 1.417411140337152 4.22885321385403 1.633924238974177 0.9093682322907524 0 0 0.8094940949166137 0.4573367429584469 0.4548767710741242 0 0.1698405140370746 0 0 0 1.383335223503503 0.7526022459186493 0.6627996423919402 0.3062687973530248 1.418295253886681 1.461009512751913 1.840714079093046 0.6817809404804699 0.8521103712124996 0 1.305581878632108 2.868206858113001 1.970021151751766 0.7250352906629371 0.3625488384944257 3.745132286374972 0.8929608900454777 0.8758871623680986 2.498196646977908 1.162447286162432 0.9469350654785385 2.747650028124367 2.051400228323324 1:0.29153875 2:0.13313212 3:0.2802766 4:0.46297327 5:0.58674967 6:0.52976298 7:0.29458493 8:0.80728966 9:0.56357586 10:0.50087702 11:0.66070503 12:0.40297416 13:0.4635793 14:0.62328207 15:0.59926486 16:0.21719404 17:0.48881927 18:0.5612762 19:0.35268921 20:0.49899906 21:0.50331551 22:0.65681869 23:0.27709755 24:0.84476894 25:0.25036889 26:0.51387805 27:0.35099128 28:0.43058482 29:0.51941258 30:0.32012835 31:0.63786697 32:2.9635904e-16 33:0.27867237 34:0.59111363 35:0.53351086 36:0.57129568 37:0.76383799 38:0.36746061 39:0.72025651 40:0.090266682 41:0.67977643 42:0.35080045 43:0.27916628 44:0.84830987 45:0.80733865 46:0.59910524 47:0.85718739 48:0.52017343 49:0.6004132 50:0.72927731 51:0.43475991 52:0.50861681 53:0.68138629 54:0.47519198 55:0.59756011 56:0.36341783 57:0.4565703 58:0.59919417 59:0.39036983 60:0.61044854 61:0.52874702 62:0.67740726 63:0.16882542 64:0.56486136 65:0.49852985 66:0.42247164 67:0.43524548 68:0.53541166 69:0.47989476 70:0.66701776 71:0.73958802 
0 0 0 0 0 0 0 0 0 0 0 0 0 0 0 0 0 0 0 0 0 0 0 0 0 0 0 0 0 0 0 0 0 0 0 0 0.8423280818623352 0 0 0 0 0 0 1:0.39066514 2:0.63473505 3:0.48232368 4:0.59849161 5:0.43367675 6:0.44689015 7:0.50198191 8:0.50492662 9:0.39539823 10:0.51975232 11:0.53225571 12:0.4344866 13:0.5053882 14:0.44127116 15:0.65274906 16:0.52919275 17:0.51039064 18:0.41585869 19:0.66659933 20:0.38471916 21:0.61003375 22:0.41744882 23:0.43545312 24:0.42701066 25:0.43801528 26:0.27352157 27:0.3683106 28:0.62527245 29:0.48494151 30:0.4636935 31:0.48306081 32:0.75088626 33:0.20414262 34:0.61450046 35:0.4089565 36:0.43968102 37:0.60730195 38:0.47631773 39:0.54173392 40:0.33466616 41:0.42323273 42:0.38447958 43:0.37730613 44:0.62897956 45:0.63641471 46:0.57104689 47:0.80721116 48:0.53176618 49:0.78435522 50:0.5967899 51:0.35228607 52:0.72166079 53:0.65688199 54:0.48355708 55:0.61365521 56:0.57134408 57:0.40293512 58:0.55113351 59:0.76131117 60:0.42199397 61:0.58904535 62:0.66373044 63:0.47103152 64:0.43700144 65:0.59154397 66:0.50504285 67:0.45241049 68:0.28249195 69:0.40749514 70:0.83194149 71:0.61825603 
0 0.8646481165886761 0 0.1115932590951989 0 0 0.006653726770850762 0 0 0 0 0 0 0 0 0 0 0.164741652455885 0 0 0 0 0 1.026069300947418 0.09002558650481389 0 0 0 0 0.7975497660064558 2.53275152664066 0 0 0 0 0 0 0 0 0 0 0 0 1:0.52873284 2:0.55677307 3:0.5358364 4:0.55855888 5:0.38262901 6:0.458177 7:0.59147066 8:0.65184456 9:0.3607336 10:0.54135251 11:0.53826332 12:0.35307044 13:0.50147158 14:0.66694868 15:0.85735393 16:0.50000829 17:0.55633759 18:0.5545302 19:0.68024647 20:0.24227467 21:0.70311993 22:0.522879 23:0.46937257 24:0.37089092 25:0.39694172 26:0.28559539 27:0.42091936 28:0.57067895 29:0.63771719 30:0.40833008 31:0.44247153 32:0.68783593 33:0.22779436 34:0.50914806 35:0.49257326 36:0.4349229 37:0.54525334 38:0.51663834 39:0.65859872 40:0.28378883 41:0.58154374 42:0.36226821 43:0.34256685 44:0.55648232 45:0.55662936 46:0.59671485 47:0.72274584 48:0.47487238 49:0.82288539 50:0.49040365 51:0.30865565 52:0.5538587 53:0.51713783 54:0.53051853 55:0.44754839 56:0.66579908 57:0.341867 58:0.49232918 59:0.74918479 60:0.63770431 61:0.36577323 62:0.59163219 63:0.51532954 64:0.43967298 65:0.60119474 66:0.50572252 67:0.48629904 68:0.23516072 69:0.60023117 70:0.82606924 71:0.50415468 
0 0 0 0 0 0 0 0 0 0 0 0 0 0 0 0 0 0 0 0 0 0 0 0 0 0 0 0 0 0.3185710943304206 0 0 0 0 0 0 0 0 0 0 0 0 0 1:0.3908233 2:0.29730383 3:0.39565852 4:0.44766295 5:0.49749807 6:0.23959103 7:0.58412331 8:0.58851951 9:0.45350823 10:0.65791416 11:0.57754451 12:0.48371577 13:0.62056738 14:0.53675777 15:0.57648796 16:0.54727155 17:0.57023531 18:0.52569896 19:0.58983243 20:0.34695107 21:0.51616192 22:0.44583702 23:0.45717558 24:0.40679631 25:0.38676953 26:0.20738131 27:0.41056398 28:0.7343455 29:0.46738034 30:0.3452177 31:0.48748782 32:0.74550271 33:0.2713919 34:0.73855257 35:0.56269234 36:0.50677466 37:0.64159507 38:0.49003509 39:0.51652372 40:0.42271158 41:0.60612416 42:0.41767353 43:0.40052602 44:0.59730303 45:0.57342994 46:0.61032754 47:0.88839608 48:0.47134748 49:0.80548757 50:0.73053175 51:0.36142492 52:0.64323366 53:0.72475129 54:0.51874334 55:0.57740748 56:0.87546605 57:0.56007403 58:0.53293061 59:0.66623616 60:0.50123668 61:0.48228425 62:0.51400578 63:0.26490259 64:0.48026127 65:0.53248996 66:0.44445959 67:0.34019458 68:0.24567753 69:0.55864316 70:0.78603846 71:0.70162565 
0 0 0 0 0 0 0 0 0 0 0 0 0 0 0 0 0 0 0 0 0 0 0 0 0 0 0 0 0 0.3078452735772084 0 0 0 0.7538484931085921 0 0 0 0 0 0 0 0 0 1:0.34295586 2:0.32962948 3:0.41004965 4:0.51249707 5:0.35874975 6:0.5791108 7:0.69678462 8:0.61590821 9:0.45407876 10:0.61891919 11:0.31923914 12:0.45924664 13:0.83982068 14:0.57223916 15:0.37246844 16:0.43579698 17:0.56276679 18:0.53297997 19:0.41469824 20:0.50285596 21:0.36824313 22:0.40361524 23:0.8415761 24:0.49207744 25:0.34405822 26:0.55254608 27:0.27918226 28:0.43615273 29:0.52144361 30:0.5081321 31:0.57834649 32:0.36619312 33:0.69538695 34:0.51618069 35:0.68000221 36:0.55591929 37:0.47878772 38:0.58984858 39:0.44447729 40:0.37667841 41:0.3563942 42:0.4089424 43:0.4397693 44:0.48067817 45:0.82243961 46:0.44091785 47:0.8457374 48:0.5927456 49:0.61076647 50:0.60876769 51:0.45802072 52:0.54652184 53:0.68175507 54:0.49272582 55:0.65780264 56:0.77094197 57:0.23023362 58:0.40319815 59:0.65629846 60:0.51979762 61:0.47432297 62:0.52389562 63:0.34386724 64:0.45982397 65:0.42835319 66:0.49336377 67:0.39904168 68:0.26793844 69:0.51812565 70:0.76317012 71:0.7268157 
0 0 0 0 0 0 0 0 0 0 0 0 0 0 0 0 0 0 0 0 0 0 0 0 0 0 0 0 0 0 0 0 0 0 0 0 0.1713604554177409 0 0 0 0 0 0 1:0.37938946 2:0.473544 3:0.47760648 4:0.43914527 5:0.37486854 6:0.77434111 7:0.5965755 8:0.72665519 9:0.37263677 10:0.57262176 11:0.36521849 12:0.34064448 13:0.71151227 14:0.47492006 15:0.46421087 16:0.40708846 17:0.50865561 18:0.42545974 19:0.46049729 20:0.53909218 21:0.48248991 22:0.48518464 23:0.61160123 24:0.59436601 25:0.41859102 26:0.6772002 27:0.39404687 28:0.23356529 29:0.44681039 30:0.72598338 31:0.62533605 32:0.35214534 33:0.56531906 34:0.47787926 35:0.56316006 36:0.55578238 37:0.56756204 38:0.57837015 39:0.39333615 40:0.40339348 41:0.36756915 42:0.34836093 43:0.49689507 44:0.46497306 45:0.8108393 46:0.51271838 47:0.85986674 48:0.57608104 49:0.44313648 50:0.52932596 51:0.43127298 52:0.59324688 53:0.63044798 54:0.45210224 55:0.52609092 56:0.69213676 57:0.14605537 58:0.35576022 59:0.74812388 60:0.57517833 61:0.5523544 62:0.59610355 63:0.4512668 64:0.45999363 65:0.53528488 66:0.48133177 67:0.54513699 68:0.27205175 69:0.49368599 70:0.78904688 71:0.65414524 
0 0 0 0 0 0 0 0 0 0 0 0 0 0 0 0 0 0 0 0 0 0 0 0 0 0 0 0 0 0.6448245006200632 0 0 0 0 0 0 0 0 0 0 0 0 0.9620958464916675 1:0.60940927 2:0.49624583 3:0.53699952 4:0.41707975 5:0.33396637 6:0.58025903 7:0.46223706 8:0.60729522 9:0.44915015 10:0.58122748 11:0.47133246 12:0.37287 13:0.75008851 14:0.63533354 15:0.42357734 16:0.29984614 17:0.49452353 18:0.62874806 19:0.55775297 20:0.36433578 21:0.47757769 22:0.36588439 23:0.60775697 24:0.59402609 25:0.45897043 26:0.55149221 27:0.4354842 28:0.35394621 29:0.58207905 30:0.56645691 31:0.68254888 32:0.3601197 33:0.46789387 34:0.41994244 35:0.58661753 36:0.5849036 37:0.40100574 38:0.5714767 39:0.54289949 40:0.37590367 41:0.36837286 42:0.38704646 43:0.40563732 44:0.49462259 45:0.78399789 46:0.51921064 47:0.73436826 48:0.53208667 49:0.60263127 50:0.44060811 51:0.35611436 52:0.52155715 53:0.41435999 54:0.39321673 55:0.56081015 56:0.65288281 57:0.22768891 58:0.27214426 59:0.70477611 60:0.58074909 61:0.38717899 62:0.57798481 63:0.47834188 64:0.46394011 65:0.53163368 66:0.45852491 67:0.49188003 68:0.21236314 69:0.52019155 70:0.78386295 71:0.55838478 
1.330115529688142 1.638361789841869 0 0.4192006621280748 0 0 0.6608494129242731 0 0 0 0 0 0 0 0 1.983376581118194 0.7362747331026426 0 0 0 0.7560937051291121 0 0 0 0.7999856220013395 0.713123763776215 0 0 0 0.1449997999748039 0.6737468326054289 1.052006425714496 0 0 0.2599944996752275 0 0 0 1.230105166246851 2.461080596085107 0.4676299752937632 0 2.566531730461704 1:0.56878549 2:0.5049659 3:0.40863657 4:0.52550042 5:0.46287197 6:0.55088031 7:0.50669497 8:0.43973169 9:0.62981975 10:0.65638471 11:0.69250286 12:0.45254606 13:0.45927897 14:0.46150744 15:0.28960475 16:0.59986347 17:0.46314353 18:0.51182067 19:0.68261498 20:0.46924719 21:0.60075158 22:0.65356636 23:0.7404809 24:0.33782935 25:0.46802804 26:0.20703992 27:0.47349027 28:0.70571285 29:0.52296501 30:0.64207143 31:0.54562891 32:0.56186163 33:0.38300371 34:0.5583849 35:0.38154861 36:0.59028 37:0.68898863 38:0.35136622 39:0.68886203 40:0.39941245 41:0.36261427 42:0.42245382 43:0.35187799 44:0.50812161 45:0.45996892 46:0.6713143 47:0.63834816 48:0.50399357 49:0.77013177 50:0.37384605 51:0.30167449 52:0.45769405 53:0.55696118 54:0.44142851 55:0.58368862 56:0.61628842 57:0.47558776 58:0.3988595 59:0.68166572 60:0.53091955 61:0.41937712 62:0.60834819 63:0.5825265 64:0.44832274 65:0.59781277 66:0.49874756 67:0.37005308 68:0.36727226 69:0.60200316 70:0.89861393 71:0.54229689 
0 0 0 0 0 0 0 0 0 0 0 0 0 0 0 0 0 0.2289190847348414 0 0 0 0 0 0 0 0 0 0 0 0 0 0 0 0 0 0 0 0 0 0 0 0 0 1:0.45851824 2:0.65307826 3:0.33878314 4:0.66334933 5:0.34668452 6:0.37510589 7:0.60348779 8:0.56231028 9:0.60784453 10:0.63878429 11:0.55128324 12:0.4185006 13:0.45775092 14:0.42331129 15:0.37166783 16:0.66499627 17:0.52093136 18:0.46111211 19:0.59796602 20:0.39787602 21:0.58599091 22:0.56976408 23:0.61980492 24:0.46138811 25:0.37653548 26:0.38538545 27:0.30294448 28:0.73975396 29:0.49890041 30:0.62595725 31:0.50054544 32:0.82967067 33:0.41526866 34:0.62537706 35:0.49036863 36:0.59906209 37:0.67396015 38:0.41123191 39:0.4264113 40:0.33813882 41:0.29947451 42:0.35615867 43:0.49227047 44:0.58443487 45:0.41746026 46:0.63268095 47:0.78877151 48:0.57828176 49:0.72753775 50:0.55897331 51:0.29164928 52:0.58262724 53:0.6874764 54:0.41731271 55:0.58794886 56:0.57399416 57:0.37882352 58:0.56674957 59:0.77065891 60:0.45428306 61:0.55536342 62:0.6870923 63:0.49693695 64:0.47265321 65:0.52934933 66:0.526164 67:0.36812815 68:0.43700761 69:0.43653318 70:0.94866616 71:0.68026888 
0 0 0 0 0 0 0 0 0 0 0 0 0 0 0 0 0.4667493755966449 0 0 0.5443389710908255 0 2.077690598737941 0 0 0 0 0 0 0 0 0 0 0 0 0 0 1.036769445611906 0 0 0 0 0 0 1:0.4774929 2:0.58734512 3:0.26600799 4:0.58776826 5:0.33250004 6:0.37312356 7:0.61971921 8:0.57486081 9:0.54997796 10:0.68527001 11:0.6253686 12:0.39029473 13:0.53543603 14:0.47587073 15:0.36397031 16:0.60301125 17:0.46943748 18:0.40021518 19:0.49542904 20:0.35607246 21:0.51976401 22:0.45968515 23:0.70920539 24:0.44234559 25:0.4160386 26:0.17779565 27:0.29178682 28:0.73971879 29:0.50301492 30:0.57296294 31:0.56417847 32:0.86710936 33:0.42218614 34:0.7122798 35:0.54091936 36:0.62965149 37:0.68474054 38:0.39447206 39:0.46367374 40:0.3046194 41:0.4528785 42:0.50835735 43:0.49136794 44:0.62626296 45:0.50844842 46:0.63733047 47:0.85656333 48:0.53699011 49:0.83242863 50:0.58403283 51:0.34992179 52:0.52014762 53:0.76235604 54:0.44331715 55:0.60418254 56:0.84801829 57:0.54409254 58:0.6149556 59:0.69068027 60:0.47987258 61:0.46255359 62:0.51535809 63:0.29381546 64:0.47992927 65:0.5774346 66:0.48173568 67:0.28099167 68:0.40255794 69:0.56019503 70:0.86562389 71:0.74669307 
0 0 0 0 1.51431493381608 1.027710810000716 0 0 0 0.8822208935308938 0.6432949712773278 2.78721032477133 0 0 0 0 0 0 0 0 0 0 0 0.8887807672521233 0 0 0 0 0 0 0 0 0 0 0 0 0 0 0 0 0 0 0 1:0.61679339 2:0.52864128 3:0.43263143 4:0.56711447 5:0.46455666 6:0.5063557 7:0.49354857 8:0.43867505 9:0.65486705 10:0.63658214 11:0.70073014 12:0.39370188 13:0.55207467 14:0.4901247 15:0.28384209 16:0.60222989 17:0.54256946 18:0.47369018 19:0.63177365 20:0.46320012 21:0.59836388 22:0.64494514 23:0.69917172 24:0.30385938 25:0.55619574 26:0.22808577 27:0.4468407 28:0.68017668 29:0.53832877 30:0.69076514 31:0.54572785 32:0.61891645 33:0.38165501 34:0.57256055 35:0.36370638 36:0.61374843 37:0.70636308 38:0.34936675 39:0.67060554 40:0.42653501 41:0.41208389 42:0.44898039 43:0.36166832 44:0.48775339 45:0.46672037 46:0.66437918 47:0.67002463 48:0.50238115 49:0.79373282 50:0.37213388 51:0.31801072 52:0.49269477 53:0.58188415 54:0.42824882 55:0.52591068 56:0.63278878 57:0.42918631 58:0.3779943 59:0.67896497 60:0.54777187 61:0.40893355 62:0.61385566 63:0.59335828 64:0.46557757 65:0.58904707 66:0.49956095 67:0.36641875 68:0.35738331 69:0.60600376 70:0.8896023 71:0.53027463 
0 0 0 0 0 0 0 0 0 0 0 0 0 0 0 0 0 0 0 0.908316569649207 0 0 0 0 0 0 0 0 0 0 0 0 0 0.09043073837595338 0 0 0 0 0 0 0 0 0 1:0.31553409 2:0.41702846 3:0.34120309 4:0.49220929 5:0.56846416 6:0.47246295 7:0.47255903 8:0.49959743 9:0.51910204 10:0.46094003 11:0.47190917 12:0.71232688 13:0.50810647 14:0.54155171 15:0.47478911 16:0.47732383 17:0.52725625 18:0.43951243 19:0.60979915 20:0.48047912 21:0.47946748 22:0.44093403 23:0.38816944 24:0.63712746 25:0.46530735 26:0.22707726 27:0.65010101 28:0.57945853 29:0.46157032 30:0.55909812 31:0.46863222 32:0.70518816 33:0.55202371 34:0.76276386 35:0.45655024 36:0.48366761 37:0.36085558 38:0.40751287 39:0.39339194 40:0.59217042 41:0.52343613 42:0.33331397 43:0.37386319 44:0.48146433 45:0.66156912 46:0.64193285 47:0.59105235 48:0.71057135 49:0.80159181 50:0.50745249 51:0.40457323 52:0.70387608 53:0.4932982 54:0.30095267 55:0.5030784 56:0.42490554 57:0.45871899 58:0.51948327 59:0.79741871 60:0.70750087 61:0.40857956 62:0.4643907 63:0.32383436 64:0.37206849 65:0.59944916 66:0.3335152 67:0.32292387 68:0.26417407 69:0.52486402 70:0.80413729 71:0.58183122 
0 0 0 0 0 0 0 0 0 0 0 0 0 0 0 0 0 0 0 0 0 0.07240636970823411 0 0 0 0 0 0 0 0 0 0 0 0 0 0 0 0 0 0 0 0 0 1:0.41289973 2:0.76480991 3:0.43951377 4:0.58490676 5:0.38559008 6:0.32573032 7:0.53794843 8:0.37776077 9:0.48496577 10:0.52532589 11:0.45491752 12:0.39647502 13:0.54088467 14:0.56890303 15:0.62837791 16:0.60390663 17:0.32852018 18:0.48744518 19:0.53950322 20:0.4587011 21:0.59039569 22:0.46321625 23:0.3769843 24:0.65930712 25:0.17618011 26:0.24678583 27:0.45904452 28:0.61909688 29:0.47472021 30:0.45430949 31:0.49154431 32:0.7371853 33:0.3854399 34:0.6706177 35:0.55645025 36:0.56687039 37:0.57797503 38:0.40088555 39:0.57183075 40:0.21242474 41:0.52903819 42:0.3108083 43:0.4410184 44:0.54077363 45:0.734707 46:0.63510966 47:0.90058804 48:0.47902471 49:0.88353002 50:0.61860186 51:0.41836563 52:0.51022512 53:0.67158562 54:0.44192147 55:0.63661766 56:0.61998492 57:0.53093451 58:0.63118434 59:0.58648145 60:0.57849145 61:0.58254313 62:0.68718678 63:0.2987192 64:0.46415505 65:0.65278989 66:0.49245936 67:0.40311649 68:0.40523002 69:0.38079906 70:0.88381493 71:0.65418607 
0 0 0 0 0 0 0 0 0 0 0 0 0 0 0 0 0.2613436988711017 0.7159612389574513 0 0 0 0 0 0 0 0 0 0 0 0 0 0 0 0 0 0.5931622954867618 0 0.8863722740766667 0.100951463981749 0 0 0 0 1:0.46451372 2:0.33551559 3:0.36093244 4:0.57149112 5:0.46504983 6:0.28774682 7:0.67916948 8:0.56899059 9:0.44013983 10:0.53516752 11:0.54209429 12:0.47203115 13:0.59654188 14:0.61055386 15:0.64126813 16:0.52648115 17:0.59435439 18:0.43116817 19:0.55363131 20:0.29576364 21:0.65241009 22:0.42627308 23:0.57814664 24:0.43389043 25:0.32445312 26:0.1419659 27:0.36236432 28:0.82135653 29:0.4866941 30:0.23062268 31:0.54233265 32:0.62673652 33:0.20300442 34:0.72191817 35:0.55774128 36:0.56660515 37:0.66721022 38:0.41614366 39:0.50277424 40:0.34580919 41:0.70543569 42:0.44453448 43:0.36054829 44:0.61351174 45:0.57198417 46:0.59738815 47:0.86398566 48:0.35750824 49:0.87460244 50:0.79043388 51:0.33771661 52:0.69603944 53:0.75369012 54:0.54465818 55:0.60319537 56:0.86800694 57:0.56149387 58:0.55927432 59:0.60478455 60:0.50607586 61:0.44442439 62:0.53570849 63:0.15250415 64:0.48295248 65:0.56654698 66:0.46606749 67:0.30790392 68:0.20779487 69:0.57621199 70:0.70191282 71:0.72633445 
0 0 0 0 0 0 0 0 0 0 0 0 0 0 0 0 0 0 0.3121476767827562 0 0 0 0 0 0 0 0 0 0 0 0 0 0 0 0 0 0 0.08502364050654707 0 0 0 0 0 1:0.34106174 2:0.65815437 3:0.38977399 4:0.47386381 5:0.48383787 6:0.43355057 7:0.71228099 8:0.58063263 9:0.33366838 10:0.38418341 11:0.54837787 12:0.23866785 13:0.51635271 14:0.52510452 15:0.543832 16:0.50735188 17:0.47276878 18:0.40811789 19:0.48404318 20:0.38490576 21:0.49200696 22:0.44372925 23:0.42801374 24:0.46395692 25:0.53081179 26:0.27136219 27:0.57848668 28:0.58552885 29:0.55179435 30:0.53404737 31:0.45101148 32:0.75207704 33:0.22278254 34:0.64810699 35:0.29066828 36:0.45948374 37:0.50147313 38:0.52240407 39:0.51714313 40:0.48017085 41:0.51266253 42:0.3575066 43:0.3326821 44:0.52528012 45:0.56856573 46:0.68911773 47:0.78502321 48:0.52941805 49:0.67624289 50:0.59057415 51:0.48744553 52:0.65491343 53:0.614793 54:0.39630532 55:0.61517674 56:0.6733079 57:0.2942673 58:0.49403739 59:0.75685823 60:0.52300829 61:0.56967443 62:0.61169618 63:0.38946682 64:0.46577886 65:0.66773963 66:0.41376469 67:0.45861536 68:0.2383765 69:0.51333123 70:0.81265658 71:0.55358064 
1.083140863299304 0 0 0.9856574638623281 0 0 0 0 0 0 0 0.4609268106557197 0.6042198921482802 0 0.2773126861331494 0 0 0 0.2854387102096207 0 0 0 0 0 0 0 0 0 0 0.7620493760953188 0 0 0.2894539430666577 0 0 0 0 1.197772049378142 0 1.842559233662939 0 0 0 1:0.30331463 2:0.52939224 3:0.43593043 4:0.51063484 5:0.48690128 6:0.48836309 7:0.48457479 8:0.54765618 9:0.39215508 10:0.6067726 11:0.48033839 12:0.39946571 13:0.51468641 14:0.44039428 15:0.73534292 16:0.45960966 17:0.50172931 18:0.57038677 19:0.57096279 20:0.32044974 21:0.58459175 22:0.50164258 23:0.46808058 24:0.46600258 25:0.32757461 26:0.12469149 27:0.54316986 28:0.67029291 29:0.62577534 30:0.51624793 31:0.53394097 32:0.72258985 33:0.23318639 34:0.56349421 35:0.469412 36:0.50793749 37:0.63008094 38:0.45719603 39:0.68039584 40:0.29388201 41:0.52576953 42:0.31803834 43:0.38908106 44:0.48233768 45:0.52459949 46:0.5755524 47:0.69484001 48:0.51300126 49:0.78625691 50:0.56090605 51:0.33293107 52:0.59712845 53:0.5641883 54:0.55739164 55:0.58936983 56:0.68435782 57:0.4353179 58:0.42936069 59:0.75114757 60:0.549748 61:0.40998912 62:0.56577855 63:0.39136517 64:0.39508495 65:0.50947964 66:0.5071339 67:0.38155016 68:0.17172439 69:0.59958303 70:0.77630383 71:0.58042032 
0.5873820751894562 2.217728529631536 0 1.939304906035838 0 0 0 0 0.1859877307939205 0 0 0 5.246225563261548 2.985103304895706 0 0 0.700732346624753 1.843213525272909 0.1203760497953558 0 0.7949269751196082 0 2.858267246818694 0 0.5423684746883312 0 0 0.1998051944463371 0.8992828738407876 0.0220150466629427 1.283821925771872 0 2.19135951127482 0 0 0 0 1.640367603719258 0.2685429191230488 0 0 0 0.1659195937013316 1:0.23871852 2:0.46285632 3:0.46191031 4:0.63664734 5:0.49401572 6:0.40988302 7:0.57425344 8:0.60826302 9:0.51607889 10:0.5219754 11:0.50529563 12:0.63138539 13:0.54737079 14:0.38518474 15:0.58682948 16:0.62231052 17:0.64776909 18:0.50788051 19:0.58739448 20:0.54674232 21:0.39665204 22:0.53887224 23:0.46085364 24:0.43251961 25:0.50940388 26:0.42186749 27:0.51084089 28:0.4775531 29:0.47086999 30:0.46324188 31:0.40974152 32:0.75484985 33:0.51372081 34:0.64007425 35:0.43196115 36:0.49427947 37:0.52454323 38:0.40834749 39:0.47849044 40:0.47223178 41:0.41729063 42:0.30083016 43:0.46637735 44:0.54296488 45:0.58522284 46:0.49236679 47:0.61585867 48:0.61706632 49:0.64976948 50:0.5323292 51:0.4444924 52:0.83044201 53:0.57830232 54:0.38160279 55:0.58337623 56:0.45890972 57:0.38841063 58:0.38755652 59:0.92860854 60:0.43239033 61:0.58841503 62:0.50685471 63:0.46329412 64:0.35880187 65:0.57622403 66:0.41980898 67:0.41404682 68:0.1887098 69:0.49352971 70:0.71957761 71:0.57728565 
0 0 0 0 0 0 0 0 0 0 0 0 0 0 0 0 0 0 0 1.168457167506735 1.725988511640855 0 0 0 0 0 0.2890908778568748 0 0 0 0 0 0 0 0 0 0 1.662196010839226 0 0 0 0 0 1:0.62480283 2:0.5442633 3:0.39608875 4:0.25065827 5:0.3136085 6:0.72227812 7:0.63850117 8:0.55402106 9:0.44808984 10:0.43882412 11:0.53118145 12:0.37403509 13:0.64130473 14:0.59210354 15:0.40982509 16:0.31101555 17:0.5035308 18:0.55399311 19:0.5463599 20:0.33812177 21:0.51331639 22:0.48263714 23:0.71241474 24:0.51227033 25:0.5255872 26:0.52581125 27:0.40111849 28:0.22669193 29:0.521869 30:0.60361707 31:0.57025886 32:0.29720721 33:0.42942458 34:0.35487366 35:0.60881758 36:0.55077952 37:0.50917941 38:0.52689123 39:0.47795969 40:0.37188303 41:0.35466281 42:0.40600759 43:0.29790503 44:0.47123289 45:0.83439171 46:0.49250349 47:0.63077116 48:0.58484012 49:0.56352055 50:0.47718817 51:0.42831072 52:0.48479196 53:0.51674485 54:0.44150853 55:0.5162757 56:0.71331817 57:0.16713309 58:0.33645278 59:0.66163075 60:0.61608976 61:0.35948208 62:0.62197345 63:0.45455435 64:0.48105919 65:0.56459296 66:0.43698251 67:0.47790837 68:0.15280963 69:0.57706451 70:0.72672236 71:0.52870965 
0 0 0 0 0 0 0 0 0 0 0 0 0 0 0 0 1.3376175208059 0 0 0 0 0 0 0 0 0 0 0.4810695426461977 0 0 0 0 0 0 0 0 0 0 0 0 0 0 0 1:0.49645999 2:0.42971945 3:0.49934319 4:0.42587769 5:0.32008699 6:0.69267464 7:0.58610028 8:0.62873441 9:0.59134972 10:0.54356825 11:0.43014613 12:0.42399019 13:0.86744279 14:0.57443386 15:0.48017824 16:0.43581861 17:0.62102121 18:0.57910013 19:0.53786981 20:0.49322397 21:0.4505952 22:0.52599156 23:0.67110568 24:0.60143101 25:0.37318599 26:0.56524128 27:0.36225027 28:0.33811691 29:0.42560461 30:0.50891697 31:0.53444725 32:0.32237551 33:0.5720005 34:0.43136695 35:0.63835871 36:0.59325832 37:0.54040772 38:0.52142245 39:0.31226569 40:0.39866239 41:0.24823698 42:0.23880382 43:0.47756678 44:0.46942872 45:0.74092036 46:0.35545489 47:0.76767755 48:0.5555644 49:0.4322015 50:0.60012305 51:0.43830118 52:0.59780455 53:0.54271603 54:0.47461197 55:0.67221588 56:0.62065834 57:0.14127813 58:0.48111942 59:0.61244255 60:0.43170917 61:0.56991601 62:0.69812137 63:0.34725863 64:0.46683732 65:0.45319816 66:0.46867743 67:0.38756686 68:0.21422625 69:0.41356334 70:0.72163576 71:0.6828559 
0 0 0 0 0 0 0 0 0 0 0 0 0 0 0 0 0.2554379051466811 0 0 0 0 0 0 0 0 0 0 0 0 0 0 0 0 0 0 0 0 0 0 0 0 0 0 1:0.39315426 2:0.48114738 3:0.47536254 4:0.41044289 5:0.26920736 6:0.61204356 7:0.65538555 8:0.6090861 9:0.45368642 10:0.5982492 11:0.31945282 12:0.50912052 13:0.73498517 14:0.56932068 15:0.32946077 16:0.33910146 17:0.53514659 18:0.41889703 19:0.42452338 20:0.50516391 21:0.35635686 22:0.45954424 23:0.80047029 24:0.56159359 25:0.46518841 26:0.446307 27:0.33599323 28:0.45186645 29:0.5509879 30:0.5785864 31:0.62836921 32:0.31050742 33:0.63996017 34:0.43486264 35:0.65142906 36:0.59169585 37:0.50300592 38:0.59093171 39:0.37072536 40:0.4455848 41:0.43132201 42:0.34713468 43:0.49191082 44:0.44488424 45:0.81850582 46:0.46503791 47:0.85653001 48:0.54177779 49:0.55960959 50:0.64510036 51:0.49294969 52:0.53137147 53:0.65178025 54:0.46092284 55:0.56151694 56:0.84304047 57:0.19226691 58:0.47321615 59:0.62450045 60:0.53572541 61:0.4779354 62:0.54208595 63:0.29459193 64:0.46551403 65:0.48956016 66:0.44626898 67:0.37573799 68:0.23081775 69:0.56721765 70:0.73620659 71:0.73027354 
0.9778237334198789 1.902406751522135 0 0 0 0 0.7377714475212639 0 0.05913244980805835 0 0 0.2957057871313262 0 0 0 0 0.619351502963578 0 3.135785755333535 0 0 0 1.733076511354686 0 0 0 0 0 0 0.615736739460945 0 0 0 0 0 1.682569499179251 0 0 0.9816946016759185 0.6459780184831044 0 0 0.6451805760995735 1:0.43132949 2:0.40471223 3:0.41182399 4:0.42051053 5:0.38262731 6:0.60610819 7:0.73219544 8:0.5476113 9:0.3234075 10:0.33774164 11:0.32205242 12:0.46801358 13:0.5119344 14:0.5803529 15:0.48060709 16:0.21806267 17:0.46697098 18:0.65234309 19:0.58203119 20:0.34540254 21:0.46525541 22:0.39863834 23:0.78285491 24:0.52911013 25:0.55927026 26:0.46112406 27:0.53532952 28:0.3188127 29:0.5721972 30:0.58502644 31:0.49561438 32:0.20843795 33:0.33205193 34:0.45121017 35:0.53121507 36:0.59349543 37:0.53427476 38:0.57452506 39:0.46306011 40:0.3432225 41:0.36497569 42:0.34144554 43:0.28896126 44:0.48056367 45:0.86256516 46:0.48118722 47:0.70410001 48:0.60762477 49:0.59437466 50:0.49831426 51:0.37980285 52:0.53347033 53:0.44092026 54:0.37719274 55:0.54683328 56:0.74776012 57:0.20312582 58:0.33952737 59:0.57088625 60:0.6442405 61:0.32000667 62:0.66015536 63:0.46073928 64:0.46675244 65:0.5134027 66:0.42731267 67:0.49786165 68:0.18539394 69:0.61668116 70:0.63950276 71:0.52514315 
0.2024766324788318 0 0 0 0 0 0 0 0.8279226791003916 0 0.8672040124721674 0 0 0 0 0 0 0 1.215231113387842 0 0 0 1.10668414837057 0 0.06663924995420127 0 0 0 3.128846940008756 0 0 0 0 0 0 0 0 0 1.473677233000533 0 0 0 0 1:0.50340903 2:0.49076277 3:0.47192448 4:0.60360456 5:0.24315672 6:0.38949859 7:0.39263472 8:0.43835804 9:0.47720656 10:0.39037573 11:0.45101139 12:0.35510221 13:0.64943457 14:0.46367061 15:0.55796939 16:0.42702803 17:0.43953407 18:0.53222245 19:0.55612355 20:0.33430421 21:0.60386026 22:0.36874497 23:0.65550894 24:0.35735205 25:0.63171071 26:0.52059263 27:0.48005271 28:0.7106182 29:0.62553316 30:0.62400573 31:0.39945918 32:0.75538439 33:0.23434919 34:0.50053394 35:0.38184401 36:0.64127505 37:0.38282955 38:0.45031014 39:0.62020475 40:0.3040669 41:0.44450194 42:0.45133048 43:0.30198625 44:0.50793225 45:0.42634213 46:0.77211046 47:0.71648657 48:0.43262413 49:0.75528157 50:0.51486737 51:0.38226447 52:0.43024254 53:0.504287 54:0.52135313 55:0.47656372 56:0.62919426 57:0.42339897 58:0.44641906 59:0.88791972 60:0.64974946 61:0.33377463 62:0.56793034 63:0.42264706 64:0.51736891 65:0.67065877 66:0.35176253 67:0.26049629 68:0.24494775 69:0.69261843 70:0.71972752 71:0.56210887 
0 0 0 0 0 0 0 0 0 0 0 0 0.4199162513521743 0 0 0 0 0 0 0 0 0 0 0 0 0 0 0.8756825096975392 0 0 0 0 0.3692900810100773 0 0 0 0 0 0 0 0 0 0 1:0.33761552 2:0.84649485 3:0.26480785 4:0.65042686 5:0.40179801 6:0.5541423 7:0.55726224 8:0.24517342 9:0.49341547 10:0.49778131 11:0.40255111 12:0.47705576 13:0.4315348 14:0.53476149 15:0.52820647 16:0.59127611 17:0.41019985 18:0.54465163 19:0.47584099 20:0.31647015 21:0.55908161 22:0.30669144 23:0.44578427 24:0.4554427 25:0.46616951 26:0.46988425 27:0.46503025 28:0.70500654 29:0.40319064 30:0.75146067 31:0.39366737 32:0.88763422 33:0.41455784 34:0.45123726 35:0.42860574 36:0.74816966 37:0.39370528 38:0.55995983 39:0.30053395 40:0.33914417 41:0.48274428 42:0.51229382 43:0.31567851 44:0.51127362 45:0.43840793 46:0.80880088 47:0.70902979 48:0.44156718 49:0.78349161 50:0.60323513 51:0.48610789 52:0.4265058 53:0.64463913 54:0.56116402 55:0.67134392 56:0.53334689 57:0.36838385 58:0.65310597 59:0.89687473 60:0.44541681 61:0.56382954 62:0.7547065 63:0.37958813 64:0.58701026 65:0.63790107 66:0.42105141 67:0.24844487 68:0.41096053 69:0.52780557 70:0.78325868 71:0.6909771 
0 0 0 0 0 0 0.5733640962689053 0 0 0 0 0 0 0 0 0 0 0 0 0 0 0 0 0 0 0 0.7456233937134851 0 0 0 0 0 0 0.8297214342640437 0 0 0 0 0 0 0 0 0 1:0.56512475 2:0.49812731 3:0.41106895 4:0.48284066 5:0.41593653 6:0.57135946 7:0.42945716 8:0.38801196 9:0.43622044 10:0.39281568 11:0.40679088 12:0.37942836 13:0.5722757 14:0.41200855 15:0.57272512 16:0.40798435 17:0.28613198 18:0.47707629 19:0.56279051 20:0.28034505 21:0.65725768 22:0.45076874 23:0.58371431 24:0.44801483 25:0.63480753 26:0.4268561 27:0.44534034 28:0.5919227 29:0.57362515 30:0.69746059 31:0.48161584 32:0.72406906 33:0.26913825 34:0.47175547 35:0.37150338 36:0.57787162 37:0.29949778 38:0.45619822 39:0.59039634 40:0.27051613 41:0.46624297 42:0.46319184 43:0.27993187 44:0.48629296 45:0.44731256 46:0.81446093 47:0.68028939 48:0.43201849 49:0.79603547 50:0.55340397 51:0.43246549 52:0.38487685 53:0.5004012 54:0.46698502 55:0.48708877 56:0.62684244 57:0.42271075 58:0.44761369 59:0.85432762 60:0.62982404 61:0.37698483 62:0.59892917 63:0.40077111 64:0.53377098 65:0.69083661 66:0.3771036 67:0.24999304 68:0.3022379 69:0.70382929 70:0.7518692 71:0.56729805 
